-0.0015090752310307556	-0.005437190649214083	-0.0022446768597595345	-0.0036858854512576474	-0.0022269374793207454	0.00422421356300407	-0.0003759114420330296	-0.003113354673547704	0.005340401787536092	-0.01705335519312856	-0.03960921405141624	-0.008513384267859235	0.0037220096936631097	0.0028588995176425866	0.0064157115447544995	-0.00827777873105321	0.007641480746848747	0.002428544681079517	-0.0016104548317849654	0.001853127921368462	0.0016231859865643485	-0.005811191958518553	0.0056101734505176835	-0.004433676099763813	-0.001669659867493429	0.0049305779390621685	-0.0018551903424990825	-0.007685384851840742	0.0034034913445741208	0.008137616477737813	0.007221847351484565	0.0054525764567964295	0.0008338842210219421	0.00040567091398446484	-0.006308225191302665	-0.011673753493656713	0.07869149545108084	0.03889369777323498	-0.0906090667031773	-0.08806316589167605	-0.08983085787961542	-0.010694116270755281	-0.003963350281713802	-0.005908534026135701	0.006793877377366924	-0.003998731355894123	0.006872263196293553	0.0020503188530129352	-0.0074942174994304216	0.0054943231522989085	0.006792502061174583	0.002469254674269991	0.004929683036609423	0.00016507429265875777	-0.004660330307509956	0.007264512607772977	0.004670209845705438	0.0018374558835616492	-0.003433854623980809	-0.006173815696887167	0.0011639134026555295	-0.0003734891920566069	0.03529308597862039	-0.6904823813112941	-0.5681627000676548	-0.2109503445730832	0.3139117927170208	0.3699465868026135	-0.036458531923135126	-0.25983907697454	-0.27641805802499186	0.3536893764877088	0.3939701728744626	0.3912803020732914	0.3864130772265403	0.09802494863712215	0.14195259211432532	0.21902232177427114	0.04179032277664179	-0.0004883374445521851	0.0023404813345941997	-0.005032177614368228	-0.00436828603357335	0.0009068362118122494	-0.006721307395940046	-0.003049438579184797	-0.003921936666206055	0.003643448106016795	-0.018809600259383403	0.3513969575482764	1.3803162315426325	0.6475483624104509	0.43019329969400466	-1.174125932614276	0.1220254544781742	1.6303663918715001	1.5620676043221602	-0.8515912487904739	-0.20564729508465887	-0.7444839574205713	-1.2950512250221617	-0.5199533179447654	1.3672342497593648	1.2760793137488695	0.46096720188041135	-0.5887026441497272	0.28435082397125955	0.11864343634696031	0.005176725704026248	0.00498911044965987	-0.00863032632253519	-0.0017173148437058068	0.00631017150896649	0.004719529964022331	0.0008531335450291597	-0.006018263024211499	0.6595272407820905	1.2282990946488728	0.43728905761759373	-1.5080859088136076	0.5439041911189575	-0.19969598032486435	-0.05673786869975305	0.398849624326904	1.7900247434583272	0.3364385338352805	-0.7958080779139163	-0.3333035290646764	0.8505124835415477	3.237971645396679	-1.4482808745088853	-0.8719320784004047	0.2669952071191854	-0.6079826000906972	-0.4896063492763796	-2.143428714444508	-0.8145004143410852	0.8638502182852451	0.0012111924510833667	0.006472417826387199	-0.0024447426019748707	0.0036192495554314436	0.2003677536072735	-0.3209765597717995	0.03402111836855775	-0.11375142270127661	-0.41067983669501434	-0.05993465520016359	-0.8106130528283264	2.2904228468073677	0.24046114136749783	-1.3646094947143872	1.3133968828247575	-0.8797374194626574	-1.5265966442658903	1.6863012561895196	0.6536500198839293	-1.1104646854387996	0.10787936680802228	-0.21978351296888293	-1.254658241820733	0.7052140368396574	-0.15925104410831256	-0.5746373485522184	0.2382277570956871	-0.9816836247965929	0.0035127523440094486	-0.005111361834299938	0.005928000543215789	0.008229836873034435	-0.0879681277678293	-0.7119549447472654	-1.6942862572215696	0.20927049706773476	-0.3372958740055187	1.2693509446026798	-0.2218433074783525	-1.5401920720072	0.04247402831326354	1.2767295755750083	0.7228002004961931	0.15698562343078806	0.3986799912476134	-1.3138617438101596	-0.06699580478351784	-1.5001496482316952	0.010543813972548886	0.6757069878177643	-0.34642358550595637	-3.5751510422973274	1.3007329260922826	0.6718492416884021	-0.24629907867368925	-0.39682618352846327	0.019286615180425733	-0.0015291150951624762	-0.003091472119639043	-0.002677322261274695	0.3771041682649265	-1.388243446946732	1.5935089804470741	0.9791653581627348	-1.1075526790328434	-1.0981628792881548	0.09423982578363152	1.388226668083619	-0.13688869201639345	-1.1195990497233326	0.3174160301498741	-0.3983275602227977	-0.2793448295221096	0.2711120885357907	0.2877502629042149	-0.8729603275608767	0.13242693450912968	1.038301102021654	-1.5401365536225804	0.9281464672546407	-0.2876573959722347	-1.8742811669642223	0.6736108882315512	1.1878579165831193	-0.7804538117684179	-0.005689957733876991	0.00281146071459892	-0.02316704503612476	1.4667490215638026	-0.9030607485210721	-0.6169631780174407	-1.8570375134183439	0.23310594449471878	-0.9431640048933385	0.7048538689006851	-0.8587138586803695	1.6914808700717112	-0.9938832208980591	-0.2819287338884915	1.0814747786545753	-1.7966023039404388	-0.4933119703054268	-0.886289716516804	-0.9530299108076753	-1.0513138979310637	0.5587787477175169	0.05113364932657725	-0.9904012130469989	0.7852009466914682	0.020563320691657797	-0.8825461171776343	1.5899447309035968	-1.0879300978710906	-0.004569683842646346	-0.005514006267521468	-0.020998671868388268	0.6605160697419113	1.5532762804851128	0.04501418757328081	0.5188285864925877	-0.38442319091659405	0.34337069214226784	0.2147951652786932	0.5510974979511536	-0.09677605613342724	0.39374385443913157	0.013457527768523011	-0.42828000283393997	-0.565933647475757	1.4501944826768642	-0.3258667752693523	0.131242620417019	-0.15521928410677027	2.204529786552032	-1.1128857379279267	2.2462910673951075	-1.0995297716846932	0.09153559419996078	0.5034105344009203	1.8925176262304513	-1.2522638456537492	-0.0054844919050799044	-0.006865171696854058	0.011340679788884577	-0.009339849064048007	0.7423545784533062	0.4677263706240154	0.7616786994750059	-1.0034070071695484	-0.9102999131399195	-0.37819396665246074	0.776308765296568	0.18984847353358306	-0.20181371351706134	0.4797624272770334	-0.5995677951961671	0.36052470210385096	-0.8625375227177955	-1.0177898221000643	-0.5012802719056798	0.5224106583421433	-0.6303672319071575	0.34247720569506224	-0.7148843296904243	0.12088641866963261	-0.8705779203838623	-0.6173305042234556	-1.5351624018811325	0.29945537847689313	0.01676465210884797	0.0046657574478856205	0.5228311574979869	1.428966905330989	-1.7023522111910854	-0.524312574377168	-0.40469960138922906	-0.33806098136960844	-0.38907435852526784	0.7061389912500574	-1.1039476076701267	0.4555009703105104	0.8082516500483817	-0.7437425754450943	2.560770352568039	-1.4197271004782204	0.8476519833588195	0.42108243176008	0.40610161346668433	-1.0912864856950701	1.4351648792014233	-0.24045008393123432	0.8995363363230688	0.7335682777051145	0.7105678181200511	0.06944779216740268	0.372173817104461	-1.0796911766853037	0.031192212160055806	-0.007968472023913582	0.32619021421990785	1.2059465179630955	1.284936276188985	-0.6046114207422606	1.0538202585931047	0.12836551585225295	-0.23272312866204492	-1.744607986916777	0.22723256108522538	0.18419102794692271	-0.16888787387577353	-0.11137091522677478	-0.8493208450334783	1.7461718190563111	-0.6480695517918769	0.41224355286471065	-1.2129638182275262	1.147707505521919	0.04073826235149342	0.07399119596731138	-0.7119371345832696	-0.05674267345534194	0.29771981649531254	0.7155444454574463	0.4194071106816206	-0.9157421600329599	0.7509912801675527	-0.00506254210179191	0.14218763105165394	-1.8127410844502272	0.733414080153123	-0.49608164373399904	-1.39969772657227	0.19547549554023122	-1.2012308536995744	1.2945947455362594	-0.7223331505073151	0.2981927493935217	-0.3011512492161361	0.6068013968349032	0.48019458088262396	-1.4576626063019238	1.581676558621051	0.5850159230812855	0.13739258690277842	-0.6061841458495814	-2.139189092950929	0.9926514441696065	-0.2447702869957074	0.9033789561136619	0.6796479414682057	-0.08132077417919743	1.1793243611457007	1.2635703618652332	1.9144156516736923	0.0018445364251381928	0.398279176463901	1.3098946185311613	-0.9102491834172275	-0.1916029364192558	-0.08754446501998545	-0.37306024632813883	0.29703564528038917	-1.444724827585874	0.5496050867507838	0.08404799068288502	-0.17304165913342903	-0.13072236805220408	0.4036565624822466	0.4740350840963522	1.5666113232474634	1.1706487637273637	0.10369895420656311	-0.4247385297351636	2.115413118128562	-1.5085720043560218	-0.2879304509139576	0.5261631298591279	0.5082087889145525	1.269096116657675	-0.29566549311893026	-0.6012757302562207	1.3604048635949746	-0.0039163368740386196	0.25007637788772985	0.3467395620350289	0.7356055951032786	-0.39719808582723826	0.4179975394988148	-0.4781397440174309	0.17009725709764406	0.7558782401285506	-1.0822478278239045	0.214948521702612	1.312275751367948	-1.3174552851054053	-0.08680719718695054	-0.553781468868671	1.4803708442905248	3.018252700133646	-0.2162513517643105	0.31466119453671215	-2.7548696570920614	0.24446181896885902	1.2990033150107227	0.3451612117148978	-0.5005852787987073	0.039760192648990944	1.3305960790287075	1.7936823116027973	0.8995696797962521	0.0038257415954634257	-0.41512961177825386	-1.143178876852834	0.08424490162463216	-1.6400807325720956	0.9531958610031984	-0.2062446316377533	-0.38533494372575605	0.5746001657059214	0.08546630007305128	0.19459434620511862	-0.001191698154656296	0.16418615576485815	-0.4240939226313162	1.0694295650679357	-0.05488918819214453	-0.4144563843856452	-1.925729804185747	-1.7287024102077369	-1.546865863144299	0.5937206683353161	0.1988235419515289	-0.3925109438330174	1.0652548339807444	0.8833310339428885	-0.2905584465401245	0.8381781486352063	-0.5456696592599117	-0.00678218628065772	-0.18866216550168063	0.4448828705852636	0.7786624758496352	0.6149001641677726	-0.4966065005826378	-0.4759008898145106	0.5902443991733088	-0.9221337407244651	0.6672048874085309	-0.8631576424167717	0.5643694071869925	-1.4299397732561756	-1.6791795320582121	-2.6046973667351865	-1.9739605617590763	-0.7612104053589036	-2.1537180850072857	-0.9302647743651656	1.1502251215396848	0.5795353895853725	0.32404560871318316	0.878936764828156	-1.3491426574165402	-0.4058253904478365	-0.48671332106083937	1.0089886144505322	0.17960296562006028	-0.00187330618576624	0.38534162359466884	0.05196652962127096	-0.7723290530245195	0.8238059868213284	-0.6293719538514041	0.3760983564551192	-0.15831543627184264	-0.8847570758190133	0.7921330075519817	0.20147782325473135	-1.5120857703203407	-0.23874696494952297	-0.39590154678605577	-0.757823579425737	-0.8797096804059268	0.8782976483905328	-0.19749861728758558	0.995012316448036	1.2252736045205528	0.3718752008630214	1.2221099401357716	0.03182652349550514	-1.0345989071159003	1.0116581984914554	0.5055751258411557	0.6058595020260809	0.11083113409060077	-0.004279244708530625	0.0011122398247630297	-0.6701070979462748	-0.48061202070246883	-1.5050265564756575	0.21090483280326747	0.8052901785096732	-1.7747267805939038	1.9017382277557233	0.28355648269015465	0.08712695363961262	0.7643764645666223	-1.3946829481736471	-0.8939168251873286	0.2819670388073662	0.015611989332595373	-0.7356109633231982	0.2893328393547177	2.0823271342894043	-0.1611699210265015	0.7755110966768514	-0.20111958192724005	0.7181082329648426	-1.0843800632250566	0.6485959496365237	-1.9632823860640307	-0.46981745208890313	0.10457304215144352	0.00029323993324799	-0.0086583955646779	0.9900810027150235	0.9293149824771042	0.27213761065422143	1.0170065293172665	0.2284322988622851	1.2281175568022336	0.022397172031391042	0.5964457309347727	-0.6946155083153643	1.0259612923085997	-0.7466933029147603	0.6905024947930892	-0.4285637959101358	-0.471190147144993	-0.04751214621179432	0.7225770899699506	0.6536162151668864	1.7329257736507233	0.5595004395919158	0.18541663370771688	-1.1710841021612277	-1.3646002621233202	1.4031464742597954	-1.5843943405565517	-1.406305182757793	0.12521877167449252	-0.007544024569790947	-0.007954428173338206	0.309331555413909	1.3349641778990595	-1.4605289666392292	-0.46689291879698974	-0.022978555433122536	-1.3068060668853776	1.4490812742193337	-0.4743575216800764	0.7810873647058099	-0.6391456537529672	1.3218833880069594	-0.2774384743652294	0.7042802138590575	1.2010895633831433	1.2101462933493055	-1.8219471065045068	0.29910231285949107	0.5002058382748562	-0.4648028201345716	-2.2871945576041606	-0.9218268161006598	-0.7118853588166981	0.1717929081060838	0.8888197513491521	0.5466194911750434	0.0080684371935276	-0.005314711755883219	0.007165543517332002	0.4584999599494013	1.6913158335033225	-0.734527580338384	0.7793310082610624	0.28965701634565116	-0.2541473462096961	1.2198725823636385	-0.40572905327101166	-0.44248800235765945	-1.1027466328867348	-0.9861527233983368	0.8250141992565778	-0.6508541461198575	-0.8777024023439693	-0.14470524608660298	-0.08217150336722108	-3.0057161403791213	-0.7071164932529491	-3.2253535980402557	-2.4242345658952287	0.28651879090216076	0.7736219081835759	-0.9975660307271967	1.4011080745132205	1.5146701104029645	0.007884517758123053	-0.006411683280433838	0.0007715917922229091	0.3054052928776099	0.8924788852390846	-0.12539525889943792	0.14314379590840245	-0.06864714280876902	0.20590541291619857	1.1437261586594973	-0.41419421704694565	0.21173140278367067	-0.511384600387163	0.3611534494746597	0.11434822754511836	0.8844822529880497	-0.8659028876779612	1.2077035199051362	-1.196888120880972	0.797348990959195	-0.8024565043768672	1.5501303483490156	1.8714890787320377	0.6561404358225821	0.6951570785378148	-0.6450197710576859	0.05769897571376871	0.002324239601836097	0.0037055252178269903	-0.0018305374258861112	-0.0061379311524565145	0.014543752049641643	0.3690188807807705	0.13830969608565313	-0.2085036348715954	0.5491309605861929	-1.884644454579633	-0.7821680472729544	-0.015150489152649873	1.942626853068932	-0.5239451804745413	0.18209535799314236	0.405356561083724	-0.04068366308147428	-0.09376095993360194	-0.3081656403343891	-0.9014962866052839	-0.05472660292376834	0.2122848409964411	0.41708546249385176	-0.6685717655438231	1.3419917424273273	2.03470750400856	-0.002065180857042292	-0.004915732781525099	-0.00362966526613697	0.00442729268662043	0.006938775843472052	-0.00759003608063954	-0.005058519500224613	0.1653683702022848	-0.4351680872265019	1.563418291431755	1.59647190647509	0.48542004422671525	0.45050607381219354	1.52645858131988	-2.320264774688652	-0.09867334400829597	1.254108726452554	1.527144208472083	-1.6884249802480296	0.2519659571178516	1.0758331355473167	0.19456725440151446	0.07940431077384234	0.7640706702373333	0.6077017627745428	-0.7868866250700712	0.10675198262712936	0.008772261362345086	-0.0026517239738905996	-0.004512375157782422	-0.007373102560492564	-0.007551349603422122	-0.008403178365890981	0.006594441053419702	-0.0022773639832555275	0.00784953472538784	-0.5714012190885065	0.32936735364191044	0.21934861381166587	0.30487782899956667	1.6078125556168559	0.17379592723191736	-0.5311724293623286	0.2486384619045949	-0.11873964895583326	-0.057686565591427326	-0.6289852861318497	0.15164495500210004	0.24659081727555365	0.22635170921565342	-0.004014500060587498	-0.5259428545524885	-1.0976029192463428	-0.8722677670625303	-0.04417374892499077	0.0006438111034553981	-0.007665651485308995	2.1492410104869894e-05	0.004939991701282252	0.0034483125570442252	0.003347207906495068	-0.0043160705204277824	0.00433584012717627	-0.005983724383175908	0.002433370972804893	-0.0017566001027755768	-0.1437355024631821	0.005552674197267295	1.1065151086750131	-1.0305650469744494	-0.9181845629287873	0.0014778539844078203	-0.008201223941462407	0.0019319610156862121	-0.0009466762335519907	0.0033716425332115533	0.16349833079143694	0.1704022308623345	-0.2814393415655809	-0.050200630899634446	0.0013412939903906119	-0.0056943959889070314	-0.0005948837748751667	-0.0066598290000993935	0.0011361881224343316	-0.003944554432819166	-0.006188947737853818	-0.00011467694838253675
-0.0040908253559366675	0.005768147562652785	-0.006050328293939299	0.004425744029623235	-0.007048269162944731	-0.005008041019906773	-0.005225534324328077	0.007809692273863191	-0.0062566718399336245	0.08122658018907856	0.22602168901261474	0.0027670347323296273	0.007823726244106355	0.008535228214435654	-0.002740010987263161	0.00027915032289112934	-0.0006422865449052691	-0.0059206576881306976	0.007783380225363951	0.002499696083864869	0.00462478718955572	-0.008715077823065626	0.00842843336537258	-0.008559610145775736	-0.0026696673983965125	-0.006327439692550623	-0.0014391176201545841	-0.0039805785914691205	0.005672556092888708	0.005139677303223178	0.003942252971487172	0.003999276555251088	-0.000228923347116914	0.00446984901965505	-0.006217217127603468	0.016901972556827134	-0.07454071974666714	0.24620995397957599	0.1325233412202477	-0.14820151681143678	-0.14289153747526398	-0.02351794393976788	-0.007904499688346523	0.007247104820105496	0.008682671009498657	0.004567791298734716	-0.006985843036457523	0.004658479152600991	-0.0022293097568387016	0.007116344002346368	-0.006093614982344055	-0.00804470034126247	-0.002182924054031741	-0.0035120295898946876	-0.0015972729515032506	0.001946394512698988	0.0039060961496780386	-0.005493716991428215	-0.003228317573117344	0.0033312746396088125	-0.0031463208273592516	-0.0013798717271009205	0.03060167305778953	0.589632298657	-0.6660210062316257	-0.7257500442936806	1.0352008299335322	0.06860470151877944	-1.0386156905857165	-0.5822171676418276	-0.08378266976881985	0.1809380021387752	0.21697587450619296	0.214585145509149	0.197415090463367	0.04425205535137667	1.2296489968179534	1.8613140154486587	0.2839698940293217	0.006637739949588424	0.008357786521583274	0.005461903256185121	0.002971408748204188	-0.0038265967785070017	-0.0007036357808502536	0.0006180697144035803	-0.008495637698840229	-0.00013758450228380098	0.026784730100766027	0.012578680401756545	-0.20446556461897056	0.6985438688853517	-0.5218929780094085	0.377164269946683	-0.5100576059089238	0.6133259245886481	-0.9605891014239046	0.08592703722454018	0.6695465801168432	0.4644130388338696	-0.12970122749665386	-0.37085491588061664	-0.8181712106044897	0.11823656141525045	0.7939476006585792	0.013037203944734099	-0.242699817081676	-0.043762993924039456	-0.008266170969685427	-0.003186372810650019	0.0008735769789955505	0.006113772092267588	-0.0006522646911157077	0.005918695912171404	-0.003672847152957415	3.487585460850741e-05	-0.2900614556146427	0.07605680972177249	-0.2552996327497511	-0.1735915561666725	0.9171116992408271	-0.2680757958689747	-0.23953299811974546	0.11972359300968181	-0.08331370654368286	0.048360611316534484	-1.0834725496334594	-0.740289867559438	0.7678958942544346	1.6715108702107822	1.1436345867582032	-1.8687756887546354	-0.6796655598916399	0.5025864354769978	-0.3026803255023134	2.5002053270755153	1.0411629858076152	-0.29374114302450754	-0.007441079643996531	-0.006923435157936567	0.0073194836848341025	-0.0071433002029208745	-0.367147243949896	-0.08384888881800075	-0.6114252114469317	-0.9476565031991271	0.48174272420600345	-0.8197737039068296	1.024661600502752	1.5332629358255008	-1.2932353021296465	0.9106113473349345	1.0794080013400986	-0.4495494071922903	0.09375918675940732	-0.5854627488713601	-0.7394529506335283	-0.2921608724041541	0.32142465395333364	0.4776431184021273	-0.11430822233193816	0.16062110869952423	0.260403616993374	-0.19498114031357236	-0.2029587709106098	-0.0020707502375069647	0.0020406965658337634	-0.0022347546907639853	-0.0005299806925288444	0.001872483194282232	-0.08743550824572678	0.8983561412295914	-0.6401560484917234	-0.6256958150143568	0.605767799943127	-0.3948054335640454	0.46092450315114375	-0.675662392663393	1.1114580316117193	-0.2942690008692236	-1.4205567244626387	-0.7272484057859075	0.8687655732467353	0.06589078397762742	-0.3800104395215543	1.7369921200429117	-0.9342004429263678	0.8579208405610191	-0.6681436377789155	-0.38998723065597984	1.0086151175426716	-1.7939641273848432	0.32357644723047324	-0.42871910768948257	0.17175177917064058	0.0071380980610016905	-0.007328201815324533	-0.004526371308679605	-0.15514825804969387	0.5457942106881011	-0.5406585709072166	0.25400904767637383	0.044516942152546236	1.1792126902596967	-0.2954347447194175	0.5563736482521227	-0.21921787306963408	0.07032494014646787	1.0949281519308784	-0.486327978956651	-0.6290453969766272	-0.8374452969856232	1.105092445546727	-0.5963426912090868	0.8272148856135078	0.19454584155420593	0.6750699101807243	-0.6148921235552212	-0.03250060022733424	0.1529691196958963	-0.09681162772956362	-0.8709637951585704	-1.940665913683461	-0.0077329630431383556	-0.00379845437362998	0.01319060755031103	0.14583118806163103	-0.27449448683449956	-0.24084826931854178	1.0240634219307843	-0.5305531448077639	0.03051683916539817	0.08524164742991407	-0.4691489980285082	-0.9510919866011632	-0.036606210496792115	-0.9579830474758956	-0.21391100431975135	0.18555973133581483	0.6747509533741227	-0.9598965325472165	0.22764755023727917	-0.1878849904144494	-0.0971299921780271	-0.9452294981229218	-0.2665585174476566	-0.2727791952488941	-1.315210597076749	-0.41267951814938664	0.9625238222255851	0.8653610218335412	-0.002908782959454956	0.0064577308200264895	0.004411528389919529	0.40522639032416313	-0.6286597744484284	-0.8929390234119587	-0.47694215226973297	-0.3953942792238433	0.1908061434820445	0.2621855669644732	-0.20626327435886951	1.4349866974130001	-0.9051023107552725	0.43257448801717874	0.12606130649957506	0.016908046488851823	0.10013859830000804	0.6800048692817299	-0.1942132835603717	-0.08574224502142645	-0.8339496770361952	0.14332033621512602	-0.5206736994850706	-0.17520066655054065	0.30894379281103784	-1.503427420102533	0.2883094720706797	-0.6450443994127327	-0.020686112596831608	0.00825308327319691	-0.20714091980152374	-0.625791510218096	0.3289839131464559	-0.2283851595497868	0.6167221697474692	0.29542474085048065	-0.005266148427698721	-0.45968625370269134	-1.1163637095624976	0.7963899239296517	0.1486276449792103	-0.20983520387901627	0.4515732539262063	-1.0037949571558675	-0.4336152090743559	0.31850695009218455	-1.2011402015823467	0.6998217792087127	-0.3754566339859109	-0.2435788212728113	0.10697195802685293	-0.047563723536730114	-0.6828525410760113	0.7086333382043524	-1.2465777583786135	0.2371241125580198	-0.3197388491498216	-0.004075414256020008	-0.5134336362596557	-0.7330432590485585	0.4846870425490025	1.1113956452581673	-0.7796387926551216	0.5090576121163686	-0.7275760324410036	0.3569276128406858	-0.9215733826297355	0.17201724225245352	0.05597600049432661	1.5647537952101165	-0.22603541262929142	-0.5885288944623949	0.6352616972402718	-0.26901270488614937	0.14927595462743293	-1.510992622713226	0.29019142905390233	-0.5890258550034447	0.45239437819743533	0.36162138010664374	-0.1953823429799809	-0.23435926469746024	0.9246739709059768	-0.029442821747764216	0.2985864925897856	0.007719601176165337	-0.25023599397132074	-2.1621170657208686	-1.4888450169542036	-0.054142753936638366	-0.11250652066383408	-0.8293598315799978	-0.2519966709268475	0.09411871016220147	0.44753479998582607	-0.732606450495243	0.14201055090379053	-0.06424733491793357	0.2993178362411874	0.7598842016236893	-0.39524865164103	-0.23930782320815006	0.1373200165780084	0.05327657427662776	-1.1415544773087742	-0.3335267935396511	0.7626250789672747	-0.2876722810186585	-0.11002570989366037	-0.6157640875720092	-1.7175723759745478	-0.7392984019170535	0.5154909627603165	0.00724605065851912	-0.07306350545267061	-3.69380721580896	0.9790055504494389	-0.8004715159423551	0.6273698621813476	0.17213632843830773	-0.26444070753587784	-0.05725386584217459	0.15403509496194512	-0.01323424710625314	0.05541691942791536	0.11785251760198563	0.6381081255403267	0.9581513874297046	0.8563591993624848	0.03433932403808659	-0.5724890975447842	-0.8483238910308674	-0.42150102451484633	-0.1046429932716092	-0.10772978628279105	0.3373915275204707	0.14785495394586623	0.08916691246412402	0.11975044494684421	0.7652207870081713	-0.3915983907734957	-0.00048665476500573714	-0.30281840608217847	-1.0668336643685896	-0.5081962710923132	0.48935154396710157	-1.0360365441918578	-0.3243143595946531	0.3891181231371056	0.1563138166435678	-0.06794980618993911	-0.32756027454452774	-0.17321184697784897	-0.5489120042646712	0.47713691694604976	0.2384120683323506	1.3127726746009316	0.19910728584067738	0.21138542822080958	0.06606995307621895	-0.02213748998986661	0.1286916615932416	0.09094922909127169	-0.32460700179103846	-0.45021172662243736	0.21787876964230457	0.9554831175738636	-0.5903000158781405	0.7776271011284004	-0.008332725858816701	-0.4191671984070327	0.09557167225231596	0.03237612460059359	-0.7450235982282041	0.1762059869963367	-0.1168050582377525	-0.4793966676067047	0.2038152969221906	-0.5979350558724207	0.6236848122580043	-0.3182443254294234	-0.08000021755929507	-0.61877473201038	1.7077319931727237	2.1681866862094177	0.5584608646218809	0.4448110755131106	-0.13080447614863566	0.3358839867694006	-0.2342558133220275	0.7336724023882482	0.8793942127866033	0.8939852573594764	-0.4238698962610394	-2.3597530110854783	-1.5052022256923219	1.6234770410752208	-0.008604062234612127	0.018708111773204777	-0.7719128188913793	-0.45954341724933134	0.5972753067716833	-0.0016885640384076688	0.19946711707904047	-0.022486869426053373	-0.5479159265760997	0.4381335667397721	-0.48777106079432364	-0.5678047555471315	0.41020833743864427	-0.39175821076692446	0.6641358645593552	1.2516976358584884	1.2006072996731787	1.0429828515400308	-0.9731318955099583	0.18882841511892035	0.8243538000325914	-0.429783183414114	-0.2624885169091994	0.030593948496646796	0.8653316571980557	0.2742380154527304	1.0560105061183573	0.01835772395915989	-0.003001942145371252	0.1478472308243877	0.1336425743719486	-0.08906905373146717	-0.5970781573163991	0.26583983655526805	0.2597675480801736	0.11112082041069317	0.3960554736518218	-0.6445520733125913	-0.6148418927372528	-0.07734847611573123	-0.5360295094712927	-0.6063205112317338	-0.4885580220385346	0.8136302928591926	0.3931316175673645	1.0609594231060326	-0.660483617340779	-0.5414980874326377	-0.8753162114908876	0.8168010072644251	-0.10063149802285204	0.6525927955001298	-0.6010485288341653	0.0244406109018082	-1.5146607897219178	-1.488648587648913	-0.003538463874467052	0.13134251618809106	-0.06842297884683475	-0.3904095746983094	-0.4273264397425083	0.05416588477612395	0.18499182695331184	0.37059517794626184	0.21688123722594174	0.5145729838735349	-0.18312014937107765	-0.4502822597479656	-0.4450994332154198	-0.5930887674890517	-0.10899787055650252	0.38010925864000844	0.15125485167757222	0.411268223941756	-0.9358247349018559	-0.09124703138162253	0.3622702966781186	-0.7213100711633865	0.13852859278389304	-0.2611811084696712	-0.08545751816331629	0.7831812178839824	-0.40059923873776776	-0.3030703628354357	-0.0022417451603782192	0.006317099842723306	-2.112777901399466	0.1291634071292494	1.4754076841613566	-0.15585113864876138	-0.3055706888957428	-0.12982670761033505	0.5227050098365378	0.12738207186000858	0.39084544854177666	0.10027412614448328	0.20533626832845447	-0.08764955370327494	-0.31753582417861803	0.025459278855715504	0.8986851181196349	-0.6249839399995525	-0.8031990928951075	-0.5086973951609743	-0.6819038919578759	0.2096032074874764	0.9313013208132538	-0.055823805807278304	0.08533288171094665	-1.1058211200946368	0.6212461973982486	1.4713611505134683	0.004321462119046084	-0.005146206936644172	-0.5142945950833362	-1.3091143773535496	-0.5024131174169257	-0.46253227639441524	-0.7148849233801647	1.3860512206928202	-0.6327449427111216	0.5324908856569498	0.5023348226922572	-0.6899718474687446	-0.04781759128599682	0.39306484206062403	-0.2033652346101115	-0.23810875851965987	-0.4089872457087401	0.37773243643925397	0.27215753283689387	-0.8595143363716808	-0.10655036215007471	-0.9082714516444886	0.4248796229213952	0.2688261049462321	1.044762815251854	0.1485019217490347	1.175293306496268	0.482422627080568	-0.005448774525653809	-0.004908459961997432	0.12232817396813991	-0.2872666382547623	0.5770909852734423	0.15235621605567848	0.22031814259955548	-0.12138837245336088	0.2731972020372902	-0.49654552558068477	0.7728521046300275	0.7616384707721185	-0.7091279274202476	-0.3441550242753837	-0.3839377719338346	0.5556299184971965	-1.4405736089308345	0.9909044364626418	-0.600696655062339	-0.31889530293109275	0.6062946977601106	0.5291576280624501	1.2504439278993758	-0.028687665751183162	0.3363028388217177	-1.164889182034882	0.17679407432611619	0.036029573292293254	-0.004077172759162641	0.003601999977648025	0.12412137992553075	1.1667421654385917	1.1434894094611823	-0.17777027305774595	0.08845209559515302	-1.2252872726284672	-5.9111352009430085e-05	1.2700986077192147	-1.521217328478661	0.04280570088144007	-0.5050079229780496	-0.6061358138342956	-0.8323462808673446	1.166808745547413	-0.3509580920725806	-0.910282438806317	-0.21934251908407656	-0.3132169953660448	-0.26267713650359736	0.18919560264321225	-1.268593475526492	-0.9167791992116427	-0.017775238882298504	-0.63528541204252	-0.09765498080576356	0.0016551351003318004	0.008084492845961336	0.0051995171137923755	0.07590121650733737	0.479865752087926	-0.33166465912189463	0.08637039633162502	-0.42459235212295265	1.2053561651033415	-0.2676844637995289	-0.7499578051742121	0.8756248928334779	-0.6807548161379371	1.9023005763632024	-1.0028739198642191	-1.3359391845291804	-1.2772670239125403	-1.0213477083339693	0.692929993536248	0.8698488871174614	1.5167735580713775	-1.08732054975715	1.8590966039507333	2.0084007160346697	0.3646314162594692	-0.3884828915634119	-0.6419322269202222	-0.00033983216739497633	0.002063140864133695	-0.008481351038295221	-0.006149707046622049	-0.004781101755198001	0.12087909750460143	0.16245932049027842	-0.22011470342213874	0.46537630837413657	-0.9976473112528457	-0.7398986215168687	-0.7741775727023825	0.050915197801524814	-0.1297969403985771	-0.2833435080773633	-0.591067897140519	-0.5939454403705658	2.057323856765124	0.825667047152245	-1.9810057212933605	0.8500561278665875	-1.677874903210191	1.0901217826979124	-1.33088009965091	-1.0256964289627033	-0.9310800268713042	-0.21148050249746994	-0.06261575156608855	-0.0012452777759571843	0.00569684823964617	0.003240985098670624	0.0028357511696765845	-0.0019554822039296108	-0.0011875444020751265	0.02991991212379244	-0.3470635654100484	-0.9995840638535548	0.47412663946423045	0.009731988385419197	-1.087590038799056	1.1370719047143036	-1.8947143346699715	-0.77666603812253	-1.0878085513896787	0.8830043346552268	0.9590507248464327	0.09687204723747565	0.9085903673411093	0.03674730743060556	1.2107311248735115	1.906305960503225	0.41212578711227676	-0.031121975047349683	-0.5034107644941864	-0.012696797247906125	0.0021685981895288066	-0.003909700901630652	-0.008360701949290844	0.003778183711767937	0.0030022767486595544	-0.008334458709881047	0.003844771222518124	0.024759663457641416	-0.7389495470556383	-0.47301459255051864	-1.6754240888190568	-1.640990764441769	-1.1537832751939585	-0.7300653558208886	-0.3742928845911575	0.00630718191335885	0.05739249532671732	0.808054950729178	0.2581168914297047	0.056747121029710856	-0.030847644947255	-0.8849273995505271	0.5304815110912826	0.4745169956793236	0.009659762846501519	0.0014379462919795467	9.141737074727478e-05	0.0032005679729578997	-0.004810177543112734	-0.006682092188708119	-0.002234974011330741	-0.0006571105138951077	-0.0005756096298761681	-0.007597953082292232	-0.0010430617931408964	-0.004293006475650957	0.005633368674250811	-0.007139465398665517	-0.015383620693373026	-0.9158715914960825	-0.13549177521383773	-0.24365717179422167	0.0002180093101554273	-0.003866998508092135	-0.002245621432397327	0.004582727069784383	0.04462096062236953	-0.15166566218990496	-0.23552527964834133	-0.4879938103034872	-0.09355166241885371	-0.004806383062737318	0.005389961155308596	-0.004744058387904334	-0.00789654377504002	-0.007083585149606973	0.003465430548219045	-0.0013988159508942213	0.006228513044437216
0.0019153486363163701	-0.003439067496366577	-0.005373308633907316	0.003528186394626792	0.005546567214005295	-0.005394014656248717	0.007478182450128093	-0.00013367380218521838	-0.0003696198878161139	-0.0005598768092392237	-0.002309453480079199	0.0064177876012935006	0.0014278399043449498	-0.008390338098346552	0.007721081650816227	-0.0028030707724122214	-0.0017094584258966544	-0.003378879339334574	0.008286612712034928	0.005783071453834984	0.004586753680186012	-0.005831026314125255	0.00260859590942707	-0.007783459384536972	-0.006348082545246375	0.0002942591684637983	-0.00609571275841243	-0.006677586765127004	0.0076958380662315255	0.007980760238892477	0.008008003867291199	0.0035439239614531402	-0.005955667031342593	-0.003347094619298047	-0.005225534495924214	-0.0036254455508956908	0.31234695781648447	0.3758982869241562	-0.29289174561901515	0.10210923428589734	0.1404614295375016	0.02635222017658717	-0.0011815472342965308	-0.0028197369321099125	0.002817472690865505	0.002301869345185439	0.003303495675398869	-0.008142190249204808	0.0018468094636449432	-0.001154152043255646	-0.008705470964141175	0.0053110235338541655	0.0038937811536812906	-0.002010215630567809	0.000462131843711756	-3.0475776100085533e-05	0.005806197895973239	0.008429861167541552	0.0043085864022386604	0.004784627197381651	-0.002008593212818117	-0.01018191208859639	-0.04730906274828386	0.01614621231904178	0.36970170158563453	-0.26139533600068254	-0.7944430087105722	1.0284758374360834	0.3200420889416699	-0.22900932291837248	-0.2858751983818835	0.35830839632311556	0.4199401579226393	0.42551149542019717	0.4084093977135354	0.10476432092123597	0.15653147862118463	0.20493022783630052	0.07183214445286304	-0.000908170702003214	-0.004009582762720549	0.0051297461453835985	-0.0022493388420251424	-0.002047149069270439	0.003566648400709275	0.004355749144034719	-0.004423361074015848	-0.0024600636874188	0.18187872806135696	-0.015082590391072643	0.008119337307590922	1.0582995610961454	0.050238951191764976	0.11384647878491516	0.8082704528583773	-0.5600917643530787	0.12039169427851586	-0.7753308993903276	-0.8720583099720551	-1.8188644422514992	-0.7000041902269086	-0.6770997159161616	-0.05798374064110437	-1.0023702435992545	-0.44148458735190826	0.8968574926353884	-0.06613035176176081	-0.005418688001317454	0.020177124384716815	0.0013614895735973177	0.007356426954589717	-0.0005057497737788359	0.004753510928762396	0.006105407948402544	-0.007290609586595562	-0.0007356984719000571	-0.12681270867510155	1.0025163567975957	-0.17143121557052968	0.381843718734901	-0.43028365845428884	-0.1916619665657158	-0.2263362566381152	-1.0293542291803144	0.12368754776659246	-0.263800187241931	-0.14449378593342907	1.18104273809177	0.9841864858593556	-0.6265892672943345	0.021130363260962737	-0.41276580996540313	0.02306234446229048	-0.5134880137310877	1.1865605851530603	0.5068542067786819	0.41929404604824577	-0.08705917447339362	-0.007928104862721838	-0.006129803005624882	0.004576979334278699	0.0009695488543583555	0.030074933891763942	-0.0680016611328698	0.39725779548220724	0.5009561950613735	0.18900041656766753	-0.5955204429680688	-0.45595112565247936	0.1998490701900525	-0.4423219611795105	-0.1704525680564687	0.23001894875648138	-0.8128384419833381	0.4445915319165226	-0.5330318856076778	-0.37764274495400935	1.7512634018829722	-0.8123263370756347	2.0188224230327534	0.03275063940891461	0.676227084062896	-0.3202907535258556	0.007509450219787711	0.4379375058083074	0.18888359418970885	0.007069156464504572	0.0077685801178476056	0.005587219319918372	0.0020596716408390493	0.004931777737464507	-0.886431211214958	0.6588988231829838	-0.3069371514371279	-0.9986272265392614	0.598565967734072	-0.4935602412157205	-0.27122235517382526	0.2779145947254165	-0.7038604033956838	0.04773026162345788	-0.9577125129348776	-0.004892897105598454	0.03618750924268744	0.76766042587996	-0.03666300087355274	-0.3195526346423591	0.18170470237001637	0.8689533322690797	-0.18739493498050877	0.20718829439081082	-0.5708119418187733	-0.2664477405060614	-0.05074008274136241	0.4801404390143633	0.007845301522386246	-0.006333320599304335	0.0026113034511569613	-0.03713969895187311	-1.303147808951773	-0.07094173638634865	0.7849895294552698	0.2124702414693568	0.03474658732430978	0.6897202553026077	-0.1828726230517773	-0.3842507121158215	0.2363311993344179	-0.784873712906712	-0.38743948084850344	0.3377280960185375	-1.5871079613954395	0.14398485325340926	-0.06718669648457479	0.46540275985220186	-0.02547376105883657	0.7168209330627116	0.07282999406774147	-0.10897407266090565	-0.015378027030346426	-0.35643504632052553	-0.8679419786117009	-0.615003400262942	0.006255775417527233	0.0019510493205162974	-0.3050388929009226	0.5556235143160477	1.1632279038993119	0.0935860783403252	-0.6018698672792209	0.01762735063937311	-0.09934274329068775	-0.2819568036837027	-0.3275111847620511	0.21987574596336296	-0.15320218561522053	-0.5563731425771311	-0.034367199228541166	-0.676498193972381	0.11524289339094572	0.06831125187766732	-0.10292805069009055	-0.6157621757998958	0.18295085352959692	-0.1848156673316451	0.046497441495575866	0.4601411003474127	0.1866268527435655	0.4501311676119608	0.016600060793415403	-0.10599290536130707	0.001173189124928406	0.005569834616132158	-0.40061614772281745	1.4788024151085621	1.095392767417989	-0.1425118835615425	-0.5149280433031018	0.7826262298587157	-0.20508432308543229	0.61865821393571	-0.2459723407089175	-0.0352201912111106	-0.13577825199559224	0.12139262169289114	-0.16366829125220234	0.2615788608217142	-0.38472675097146564	-0.6950959729182797	-0.5359550287916038	-0.46542836839033863	-0.47787814852905536	-0.20702483758930415	0.08552629331325426	-0.37460375143294633	0.2561198058398417	-1.0954506221530427	-0.8600294159120896	0.07949124877994082	0.01223533948523478	-0.002575779207865595	-0.6581125765901684	0.23546383909350116	-1.3643384485748324	-0.11756801437480624	0.44059054375426665	0.20583862245071566	-0.32145006553785266	-0.08578741015366147	0.2773722977226891	-0.24381469918139576	0.35236259133949	-0.03291691534102493	-0.07003753002348138	-0.4771273652875078	0.1200106324924007	-0.11282521310891634	-0.18738675469914318	-0.0654881976955284	0.09003966211401598	-0.7279593977590298	0.16626188182988508	-0.6235822050276751	-0.7499549188567669	0.23178232520024658	-1.9691499173220168	-0.9332726231473442	0.2972000662476437	-0.0017606097643549914	-1.117937363072919	-0.2643992613418706	1.093932846458694	0.8704416645159575	-0.2763612844883753	0.7247910716597111	-0.18673243050683996	-0.0672768668018177	0.07590189443201932	0.9368232578839357	-0.2947500827890462	0.6628193437535898	-0.24765247984489092	0.39690713633456165	-0.19982404661769093	-0.44852511089913544	-0.6055293241742952	-1.190800698652616	-0.34074508237988105	-0.3626297520753996	-0.26080597464784383	-0.11981222027164835	-0.24430291391047204	-0.0783301143761893	-0.2837687623362067	-0.42887596481743256	0.03613584453093447	0.00539860294428131	-0.39548570372860076	-0.3687854233172175	-0.15143250123705146	-0.37475267097281983	-0.47666085604014535	-0.5121015869382644	-0.19769929365183925	-0.03272990540563442	-0.002161993088140757	-0.3693124120890846	0.04137068769876658	-0.44253427447362803	0.06020997496153469	-0.011481784906108043	0.46573458961379105	-0.18070433947222422	0.1650668744703734	0.21701941729003577	-0.6447215507577752	0.2565262812569107	0.09500395462757429	-0.17941239151320018	-0.6306415785022895	-0.7588879221653401	-0.5509538551582737	-1.1496125080503363	-0.8860345019860875	0.008338176443344792	-0.1152931203801029	-0.4875730567907952	-0.005247776409284141	0.21309785551376212	-0.0006812683590093077	-0.6504810077978095	-0.743407302554551	-0.4382353636470766	-0.05198882250540378	-0.1980026787227869	-0.35330287165701635	0.4418812772518408	-0.2178103884620524	-0.06542990774420263	-0.2596064670308638	-0.009503180050762531	-0.2812498131746608	0.04934385510144591	0.8856399510232156	0.5111478335730169	0.1886744456936847	-0.2865707791083718	0.18504178926247783	-0.4747702663498138	-0.5652682121829516	-0.11162915663853659	-0.11260579529040352	0.001744746920692989	-0.3555418991841817	-0.4730008236367973	-0.5199825667771981	0.1979676052993706	0.5202932108957321	-0.027584293786416265	0.18650218537362706	0.1581372511220951	0.1692279951739655	-0.18689899830872742	-0.07477899167649307	-0.26032204996832553	-0.3455384168214839	0.10862942925240447	0.21237640549618114	-0.023306106285219716	0.5791486812629296	0.37758966427036267	0.5543069433329024	0.28720309622478324	-0.3327922816984352	0.3115953944064248	-0.3737280044266857	-0.08888418906407856	-0.9284438387563131	-0.2503625663024854	0.7481009411238925	0.0005236127225439376	-0.16671923375290215	-0.5700536380941084	-0.25035566574607254	0.8629844665483176	0.41571433665974833	0.21001995252750746	0.17221199898723188	-0.13326976045206507	-0.025112660128708775	-0.485244908980567	0.254049205310011	-0.16374241760715702	-0.08694169566924315	-0.8034219296278393	-0.6835527599249239	-0.06370526166599247	0.6150285456534162	0.7606345573449004	-1.3921785169458907	0.4324933617272221	-0.16432263456103535	0.08269547485720463	-0.09838288574413862	-0.32026135940284484	0.08610549039706392	-1.100393490480511	0.38304524929155886	0.0048090846236992675	0.13614023465929337	0.5396331674665845	1.78593796429821	0.40819305568958875	0.38948201069743965	0.11047504104604494	-0.1962885824748849	-0.18437097622011434	-0.16889442263967613	0.1115054288704864	-0.7009578705393765	0.4783155643814459	-0.5635381188987894	-0.49269538333217555	-0.09600829770229029	-0.368475009873526	0.09810307834262727	-0.276617543397275	0.21325578956150548	-0.5363204189624626	-0.7419519780086088	0.4857945782593622	0.007253799913920046	0.33858751780596485	-0.3879185031119763	-0.5500666230024059	0.8515223818036014	0.002755028496452953	0.1847485343861116	0.6991632076840717	0.21640557503270633	-0.5488957855246352	0.27528981907216576	-0.3875316065398307	0.23808119749495607	0.1322754099634237	-0.28394292843047503	0.0556602999414506	-0.028156878616700652	1.0321416443108593	-0.41571861174258906	-0.1730561764956012	-0.618568864337807	-0.17250137236394641	1.0259068961403537	-0.6407084153822082	0.6102773953881047	0.12449375092146918	0.5366503179117174	0.05674458557956899	0.37601426659961135	0.40482377506082196	-0.841258098925909	-0.5049855301535998	-0.4795497315369281	0.008298605339399521	0.5140728545729348	-0.48169541485713363	-0.8545933693927905	0.5480016594778456	0.22394743736857026	-0.182149595113505	-0.2087365976479536	-0.037318445988712604	0.726436633981193	0.3968829206047578	-0.2958226649496747	0.2089098626007411	0.2838071155166698	0.7991380202173822	0.2024936907782566	1.2490884577526578	0.19666474036076012	0.7926487522738911	0.21845989656581793	1.019871006743176	0.4460899280927205	0.6278104416993163	0.7767320141671943	0.1500359834257044	-0.3862312516675566	0.6761983536957317	-0.3093756501774846	-0.00037061734969235163	-0.0027851136470116496	0.041899101152923245	0.6587254698824572	-0.025637770462798703	0.11358301965597987	-1.0550208607820366	-0.23349571605115843	0.1333217078574779	-0.13678701111318314	0.09542583522526214	0.9516328168031807	0.12700544276120057	-0.36967178837523657	-0.024957502145822697	0.7730504712380086	0.029220812696397078	0.12856552947709807	1.0501668719846677	0.4568232373664728	0.5295206050662039	0.5649973694141412	0.23205096631545527	-0.233435997403878	1.3974304599811027	-0.7837011393972868	0.04280535610447475	-0.193045073544004	3.8200058659898506e-05	-0.005690603463303891	-0.04964810079302039	-1.4827637872889592	-0.03136271101321546	-0.9051295980425352	-0.058931226189433375	-0.577647158178812	0.5182290652907374	-0.21149072682246187	0.058680045125476664	-0.07855640984640715	0.315910459504007	-0.0029363402086255235	-0.05177466579926944	-0.5741825117137094	0.20510968168916047	-0.13030510035481008	-0.5852731534289107	-0.11209721347070518	0.1117872021269935	0.28995833799365317	1.192824810098101	0.45861196068304666	-0.3551820152234849	1.0453922201027817	0.6812130326522314	0.11114307531957454	0.004269888998559082	0.0008179821669798311	0.26733152810345	0.20786930882789487	-0.2645770861555285	0.6270825914299178	0.08131082471829157	0.3886416380989953	-0.37760259681650576	0.1182925213390367	-0.4336231228264442	-0.3220247062683955	-0.04211332617148988	-0.6872293321292798	0.4608829256278571	-1.1771295527857877	-1.1054968658897952	0.037143476341441974	-0.4807750465093087	-0.4588476720990887	-1.0112613994911348	-0.2180321978769282	-0.5565762302766437	-0.4988581513964702	-0.1879644661636674	0.02043196041841131	0.6946216316837799	0.009593232899697527	-0.00796900831419674	0.0006690356855850628	0.2268767095270945	-0.5029410547970172	-0.9126077709681517	-0.00684972126512866	-1.304789311837142	-0.3095918299088546	1.0307281737896585	-0.38828227412808697	-0.0811303611588814	0.15678199346798244	-1.0409811573625987	-1.3170395976894391	0.39851870184991545	-0.03221646885706996	-0.3097551995188295	-1.035731322376957	-0.8725322716980498	-0.6826624335826837	0.496039156266062	0.5369752380817889	1.1177192493321886	-0.3490065153584542	-1.0644097023418635	-0.9020038582718564	0.15049361078927317	-0.008617583450206046	0.006111919084619591	0.0034134960823118746	0.14903556413226948	-0.6939025129435674	0.9252275690514168	-0.03404176353602394	0.8859507971887157	0.5401176556385836	-0.5534273788944988	-1.0750994291888214	0.23448265143311697	-0.07822235649362365	-1.1693058995168322	0.36389722364349925	-1.7739211210909713	0.00964332257258173	-2.15583080670082	0.04097339928692079	-1.1775790429274462	0.09253896043707044	-0.48050974685545017	-1.0343804652609894	-0.4313769497391838	-0.0161203544572921	-0.4465264660759375	-0.3933188732032131	0.0064753371248206446	0.004272102695668427	-0.004297300768104578	0.007528058187443917	-0.0009838635676431404	-0.07322326270591187	-0.03292993560928608	-0.1075730757987123	0.5531025183689389	0.013060546289305267	1.4619378643963417	-1.5542233281096356	-0.4046730690001624	-0.36195738660870935	0.5270125092587662	-0.9258183216837722	0.08611865750382242	0.7151025684930542	1.0090414336215392	0.8515131186400762	-0.8592930047738123	0.7319318819009948	0.5450203436196686	1.8573606077753273	-0.4800652658551223	-0.5083830065715141	0.005330272482230144	-0.004888397293058464	-0.005512432784770781	-0.007229052635455677	0.0027558646602671363	-0.0001508435145385987	0.008540348761552822	-0.05246314255114249	-0.0666107942812007	-0.746117814360479	-1.2234586077640972	-0.9870234625904357	1.3511228807537219	0.2333833539883564	0.24997460672032035	0.5715021087279778	0.23408705388373824	-0.4284780259063131	0.045289460751556654	0.9538217843963128	-1.284221849845208	-0.18035394474714855	-0.4927176907630971	0.6401172734722236	0.6221609588286734	0.4661658672188107	-0.18910125312651613	-0.21240646627546933	0.009159453041920281	0.005736685650714944	-0.008083580520196938	0.0020704178096058318	-0.001789927028920126	-0.0028411479087222784	-0.0053105929818650765	0.004209963938534381	0.0018763755981097607	-0.25116006772781246	-0.04267917075071459	0.46473851609232913	0.7818302024729836	-0.16641915792965675	0.5529867848347187	0.003148885154285814	-0.03246058332451472	0.00678230366529526	0.1618489443732081	0.4271752328371459	-0.5699421815325989	0.37989612238851295	-0.12361902190820437	0.7152233833612922	0.33300709066650097	-0.12501938034969584	-8.291874056068803e-05	-0.0039223120109486845	0.0026001987870069663	0.004698789904645078	-0.0024141224880853745	-0.007895972551814642	-0.0036491346596392808	0.007704774771644123	0.0016805497277542214	-0.007098904904295825	0.002984726947061641	-0.005559604912625759	-0.036461433268320256	-0.0015073166032250915	-0.22155129705052573	0.08267012542398199	0.3692043303277289	0.00871682725637849	-0.0037620231640333084	0.0037351878326169017	0.0003433250086299251	-0.0043750780713517935	0.2230098512556967	-0.14746949125928274	-0.030903457378063052	-0.0034581444180467346	-0.0008674896112353617	-0.0027510402924114455	-0.006827476240616134	0.004038466350806614	0.0014741345459678892	0.006923024626155469	0.006399693455227612	0.003329854755763341
-0.0005899819894232671	0.004906218183177947	-0.004041185650389996	-0.008738106497359894	0.00021734968031392535	0.0032044590465486918	0.00036874427008299834	0.004175770596982396	-0.0013321438906664217	0.016461178200727955	0.056617092274550765	0.0015719163737763463	0.0035314350746816683	-0.005172106730811013	0.0009684910572049024	-0.004070464021052212	-0.0064720637427504845	0.006754362728251945	0.004081913173995739	-0.005319946166831138	0.003015145650069346	0.0005886230945935308	-0.006910167736692268	-0.007260915238229305	0.00808041891306824	-0.00833467561976217	7.054428530821506e-05	0.0008428336425736153	0.00809400803636714	-0.005064931704753326	0.0020540173093055152	-0.005703362530852539	0.006353017778047509	-0.003121579403203128	-0.003670887908911709	0.01960932453338243	0.08265689034616848	1.0596278712569311	1.4406777935425696	0.36948531274534974	1.1076964493184458	0.17303842003608674	0.001743788467860323	0.0069191228543197866	-0.006945492085879168	0.000506210102599847	-0.004639087377782207	-0.00282428296733854	-0.0035461566469856057	-0.003152909111568891	0.007684755102105844	-0.0027605506046108315	-0.008639935974854513	-0.007869039975376644	-0.00621489573442994	0.00650082341313535	0.005985533519094439	0.007628138734243605	0.0009180769206149544	0.008483251788166916	-0.0042043249217822	-0.003943790200099468	-0.07282214563021583	0.029368749946595756	0.3316821658922443	0.8780544383398902	-0.6259215321102028	-1.7476068272185352	-0.3614168182938794	0.3350416777753251	-0.056573460939835195	0.08513454828565618	0.10107175576406811	0.11422102674510541	0.10675270488138135	0.022863724378599577	-0.48183193979545674	-0.6497843374505373	-0.19077101224993653	-0.00183304434610329	-0.0018218796877442524	0.0023550559606105095	-0.003950270557841417	-0.0029388202538142526	-0.0025210690259236945	0.004243195800486823	0.008441838151102847	-0.0026794588628259106	0.3391019080162912	-0.19589106332720757	-1.0863660142844425	-0.3335057540959676	-0.021187072669631137	-0.0888938986583666	0.09618135444233955	0.5970170709413628	-0.6201968050565078	-0.5993736802594601	0.3575013304378334	-0.13349415625977057	0.2837373157990638	0.11654339323976638	0.29848257079849383	0.5305191265314029	-0.008156710082673565	0.32786139933544783	-0.4082392864150484	-0.5864762626109877	-0.0037318876680906407	-0.0012145182704448683	-0.0010916038722169983	0.003621966144395805	-0.006782675351816505	-0.00093309323679743	0.008247349151118312	-0.008063773013858756	1.1913041701964024	-1.0546845896299206	1.0786422819025072	1.3110810434771987	-1.0757013051278674	1.6589559419795903	0.15590778708495517	-1.6101021189024105	-0.6009844562217824	-1.0786007958752553	-0.9687941618982118	-1.1527941148159138	-0.9554313538592303	-0.18556374954758528	-0.3171137014134445	-1.4581039612372941	0.0828265247347273	-0.059592894856225175	-0.500995977202289	-0.49175673773290096	-0.4784002564333437	-0.40979818537245033	-0.004018326459599445	-0.0027424123052455776	-0.0026789046063023262	0.002644565590978927	-0.4593025248279102	-0.6547983942861433	0.4007821464516091	-0.3370003558683834	-1.741594692144291	-0.19122931677370547	1.1563551516742734	-0.3324879072880554	-0.09916687700074066	0.18254324174384223	0.8044819344467483	-1.0252604368621296	0.04069228230607389	-0.2241498420195616	-0.449396280645441	0.3385033767654936	-0.41653525781589074	-0.5133967969425475	-0.15076643718050048	-0.7552429800421282	0.3832571533893975	-0.2817635276777534	-1.2071203269697712	-1.405656103877661	0.007445678598885027	-0.007784834073768438	-0.006416924351132147	0.001751081249550519	-0.8119635033935383	-0.15897250834422388	-0.35681804766196207	0.20522130081119117	-0.2915149822758851	0.6968565901036295	-0.15189124629431966	0.4849086848175597	-0.7321841707332997	-0.7548467129795897	-0.3586647661713544	-0.5462303070136273	-0.7159683135149009	-0.8659411820294532	0.34518123413898016	-0.024344015854929325	0.4958055084690052	-0.23942405875690276	0.41980280046803825	0.5190229295972109	0.29212419841281634	-0.3282734992585178	0.24421767273028164	-1.0392072363219613	0.2196443296413948	0.002630568722663826	-0.005226612667004018	0.008222777997474768	-0.4488020522357733	-0.12001606897277581	0.07916450236056735	-0.46292279077829873	0.18433645191616574	-0.12056006309948511	0.5962044094585572	-0.06339959782261588	0.06952913670541992	-0.5417324848645543	-0.4679973926738958	-0.29599989299218826	0.032320932987714476	-0.13495928549256955	-0.46558570339683547	0.36514468453915394	-0.6206296950463183	0.605636082217738	-0.5031250856392236	0.520247105353778	-0.4195447078408468	0.7591030628837179	0.13174255637856508	-0.961555399550152	0.8585768358666521	-0.0051222761656472575	0.005144501869714765	0.21688864955306944	-0.5242414748754248	-1.361149368251462	-0.9278769601571132	1.5707723361143517	-0.174812916774282	0.4814488079012031	0.5254312881842886	0.09381613065833429	-0.21845004656580574	-0.0064072155341063424	-0.16994306597620104	-0.318519885652761	-0.1806704482204698	-0.29479378766573017	-0.6292592993764046	-0.04205140060025158	-0.9980956738235636	-0.3853671580060594	-0.43279468385215225	0.5144823524302257	0.5429321847112443	0.7129777779421329	0.17740737778898796	-0.5396470878569948	1.1969181750812483	0.0057197221955334505	-0.00611141714638716	0.1966589445356335	0.01651788770101742	0.5923626730027874	0.03636412359425957	-0.4748304594771345	0.3126087654680409	0.05877602126859772	-0.25441292535525195	0.35715427156569135	0.4139639572377982	0.0531624750479865	-0.14321531220742184	0.3672504820297407	-0.24065825663000165	-0.33697243062261156	0.6205967085741853	-0.4075539732377702	-0.8626724884681373	-0.4259067178235955	-0.5535016236417144	-0.4243282893612547	0.313717530919861	0.48404756589486403	-0.46638544930304504	0.011999101509397063	-1.4967350310665695	-0.05799484335991439	-0.007861998161143018	-0.3634991804057603	-0.2883254296036008	-1.2221437468950846	0.2400126366855325	0.4349682586224349	-0.09150377555287298	0.25624422972185107	0.022313819316657265	0.41127186070687693	0.20065383405427176	-0.2738894423709273	0.6455016357985194	-0.19004524112773566	0.2480882714837063	-0.2706013436869141	-0.657786238499832	-0.3167847021432049	-0.13482678777205456	-1.0736302181643136	-0.37795861865721003	-0.5174979996290704	-0.09348865862269293	1.2862635357378347	1.0882579971665374	-0.40922294091244793	-0.7474837313578214	-0.7773365072427888	-0.0022161828503007115	-0.2658499925248047	-1.1344777060335924	0.6957653483596554	-0.39242276980856416	0.22908939062163328	0.4402232009511063	-0.3875167430079122	0.3229717624781632	0.033287189846973875	0.4241776408542031	-0.39958980828947815	-0.47381909265307526	-0.5006403784770965	-0.11805375362047474	0.5962854174570301	0.01124650007164486	-0.5430094237581303	0.12612907783512362	-0.2793206048236482	-0.6443694087790591	0.033791152943008516	-0.0177634677984735	0.8894157438351639	0.368934210322496	-0.5799545695576606	0.21503822981583295	-0.38410958872449374	0.002265084527415471	0.0199257375057941	-1.6105285544325334	-1.3104721679551574	-0.16631917412878947	0.09114569248728781	-1.081854262771222	-0.16177693634770718	-0.09189642252290584	0.01191744379062078	0.3994658389355242	0.41667210963006207	-0.001450644948700185	-0.34384308095756067	-0.1643396104575813	-0.11219351196653589	0.2914716552569465	-0.03373105097115414	-0.20338999039273134	0.36382539448818896	0.15238450948079824	-0.36983434688039996	-0.16296538545441114	1.0003876695948972	0.9778808500966994	1.250533987165614	1.0014648851308974	-0.09174212503966957	-0.004640324279124263	0.0824096386164764	-1.6913546785779119	0.365166930275748	-0.042164056547368	0.3545020155801995	-0.12464791524977932	-0.5015349220140219	-0.3627005298129729	0.2969453070198732	-0.037296445508858474	-0.1198826790626265	-0.4519869470044636	-0.20997279544722178	0.06417424241827241	0.09868014674090103	-0.10270601606660867	0.2796468632275782	0.1022793789284461	0.6298264954428529	-0.6359270326268593	0.26980781548557214	0.5745221793877081	0.27949351585534565	0.5941459701857121	0.7040025647197409	-0.7292100854814235	-0.7036145383121251	0.006434231666361607	0.36821044943654435	-1.5471939666146683	0.3703896329835382	0.4368646784155748	-0.3182604624643389	-0.5872319989330819	-0.9503134452630921	0.34632846879010404	0.03419008392949588	-0.39315278753055843	-0.25379585763805507	0.1375158801935664	-0.27793245678211376	0.15547248483731638	0.8596314653079836	-0.1541085256568617	0.44391012374769484	0.13208647527077771	-0.3179089767303715	0.48215407050563497	-0.03665458342037063	-0.8988046133699777	0.5229179335941061	0.23962921918293445	-0.7273392843157956	-0.512634558123137	-0.20951967320986745	-0.008603858177580078	0.2418369879632245	-0.5606824292706608	-0.89660809901936	-0.33486842729572835	0.7806086185808111	0.3476313960609113	-0.1222694886481196	-0.3096770533385201	0.1911397710713533	-0.028452443913464385	0.08634417525269135	-0.06730299593120524	0.00010056320933242324	0.6932366818101302	0.004796742788102597	-0.24016931579779657	-0.46745789334871163	-0.3179138600093571	0.1651692809659008	-0.6415244697937985	-0.5271274225317844	-0.5006195733478744	-0.2872716447412755	0.6601403041017659	0.48532502754529516	-1.379424752933314	-0.7528253860879027	-0.008457559549624244	0.0915713261636358	-0.48029120850048507	-0.6640033946062789	0.5153039393376615	0.6287875901534933	0.7795062257331985	-0.2062218409728349	-0.22657661927112493	-0.045654568005443194	0.20476580639477737	0.18737072898297127	0.017427665209239208	0.5110598082924747	0.007449225843495018	-0.04736000517867404	-0.11094725602056013	0.022834277695054264	0.48919230232337857	0.025953167837467813	-0.09070864891643492	0.16335862332573534	0.001869447278121641	-0.4993237486695581	-0.4033400992357409	-0.22465430735707967	-0.15972872313117525	1.0833728175148203	-0.004359065247585962	0.16622659843626283	-0.4001405036363681	-0.868449423875828	-0.44008069423357205	0.7359158750869875	0.11796838159519697	0.19455418348005432	0.3012333618635608	-0.08668829324248715	0.17639021719027795	-0.6286851335892742	0.6390528489104226	0.10995493003294174	0.800977139395057	0.09666983264665495	0.3354817838308654	0.12314838780031033	-0.16895434089918349	0.2553905564764778	0.1959580217104073	-0.4240806683283705	0.3508029236462975	1.0330693879187407	-0.23834822378717324	-0.7685054752941142	0.3895440392170137	1.4365848641499666	-0.008242640786630355	0.1339272837719436	-0.01992449429673208	-1.042327554028563	0.3900708205319151	-0.08098365719362373	0.2666370472418899	0.2404677418837743	-0.018015708166275332	-0.007540494123885552	0.011707888047112062	0.2002448604404918	-0.2816595627746491	-0.07841846709572364	0.4014285654351769	-0.44943287053287073	-0.5648771782355096	0.2938307563024161	0.06665302839271263	-0.13500317832446526	-0.34271235017484347	-0.05120950268286902	-0.23204450121459907	-0.4547552077814897	0.3050699102769462	-0.6490420086585728	0.3937257179097582	0.13413317619771453	0.008200985887669899	-0.006143008203337935	-0.3726579713736792	-0.4359383367599527	-1.040802383016159	-0.05017365659780988	0.5061120778349942	0.0063558531370071	0.10644229357455921	0.6333846376890815	-0.29902084783745864	-0.3271506525622127	0.42150087069956965	0.01591962284780834	-0.1316676936962405	0.02197917817299203	0.1461774371837744	-0.083664870029786	0.25962075207447205	-0.17128376882670687	-0.14192120057514832	-0.7651281630474929	-0.09284840149647774	-0.02556985897242422	-1.0550472180128772	0.7352419895521902	-0.498055372217938	-0.10408091561060358	0.0057797871091958275	0.006431939368401675	-0.1364501505150933	0.9407008766913592	-0.5464111063437043	-0.5177691078623649	0.2591384496260622	0.12644292260601456	-0.649328194680304	-0.309733925751595	-0.16003889762477255	0.32339707086329816	-0.8264852398234732	0.6465700269253453	-0.6662783222090902	0.08393584825772078	-0.4370789842588006	0.16097335838325583	0.13830984800560317	-0.23461211807384766	0.6264262111961664	-0.6456505003112685	0.3387071329838654	-1.099232978851848	0.2098961507935168	0.3711947254923202	-0.37054818388005856	-0.023863585025473387	0.0013626342290682606	-0.0023761225822202256	-0.3901066940442731	0.8324822484978562	-0.3852943495118789	0.012508327658885881	-0.36069417925607966	-0.11322512427547626	-0.48980286698553055	-0.13082456330188047	0.17844202386281105	-0.3603409655029062	0.1490257616342346	0.045654931796649346	-0.13592822356187936	0.5997116010056843	-0.4109378815606427	0.5308971853917961	0.6293620418688726	0.4386240695720028	-0.00814915433031334	-0.27548692892370497	-1.3655344135074459	0.8581466425574316	-0.9223706917293626	-0.2984940317227937	-0.09369081334917953	-0.007217364745770225	0.0036655857638341408	-0.0019616088592812712	-0.1524115558329337	-0.09803382918157122	0.4502495171228406	-0.6113191141331891	0.3967544281537759	-0.787547618042769	0.34219246765266276	0.08705984453614508	-0.7042734536802608	0.6234848014899923	0.15021493270626132	0.18252221829790558	0.4516561718275409	-0.20282034555202957	0.5409122810044169	0.20116670343109985	-0.12482229571390077	0.7317637490268701	0.16466723626323865	-0.13011163533849934	0.7276300183809696	0.7278453461859633	0.4712688984171287	-0.45088354529403774	-0.029395909444175323	-0.0026060864238457854	0.006764234430873345	-0.003983354148296125	-0.09408339231339202	0.08033124546701796	0.3053474725470393	0.03349810141571465	-0.6693060872823354	-0.18624849709076843	-0.6260061495118717	-0.6206801859833952	0.15734890774014232	0.3268019890020315	-0.18188628406638196	-0.2863669825493991	0.04166884184998136	0.2010346740353682	-0.5560378472886623	-0.050092899939487616	-0.5557150656556796	0.7619422171957256	-1.230955723929559	-0.35312173917548817	-0.19979229911807092	1.6510918115022857	0.44162952304622627	-0.16549580291166666	0.0016661441026824212	0.0021435642099637033	-0.008310754848567456	-0.003613612717813436	0.004446980937360596	-0.12202553683919698	0.1388672207949923	0.8208168706979698	-1.2031994807880384	-0.21800189200359546	-0.38064974801304624	-0.22100511576470724	0.042482082742757145	-0.34118685924012127	0.5143008624561664	0.3135034494541926	-0.7761665539681825	-0.21934019125670493	0.11540461674121262	0.25241449337327765	0.06626728054355809	-0.8172618600253828	-0.4462003976377055	-0.7891690994463801	-0.7786370740820567	-0.8016435300320468	0.021894140659614578	0.005702857261578893	-0.0009691290086804982	0.0058053212700557525	-0.005595440759404198	0.003964784524036567	-0.006457309443883693	-0.0468844212024638	-0.5423888314916934	0.6063469482177245	0.5793827582293073	0.11729940649572508	0.7981776662008231	-0.3830562420599095	0.2013586490009319	-0.8809263061254891	0.2929415519694972	-0.48538221786552344	0.7052396668224773	0.9132835968047003	-1.2687899739168527	-0.01857142574128067	0.2656206813281284	0.32421261672844304	1.2801718008002978	0.6834673804871408	0.03906345656006829	-0.011073610650720342	-0.0010321921726376504	0.0003877934934435716	0.002810453182894024	0.005127832865625624	-1.3791084536052614e-05	0.002175239850381351	0.002792287027163512	0.007193278832890891	-0.45266326653309524	0.17941901743425268	-0.07393857655569314	0.25965720707180623	-0.4694842376768734	-1.5195508388124137	0.33848617090734784	-0.27762487519909573	-0.012480355304266593	0.02258897691177162	0.2421521642445134	0.6649207937564081	0.3381155934688838	-0.08682760823018598	-0.41395687238508655	0.3230717152167264	-0.5466512323514047	0.022475353362575452	0.016920776043391907	-0.007356978524815095	-0.005815315414000285	-0.00017311100721354757	-0.007229096390728797	-0.0056125667177232726	-0.002587228139376175	-1.811901383758259e-05	-0.00019845918292258485	0.007537298866990361	-0.004197767261037516	-0.006898959417295181	-0.016880483100542475	0.004279124974294377	0.01649074106385811	-0.49414267302575154	0.7614281085422795	0.007964307853399454	0.0016336440253091802	0.003517639385301181	0.008677931160156338	0.026931310730135983	0.058381895767861305	0.036851542269968375	-0.012634490066856846	-0.005924481430891902	0.006071833879108002	0.006969752383730174	-0.005468831175455375	-0.00213199697813226	-0.003608967734565609	0.0058375848338105395	0.0005038695385630298	0.006580701646754249
0.005974168097931377	-0.0040671657213451244	-0.008109684340579426	0.007673474337005966	0.005363859659203461	0.004610795635163185	-0.008062279527538158	0.005545421930281845	-0.006575592223733322	0.006829809557360987	0.015703099757367868	0.008459137136449956	0.006482615947227039	0.0024711483059121665	-0.008348254399099437	0.003002893242611864	-0.004269451039593003	-0.00328580629276336	-0.003452894734253275	-0.002624128559461877	0.003148643850395774	0.001714215329866967	0.008687467448555494	0.0018078968754754211	-0.007158032287283662	0.0012790811503739907	0.0027870644624596198	-0.008421140191469082	0.00739769428284095	0.0009676133312305074	-0.001300602515171007	0.0028446221987724184	-0.001296627172362775	-0.006414066270720112	-0.0012074787799598698	0.010558070530520271	0.05319467635859136	0.2602383336916845	0.350547665386	-0.18856885347053737	0.15014701121648502	0.040029981949364316	0.008640129246442042	0.004784437094620876	0.0029736167709677776	-0.0008450319572245492	0.007556290827875059	-0.0013635691982248717	0.007304125117039704	-0.0018192586203282487	0.005287296690706791	0.006241629486916048	-0.002802288767270623	-0.005593464057309182	0.004807001324684434	0.00794768995234184	0.0026467245918077986	0.005204557486493802	-0.0037513488958333093	-0.0008218652235035956	0.006861598354512107	-0.006014760542335341	-0.13202776176649889	-0.5065516363728078	0.31236141794693445	0.6712131865023571	1.0435432147177357	-0.3939830320605112	-0.6699685738922385	-0.26148153867271845	0.09996953413430697	0.15259924844256445	0.16531335979486517	0.17915130074217694	0.1719625830208815	0.045578455007287556	-0.07799871387813226	-0.12299979470152021	-0.013586974502934814	-0.006597337410700503	-0.0037752683349303075	0.008010842497138819	-0.0001910731939915606	0.0049973324494068695	-0.002041751915677681	-0.007138659298539404	-0.00569899864813112	-0.0039866394403055986	-0.023864473845175573	-0.1710801766693319	0.0038190568270635938	0.3792044664337904	-0.38876013418968836	-0.7540618220869101	1.1643395166956287	0.09661204571567711	-0.7216290031199447	-0.6036676479291975	0.30514632783319406	-0.5600570680115711	-0.3585090742363717	0.006100704903283754	0.24762574451296884	0.1066725081385744	-0.16590129977815382	-0.08617521370285489	-0.2687549675781412	-0.11873715502811073	0.005358159106447795	-0.005701988141012548	0.0008876872283779657	0.0075514395803574965	0.0067179271167810365	-0.003426665392659834	-0.007985534144584144	-2.17935582854413e-05	0.2126220786701071	-0.4478321073978525	0.17044036863460346	1.8141003972042586	0.3714340395023416	-0.6725230624511702	0.15928709430485175	-0.9606233192573992	1.4193926278489477	0.5259638955975491	-1.0576958654215174	0.3385675550606528	0.28728233480593207	-0.07041558053590381	0.3337538590974095	-0.8272284910262615	-0.17413752201533536	-0.04957983579382775	0.1496862026438074	-0.07048789196892324	0.3857255207338917	0.17508917228949558	0.0010446463627057801	-0.002076968713344945	-0.0032249828667704553	-0.006986205197601517	0.13540937748935056	-0.4401504825259317	0.7227171888537907	0.5306495344816538	-0.7479795108023547	-0.36900024317049734	0.06389610224228946	0.5050308421102123	0.17105601740838455	0.15807893501136833	0.31216495331210814	-0.34949175634942	-0.6258626723023156	-0.28438016559309337	-0.014930674285638042	0.4153123219692805	-0.6331808794531977	0.6547415426176834	-0.03709146403339143	0.04829150988264528	-0.9373484338703396	-0.006146946096321567	-0.04722138400642303	0.02593231319267328	-0.0007277723049222053	0.0038156286374403173	-0.0041885103964773435	0.007944823502695908	-0.011061856369358736	0.0011077736068183593	0.2465050236582113	-0.2531784722802484	-0.21955390125174992	-0.16341101828075866	-0.15040348342996024	-0.4683949810248104	-0.20095107578567456	-0.24089229152289215	0.2923310254462099	-0.059498414021348624	0.2629174715539359	0.13577637619884703	-1.046592877864921	0.7625650503642909	-0.3278720242954403	0.46504954589133135	-0.21601358861088407	-0.14778326934813119	0.7023306711339768	-0.17351745604404117	-1.0326782647435946	0.21859243861089378	0.35531416152163187	0.0023325558972485793	0.0023282300676830837	0.006519953323957519	-0.1836905563558649	-1.1492342253745935	-0.2761461598697713	0.8657010374839699	-0.12982094673758734	-0.4376185571674929	0.07925946253266059	0.4697416924207371	-0.7447778773502431	0.020887096356199772	0.045224159761260325	0.20387380690371454	-1.0736594511362745	0.5159600780721971	0.23755247683236913	0.1654763113230031	-0.19500768434596547	0.01517624029742793	-0.38266552542610094	0.42627579057401493	-0.23183818123097674	0.2767677046299222	0.1085174300269706	0.4579498765379859	0.17296323826153842	0.00737679189827894	0.008041798436104976	-0.014939680472822976	-0.0955713651861078	-0.31149464129790777	0.3233027139565664	-0.2822667547301329	-0.22534009532902868	-0.0887178872746439	-0.056738414835490504	-0.3185502160925778	0.10038203572131141	-0.019966891494137603	-0.46300949994569884	-0.22793647652092047	0.3873361297007613	-0.38258105662849917	-0.20649194243949887	-0.04401375952268044	-0.03392275912549241	0.35221229867217074	0.303480740873594	0.2816309511115077	0.5107531376785178	-0.5546579866345183	0.6674225580784511	0.18314855643567518	0.0942465002858324	-0.007773712831391101	0.004143740292872056	-0.05329031441697934	-0.5767296429868569	0.07431833830790625	-0.7555337397889211	-0.08066933154474913	-0.4637659235964395	-0.008267611372914782	-0.10544339587806179	0.14351929899261945	-0.08062506036842541	-0.0836807284353698	0.20420377223491634	-0.24880860788385134	0.0003655029997533413	0.05062662103955586	-0.0840105211320972	-0.423908011059604	-0.02843155045425843	-0.08936189673570075	-0.09238233399183621	0.0559779350803852	-0.31050520940887233	0.33785446898645144	-0.5438872410496526	0.526060206165257	-0.057771201569556105	-0.02151407364300365	-0.0017143160055045365	-0.4143300652509131	-1.1266262713218222	0.36386877579485777	0.007795227524027748	-0.1461818422055169	0.22576733047844408	0.44118374533059296	-0.24052785276780014	-0.19345724128028352	-0.09089598922433223	0.00538858194721273	-0.6526903255446559	0.1701535087310815	-0.36545231870243794	-0.10373796701220497	0.17676426981850862	-0.16247909044602027	-0.1376228612410249	0.006707316249282928	0.011386339987591192	-0.34084126979122303	0.07247715944841017	-0.1420964696339017	0.11194012112320974	-0.5463763191077161	-0.6522495236603504	-0.23246494871724457	0.003410492123988064	0.34434727447394325	0.5586523537003336	0.17819765331651502	0.25252320772910075	0.15325365033156613	-0.013109589126728034	0.12662842678787237	0.20650726146919754	-0.257239954578988	0.01131335750562254	0.2695030141765155	-0.10362920960670868	-0.03271087356704225	-0.17296194901057674	0.09596027512706592	-0.28437051060891066	0.3054887101917676	-0.05207497435271785	0.09182727241092754	-0.044194777573268555	0.23825471030813594	-0.3697394293261841	0.29077984001578916	0.26071232466457056	0.30700417564347215	0.06130252253924042	-0.19578028656447574	0.0022954575914442086	0.35812649964235804	0.8702455237519442	0.46925510459033565	0.0896461682811463	-0.15737041258502588	0.43190822161016196	0.2667676662502091	-0.42524355743880443	-0.21567059863893975	-0.4394310426448303	0.1599016439282842	-0.12571217050890526	0.5952675030919277	-0.1848462117053594	-0.027266887769209956	-0.07780688873078942	-0.3947903595216089	0.048654804061942517	-0.08311680037217092	0.1614821468720963	-0.7070937680321995	0.24757196306322582	-0.03126900489044173	-0.32661861424813127	-0.007282930443156831	-0.7282954290915468	-0.04204652687108603	-0.0009758143785424597	0.02647376595814457	0.2102946153590221	0.23872534474250584	0.5031820515066592	0.7404624286208679	0.22656772487188487	0.14074684451205877	0.2502396307500372	-0.161052376665982	-0.5928852790750232	0.09544090314150573	-0.21234891154168095	-0.037829572062039636	0.26864978912440635	0.03735074746071514	-0.2416236209452892	0.44487597699350867	-0.3764778997538069	0.09430167351727914	-0.39248094221545954	0.11182154683932868	-0.31050618834021027	-0.04531591996003359	-0.10298273515238328	0.4374229692760309	0.527561419132801	0.3988526446765289	0.002074071491728306	0.14281452047013765	-1.0712451778841476	0.42541110364684104	0.10223653977978943	0.38609381869340714	0.47719535026279625	0.5498907098453697	-0.053218288464579135	0.3736489274850792	0.3435029002561673	-0.0653215570780752	-0.12797115901103828	-0.42837992410747366	-0.2902734899794301	-0.03229890704628107	0.05246769945006566	0.016700643154058382	0.3648987617543329	-0.07737756816957865	-0.3035136637581089	-0.10754807015403821	-0.06864505481910654	-0.18359809002006308	0.2580036815896863	-0.8854587557489347	0.6296928146754298	0.3986807075190536	0.0045302338879994655	0.07019090885685571	-0.17587560094721744	-0.5667274743968618	-0.18836257623464134	0.17056691546718558	0.29839835387536245	0.318406488870292	0.5294215108483125	0.9575737323592977	0.15718982670753615	0.35153449958487165	-0.053164869658357455	-0.2836665879772783	0.403164231302928	0.18093218407946998	-0.04288566309855693	-0.02085500161371537	-0.2655038086578519	-0.022067382110881936	-0.0030947584357941347	-0.5640940701284962	-0.05127615519623033	0.1835030048430302	-0.2703241556058798	0.5004386361607567	0.1973444348907795	0.26923165754759937	0.007228146558370769	-0.01311226184260248	-0.46301488260893797	0.4692044663848652	-0.16585707417740236	-0.1234680015189499	0.17197022541592552	0.6388865804630119	0.7843451924628368	0.22773213297986522	0.653449537501669	-0.1072630073384493	0.22390138324743145	-0.30525143369899377	0.3737995554728667	0.25957322515286435	-0.35401198940845924	0.3992619226638512	-0.6153108810150228	0.07138747796473283	-0.3342940476939355	0.6191414883476025	-0.11606022795127699	-0.2004167631774654	-0.2825503575392207	0.13096519029614434	0.6344376084586086	0.3012388619173225	-0.005497115547747252	-0.09660976667763939	0.12184698862095489	-0.5696282953295323	-0.5233062664943374	-0.6974453247228566	-0.7179863599310708	0.18171076907530403	0.313409361297282	0.8431917305978992	0.36007800603106	0.3252149274168165	-0.3012041863986978	-0.10168207468576115	-0.02886743987826498	0.03805031718505388	0.3052313072735755	-0.2533032976047811	0.45052905171296714	-0.238725626953004	-0.283551122662421	-0.47562636136675385	0.07480625346584917	0.030047553103082606	0.15840491410304802	0.5936180825984597	-0.6372237278235231	-0.05496890248139684	-0.0010865499279678562	-0.2585695647639491	-0.032343634855719255	-0.05676377255546011	-0.28785400372053443	-0.755908012329393	-1.0071234838794425	-0.24869623306348212	-0.20537470604710348	0.0620203228627594	0.7261798083886768	0.36900034382253755	-0.1384281701182906	0.24504574468740942	-0.16941257730143014	-0.2581054429311769	0.2572915482759955	0.024177566606586723	-0.20353500207164385	0.25215511886733827	-0.050798057798391354	0.12020841693520104	-0.07268099490883254	0.14112276661936798	-0.8895538787520807	-0.2527295630383894	0.9278108432161006	-0.054708847413181085	0.00036072608782004335	0.0030775571769117577	-1.0645251740082595	0.10148104198826537	-0.2087627626153934	-1.3368306222047048	-0.7999815680506723	-0.9535137679658845	-0.3144253912526626	0.10429041784495943	0.1978152032442328	0.2586430824081656	-0.0626106301250082	-0.08677715437986565	0.2515511123838627	-0.1352554381415256	-0.023119593644560923	0.14558338300950582	-0.741844854210511	0.47229383260212887	-0.3409239548242922	0.1777392944013776	-0.10180178275235337	0.10477574972418557	0.24431068301044348	-0.08994626637233086	-0.30477759076322436	-0.553335198839934	-0.005859144158633254	0.0001709673830726094	-0.2595011238432783	0.25086831980963115	0.15330776057372264	-1.7931513821361518	-0.8247247033336971	-0.8441673389677365	-0.6195243113099559	-0.18587230136966074	0.03837273471872195	0.5002865305343916	0.08958326643972557	0.4615760958447605	-0.32417592582694815	-0.004584837732998709	0.3659520560798266	-0.30651447402058635	0.6864182044986116	-0.2940393960382788	-0.1471498573565939	-0.11203501498457637	0.09013308663835232	-0.04218327338832394	0.1771851029969439	0.5087722543683574	0.049400398357070496	-0.007095329331045971	-0.007020315888755365	0.0003197032420146177	0.275976558501759	0.005080364356900903	-1.5925164530344176	-0.9833707722009027	-0.9660238707640213	-0.3206221717377998	-0.1975313150775081	0.13395699782601375	0.05666423597849689	0.6280795697928787	-0.007006024800460716	-0.018678771742149356	0.22386269482665502	-0.3562019657802061	-0.2136334733685003	0.1984882173123359	-0.6633116233209095	0.002489637333154869	-0.03728049512051934	0.011525055713582966	0.4264921129291422	0.217561174783199	0.47528399309338637	-0.25203107938570063	0.23339405331660576	-4.70893306886247e-05	0.0003333123843612014	-0.00838729055949178	0.32441134696540186	-0.7418620845169115	-0.41822639160137437	-0.3902444971455782	-0.12804054472367044	-0.9532945522203468	-0.06650718765507019	0.17916759789712314	0.11737720057246612	-0.04424020378617469	0.3379235687424307	0.7099485133037314	-0.3036920716870801	0.18385683553148163	-0.4924089164878088	0.3581888776259942	0.2806361259168406	0.18037736761199685	0.5869836108998175	0.03455146868319263	-0.14972555939733354	-0.6469823665043553	0.5581574228600542	0.7481190741201317	-0.16775899085752144	0.008098403790488781	-0.0056111162666552285	0.006519007582063103	0.2047179916697823	-0.45990968553038264	2.2458327790065895	-0.20271694441853236	-0.1757301116096696	0.10199286411133414	0.6466113658303128	-0.28098930680271156	-0.4269999793351469	0.8829541309046182	-0.8798057055700851	0.39200306901026594	-0.7087683730847022	0.7985143377062947	-0.42688816307962474	0.03346009300075039	0.269881311749566	-0.17985429459139562	-0.5736425745905963	-0.11110353749940613	0.13519506872144785	-0.2786916558531148	-0.0026655547857726246	0.3280296604664771	0.007737625838900161	-0.0011228770145863482	-0.006992092947041363	-0.0002548850966775009	0.0077724497360939955	-0.0364231874818082	0.2524971856409694	-0.351303967797254	-0.1418401855477835	0.21144119347065596	-0.9391145930450067	0.3074891239844384	0.1095893518260814	-0.23845273222595834	0.557168552573056	-0.7477070413336795	0.20768754593631392	0.5964237591223192	0.5280165155765624	-0.21915629651133858	-0.7546873175670362	0.20927932824570797	1.0834691124124531	1.1106675102396433	1.004524851000511	-0.7415572803347226	0.05300226657632136	0.022482426101302775	0.0026421210854775615	0.0015496496656435682	0.003557184675332045	0.005270578602011253	-0.008063762765652405	-0.014148534984223915	0.011172133748965233	-0.19437842848569667	0.39063920202465	-0.6752090512382082	1.105375835386993	0.4423271337844923	0.44095647106608565	0.1432210647914836	0.5654155497093608	-0.47231333147348475	-0.5978878861733847	0.20768371664622684	0.08323146350966068	0.9038307764570485	0.6218657926977372	-0.38835509635209603	0.408243754397941	-0.5191803213227504	0.010479052770443137	0.17589675247217482	-1.440619725585621e-05	0.00023892897435182428	0.0028855929096342405	0.0016925376297564979	0.0025590313583500456	0.008109630523829963	-0.005166011764248633	0.003998686293877108	0.060754208982573575	0.21513522362137208	0.5202440414023771	0.7702953825110864	1.0048959452147028	0.4481677688585964	0.31425235592734824	-0.0012704230549207983	-0.06422799723311208	0.016941520655067016	0.2470543941826357	0.5697796903723595	-0.09586883705217052	-0.08722802453985454	-0.4351541248470261	-0.7522135768679862	-0.6332083030096878	-0.3115496512135466	-0.026833383445638622	-0.0006855452511484051	0.008550064376822172	-0.0004781487745769454	-0.0015103699779136113	-0.005496164002495704	0.006163736587771997	-0.008631063902445982	0.003783022236869278	-0.0062390958516008	-0.00832901147266244	-0.0038019243750913824	0.7739532974497569	0.014728786556460751	-0.5632329830691669	0.06810098882358483	-0.28830183994922115	0.006672508351830923	0.0039625297672200455	0.005204882775984318	0.00495990932842119	-0.003465849980541317	-0.07307649872904999	-0.17070844193214657	-0.20972886391125647	-0.04598810004443074	-0.0042729178937504645	0.00637737351602418	-0.004407070176812919	-0.008223197293634752	-0.006945329928775215	0.004806797864436458	-0.0014704515088951242	0.008645819395714698
-0.0065534072804395	0.006576773128200673	-2.795566539545366e-05	0.004834978014790726	-0.007859618767491887	0.008414553061522173	0.007133799761783669	-0.0013119574504170837	0.0026873106824540777	-0.015609480299588915	-0.02641686227774844	0.008271281831010063	-0.00011067227632361766	0.006779401925897434	0.0076181823189737565	-0.0054004588437005134	-0.008472167576639558	-2.4446026613434563e-05	0.0038069645694389764	0.004748523307556962	0.004746198525494551	0.004312405294772316	-0.0041561634585245925	-0.007035668752995252	-0.007045375503235847	-0.0002722770534573562	0.0011296812963494073	0.003785755110956898	0.003902265780930534	0.0009020403624872067	-0.0029760652548875806	0.0007403629171691892	-0.0028598327921150798	-0.006249967988838926	-0.0024251700076247714	-0.00690341052598858	-0.019534451180791536	-0.02654720053173186	0.015880049461760967	-0.11178082623362552	0.07297338916200957	0.008268536033549077	-0.008591510939678106	0.007915844691188176	0.0028678296052062555	0.0015344363443763089	-0.001519849328340996	-0.001721378272533866	0.007017513209620798	0.003368813507151819	0.006760662184350962	-0.002078114271016566	0.0021024537295459937	-0.000536300343526943	-0.0033045354595947936	-0.006202072909506166	-0.0007803901221162257	-0.008297907716026552	0.007068480923275033	-0.007305539581541667	0.0030569303396919927	0.00035722120170892475	-0.003521930905868601	-0.0061847253500008515	-0.008771944070442062	-0.024119761402159542	0.8505004391883382	0.4307701523821322	-0.6346432272303747	0.19034780027970455	0.06998607527304601	0.013207234120870597	0.01117896931473168	0.011652410169765223	0.01430399547123832	0.0017573170900709932	-0.06382991099633689	-0.10867246179295066	-0.006365298713367778	-0.008223173754124085	0.001303805563129444	0.006130822006151412	-2.9010298374125207e-05	-0.008002445765425142	0.001845602662884211	-0.003577452374754775	0.0027744892468719116	0.005885219193166858	0.04542810033189118	0.11449883384161	1.249149228313027	0.349652331411689	0.7525922869709482	-0.7963228285651246	0.6799478312330918	0.20762894076709323	-0.058772712665310374	1.0009077467151684	0.13871279155628963	-0.7983671662492227	-1.2509231229728193	-0.523138902945294	0.4925221593080746	0.6147313361386154	0.45001486035839444	-0.020861880842583228	0.22744778244779915	0.06514989131569696	0.018996265688973592	-0.0008999274683561855	0.005314217732697713	-0.0026599019888837562	-0.005732649865362541	0.003016874489064337	-0.004514681275892501	0.006357107704930776	0.2778513566272495	-1.0891108632292457	0.6136451667642998	-1.18375239679242	0.8497386175538637	-1.1165440720148672	0.9767710697310298	-0.21095766132179358	-1.4302453365993995	-0.2652802579160082	1.1752665175413992	-0.9042149123021179	0.5955767137617932	-0.6246216796682504	-0.1439654990962027	0.6836182468097333	-0.018546431219924376	-0.42097493329488567	0.750922807706442	-0.9396251787984699	-0.16369831233024906	0.04410692781765573	-0.008660304966969831	0.007274825950103021	0.007432616317190553	-0.005146486950418784	0.0010218510643734953	-0.04960173200635571	0.507178665252195	0.6364757373374751	-0.01088461812671317	0.909658794132032	0.2424342703770899	-0.20034109481676432	0.7957299106984468	-0.046101997206155404	-0.014136322836428851	0.35556865281153804	-0.12287948319254474	-0.025113868291789878	0.37155874758945273	-0.17856593134930532	0.13014090174056162	0.8831526591244637	-0.9291260867509392	0.5177830376676904	0.1964964662466436	0.31082359993645714	0.16382407115231223	-0.7163350488327846	-0.004546118970046592	-0.003497527519262672	0.004767880451363159	0.0017445794571281457	0.2336579435983706	-0.6646836608445656	-0.6135824555563532	0.7207366000908304	0.8352439516263905	-0.4895752635090749	0.6755577637190188	-0.8517892482024485	-0.9068671398587508	0.8343553728222852	-0.2860575550721901	0.5865083085759655	-0.42778532170569034	0.8281470139649014	0.16881306145050926	-0.46281885443843557	-0.6300545998817234	-0.5159291705310822	-0.29814351147906926	0.368528545034437	-0.02577706941984073	0.6373229663807669	-0.6951167265837335	-0.7816353202125508	0.27187997896231525	0.007511185761184742	-0.008005631972412516	-0.0026386396029898264	0.8033096909314102	-0.46872372863008893	0.150551024237025	-0.1232775882299204	0.09809172800685896	0.7444375184916412	-1.2892475090444833	0.6600610629516265	-1.0979521268551014	-0.4329712930787181	-0.8651425566354924	0.8870044417299583	0.03629470825148244	0.4127648526471067	-0.6240983896977054	0.9831841407781858	0.03908514796191375	-0.5925346697856003	0.26124414333645757	-0.16910116644794898	0.2749308712310997	0.17481511048846335	0.2350505352840558	0.5959608773801768	-0.24653611085141558	0.000545729706829123	-0.001055420413302777	0.21917555990575363	-0.026039765195037236	-0.4630927892093522	0.43646521264591503	0.6204474358359299	-0.42722097428813305	-0.16369513811853695	-0.3343601680571547	-0.3640344074388972	-0.89705987338895	-0.47109204612635935	-0.32499613801912225	0.6318962779357151	0.14150583891949509	0.45258477378726636	0.6047828717503528	-0.5879044896799028	-0.13070517067758516	-0.3821870212745992	0.715880943920459	-0.4346700922584726	0.03084849033761788	-0.3384823708352766	0.3121256569478556	-0.45296948105744794	-0.18227189975019098	0.0004846675471912431	0.006688570441988725	0.25095499154528383	0.7371120630156552	-0.06057209440410024	0.5492627539991887	-0.0493440416059018	-0.13442040426347593	-0.4245139762725432	-2.495194433277777	-1.4421494163011128	-1.1018815834893447	-0.433528903062073	0.6773573263128411	-0.11596664141892486	0.6588664722863067	-0.21480584265286426	-0.014703065084552382	0.062452844366738106	0.06337627489830135	-0.008359716505913323	-0.5330010326552618	0.3245034761928735	0.11532295393871135	0.2119133086255414	-0.08699088940223211	-0.6214037726468356	1.3095945197539354	-0.05676928348929946	-0.004648455698918217	-0.0833705988985198	-0.6671078050924063	-0.43847191757097254	0.4528271086490246	-0.1545925638022462	-0.08738958479804299	-1.0581756191016478	-1.374832230161846	-1.604618651255222	-0.3471868451257842	0.058646277349616936	0.15420073378902827	0.5600926036524123	0.03096429639438173	0.4838583909655351	0.19390613335957071	0.08612225001414257	-0.24405586501350934	0.2576815627487598	-0.4647440078486491	0.09406894877629828	0.15971754236219082	0.08050802400359941	0.40171245336109623	0.8384921176275686	-0.15054303456210916	-0.7561188316946792	-0.008597159829307437	0.7316764605539506	-0.3128532847933075	-0.11433080372117879	0.32452834183381873	0.06003670981607703	-0.30270294514611773	-0.5219773261538272	-0.5265864296045115	-0.22894016755842753	0.11095057519429426	0.3085282331280203	-0.04424297345914057	0.22836994849291892	0.18254943046575955	-0.5969508732032329	-0.5993678541265943	-0.3450139741815217	0.032138766236671515	-0.14317722151464965	4.295765587762374e-05	0.09315565512614392	-0.2635702523885092	-0.08787473212607104	-0.3547083452311298	-0.6581547838601843	-1.165782518631752	-0.5746212299181379	-0.004881207222397302	-0.6737630343582403	0.22604785520432474	0.7576630088452501	-0.3208490102059836	-0.04082513095533338	-0.09212126209580153	-0.10988685526508057	-0.3556736236376757	-0.11782396896103398	0.13188989018891106	0.14836710864214311	0.008010509242506451	-0.25958461538446725	-0.19497015222486466	0.3067061463835601	0.11935583304097226	-0.03491389302981496	0.2452433689940076	0.7482848394876757	-0.06909108215109835	-0.004796355709761317	-0.07865205196189813	0.34158931349083266	0.1922860136309497	0.6970065849039019	0.5825216616366254	-0.7538923763613053	-0.007732516023336198	0.01060165808519204	0.26747671740990986	-0.8989810923699705	0.6030530971620699	0.5530487669628144	0.2806899559862019	0.6440169032362962	0.02029030206330412	0.2911258323066158	0.10004829135266362	0.009108737330337562	0.12802487884134806	-0.4248294267236464	0.06936246550708734	-0.0436479570628678	0.18628826898935372	-0.5731093173369455	-0.0336756907299965	-0.5174733000156345	-0.03451832324482411	0.29270292501947204	-0.19417759160577763	-0.030573128519407196	-0.011538776025413417	-0.24309606958480834	-0.6195766934010147	-1.8570110780987628	0.008246693470207527	0.3479106542939516	0.11516121774937739	0.8558391148478801	-0.6098366600686265	0.5470087931778163	0.6486111336365438	-0.36850083683948587	0.18672354497773144	-0.24028826141504078	0.4391592244659994	0.17955184877807562	0.06515898681772146	0.2480104567455374	0.20308390088216433	-0.05797792998353369	0.36042456782581267	0.07070069842116544	-0.5013453856670413	0.28618098301638745	0.05322183087038437	-0.2720655582787123	0.6060755440965644	-0.207263832801609	0.027384152563128268	-0.49334176507364297	-0.48692708811383084	1.736490620026013	-0.008203504348467726	0.23857485571880557	0.20703357683282037	0.05728137211657965	0.30074544808154957	-0.15544839855655812	-0.14359687751830452	0.598229835556744	0.11122946663834697	0.5900302280170262	0.09483665274248536	0.5770156241472022	-0.5597332945778174	-0.11234359177790133	0.44866477433901114	-0.2763307541322408	0.1332519870926027	-0.21486757032868287	0.02260371898171409	0.0868650825188232	0.7246068590480482	-0.5863568050955499	-0.1677575119771155	0.03779671985900963	0.12952859174699247	0.7039231550923257	0.5240219204923837	0.6236728298932591	-0.002005604783374186	-0.6402165233530309	0.17773510982124902	-0.22830020140157709	-0.6689192723399134	0.7173387930706662	0.11301105031799877	-0.17560253974865264	0.5808788629597617	-0.1897309226518398	0.1008142811686632	0.009136373158812303	-0.12656890356640618	-0.05241626324814405	-0.5479194695710868	0.15866600897846775	-0.05035295060157782	0.451571872357744	-0.07091900834973099	-0.4648217678336204	-0.19860726302245335	0.5227617533342985	0.05655403281273394	-0.2794950068104939	0.37328290730951286	-1.0180195363348634	-0.34785196026230847	-0.764467682084979	0.007928088783931893	-0.899686018516422	0.8406085162585802	0.18852378494508568	0.6649666223790329	-0.4707835958612224	0.5191727027819112	-0.09232443353777535	0.30476983436618676	-0.12567843945268242	0.013471754878945445	-0.3664902740964915	-0.15529786740798182	0.05697491706871144	0.4398120248924458	0.1845998834538243	-0.23531759283029563	0.4416009826513243	0.3117494394223318	0.10471058409467446	0.7031296234915198	-0.5764151900455224	0.23340900515202234	0.03151279290103396	-0.038386415340888914	1.4657808177731242	0.43232761812118903	-0.32050652369403154	-0.007427182314656489	-0.6569815429204232	0.9969954452818968	-0.3603457317278407	-0.05372151513875186	0.3324667894980062	0.008639265426962034	-0.5213542456423318	0.018536970516465696	0.5621069480772353	-0.27014451010451945	0.06294354777800452	0.4426984681618508	-0.7932235371313119	-0.05603618018672022	-0.46210312904802037	0.5776930338109002	-0.46389845393094103	0.47271068312294434	-0.5992648312804498	-0.2165999491930835	-0.08401389852036739	-0.5163499994386067	0.019206658544324264	0.11422913124313508	-0.5037150198290301	-0.4025244640312303	0.006640526866753176	0.006833932813472889	0.005144759314126208	0.16092105721505992	0.35599348808766373	0.6159110849620633	-0.4458962220808394	-0.32012599995632557	0.8029473596891782	-0.6659665745341622	0.5159143016599455	0.0328082024422478	-0.5946325251712724	0.5208737913135497	0.35096143384517897	-0.06794894107866377	0.2663755230190841	-0.0587275847267524	-0.4607959386387974	0.7413760027080846	-0.09326078889590053	0.09667433804155179	-0.3597638849444768	0.07641204800913862	-0.07868766459633256	0.7348058010875672	0.39114363673040314	-1.4551039512745685	0.1485616630315032	-0.0017741947283280409	0.0013830898842513498	-0.40814990192034767	-0.08794702731100365	0.1146227301291632	0.12288648065404764	-0.10702281548408835	0.011740824931714916	0.16123747293244772	0.17810504454921716	0.6581256089449524	0.4065685488832038	-0.37132906035284946	-0.3501726362570212	-0.014006606659388791	0.53627068956418	-0.9244528270604726	0.8458375710595598	-0.41415304888055393	0.561555772127845	0.25465232597067144	-0.052037133239397966	0.3087121381881465	0.45248643016800866	-0.6290657544147183	-0.9720472285016251	0.6849857239251412	-0.09873704352018534	0.0011526947242811742	0.00014334116763642726	0.14119118574427747	-0.36568416027166134	0.05880625854647422	-0.31573863052890877	0.5936179132086964	-0.8735536131943712	1.0697877820315789	-0.9024023886053832	-0.1193292778736044	-0.7054636103835238	0.7171025335799512	0.02403892430223597	0.019040641693486127	-0.7260352145858759	0.4960697424179505	-0.00933906633350666	0.24064173205780356	-0.5168306295840013	-0.4038132383369585	-0.06902331210231236	-0.4373739275676416	0.6134773360475274	0.43816235157909145	-0.4802692760352651	0.008918849019875592	-0.013900467859516374	-0.00391426553061121	-0.0004375949850589575	0.1435533028461474	-0.23782349252078894	0.35656475774196633	-0.2071274764522482	-0.37757908789985667	-0.13861130422137083	-0.5789053093548492	0.0259816444888414	-0.6499616096585665	0.22140785839312174	0.7292996148697443	0.24531353507569734	-0.39773283234589457	0.6385172114305467	0.40104313635277006	-0.05043686772846095	-0.4165817132446261	-0.112119613772382	-0.2974677516355925	0.14759103251038336	0.38957842153644234	1.1065122070214135	0.33509429831922055	1.018369460621164	-0.07037540840580417	0.006723127052413024	0.0050681984507055	0.007117127724577123	0.10744410966785871	-0.5606349454890174	0.885187565613344	-0.3117902450027253	0.46342154179898415	0.40502872835474385	-0.7154077539047478	0.1313187294635511	-0.5902402394065113	-0.2601535489384936	0.21925942293622988	0.1940843317764708	-0.6097425575000646	-0.6334510017395175	1.2059770524355642	-0.10648539081407736	0.264287311365297	-0.24390212547745818	0.05270133319770489	0.9526232657819564	-0.8177486489476374	0.25169566914220765	0.11213794526386055	0.5824751025633604	-0.004961617585735406	0.005245800313200068	-0.0036043040136305125	0.003481331533153078	-0.00423132543168748	-0.589786357368918	0.4500875070343004	-0.015680057010662284	-0.3789990482039074	-0.1291640123744413	0.20187185045139744	-1.5749361630545076	1.6578035821974566	-0.16440936030725925	-1.096739468058165	-0.8237296297036379	-0.16898196560518136	-0.4188168342851284	-1.7230117477133833	0.13291646281035513	0.0020767841435289846	1.5717192178619055	-0.7277585239180724	-0.10212648870054364	0.6612104935137999	0.47046568690731577	0.03449387829623494	0.016360638469942533	-0.004327960117300622	-0.00792562339575511	-0.001575124227335173	0.0011588862966912111	0.0023853418635039047	-0.2208450106299426	-0.6000648932964823	1.1514630060343154	0.7798306791856461	-0.09826905815501619	-0.22285786650247857	1.399852527797331	-0.2323206552061668	0.8382268871683727	-0.4269296040577311	-0.030285343679243817	-0.22959648317049125	0.9775491961376818	0.728920403282646	-0.6888269816801464	0.7699650266964918	-0.27960375053243786	-0.63610274956428	-0.4536702679543967	-0.09271075257572864	-0.07832826452025236	-0.010191578167779103	-0.005689709189263553	-0.004372976076119748	0.0049320887857173135	0.008384089296503259	0.007520227196485268	-0.001366951795872597	0.006225920002604775	-0.2601600588969612	0.4232745173152286	0.19352906606938172	-0.14344185849595872	-0.1831862801966193	0.25545895116145645	-0.24809259835540368	0.022086814160029184	0.06702874978337363	-0.0005399007742018826	-0.010292464211112974	-0.03564054892468551	-0.32467105033353993	-0.026027866193693433	1.244160187610697	0.07091071640420142	0.06332943810084181	-0.06907630225564593	-0.020658389725917978	0.004801360303745126	-0.006812860103675779	-0.005718800655242197	-0.002280099188453643	-0.0009653436354918983	0.007608367695199429	-0.0011541325087214864	-0.002524714471279637	-0.0022094023466505894	-0.00249102280512484	-0.004594571140696498	0.11953379135053548	0.0035891276901135814	-0.08423621108659762	0.10732981561065796	0.0823699834407432	0.00032118227221276767	-0.004355826014942953	0.003339784186044423	-0.0060255864178529175	-0.01130732264877966	-0.26484998919787084	-0.27474667515997286	0.023639691030846524	-6.331083453015341e-05	0.00837143160737454	0.007623889899724805	0.00456198842968631	-0.0024099615850422884	-0.0048759676049861325	0.004495658678623494	0.007434820932761323	0.007957347963347227
