0.0355858048277541	-0.06370200192677652	-0.2744344672354628	-0.2726940242952598	-0.07463471149025004	0.018897768239222634	-0.054624224419554	-0.29355197112319775	-0.3377576714865962	-0.2646022491555863	-0.304258911266782	-0.21644433566002055	-0.21214256742678447	-0.1037919300578455	-0.1454968330239465	0.011585212991981727	0.005252561519702142	-0.3661533218225394	-0.3814610164529085	-0.3237283472823028	-0.34472374329152616	-0.24933127638199382	-0.3325998476103225	0.05774769299382429	-0.1375257379001548	0.06115841019635475	0.09222117084680223	-0.26531885996765225	-0.16997707111117627	-0.10595776186165834	-0.0009989331990795532	-0.38975201018270894	-0.1929565289383503	0.111366697765513	0.001966000442152482	-0.2054135055383143	0.004993138924217177	-0.21355996682912878	-0.15552817969090765	0.05276313304823198	-0.06318466787066247	0.07924339746129871	-0.35728075204783116	-0.25557411861985097	-0.031296960463823305	-0.3063327280980332	-0.3077601153986694	-0.0832357291826992	-0.2883843246092956	-0.07242865028319749
-0.04346589816773636	-0.19379992447655262	-0.30121138675366155	-0.07758198950451314	-0.2029312429032044	-0.0873134916613462	-0.3021144800894613	0.004612391850946343	-0.26583653585428674	0.1054966183530306	-0.2632995234724789	0.025823082452453853	-0.056356611511109524	-0.41304067837483605	-0.11598385965036823	-0.37150622890870977	-0.11462338379609154	-0.3753994516505957	-0.2687687832984853	-0.26765937377326876	-0.10341788314371923	0.14994124948442852	-0.11273285188100424	-0.056418055681607446	-0.11069073488857657	-0.26530516768944795	-0.2105303716278374	-0.25433342637405737	0.06592714531796047	-0.25086744994794513	-0.3864193652008254	-0.31022182781885205	-0.12748265754553192	-0.09625891439291252	-0.08598521872500177	-0.3549538845088665	-0.029256594248959752	-0.15721624381038027	0.05825462077394898	-0.1593983131644737	-0.25812587775214946	0.07404230868198962	-0.3875096886898572	-0.11506272104599635	0.06633321175525426	-0.21623793302798786	-0.17563611048012293	-0.1390209980892991	-0.1784346398930452	-0.2862524144431585
-0.19646143900780344	-0.26711893778392004	-0.3145978129765113	-0.15518914786338042	-0.11245140948623839	-0.044327269927455996	-0.3601837093659656	0.009272747106107105	-0.0047116302019859875	-0.12751763603411992	-0.09475927593141345	-0.04681430702396498	0.05798629489931326	-0.15373886531440475	-0.24938571761105444	-0.2323965381069115	0.08902780610155227	-0.05839247975364858	-0.4696110695514254	-0.3743480078016704	-0.35929137999827593	-0.2970771028557633	-0.35251573965083965	-0.28405588404160775	0.049780015965998875	-0.31507994195988615	-0.08882422902829026	-0.34442390912313164	-0.010600376536436118	-0.24372126767140492	-0.24821729604314613	-0.28188638029120006	0.06171494804666924	-0.09372558237988851	-0.3360190393777622	0.009584156955083138	-0.1655461502853948	-0.31629100075543437	0.03356199539937236	-0.30212875890413515	-0.1588610689170197	-0.10525758430567862	-0.172803726541853	-0.09896736101221894	-0.03193438654900161	-0.26076399017136137	-0.44916224760578083	0.00460656277585435	0.04895969107986605	-0.06172369834230627
0.012477781013316775	-0.21257403810546868	-0.3726376900557419	-0.10706139538856918	-0.18443519552824983	-0.18551902700311956	0.05012660328090467	-0.21638268098788938	-0.26439730622802693	-0.22536735107317865	-0.362539652637303	-0.16521908218177545	-0.2771772751408781	0.011740649470189924	-0.1828557480954904	-0.12844769344929902	-0.2780383311799254	-0.36198843483572496	-0.19664680172658575	-0.2365454433346051	-0.003130152761594437	-0.07404541233317878	-0.3286818810413096	-0.1752683236406399	0.05016880143614782	-0.04090638820557044	-0.1389442346717758	-0.016691201661963074	-0.24677751146505297	-0.024891534202687454	-0.06609623483758593	-0.07495674990933139	-0.19179036197754654	-0.23002151269564056	-0.2680687346964968	-0.356269241474121	-0.11756951977500742	-0.0525076362464428	-0.22401725119041924	0.022606287322740528	-0.04143763987583003	-0.2511043977052814	-0.19141156908824636	-0.2735974395353095	-0.2824406718262328	-0.08014996384683197	-0.17381410437397823	-0.445007347171321	-0.3923086694786917	-0.017031766806337133
0.1245640649344961	-0.008055675059685645	-0.19521538711693392	0.07623194619406105	-0.2834500548583996	-0.36241067423529744	-0.3825707993513365	-0.36740626230351475	-0.00353846435450476	-0.12621926074558298	-0.2471813752183624	-0.13001965683797978	-0.13449266130436413	0.0010912206768599816	-0.1988497481773153	-0.2975570086112366	0.06072895598514658	0.050643317239728695	-0.32202220626516376	-0.10060119197467884	-0.37132037889219005	-0.22121215165567723	-0.3651234540222853	-0.15460642925375648	-0.11408560295737849	-0.17627516820379224	0.10849817273982566	-0.2535571370561931	-0.31559523729332634	-0.16294463411015372	-0.20788111864826894	-0.39259995048614227	-0.13396491480184944	0.10822399010763806	0.09940069457386698	-0.32767926527058766	-0.19141080415806946	-0.209236758935433	-0.23521648923866803	-0.0964824767327534	-0.2707267088021607	-0.2842822541576873	-0.018929510999651015	-0.40523775487897234	-0.24978506192086747	-0.19546971272183503	-0.12787937466511837	-0.0469229031122256	0.03523824395662346	-0.10811343510841737
0.08287167326335118	-0.35216561092090004	-0.1946851805972413	-0.06298970328382665	-0.11536943096411716	-0.2984904780290836	-0.12150509877842389	-0.0015406518944064286	-0.4108239062931266	-0.31535004131524874	0.03627738262545594	-0.2758392739222046	-0.09241847815817854	-0.03630947862814812	-0.3336906183083027	-0.35073108285899934	-0.06657839718454993	-0.1617980213018729	-0.32227113223322934	0.014511608074505156	-0.1480893114811945	-0.14517615229904707	-0.221693754645868	0.05734162029245185	-0.036914590641021185	-0.14086182188288193	0.053922492336994574	-0.09697763002085245	-0.2084586599222261	-0.03145836216750697	-0.14938124042842107	-0.4421258072723657	0.08699961577075947	0.05111658480984606	-0.24693706764143897	-0.15913950652913492	-0.20480080513997484	-0.2719112996703065	-0.0008049042548598131	-0.036217197397656394	-0.30456834378949055	-0.18185981876796498	-0.288822999274913	-0.13155543216762539	-0.32940110307734677	0.03493128019178234	-0.25521321350480025	-0.36790691281299465	-0.1555196755839448	0.04075735214641519
-0.2767106462774085	-0.22994714976075414	-0.15146776352417576	-0.06774791556660051	-0.21625234327651718	-0.07859045375633246	-0.3565221600228371	-0.07813054919688775	-0.3795283976385089	0.11140081802952766	-0.25414971106368645	-0.09866277987264092	-0.2417693676871566	-0.018111918541265523	-0.3990478678821942	-0.15221227200714407	-0.18585653335009808	-0.24595800859747827	-0.23548322626843368	-0.33449430419752557	-0.1429459573566395	0.0801650974425055	-0.3143700786957051	-0.09869278967837358	0.04878210346756149	-0.13854696083182128	0.06868594687277975	0.0062885035919190285	-0.34484404379060757	0.0729593298024456	-0.4205958994102154	-0.2117804342641991	0.07940773430273029	-0.17669291731032552	-0.21103504920365304	-0.2522606702434176	-0.09635447871301794	-0.10016613360876891	-0.16291361977277316	-0.24572201929802898	-0.08217350227980316	-0.2837476905954034	-0.2872005484811762	-0.33183779884259496	-0.10405522802842766	-0.20858961660278927	-0.42475712872794613	-0.01750708543405397	0.006557498398374761	0.13190876144034536
0.1427397481080164	-0.41951231009350964	-0.3260118558236701	-0.09008245093557771	-0.00402603287798368	-0.29299341694436754	-0.014646528818287168	-0.41879022952117817	-0.09886285407596267	-0.0879915597342939	-0.23169616297104845	0.05299235256533192	-0.15431821788616204	-0.32829730586062295	-0.14772278143251968	0.0022025992299419205	-0.30020328956511294	-0.1415453187117469	-0.35513118605762484	0.10863515295796856	-0.21597408614711364	-0.22160447640297826	-0.2505810255234324	-0.05933505715252226	0.1029663495935583	-0.3003010947923295	0.04432769161213984	-0.11154544994291091	-0.058964614293512414	-0.21516513589442865	0.05106440490438733	0.03468405119850708	-0.09351361277633556	-0.0777815325683488	-0.09766372985161993	-0.09613175546067007	-0.15676745221091568	-0.23972187694327624	-0.15371737120181253	-0.15539937810615215	-0.20467848723279758	-0.12048937891563635	-0.3838892688391923	-0.3292775892782566	-0.11212867613345492	-0.3360474281011716	-0.3806812018733525	-0.30052160454383436	0.06208956030274083	0.015777920014253002
-0.22390418669520035	-0.1325593042297057	-0.2400569547327707	-0.1815599820228538	0.08941824967937681	-0.16282404395086217	-0.3390992693293006	-0.12658257277109208	-0.3409105177122735	0.0627847636889735	-0.008515236853656225	0.04387509398860222	-0.018173387636218705	-0.10442593178315875	-0.32651983050855027	-0.33104323201507085	0.02811542182750506	-0.36517296234163527	-0.3763395782535927	0.09342225449453831	-0.2358214811742275	-0.22528326614444338	-0.33721437548798877	-0.36299359422378513	0.006893014136822184	-0.353550528334005	0.14032360545827277	-0.1106286338582321	-0.1950058740939386	-0.35371149216693537	-0.16026096201138768	0.015456520015983768	-0.1540959187149243	-0.18876637043254238	0.11293122384770687	-0.11897529390432422	-0.2103283360467988	-0.4297235686878544	-0.031559890562568915	0.10474674675210452	-0.3281416265672608	0.06246448322525127	-0.3660884188514049	-0.19194822015380242	-0.3119371290543064	-0.1487321701318357	-0.18766654316484888	-0.06350847581482855	-0.19908815090123091	-0.1455640978154926
0.10887837769902205	-0.4113659852822968	-0.22793208339245918	-0.4035202199148925	-0.31391046822344953	-0.4201937954205989	-0.3043043537376045	-0.29562223580230157	-0.25707730358582337	-0.13009523036280002	-0.04979177093674873	0.02812564566994709	0.06889877003381191	-0.35086307511117826	-0.053541887222652546	-0.08979982467019831	-0.3383609656861985	-0.03922989365253115	-0.07284875091659879	-0.3508059837184054	-0.01541751951827977	-0.08507080423700408	-0.2952768022121266	-0.13688915691119022	-0.14323562469458143	0.051765475994998374	-0.127340535470867	-0.05249811930630471	-0.1942137892413816	-0.3496624329125154	-0.08579005707403799	0.0008133735820009597	-0.3141098682665762	0.15937803828274338	-0.3390662346204523	-0.25254468538488845	-0.06275882343218835	-0.052050954187393784	-0.305378412332411	-0.06729066132663745	-0.2931292832099764	0.13075359984747584	0.04485148463326217	-0.20106609459862548	-0.27835768890434287	-0.04918209671315345	-0.08265747103204815	-0.413293377981565	-0.392901136808178	-0.2914401230883918
-0.0007943525635256687	-0.3419177554637945	0.0028428344742745196	-0.3207203466170051	0.020279641931256233	-0.26651692361975293	0.03458673596479615	-0.4508607798265698	-0.07009054317135477	-0.09751051712009334	-0.12443201344757825	-0.18079928573026569	0.004041767197731162	-0.2793274209670791	-0.16272830816318032	-0.19015489070252625	-0.029091318194526896	-0.46281353196317665	-0.23609384299371214	-0.39268042062549624	-0.23571641006890443	0.040488371154425246	-0.10183476178423238	-0.21908382673605592	-0.367639851770923	-0.11844846552604173	-0.15023551318357936	0.006714526849706814	-0.2863939617982593	-0.08027505469214034	-0.2766353036951871	-0.3807253758894376	-0.08039565838975506	0.019190233988218647	0.04479538871190384	0.029443135793874465	-0.08881763375099475	-0.0774597093679645	-0.3660491797597015	0.06101940315990406	-0.046762525031741685	-0.2568528234298012	-0.27554855319484595	-0.030095606790167092	-0.23620502839324828	-0.16713239547100733	-0.10235524776379616	-0.2616849929534592	-0.1985041523628538	-0.2461333566589885
0.011116417024572884	-0.11727900047501111	-0.2687169874921464	-0.14380705049175663	0.06608358309392434	-0.40386516435819136	-0.18166006739660823	-0.23654889897942022	-0.23222566839382083	0.019223386658079086	-0.2991753625806912	-0.2481269277480137	-0.17641343698034373	-0.18316088358976199	-0.4416024963803818	-0.21850441863900882	-0.2895519577656855	-0.3915272509660387	-0.0841397967731235	-0.02213356116116948	-0.20587150500513968	0.08714921337465678	-0.2768617553721877	-0.03888320542941561	-0.1651276099869734	0.002639728646859676	0.07263531486269911	0.09317905380055981	-0.03990739216567883	-0.0916522866591585	-0.01890050390113228	-0.24530252079470577	-0.0639378513152608	0.006863902772257455	-0.2644398650615718	0.022020245416163455	0.10062252076371671	-0.19295824849396176	-0.17615520250504557	-0.24624353604299284	0.030953740741193694	-0.02553845512894484	-0.415316521938546	-0.1726775814079824	-0.18545748817198432	-0.3548007054216428	-0.09045346513442538	-0.388883372159965	-0.2353683165205892	-0.3363097734117143
-0.2538951835490968	-0.39784186646021685	-0.05568237200723113	0.06738947588173352	0.05086151713986016	-0.288522499235984	-0.37075523949337635	-0.3532859851074842	-0.024141566973997667	0.025846279243022234	-0.4035759211660071	0.11013201520060821	0.011771297984285075	-0.37281644049063417	-0.11088555370923657	-0.30814717916663886	-0.054133290105203166	-0.3181399938657204	-0.0866962244025053	-0.14519969471749902	-0.438957870610922	0.03616710704004447	-0.21521896759723538	0.014099818532902856	-0.23736796993036977	-0.3499901064240091	0.027044583130223027	-0.13837204678114232	0.02916017827697599	-0.11627601847618467	-0.22776926209071485	-0.170256580044986	-0.098551949829507	-0.09528632466429496	-0.33656853852613894	0.014893236528073022	-0.011099531646276093	-0.1180361633859764	-0.33202085230736633	0.046660438841991725	-0.13091646893886846	-0.19424814471457533	-0.2520213810105055	-0.4303826476363182	-0.2578232955571775	-0.07898557449873812	-0.17483917818739808	0.024194663289581742	-0.298141531025704	-0.20835050014332568
0.045008366656954284	-0.1722853372881537	-0.03746627555643013	-0.06452974105506674	-0.05806505835117881	-0.4082680779401582	-0.28994012005413233	-0.05511199808900493	-0.2651150852602292	0.05404822674127667	-0.3406636755552679	-0.1092391391537747	-0.37241991061192303	-0.29414973209186757	-0.04148948495537095	-0.367266617129311	0.017976503874016402	-0.2969969233492035	-0.19385625065604253	-0.3227721654831414	-0.3658410117961494	-0.28012358055011277	-0.4017909127810564	-0.2132517136996918	-0.003818069075280966	-0.3728671100192959	-0.14114558783691664	0.0203826364671274	-0.20171197358743062	0.056285149127844686	-0.31948484202934335	-0.2115051989826933	-0.07299617006552078	0.1469904326349459	0.0882633680864598	0.03787301444471593	-0.11627303170204915	-0.2594816551267478	-0.3845650158173348	-0.025273469884746175	-0.053018567047562415	-0.1151591429119419	-0.3094590019241732	0.01324766170800549	-0.3170710957313264	-0.41446379815126483	-0.1579701596844866	-0.09602666518912303	0.026561395562939027	-0.2571892390026233
-0.3006842134565183	-0.17415809627743312	-0.19139834849455922	0.005469413386972529	-0.17190748190186608	-0.22878624850716392	-0.2987178355465506	-0.3229183042768421	-0.39655238367537815	0.010257981890388653	-0.07689936905754344	-0.32490008844908924	-0.17772171292131786	-0.029703396137662708	0.03481615992353222	0.09191479884081581	0.0889960203201025	-0.38127362236025153	-0.32170685720365805	0.07931649056261186	-0.32710860984347573	-0.1284580008528065	-0.4128298266495564	-0.11108846133866017	0.0016257489911361278	0.04574610075149901	-0.27979252063492294	-0.34179387378901344	-0.018150719712430964	-0.2913073719977182	-0.06845152702021917	-0.30509908916874	-0.2611981297564819	0.09329317436152035	-0.26999688544893236	-0.24196202752396043	0.12720284266457876	-0.26579026889224805	-0.01227957964490138	-0.10411864661778594	-0.09136249216463298	-0.0465226507735058	-0.2071570302236713	-0.2876772399656932	-0.26640832248212665	-0.15591613075529567	-0.3098897576806346	0.030692119511655926	-0.2710336729651905	-0.09317091915883387
-0.06497830399084333	-0.08975400400127179	-0.40436354017043274	-0.02621805746508034	0.01583379303036341	-0.3624911216296993	-0.0755481449046382	-0.4292668622176087	-0.22398171031889827	-0.016047857393174818	-0.21324866370508933	-0.28556491347144447	-0.1919123126726454	0.02425129885637065	-0.013197240331364872	-0.24198750580900474	-0.35530454363343256	0.01133867666983721	-0.07745677993803372	-0.08226821905012786	-0.3281269162140704	-0.0013158599969092422	-0.18904185624104225	0.020659145480321592	-0.28384264113046065	-0.021408596682686028	-0.14081156718027557	-0.08222296135646624	-0.2035405631527988	-0.2285460875594225	-0.055119291313080104	0.0024187878268504626	-0.23285031789127006	-0.16369653465597156	0.09323612303412404	-0.37365142106161175	0.09133938632534819	-0.2841581129342876	-0.11004272528419543	0.031238285725780062	-0.40605910892810343	-0.1419311826054868	0.02505066721502385	-0.13412524009345844	-0.29117404569002975	-0.37367164449428986	-0.3797651133871892	-0.28704289929618576	-0.3721911054310533	-0.21599399753479612
-0.256955552747991	-0.2763805913260955	-0.28769527838310655	-0.2523557854770663	0.11509421999141295	-0.06955119738818957	-0.361855702519794	-0.14511327028371562	-0.21715200143356936	-0.13355766762953197	-0.17318866756023085	-0.21484708493918245	-0.2767225134644177	0.025910968071563577	-0.303788958138581	-0.33936410096888187	0.0906584589234088	-0.3459305840909528	-0.1693115274791172	-0.20458817568590398	-0.22512039672704529	-0.03666565156438658	-0.022388388971900968	-0.290302984749101	-0.36835329060423566	-0.2731020007201866	0.10216678851418516	0.06539516342114397	-0.3347900161788753	-0.1136262858628969	-0.2213108641244231	-0.25722281489400783	0.037955175499860806	0.12275889905719871	-0.24088576185317082	0.0854491991056417	-0.11605907315282557	-0.1242393040078304	0.04355209375226185	0.0894308799542209	-0.21365737047081673	-0.014768771188299912	-0.34084734362967717	-0.2658011600520787	-0.3407594259686927	-0.19621202399084403	-0.43069602141159385	0.005284136523806256	-0.3801798460649756	-0.25570971202446663
0.013383839342196766	-0.3145400834484972	-0.3781799758234515	-0.03461609241516924	0.02112805131333666	-0.3536580090349425	0.07139613332789155	0.05017828759285071	-0.37627398748710894	-0.0018832432401884819	-0.120852152795852	-0.01191371122857556	-0.2819376987916888	-0.021289639497364673	-0.24616314110399812	0.09859134635620094	-0.09567689667145542	-0.29625844944965385	-0.27634796312952864	-0.20419030133673044	-0.34336302481301173	0.06283534630010457	-0.1958307243546315	-0.08107351163814006	-0.26159143190195266	-0.08797609619959947	-0.09581673233934918	-0.15507197346659704	-0.058753055216564494	-0.04625901537199663	0.024126271017525493	-0.3041736935599085	0.05121812455175136	0.07073907811391361	0.08003987318382579	-0.33174445614466236	-0.22158574293015929	-0.37609074271733933	-0.0818426531235637	-0.21499560811905444	-0.06406540675916116	-0.31443034939953374	-0.17964774908646883	-0.0829236585760602	-0.18833295530517435	-0.28180190095064994	-0.277136394458914	-0.2881715945846845	-0.25534877062534916	-0.3417175948677497
-0.33679298390334267	-0.11239767444038502	-0.27064277327451125	-0.10322494723273098	0.03609029612243116	-0.3152938488208236	-0.056784716083479854	-0.04596655479246888	-0.26832327968582925	-0.17798874004743723	0.010685796274072297	-0.323098888091061	-0.0665265237934008	-0.1941760969878214	-0.12087841930490963	-0.17918956820063084	0.016422781627685012	-0.3701990389736889	-0.325494162821931	0.04640121458480181	-0.3217648744600364	0.10646576288135878	-0.16169028538587255	-0.3495127777361883	-0.0806482055951784	-0.21374259426108805	0.0411497973255515	-0.34430153825063536	-0.28524997631958443	-0.20241805432238963	-0.34113644757980843	-0.1312682969259631	-0.12198794565471939	-0.29654199983963586	-0.11900823333881226	-0.13729375681052092	-0.3161273699794979	0.026673593891428864	-0.22060900011999424	-0.15496186690444186	-0.07362178720567049	-0.26168475550209763	-0.27230823329665144	-0.1870870164906037	0.06970343803936976	-0.3660690752149474	-0.2310520541703239	-0.11531305329518009	0.00999657037169434	-0.21808821232724312
0.10152834580010885	-0.19475169807109047	-0.17081369841968871	-0.3291380572016836	-0.006438316724985414	-0.23238430117639172	-0.0007486884614596835	-0.013768294727672386	-0.11571869860042412	-0.041161536363527394	0.002022415106541426	0.0686882305023672	-0.1595718031564695	-0.29922853298989976	-0.1235492477428291	-0.2936950064099075	-0.19444263709419654	-8.532814149837945e-05	-0.47073896474619265	0.02371478597023379	-0.3390794140036757	-0.32276732412775677	-0.4396241130821053	-0.22845550816109852	-0.3057667815656081	-0.1322518117095128	0.013246104852773498	0.024232631378702945	-0.29737308004602697	-0.11225192237853593	-0.357196299752558	-0.061747581038510406	-0.14321715402038324	0.08835416756153347	-0.32956667778157234	-0.2790144150816344	-0.10572997590407018	-0.2876412797793377	-0.35659100767098273	-0.08231284105296285	-0.09567116913755686	-0.0805351457043738	-0.18346514884817397	-0.200842044176182	-0.027080038535160566	-0.35092950894900904	-0.05570785924945179	-0.41939666246327173	0.010061715240643832	-0.11841048531787991
-0.023812342241664775	-0.17340025804386325	-0.06792571022579046	-0.05936596496743525	-0.03227100152746805	-0.032851573099086685	-0.0269155119380935	-0.4458242990077128	-0.2168460825682129	-0.1455559285256312	-0.3938283549008099	-0.1560145235989742	-0.2589044593593816	-0.2874378068277015	-0.2720435999201789	-0.2060413019061724	-0.09199255453988302	0.008510240708869252	-0.1998128819398555	-0.2503733411340161	-0.3374873738074019	0.10930558884568045	-0.009621458213361925	-0.32986725219996493	-0.3025163447695967	-0.0245274473103628	0.11780412480512645	0.0009402516663391373	-0.2940092242938992	-0.18203841315295852	-0.2603138886131871	-0.28389707310908663	-0.15318419455728544	0.1198498304179208	-0.04971346543439269	-0.3299841356050552	-0.12680316795215027	-0.22701518190346096	-0.24583449961847084	0.05467813738251736	-0.3406363065343516	-0.027240916048039132	-0.06440196396422787	-0.1607723347982357	-0.19922954296572667	-0.1986953870995171	-0.4411905147213163	-0.019467406237871313	-0.08821784290529033	-0.3770808225601476
-0.09170885201632692	-0.1898120552893501	-0.10054686030152654	-0.38693808102288557	-0.2646807593723931	-0.31795374042188856	-0.02143804854897063	-0.024627181321625613	-0.3601504449281704	-0.003380395478682762	-0.27034572070566587	-0.07173743933783838	-0.19089243054257143	-0.08348675088099684	-0.1319395436651748	0.004370390991702917	-0.06934919872238321	-0.3578911975972786	-0.16536723506117176	-0.16109651913759995	-0.16740721456319643	0.06430446193666332	-0.3468553500484945	-0.30265877080544995	-0.36313311743955695	-0.06779203106211626	-0.20850479982540135	0.029445286397427932	-0.0841783911869883	-0.12972042760425442	-0.2036127245254061	-0.21048137793927177	-0.3344699456813475	-0.1179820742258978	0.010315656732859276	-0.07596123742344855	-0.26217720490141433	-0.4088769360424723	-0.16052279656534177	-0.259981983092777	-0.2428281903645684	-0.2678648096319126	0.017587445987518484	0.030459586659976754	0.08249951239908608	-0.1928652682465169	-0.3294122603895366	-0.14228585745243402	-0.3086911403391675	0.1061730237982032
-0.26109234954554583	-0.17950875787880222	-0.2878077868711833	-0.27996672587411664	0.13307603020555608	-0.0131996687558375	-0.07665184933631666	-0.3142323053535652	-0.06470645604623254	-0.22785143873500746	-0.1572530382272765	-0.2593152742275873	0.05566696455019018	0.04167934291455935	-0.07867497390766141	0.041130935389564534	-0.10564904920026277	-0.06682287066282717	-0.2249795060344445	0.03994557572651944	-0.04539176994151687	0.008325239336009876	-0.2853473548330886	-0.08351025541378064	0.011851222906845293	-0.35208580884818186	-0.12375777272765012	0.007940327096193345	-0.14682750400773767	-0.2696038851885042	-0.12793211085546927	-0.39634885818136456	0.0049330628307754885	-0.13087838648690867	-0.19910700237502926	-0.058455953549987505	-0.08943230528281274	-0.3918656825685779	-0.2884489637174801	-0.3184684025863798	-0.2515826542374505	-0.27083963079676227	-0.13977079772740328	-0.38149927139778567	-0.2279677526482371	-0.17960870522677877	-0.4122415661667837	-0.18802925930223766	-0.32890612504842653	-0.3127825684829918
-0.13948260025221135	-0.26859293276347024	-0.039255074255821844	-0.25278937283470027	0.0699133093045971	-0.4273292658162497	-0.26791663958185813	-0.1220306557821683	-0.02482752747676136	-0.0034950343060931076	-0.28730787940812264	-0.31462987971311007	-0.262048854283015	-0.03667316544453967	-0.10328001595755652	-0.2545994120943094	-0.07884704117260348	-0.20576621671343062	0.0015735063618096893	-0.1600582557896541	-0.4226846157100145	0.09203804159165682	-0.12257566633276049	-0.044616785250822064	-0.05635427538746445	0.060162535305367505	-0.31653522789623206	-0.050796810217296484	-0.04991782189875227	-0.14304892927144508	-0.08749884605925756	-0.3659506503254324	-0.11662885859187198	0.11862667832359641	-0.3013284769519089	-0.32610082488607567	-0.0644976797231474	-0.4618774034623497	-0.37633610782884325	-0.13744119377597155	-0.1000906014270369	-0.12720670902765807	-0.06794523105591903	-0.2275969731343596	-0.08129996606075937	-0.35588867778689703	-0.24335297721127205	-0.23166390532466521	-0.3944928427248476	-0.05915559305986147
0.1072428996711929	-0.16010621974347827	-0.19178106376161724	-0.22903566710017492	-0.2974285011020741	-0.24190516603076087	-0.10899019905325914	-0.3433648135701294	-0.3095424915515868	-0.06312225743605238	-0.16063349694676105	-0.19826680981185876	-0.08299162421099018	0.053609185901164216	-0.09476793759753145	-0.06257333748320348	-0.010191363799880138	-0.1957935014790063	-0.17182443282517695	-0.30039059709554905	-0.3419198408590769	0.12153809689976716	-0.27442316151334367	-0.1601852926370524	-0.2274150491513627	-0.2015283651371767	-0.08932354593348171	-0.21374684248542083	-0.035767526007803856	-0.07086335801298209	-0.4200735185488408	-0.3884488319948616	0.05068695309967603	0.04286425216765117	-0.15737423902846653	-0.13472982895825614	0.01612814959966692	-0.16709439533900494	-0.3164278878931828	-0.16721483782117139	-0.16939469688151948	-0.25493888998035774	-0.0658031543713523	-0.16693986639168676	0.09971198345256592	-0.2669616887306205	-0.2658035666300277	0.06072494882855064	-0.37721729669010184	-0.34207637698578336
0.04753244781733853	-0.17530538286963485	-0.3086864808931402	-0.33204685360596115	-0.17395492428180312	-0.312291336287341	-0.32796013519096406	-0.2926683283788695	-0.3005094848790968	-0.1793354927316495	0.024265243908304448	-0.18417534573970895	0.03192188723173312	-0.3499303221560371	-0.36874155455733393	0.09676212240980744	-0.14721514095662047	0.006471598954478484	-0.292096657079639	-0.26980804860437085	-0.2116393583377972	0.162843997741649	0.001138424543802854	0.07816958155922854	-0.2892495953953614	-0.2731924093688903	-0.027568645901401848	-0.1463659498762105	-0.023770348969180347	-0.021601748247556563	-0.16907135947253743	-0.27639435696463704	-0.18081617090688407	-0.2589507643296164	0.11848687006818155	-0.10133661457424475	-0.12656848941125767	-0.17154187973891827	-0.20451732559498811	0.04378201114820254	-0.43459916092129675	-0.11309187455524258	-0.027406960421701237	-0.038175979858397706	-0.0502386416254035	-0.41608000285751096	-0.10048663689837262	-0.28682106969934074	-0.19273230201847263	-0.16790397288298006
-0.33933248758724277	-0.37224316157185694	-0.016101738003403494	-0.007911983888530011	-0.06486460250970995	-0.35990271498280485	-0.02277132812284639	-0.41600725209574974	-0.12856771124573427	-0.21878713902044078	-0.39905332571179986	-0.27282387635208893	-0.2712217422858754	-0.07834963045077274	-0.20489910418298224	-0.10834217542302217	-0.11700283645144442	0.0005398038777586176	-0.3150789149600965	0.01970369405304271	-0.4320622747691788	-0.037394048683590905	-0.03430759547240048	0.04667104070461426	0.06972899709593927	-0.34112893016400186	-0.04640565555705653	0.05195964456098043	-0.07617844834728439	-0.36484196171659267	-0.42664782433200116	-0.2637392047632581	0.03524741214480035	0.1661120587521499	-0.1253688918653104	-0.11575168353386286	-0.3700605793447977	-0.15569127709048136	-0.20555473788736164	0.01007219989601189	-0.44789085692010633	-0.1198531058368896	-0.16510238468835112	-0.08866851415235977	-0.2781827844957521	-0.03888900404792493	-0.09549297693564524	-0.0318021419289708	-0.161194950518052	-0.2877110855187197
-0.18090667257626736	-0.47049686969390475	-0.28460383552817453	0.0054096111082119255	-0.04062430233238938	-0.16573397563311684	-0.145672681657257	-0.1836540907720855	-0.12089402192879059	-0.19705362529451617	-0.38337914147713686	0.012183165508425143	0.04414110298790577	-0.03992526977828232	-0.0764139922070835	-0.1615556384847861	-0.03166089795333526	-0.036856440726775665	-0.3851687296166159	-0.044332598321285464	-0.07100474993616472	0.09100589167896654	-0.33121562349375167	-0.17179849501159153	-0.10394239548721919	-0.32425875508229596	0.024532420340964686	-0.12178780641684912	-0.010827220023904618	-0.15274902667689658	-0.4618398157008085	-0.41701468286650867	-0.39851584454494154	0.12435305591257406	-0.3146257766718551	-0.35684411413730494	0.0811408888930628	-0.24990974090651116	0.032460660953005524	0.04902798303235531	-0.1109006405921074	-0.2425285566390507	-0.20605023240117742	-0.26951217001861144	-0.02837989205867501	-0.31129916922783185	-0.34055379603789193	-0.09128044766831664	-0.061868774792396435	-0.1057905286588854
-0.002731602337153533	-0.10347238514817138	-0.0024437415001340133	-0.09689339853553464	-0.09591549284644989	-0.16237945182410018	0.013151461235105702	-0.2842702315063142	-0.21732833280033556	-0.05488812468501861	-0.33471274268794154	-0.08571657480457359	-0.30298148856441554	-0.11625134815504265	-0.07825040709007709	-0.13104334829126127	-0.10950425312810577	-0.22841734354265306	-0.11364949111015107	-0.07074614864470845	-0.3384044065108545	-0.2575126051023341	-0.3930541025329422	-0.27485272717964365	0.019888632564895384	-0.34501281065502515	-0.24041048968104473	0.027683169144451802	-0.06400948792477594	-0.31983228667365154	-0.4428046551588359	-0.39410602261662836	-0.16354861302166993	-0.1588361959658495	-0.009516032243412128	-0.06673419366687043	0.09039518028900131	-0.39570324644059224	0.023340945023311074	-0.08253694349827852	-0.20898464176564682	0.09907739110563618	-0.12655309509954743	-0.06543562498985282	-0.34821423242130844	-0.3191013483558552	-0.09914083506720818	-0.33373190998789715	0.0118745130886829	-0.2543800080994941
-0.12404269947787495	-0.42002876937860284	-0.3393712244312609	-0.04042532829224409	0.12652059767202922	-0.35658609304726274	-0.12498478353448947	-0.28042868549723193	-0.1511315406782509	0.1557625464450348	0.03599515296386671	-0.27886687710574426	-0.028318843936741514	-0.33735515843708114	-0.10798434956484006	-0.16376536182935875	0.08387382844586756	0.059491393213816364	-0.14891564603278595	0.07898639314656933	-0.354743394732477	0.018086985367515292	-0.3809948680960038	-0.1790109119375771	0.031305413690989596	-0.3053607201007222	-0.1607328503004134	-0.26713058229094117	-0.23945644845725395	-0.14780969916857198	-0.31468008482094606	-0.2812257552901477	-0.2874390940367072	-0.11803723707780545	-0.3037254287024998	0.010907206755056569	0.04645424052905892	-0.14905059078799252	-0.312111344191349	-0.2386615158932515	-0.3735713871143777	0.1244544044758735	-0.2907107005602027	-0.12041998558216598	0.08298371695428072	-0.061552511053996437	-0.3714954169806207	0.015714525449953345	-0.03285010638419034	-0.34084395158297887
-0.24521792646151971	-0.1972496108458098	-0.3064611378200579	-0.042720801648310734	-0.3102666949556141	-0.41730144226143784	0.07316596051536893	-0.3059650050166818	-0.07622391279015402	-0.06549994893077894	-0.3308445049719617	-0.19351560004265092	0.10383517032053839	-0.0622410731949498	-0.35868977071307856	-0.27149598663606384	-0.2669027982305963	-0.3279129444975028	-0.011729138272409513	-0.17743301231529146	-0.12768361809258447	-0.18558401895216317	-0.14179602866039612	0.10273256100953795	-0.10058695239495007	-0.3053232492376457	-0.15204726619688216	0.0308901923320701	0.05739885980901303	0.007645067130949447	-0.10257319676031514	-0.37072427913869616	-0.17569941660585123	-0.07121040280819722	-0.10774527657938822	-0.1646169704475184	-0.2903281498277802	-0.3245305781507165	0.08258099950206073	-0.0835281873269271	-0.18872105792684088	-0.26860967412245346	0.027304363109969067	-0.08479973424024925	-0.06741679949182668	-0.32888571439310543	-0.42452586873045406	-0.1645113013691747	-0.2715816626484254	0.11407663402726718
-0.2828158788957267	-0.47446417972284677	-0.09329703022327555	-0.14234910743991175	-0.04662241697564149	-0.17955555041116264	-0.2861240634623996	-0.19724552148364916	-0.4376733665638921	-0.3246201985798723	-0.06161357987418587	-0.1820061391516164	-0.22294579916940319	0.018114783905140656	-0.36659697905471694	-0.09254511939454214	0.041660315611923744	0.014253397872743191	-0.15605577440402627	-0.3593532934560136	-0.10648109053801202	0.009784912546493264	-0.1157459204288286	-0.3408319208146103	-0.37789319159544016	0.013068158957563405	0.028825481905212287	-0.11836951468734945	-0.0710297920421338	0.0826270224371804	-0.0048247622779173304	0.007895318021139124	-0.16284806627277335	-0.06193994241989841	-0.21076206507114897	0.015603834576631002	-0.3548753721796031	-0.40465918307475085	-0.24174271367237996	-0.10900935170699179	-0.3097101529042913	-0.17455822497787402	-0.2498160375538672	-0.3760041143683499	-0.3096938592230851	-0.3838190067031914	-0.008773761661856765	-0.023839566471030978	-0.27769547463985084	-0.21148035026255135
0.08024839574559503	-0.29083040380121333	-0.4322388825033426	-0.3885059897998048	-0.30635866342689827	-0.37572426933257924	-0.315565286154148	-0.12694864995383245	-0.1666116804607363	-0.08245035120411405	-0.0027431901930244475	-0.06218761779243876	0.039328188226677524	-0.03553950282362527	-0.338693862348635	-0.15567165965785715	-0.22784824112341837	0.04611606570851987	-0.144305481098491	-0.026052235298633156	-0.2343469990784262	0.05843392350815925	0.04345529139496685	-0.0022652704854544043	-0.09934422754056343	-0.3720404879430814	-0.29185297562519097	-0.20614395301292254	-0.3726537306782963	-0.11916211249394597	-0.33359621665419015	-0.21826645131457317	-0.13764643924021297	-0.012742661273635228	-0.0558469616697598	-0.29305083036536933	-0.048731962965298276	-0.12674129863065717	-0.3397472548624088	-0.08997776602392592	-0.19407877639201607	-0.1489042106256686	-0.2743540969883131	-0.030036888592530436	0.017060487853482634	-0.14753750172907681	-0.4081577807482489	-0.3298973152499518	-0.03887678932079109	-0.05773522013962858
0.020644774620618932	-0.17117445231272815	-0.15716227971982055	0.0043999039400165075	-0.23995050150606403	-0.3195642702086291	-0.21684862007023106	-0.4256418935366736	-0.016063376004142954	0.10040735349876591	-0.380825675462211	0.08121967760262086	-0.06856442456604761	0.02130652167378578	-0.34485784064585834	-0.017674856246058513	-0.13190407656650896	-0.21781191431470517	-0.23629697870644817	-0.05070601325685833	-0.23863925209089487	-0.07124151098172841	-0.3168540581323413	-0.07122889904439714	0.083452607288304	-0.060184833656278004	-0.2132896871622396	-0.3882779155445402	-0.15293162691458748	-0.32326944399811636	-0.33487100632242367	-0.09284930856024637	0.08182801241729194	0.10237113301920406	-0.09516374714499175	-0.36078261478230716	-0.1558302980963417	-0.14127551714943623	-0.26511094410518926	-0.308571529413167	-0.14529233063872016	0.08793230501720983	-0.2755296168555452	-0.029920604926806517	-0.3248760153005732	-0.4409205923805497	-0.2156077767847231	-0.3647050470151508	0.04718590744716788	-0.16389093914480635
-0.0016408126433634317	-0.2619568795792999	-0.3529294643000873	-0.4055828014880364	-0.3263961099881887	-0.05820092111082622	-0.23133678812363528	-0.2963053754056891	-0.033525163758798875	-0.15865059927783295	-0.27360807430561557	0.016357023107715963	0.02125441049354859	-0.05005662259607389	-0.3632561055840855	-0.26317276525686656	-0.08710378226081374	-0.19755030566984252	-0.20821355939814662	-0.3295347801260788	-0.28060141430463126	0.013545654440932553	-0.35623537546721556	-0.3502305417462735	-0.1986816687789118	-0.15694267779882812	0.14157185149124388	-0.21206621658277702	-0.19699217419913198	-0.09861087342176603	-0.07841025997437824	-0.030865201144437797	-0.05746209383981905	-0.2555698859849724	0.07126674580055777	-0.11458666625768464	-0.08323034828519366	-0.25551053271441654	-0.025795588489903997	-0.0892857947399775	0.027862859736963175	-0.14011551417266355	-0.4147061437115193	-0.3379283240601184	-0.1891806805114124	-0.2894951090862177	-0.2824716141019344	-0.12865389294366364	-0.06304327277380375	0.06630831908278169
-0.2292747390389716	-0.3571214659606667	-0.11094144487013421	-0.3673672729720291	-0.058468393784958675	-0.33636577847577787	-0.32226552813564374	-0.3289839181272611	-0.11747734638107252	-0.28025659683795207	-0.10651244051952714	-0.046385348136293615	0.06587959744676682	-0.043069217959344284	-0.1313733640050017	-0.09361166964269015	-0.09680882121386544	-0.36825479462111593	-0.35980125219686393	-0.18331294683309474	-0.304623652701252	-0.04425198955024461	-0.3855945483258321	-0.11507756966220956	-0.05050575280012424	-0.1113528727377021	-0.29612166169875626	-0.19797654811960722	-0.1860165993228954	-0.35446732554831945	-0.036737422153318454	0.023576284973906965	-0.018039628275797397	-0.16865150019889352	-0.24077933432501067	0.07442256552291276	-0.08831921082418068	0.004665650339433041	-0.3434198224835186	-0.24169774493062549	-0.33732130418720124	0.045335471555820454	-0.03687157397816586	-0.010908597550096589	-0.13273267522891544	-0.02805596334964119	-0.41842118692407243	-0.03194926981551205	-0.21768127278910326	-0.21521509117116278
-0.1989747767929965	-0.2963204061418136	-0.030903117257805264	-0.055670647182212527	0.09965723872690746	-0.40125779592366495	-0.3020231684115741	-0.13554324055884512	-0.3810049100803748	0.04241796679544774	-0.13046002632430248	0.04368552371160817	0.025765233399777432	-0.011746470075553947	-0.41030840910439725	-0.3060403194044089	-0.04631936454737941	-0.28069778412012825	-0.21645416937930806	-0.23265624111187097	-0.38238703488192344	-0.2164460707610566	-0.33429633322997115	0.08510587425262935	-0.04807466723380067	0.08966674430911502	0.1427952250230801	-0.032989501315887314	-0.10380254405559157	-0.1352021652900429	-0.42997223479495683	-0.2526886690092725	-0.18976630541017644	-0.017863178503232262	-0.018655953814814295	0.024738256204234844	-0.2140627531775117	-0.13726221982613726	0.05921980453761929	-0.15345046318271918	-0.26615773773777723	-0.12638757887003454	0.03699951125930774	-0.28139053877645903	-0.05691814872405446	-0.3555679301421818	0.05122969503083927	-0.3886041491696518	-0.1283056817181057	-0.15584186410910936
-0.049441269327795766	-0.40640322613948326	-0.4156043278622786	-0.1586556160985992	-0.30974793861570155	-0.19277226225023658	-0.03408538804098671	-0.12071316373114115	-0.3243462936995531	0.10320749436249581	-0.30632778515884135	-0.25713798349057987	-0.09011672454534737	-0.38208722043416454	-0.024262054267979186	-0.07903149499429837	-0.15286143491459894	0.029221522071351615	-0.25944365539529984	-0.0882936482928333	-0.2504129346534437	-0.03403657044980256	0.030111610083566553	-0.0900842669148445	-0.05728073552807446	-0.27296160650035467	-0.04922367563544481	0.03275374990385909	0.021932482987943133	0.053148459292143076	-0.24767709668711296	-0.23804546695848167	0.025583275326201596	0.04868383637418847	-0.23456987411314562	-0.1983847020721551	-0.2614737857575564	-0.29877490995997336	-0.06182877374859226	0.0864157262244544	-0.16892741595005845	0.10795435136114681	-0.06660332022456375	-0.1611408451721414	-0.38194327851100685	-0.29436776684657107	-0.31598396572291765	-0.38420778817796164	0.027940025158076115	-0.2998010978358558
-0.21620436586485506	-0.3774501634423232	-0.4100558222980163	-0.16101004149712245	0.05944211990553366	-0.012293137194121766	-0.19378775744033966	-0.2855679773920004	-0.3341547311222837	0.07525324407677164	-0.20815868510657737	-0.0690451958159721	-0.1617214935850912	-0.26066286858238386	-0.24867177691263467	-0.3328735873844603	-0.2141530720754116	-0.10345789232382074	-0.30916895771220376	-0.06522136308438979	-0.353836564417264	-0.021268302766845437	-0.07221370455488453	-0.13510032191792404	-0.1469473656438313	-0.21522043669564161	-0.08711534246374604	-0.3780982559628889	0.05889065423966501	-0.10180383967895622	-0.20885633823550082	-0.06641469654784658	-0.02096541026957617	-0.1275095934991352	-0.23015610037380735	-0.15054867598038024	0.09064431695681406	-0.3170662533654952	0.019077791222099502	-0.2846747850165082	-0.09686151839537789	-0.12614283419965347	0.009768000845990792	0.01719878422749134	-0.2410381617217144	-0.102719422178996	-0.12289429787053027	-0.22816479987791496	-0.41570694776549555	-0.0167523484831066
-0.07579564266207399	-0.07341248630470269	-0.31129853288339154	-0.17088626438087243	-0.25939709260176425	-0.15410232575480814	-0.15758041851791046	-0.25945328825559827	-0.19845030188768434	-0.07549581939086782	-0.0939142961211469	0.09711470707309275	-0.00423194702097615	-0.3609639165160267	-0.3765265904917599	-0.12413117999185337	-0.03687124297215608	-0.14091704038176248	-0.0845421372221945	-0.34666451658716557	-0.08343918350987774	-0.08116855220884384	-0.3089897222289109	-0.3329094598764241	0.04435771272133547	-0.03912300616194703	-0.1859806685985472	-0.15984789275816882	-0.27247270870563317	-0.17444142378119792	0.004270603791429373	-0.39142980569805325	-0.06752339038299754	0.1368514015515665	0.004566969696761896	-0.3723979617200543	0.09620575966559353	-0.27013629342075607	-0.38762549973801247	-0.21572324806128476	-0.24507160768800848	-0.04973521264511443	-0.2109295290402656	-0.01332207931366207	-0.27484247329962663	-0.32067984261555305	-0.16351534437693707	-0.02559075650469068	-0.36780703094910744	-0.37633867421508255
0.10092562975781032	-0.044135762179995625	-0.3073137147811765	-0.03903569514760158	-0.07783163324553181	-0.31970793265989544	-0.13047101692424806	-0.20580844593629968	-0.3241917017830186	-0.1738634200701987	-0.33004894003916524	-0.3019531285318954	-0.3154230696312926	-0.16068159011440464	-0.4035838534854846	-0.0797678509417652	-0.263802042569263	-0.08812350033753082	-0.3099151331157364	-0.053861635431574705	-0.20057957877489996	0.09693198163594438	-0.05841353060198728	0.0028701494526184443	-0.06721622072321412	-0.3518310489808846	0.1069072161655426	-0.22004407237232634	-0.025456118563476342	-0.03471766377823191	0.03854360068043419	-0.20778466464755505	-0.0619584373274273	0.04257602800235712	0.1174467893843615	-0.21399986128180284	0.05273336487357584	-0.22275115395625328	0.02126789591626089	-0.2251736323658499	-0.38040259069253524	0.07519071977668444	-0.029907632668575726	-0.326253553972033	-0.1610004696070629	-0.29043571186539624	-0.2620871167744316	-0.40573444936128694	-0.38641519948352127	-0.013019837694943534
-0.14823443187125218	-0.14589391512210617	-0.4209155192725006	-0.029496859241257195	0.033366807709924125	0.053297682218936465	-0.026562139712536553	-0.3217838143573452	-0.2754841547254194	-0.03914185246213519	0.013032687239002054	-0.16492232551231292	-0.11179188460771833	-0.21152589500813496	-0.41796730822421263	-0.18588975358456206	-0.19622481362118982	-0.23075295771945578	-0.4161836995070554	0.0758910935678378	-0.2555852805613944	0.09005470743495925	-0.0795705508553655	-0.02225431878678413	-0.21426911655497632	-0.2858890049193488	-0.11880779864639948	-0.20332013490713352	-0.334590167136898	0.021649876701221996	-0.19932562329237638	-0.2912724386535541	-0.01889815387780227	0.13911662162859792	-0.058470021657766526	-0.2401135441811921	-0.003008763615187525	-0.262007914647395	-0.11074172143284634	-0.08980201731037754	0.018319940874804538	-0.2242595000728584	0.04505942893783835	-0.35828002353396016	-0.13528350648769236	-0.32367467200621136	-0.4094829397504441	-0.2783504687046319	-0.0460930610642969	0.05581717742745935
-0.3007112618791137	0.044309635834039914	-0.18269393883141005	0.07441145573797503	-0.09945776383910918	-0.1689541616512366	-0.24042826798521819	-0.1265355356287579	0.02842244010425261	-0.15427377580500917	-0.3853979458033479	-0.30284753455386887	-0.12136386185510464	-0.047410457515802654	-0.3583903823359287	-0.18257064149260746	0.06762555867120594	-0.26224372768785575	-0.38876832541445044	0.119064108125483	-0.00476444425150351	-0.23968776128882166	-0.12790552697550253	-0.12386779889843061	-0.33560952628798263	-0.3002281491867631	-0.17253740549800453	-0.043997584013300756	0.10164378256930819	-0.22794928136855097	-0.3816597795812207	-0.3420545151660564	-0.1740881662616434	0.1681664267319396	0.005623314020885692	-0.12698535529578306	-0.31881167998543036	-0.2865794361794375	-0.17025922727492962	-0.11058852018091293	-0.07513885415477067	-0.29249321423644753	-0.31137796704952997	-0.3364001205792856	-0.04999610408742176	-0.31697931398127405	-0.007070519467651048	-0.3906089592730122	-0.14703340587702002	-0.2682246157921097
-0.06394552818371892	-0.08916804991373295	-0.13276161031785036	-0.1244225219875696	0.10408852105648599	-0.10542030651699719	0.017197853377022874	-0.34998388105221984	-0.3281720856255874	-0.3157936150620475	-0.035059941948914174	-0.3385267605505026	-0.2883090539207162	-0.21845234056800808	-0.3481553475815049	-0.33874478883214093	-0.26837021467426175	-0.04001287645953751	-0.38839438392979636	-0.21085555301544348	-0.3423815487765611	-0.1953566503390713	-0.14517567299910034	-0.07980881669164763	0.060885808651494	-0.3589817564488473	-0.19547364896207814	-0.056005708815114484	-0.361366052131781	-0.21219377632702882	-0.3263042377159647	-0.39732002888686696	-0.23773867759855366	0.12057744417717876	-0.2717925738968794	-0.18862572120015986	-0.16268936858473412	0.01626292404207661	-0.028347367441694315	-0.17958023960141856	-0.034654272232668835	0.05278858732702572	0.021280456920419855	-0.322297784960149	-0.18566423470171586	-0.3351669324840826	-0.07088208287222451	-0.0746875071240587	0.02318364780325062	-0.011982665486115285
0.10935205916323389	-0.09482047006232053	-0.2480891621444882	-0.07999710101018566	-0.17521603685418194	-0.34474180130615756	-0.04507276904508591	-0.4516692642370243	-0.07983718654623005	0.018759296222903576	-0.18366340957576854	-0.19595903974507692	-0.14315863628296624	-0.11284389426684095	-0.3157928057161533	-0.11270928505575364	-0.18099635686591725	-0.2978750499663958	-0.08277248062149062	-0.38007874883220416	-0.24572585995703436	0.08359230512757426	-0.13662661429666564	-0.14679753764124118	-0.1026299179508493	0.060227115812317454	-0.0006368809274528502	-0.15752757382850896	-0.2984114836757653	0.06623113437761277	-0.35388058672113604	-0.04408476046473	-0.20481149659176084	-0.16378609955568202	-0.25821050555902697	-0.08732748311566173	-0.13344534055776966	-0.015447910397886495	-0.08466035227655319	-0.2256541224901804	-0.08278518342130492	-0.1538258930352147	-0.035991510138342245	-0.4123825672838704	0.011772707999187811	-0.33847016014646664	-0.28918509411349586	-0.21223593300093252	-0.2698182738222718	-0.31215167927354515
-0.133124962147097	-0.14653112137301405	-0.355845453417344	-0.27985798514702487	-0.01743636496990048	-0.1941255810828703	-0.30802034629245995	-0.3579777000622322	-0.2279787230598226	-0.049492369313222866	-0.005989050936907579	-0.018411705568747955	0.060124554826393006	-0.24097328711846772	-0.26374426473007767	-0.21226074809820056	-0.20299939788099894	-0.08120252509860498	-0.3229268042126761	0.0442806322914769	-0.23889382675309265	-0.09164482207314226	-0.27264542480129955	-0.14551628239227887	-0.3643523964722	-0.203985802001524	0.05568313494302666	-0.3659603744690959	-0.15879807860065195	-0.09833503259954296	-0.10635926828812685	0.028836328722303354	-0.2475714154149226	0.12738898977529634	-0.2373431422509346	-0.16427994519632638	-0.006611721332073992	-0.2936361963254366	-0.3680568344874495	-0.22290079490159542	-0.2939097735228223	-0.06553683070383048	-0.2551846434068223	-0.023640731457708987	-0.007920154573589916	-0.2394055693586491	0.018632978049666536	-0.34797791090337105	-0.030961192018806847	-0.11160044728802546
-0.23455529865967442	-0.31165711080275466	-0.3324160714171425	-0.4046425518885673	-0.03197121849775674	-0.1874769943422265	-0.16184668714387776	-0.15694980964066355	-0.3230925193806555	0.008935197451358427	0.03341296157817612	-0.23785382086689025	-0.33541694206785755	-0.3550068198068351	-0.27902289879196884	-0.03954218599351806	-0.028514530466957674	-0.2571157866239938	-0.1316395533573151	0.033196493426660055	-0.0589025442425355	-0.06010290398818673	-0.07411129172152019	-0.2192942713814936	0.0678877442365497	-0.2540792331206545	-0.026004415687675513	-0.029744086938968215	-0.31173943380933133	-0.06002513304499745	-0.3014636451291402	-0.23492437385763068	-0.22092314695932794	-0.12412870945021573	-0.1903623688297318	-0.2232278897190316	-0.3480926402771003	-0.18205917904968608	-0.03852206627973677	-0.2993332656043665	-0.3855836388373894	0.035237192649204656	0.034182972899875735	-0.19824406979196163	-0.11047569840998327	-0.027274060719285453	-0.17635406551113522	-0.1877403542437604	-0.09656349773843965	0.04569403286603625
-0.25276073886010636	-0.24890010605312676	-0.3706661922033794	0.011844875342366668	-0.019748473329706362	-0.2757409301480358	-0.12465248317963148	-0.14935005600397433	-0.27878068672998585	-0.1549016905595223	-0.22094231645412737	-0.3499581395838507	-0.03459132209826429	-0.2608066103506881	-0.22859620207510195	-0.052245327444636225	-0.24813598890664462	-0.2717074691200055	-0.18315588677548433	-0.28671654222336157	-0.08222470133630874	-0.2670969037542704	-0.23744297015178073	0.04771047256077521	-0.2955785254985764	0.05063382861479901	0.054212412659466094	-0.15199306212773084	0.08675575720843862	-0.049684022091513416	-0.3834039769407866	-0.09045772959696434	-0.14156060578271074	-0.1895714518934377	-0.33823918044412543	-0.0929369176892986	-0.10964833228876461	-0.3737354971766654	-0.05776344178991411	-0.008516013183056614	-0.0850959607488961	-0.2538363464611127	0.008338337488094547	-0.01148725574182587	-0.2774472856859695	-0.313876939115764	-0.029325702273264136	-0.22745767654412014	-0.23012041852433562	-0.0945779004948614
-0.25905958660695594	-0.43494317588079046	-0.43077890528038104	-0.23403303938556339	-0.2855947485911594	-0.422447210086609	-0.07664853062738146	-0.056277724257998346	-0.33045908213540426	-0.013150676307041717	-0.3004692159931081	-0.24349734982546603	-0.18694431057496888	-0.38392563867923685	-0.349480989901053	-0.1875140249012735	-0.05210553252145105	-0.0415334011626219	-0.06243585636873506	-0.32710276225653834	0.014255527767517975	0.12123536021808372	-0.03695661171790538	-0.36628555854543343	-0.3423306677255818	0.041925855582222206	0.02742965245826211	-0.004028075471959056	-0.28723280313832533	-0.10204766713490175	-0.006211957912152113	-0.11293179658679192	0.09674907119330742	-0.1583856644889951	-0.14344885263281554	-0.3386939308070238	-0.26804791238929054	-0.18691945328380224	-0.11125069098812525	-0.17477370599583708	-0.07416257258088495	-0.1899013256578942	-0.15409396760298533	-0.02074785330587645	-0.11210696705270398	-0.32673123766069	-0.32295345182464447	-0.09911421684376448	-0.0969149270203533	-0.030736659671252813
-0.01763927926710671	-0.07388669648870576	-0.3062165476037456	0.04850656799224625	-0.008798929324912892	-0.28045444554417065	-0.22218629720089605	-0.04164821336690129	-0.10201438323274016	-0.19332946145661284	-0.4443981569518306	-0.048660709992888976	-0.05304723208108408	-0.20446997861658017	-0.11251550431204772	0.06280626152404886	-0.18089553876162756	-0.042559717163493535	-0.14459799661434675	-0.2665272273032782	-0.3399143339675627	-0.28967658085616693	-0.023445534772776517	-0.08925886676992391	-0.32797613096338407	0.006185983779948178	-0.21022433533464732	-0.2793367343079367	-0.2562297987343138	-0.16531258910355737	-0.22929152631099667	-0.4516371066915501	0.07962651248227526	-0.11070062706302534	-0.02847412108684201	-0.2974988587886785	-0.3508031657097604	-0.2494061779771905	-0.048942043357674825	-0.27294361864594363	-0.09277262598858825	-0.12048802441947265	-0.17204902422108484	-0.23976143475530015	-0.403782716334312	-0.1838182414494774	-0.1246542152126778	-0.05991450232514992	-0.42728233117249287	-0.3368332407522817
-0.08143542887614111	-0.43514441311828145	-0.11600532208395165	-0.17731916398228234	-0.26066541582151276	-0.14420301947398534	-0.19670371191618366	-0.3514906919624816	-0.13350337820776842	-0.02213136343385058	-0.04311518864403728	-0.029503737290375465	-0.13006909554994206	-0.31298523618977697	-0.3363454768184206	-0.07639472223164265	-0.31866140050775754	-0.17333069226265788	-0.1717786540997949	-0.12221407852823343	-0.01679761346018585	-0.0857450096978326	-0.3713724203489712	-0.28785373047610074	0.08140864364440319	-0.17923095777887174	0.000999643217679696	-0.28815525917026125	-0.1847655844091652	0.06967131739545705	-0.09364959249708034	-0.2394718540296837	-0.22169952907363413	0.15538005900369742	-0.08693459643850741	-0.13551226932042496	-0.21938703801441098	-0.2796029985910192	-0.3519777911649243	-0.11178978110008299	-0.021152410843600207	-0.2394395775748845	-0.31960577782473876	-0.0802074005512194	-0.3866284250711066	-0.10321913629769296	-0.18347631858100982	-0.2039317891470809	-0.12882334542885174	-0.16454874100959008
-0.3162556750683292	-0.265536541734195	-0.41096284442137077	-0.07681039421425809	-0.33152039105577025	-0.11065091881398811	0.022297531810698035	-0.3347699220563876	0.02060338640281506	-0.19278777277800727	-0.22163043252093392	-0.2673328318310922	-0.059444191563126365	-0.2608247867563925	-0.022113928948158588	-0.20195357138853195	-0.05103331168631511	-0.32128973720305587	-0.16113804393273956	-0.12106728513298418	-0.12660960194263282	-0.29427508028968663	-0.26205975634450557	-0.3393185157575767	0.05850012961204252	-0.06950268868610467	-0.07470149839133321	-0.07240896901296684	-0.15192066316799616	-0.022592070189515503	-0.2535167466862211	-0.007930100883662672	-0.23039085580654706	0.14121729563366106	-0.3362702616067762	-0.20279881508420602	-0.03171052678530922	-0.4296466047465424	-0.3390221383476213	0.04714578166707765	-0.1991846796512377	-0.12995649260662465	-0.3812324548274649	-0.2822455122245528	-0.03823478300067857	-0.21986348494971114	-0.011694392557878401	-0.2961999705435292	-0.0325166222515683	-0.022153286820106116
-0.2920796713194685	-0.027351664961279717	-0.1672253618765956	-0.38416659758060134	-0.0016990426369077232	-0.3405138071561119	-0.323513622402635	-0.40782830697394873	-0.08566931093165275	0.06584616184947921	-0.15948002969572597	-0.12593211143454197	-0.21335889635808744	-0.33884712894796254	-0.1972408038570428	-0.30185420569998567	-0.05810097608938069	-0.0983491992979232	-0.12152196888836754	-0.25815648912852784	-0.07762994079823479	-0.15230526459413887	-0.2060956970554125	-0.006819695844298626	-0.19979391990418596	0.09996002267709486	-0.16665521902467378	-0.2823328806933406	-0.06442796570667084	-0.19842087136776607	-0.042795386655977125	-0.12801594506559602	0.014853988634154287	-0.0036620150272678666	0.07614007156094203	-0.1666552640600199	-0.2140710330909279	-0.033444637274077524	-0.2477924137109872	-0.35552116353911134	-0.3950683648408757	-0.04436930495441945	-0.3725514670830606	-0.09106934091390251	0.048324458555477415	-0.31606794391754045	-0.2605525693513265	-0.3805839365962652	-0.010502418925364838	-0.28476394498972063
0.036773836181318194	-0.3918804580140538	-0.29286237931646203	-0.14970373325450692	-0.178822220813691	-0.17163666839929337	-0.36277774817674724	-0.44890116810728475	-0.4314874402614787	0.035438502631126155	-0.08447466919373377	-0.27628364734956906	-0.09655803481082899	0.009477804719883976	-0.2303851229970926	-0.023921618846158812	-0.29228273459036086	-0.08036407315329079	0.0007860208854841849	0.07973503707941604	-0.41189291420306917	-0.09417389484186088	-0.04160152551570489	-0.26211582652862964	-0.20687791248853749	-0.13653718510570378	0.13467083536313162	-0.25656169135233675	-0.2792788077457098	-0.1651082014383466	-0.4277852823994638	-0.05537185545410829	0.0022052900591967564	-0.08486779981106515	0.004495446381897035	-0.1334074539429621	0.10487290766311044	-0.21594890251101545	-0.1870458271862974	-0.145639834640886	0.011507912703890674	-0.05617191084382441	-0.06397544063736764	-0.14813258746609895	0.06926190726442127	-0.23569806523581271	-0.39112492978414337	-0.437019594735489	-0.02044513522402116	-0.17170419116213786
-0.11682884857074985	-0.38465607166315857	-0.012549799972030316	0.014467043949454703	-0.3365742929623517	-0.046502352169873334	-0.33909091419643317	-0.18736889530309203	-0.3959682433694445	0.013375084916967903	0.0172936630377925	-0.2740351484505357	-0.13748135323836377	-0.16367946601438527	-0.17426704112251404	-0.271979446809007	-0.04372802246285027	-0.09827919701267732	-0.43359272080564865	0.08722206549232983	-0.3101018738975766	-0.12726665551231064	-0.024341870229667217	0.023403924136122568	0.009192727112246585	-0.36686352215908635	-0.23330509779749523	-0.2991740915627935	-0.23863165363659897	-0.010468526331466891	-0.31808452568897533	-0.19129413120685426	0.004887421255538374	-0.1510737227376134	-0.2741750695780968	0.026676447845356513	-0.13377473791200045	-0.4414603484425224	-0.22780860526013075	-0.3008592460032171	-0.014706380656117315	-0.13640804661183756	-0.2088443034641935	-0.40161743719168747	-0.2779662651962749	-0.17597643863697743	-0.04454268344942021	-0.09831429914625667	-0.09145891063033566	-0.0014691711380645472
-0.05733215170939271	0.05538619411376424	-0.3924354564618255	-0.22444146335810555	0.1205164399015637	-0.22788246591582456	-0.1604542067662222	-0.1469970609891005	-0.3959111175774604	-0.1739650757779802	-0.027220423328863937	-0.301576649701901	-0.23308680734990822	-0.11776967538679252	-0.3249155954502572	-0.150850463095874	0.10617300147983273	0.060700262522656034	-0.2149715389670588	-0.09105427988188132	-0.3797058939589058	-0.07277213292176934	-0.1435170035285701	-0.22955375552249674	0.024796232149525185	-0.055596424429697595	-0.1337219904472243	-0.29157853109015064	-0.15473384705948592	-0.19273990194913176	-0.38834052554946047	-0.1161546992014373	0.12643144683762816	0.12702809134710968	-0.1920883348338987	-0.14205878499873884	-0.30112081722553075	-0.11228674814122763	-0.14367199527544758	-0.024478240060172494	-0.2950828287799979	-0.04334898939146199	-0.08780518165564664	-0.08940418394251849	-0.27332580611778967	-0.3318347489640012	-0.30091041519043593	-0.3176044785440505	-0.37838837755149857	-0.16744745130272684
0.07968707644067344	-0.31508007575791214	-0.2177185808622393	0.03223406918875609	-0.05665805154561451	-0.031438066166599915	-0.10917602860024939	-0.03880861494100254	-0.04980471158597445	-0.13126862797606562	-0.11337081885149285	-0.37995121385078395	-0.19568852899937075	-0.05613011255367347	-0.4530180044870357	-0.36944885354087215	-0.27350155437276386	-0.052031095922788984	-0.18871016468283527	-0.3117446546668598	-0.06488234462780483	0.13116219271471224	-0.10194749258123284	-0.07665801845079474	-0.4025377858283511	-0.12106441804671422	-0.10340300346802705	-0.18217680296871244	-0.11494079583542158	-0.12403480728648919	-0.2667903123592456	-0.26121045235061063	-0.2831192420263974	0.056650253119896174	-0.06435689649636947	-0.27492806023458893	-0.1510280748715612	-0.3415393299815592	-0.15271869373320748	-0.015105959742326007	-0.03929499804327801	-0.06569650219416137	-0.3912397814969492	-0.45708701688127523	0.02716565736814291	-0.1628263719821745	-0.43235463370783783	-0.20900756114781346	-0.2625835088182766	-0.03948840931743853
-0.10637773297863046	-0.3398253473450113	-0.1938323802945811	-0.13577512340684084	-0.18720880228753636	-0.3575420872930118	-0.12606473325773865	-0.21250216902031868	-0.19184336013627654	0.1084263090641797	-0.2649572817704253	0.017336193866960194	-0.0055678872453891705	-0.07238954658042884	-0.20700984206989906	-0.3843225059833192	-0.10902637595014301	-0.025806897562504608	-0.1312996082776962	-0.28656219323504734	-0.4772702072994269	-0.02885429689721929	-0.050247127786446535	-0.10787934655916394	-0.11768612432776251	-0.23332031258054511	-0.20680124271959485	-0.23902442908288374	-0.017263921650153356	-0.32589243206645246	-0.4829474539677055	-0.07927916472289934	-0.24914052029963912	0.0721555895139352	-0.2087997741889106	-0.07082812627380211	-0.03090068963312622	-0.13313097504444707	-0.4205422737855098	-0.23920557817152965	-0.037386614246062676	-0.2507393219702738	-0.2359350661727193	-0.2664507497132889	-0.10906441961339973	-0.21884055851248585	-0.0914428964361921	-0.090007768462334	-0.2669850021464019	0.057366015586881196
-0.061125652023983776	-0.20938195289029898	-0.3612065879712401	-0.1304756618529748	-0.18958819942647323	-0.25284597219793203	-0.06574492369536648	-0.34281266887300715	-0.06749320056226114	0.1149475247657417	-0.3202759025867111	-0.1896438310370248	0.05607957459741472	-0.19275955937221362	-0.4056843530827414	0.06516524377469356	0.07417646899591526	0.008523535918130059	-0.31078929084792545	-0.2868105051883542	-0.1510465450610003	-0.02083536978993816	-0.044713745504797654	0.03884317141287667	-0.20135424221015685	-0.14602228605910433	0.13008149973292915	-0.2890705134696636	-0.25443006243003524	-0.21432347934144766	-0.14740957663205925	-0.41788303485726386	-0.2778102924963663	-0.24426774235818716	-0.16444041125063757	-0.3328935297370381	-0.25738550613000155	-0.2303397414478531	-0.18869676712144318	-0.27769418033926035	-0.15016160255373726	-0.2522232601352879	-0.09877725674709584	0.023143557285823905	-0.1185431824311304	-0.05005260008019333	-0.18844152581203855	-0.19473164243477514	-0.1686335809176435	-0.29970409732794007
-0.14740038979411108	-0.2832502640459921	-0.1775364521567421	-0.020545567627123465	0.00026945598350975057	-0.36641365103934775	-0.2736605408824305	-0.24591539153846695	-0.26041743017178304	-0.04499353007013288	-0.3531608826124913	0.05737553630042756	-0.21720114786839725	-0.36290745666590274	-0.27591413484621297	0.04319548548774595	-0.21890521172622548	-0.4411489420973905	0.00425222640647146	-0.032946986799109484	-0.22294552173100057	0.15706897498385597	-0.20781916152887853	-0.3477752660391049	-0.18259250316808065	-0.0752525995859663	-0.254351891615472	-0.09465878683407565	0.04081629180725624	0.06379540117759061	-0.21329407895844493	-0.06438917964686623	-0.13310645426292303	-0.06817571193993198	-0.2735316420313182	-0.36116537489082995	-0.020887592308258793	-0.2100060363592735	-0.12110646759165002	-0.2730923446260427	-0.1046958107676302	-0.22525312592510915	-0.2353032620486174	-0.20577690559088718	-0.025238791648887145	-0.370993384335155	0.039338021599660954	-0.25787210093323126	0.0399762820247392	-0.2538613474775266
-0.041771930245621716	-0.1150528432682003	-0.36255833477314925	0.02667186601480811	0.04752774078331422	-0.06246945220102027	-0.011278647869728898	-0.2559877145200934	-0.16916096564180672	0.0628949686207776	-0.22815515603867922	-0.06977894523569386	-0.2180977237811149	-0.2993994907883947	-0.25486186133667926	-0.06884593633617703	-0.305740915427106	-0.17972183225298288	-0.20107395349311832	0.04739434590638135	-0.06723121793371956	0.08212786509198904	-0.3055887125529017	0.05714634987753235	-0.07804237620306566	-0.36463948650160183	-0.0689728599130778	-0.16363450000262958	-0.2839036284490608	-0.11906234364306882	-0.4720848579431482	-0.24706109044623728	-0.01387242967734716	-0.27948301453818086	-0.1830710865585583	-0.09840065071959103	-0.3629830173503639	-0.13618445243134436	-0.33858862035298976	0.050336492768470666	-0.12131210662141491	-0.006084692604729209	-0.3198014854577561	-0.30959266104615063	-0.4011573477393773	-0.21493412004015686	-0.030211251269231895	-0.20059241810312328	-0.2775675603804672	-0.10752348857076022
-0.17761741792848407	-0.2821573194404695	-0.18443590643876556	0.030371714380491056	-0.13441408551315945	-0.13129854293608284	-0.07665933275455594	-0.07892622903000665	-0.31783437690914845	0.09165436092197732	-0.08433514883845888	-0.12338225279240604	-0.16456652572491776	-0.06568371230716055	-0.0319924709778719	-0.19479175824056963	-0.18753001500064564	-0.3522797598333738	-0.40727771655523715	-0.04271482994264228	-0.319781927965295	0.024549124433878012	-0.11461064669179577	0.05052440564732197	-0.29797526592001244	-0.3202758776234339	-0.2799561188741907	0.041859357969200185	-0.15836202731951798	-0.20466271810210107	-0.39574908157837274	-0.3897743191481652	0.064519384111259	-0.1809333210970983	-0.05041085391799035	0.091595476783932	-0.007572410907956801	-0.000969203361372982	-0.33777257828796287	0.06895479615439565	-0.03257901121930955	-0.17515535463459597	-0.38168197504360246	-0.31162916026136106	0.011696908943739148	-0.09421260513403029	-0.30320822573190903	-0.39606558413386206	-0.10953241401673422	-0.3440148074417097
-0.06733182656419677	-0.37385607720117575	-0.41788967466608473	-0.12900283119467054	0.11085885161591251	-0.2768965749360852	-0.25187213487844534	0.008585643395963837	-0.2244578935126197	-0.021236020115056157	-0.11069261427297124	-0.05536374034575486	-0.36685867325516974	0.003120457936053514	-0.40239217575733444	-0.16575851481463033	-0.23119573509212574	-0.20060320935108822	-0.3829893115051247	-0.06199962145433347	-0.20193187265384877	-0.22364744582761964	-0.022704563438663172	-0.01929784960734876	0.005844562618756911	-0.2923582462518583	0.08999864060328117	-0.15688058319728332	-0.13821192011811137	-0.2887259231793215	-0.04386184087777975	-0.33641215408637815	-0.08436466803391138	-0.08720924537754295	-0.04182696802645182	-0.2927883207396172	-0.020307187816312827	-0.09558755291649271	-0.15888462613609122	0.019542978332227404	-0.17749746782846804	-0.2928118369342451	-0.2244094471013171	-0.3107571656802014	-0.4026865503640543	-0.29598112408493515	-0.13237075780591467	-0.08345168695794881	-0.027353476676811365	-0.32917564416668393
-0.25442371655520213	-0.05985097330267176	-0.11441316249499751	-0.2412566573333206	0.07948731782640377	-0.27516668785449994	-0.13485421583784962	-0.04725941702827716	-0.3901038698351998	-0.025676835261575263	-0.4100827275131194	-0.169644911060062	-0.2979463983694437	-0.11954298267008344	-0.48093341072256274	-0.29081256955138624	-0.13825970903115656	-0.032346978618457714	-0.013410613680462794	-0.13077635825476946	-0.23263378863891865	0.006801316207604292	-0.3343720198159842	-0.006778901675474323	-0.314559998537769	-0.10345949428977283	0.004546971401240044	-0.2992922717613054	0.05289074508473888	0.012627442350057102	-0.19938519244434216	-0.09493245355736217	0.06159998907766786	0.021463287718051793	-0.04961796796121701	-0.05242971878616001	-0.08963290526971213	-0.13237300013987494	-0.26809311480168757	-0.27388136801335633	-0.32663775214755214	0.011251983569499437	-0.2936978042985614	-0.1408307262121968	-0.3437631552599727	-0.08029929660139142	-0.029342972505829637	-0.34666661649047326	-0.25161757988426003	-0.3356352011266027
-0.16340173856229107	-0.15845050799899213	-0.24140644892521362	-0.07275438063845052	-0.14600008047925683	-0.34734881326327455	-0.18446459747637672	-0.359277376978524	0.05341720641364807	-0.006473250310196139	-0.2545311333192341	-0.2917048682821912	-0.07365777876232014	0.05155651912891514	0.012992960453017809	-0.17871241834349338	-0.17654826900575418	-0.22568322610789263	-0.005244892773126917	-0.14052440749432257	-0.33195326884557386	-0.12404142896439348	-0.4103980237414471	0.08573664888089472	0.08280975592512455	-0.1873646392627077	-0.1745125097842373	0.03671533348032874	-0.10913430943225952	-0.17703157134184494	-0.1969253029137806	-0.1650629649796985	-0.13111780561039302	-0.079148916622545	0.029695480829885056	-0.2484998902089994	-0.1270126602744698	-0.2292686283422827	-0.18198986514657164	-0.22205228311059472	-0.38500424994898297	-0.2163560905591959	0.08690347481853535	-0.26699849958147814	-0.24216968663796581	-0.37121704969615393	0.06114995184984495	-0.31191160542469876	-0.2881903904405273	-0.0388689153182655
-0.16211834816570342	-0.10516834618611158	-0.21564161871797852	-0.3648838336045828	-0.15764459229038325	-0.19583101351322596	-0.014326056237773829	-0.2113564232824367	-0.22234728208922547	0.022304798316230386	-0.404238191784347	-0.06810606779449535	-0.2289494451091668	-0.2316936165222015	-0.16604198649575386	0.09938095227565662	-0.1594528024882255	-0.26753789321491883	-0.3057047106863739	-0.11442686474620957	-0.3579691467843334	0.04033773073211063	-0.3227304977469559	-0.2744088463700856	-0.0477256220247261	-0.04002724368259874	-0.00534693616152021	-0.3539011414601551	-0.07032069315268047	-0.18080245430762096	-0.12862051742985456	-0.44279522913242264	-0.28917467727396295	-0.2832667479299732	-0.16337694284595797	-0.16573046391226584	0.10846242836978309	-0.06035442085081146	0.07659804067430127	-0.12855092923400016	-0.03559094831663278	0.06848004249173432	-0.10113457757148286	-0.04824312744050843	-0.24297765418510822	0.026390752649484806	-0.08855463362607673	-0.27583800906412925	-0.03632971291504645	0.09574918345392633
-0.0826854480341521	-0.38408378262481646	-0.42890357521431854	0.05656310813880706	-0.1789302123986426	-0.2682089851877136	-0.1708690855649104	-0.2608617457748747	-0.04647981283562002	-0.04649285410185574	0.06341237210860416	-0.05153679389032359	-0.27359660183241885	-0.00148318221087973	-0.19449118098433105	-0.020498518242590844	0.1186661057026696	-0.012949021880259976	0.055698481233410646	-0.19523402408287746	-0.37237134806657596	-0.193046128727341	-0.2223444122937844	-0.18463196284066985	-0.3691521858720665	-0.18766318556749276	-0.11466479806953075	-0.08326930700521887	-0.25205947944412976	-0.1879024418229434	-0.09439029831746265	-0.4159890856483501	-0.23918526566312373	0.09058709687367789	0.006261015961294633	-0.1194683531348851	0.0019325714377231998	-0.34701327549792943	0.06806337383481349	-0.2914717343454329	-0.19426616971369276	-0.15530229263204073	0.08120501543547434	-0.34134614936960556	-0.021414936457257575	-0.14432015463647685	-0.06849484874921315	-0.29889560105596735	-0.15239291926364656	-0.2918760553110514
-0.0015271524979170335	0.02117841311737134	-0.06304951378572604	-0.11093099894723006	0.12468697847669119	-0.03967168433621428	-0.08044811895732504	-0.36394701695411247	-0.2649502014355339	-0.23604536464623552	-0.20807053249376287	0.08809875537646066	-0.12625694329740278	-0.32481820891608776	-0.34520346866716006	0.07211953112909143	-0.2931412486551827	-0.09779595666401862	-0.41222972024653287	-0.0347456486150077	-0.37486165656146797	-0.2992492858082879	-0.22934607546571226	-0.3211042867016103	-0.19675973739264996	-0.2600084454405929	-0.12045431129823135	-0.02794995398597847	-0.2918402620523482	0.016099193319853457	-0.10867919946421925	-0.30037618403697075	-0.026665745203632275	-0.169244513462618	-0.21011375686199757	-0.059916003587105755	-0.18763615380040732	-0.02845208888164398	-0.07760043650548545	0.005161270605422272	-0.11948678041483102	-0.3240890620908496	-0.10276603275940209	-0.40378168799619657	0.012471439399815777	-0.11658584883937495	-0.11607863659320536	-0.3885806547806878	-0.15431547104633017	-0.09557484585671368
-0.29888122350059526	-0.30581009416113064	-0.18943674226119134	-0.19817580308746854	0.009501083702504782	-0.17151452910337833	0.10910318423460508	-0.34884275084233823	-0.35773102009935187	0.018926393356548537	-0.03275628075403537	-0.2614660699729177	-0.012628490054070848	-0.04177886226816444	-0.3517174290324236	-0.30710008263090405	-0.1391780978296253	-0.26275587704991926	0.08760233858997488	0.08980388844845805	-0.2035475884740549	-0.1494144434764463	-0.3904769494576357	-0.01587027688903062	-0.28201234336721004	-0.1713367691583942	-0.20381178129545466	-0.11419975340911587	-0.008214360651506382	-0.32485999781855407	0.04313960463171401	-0.2955607878139274	-0.27907856562608524	0.16947676189851937	-0.0185232342220468	-0.05771938236301644	-0.0932727225409128	-0.2914168335360692	-0.0027039107596602647	-0.20076304646904705	-0.22646593146689886	0.0153927606008942	-0.18922086106142563	-0.31341370149335257	-0.31683558286079716	-0.2551361052944589	-0.0633067834087688	-0.22563472213539862	-0.11637203839777181	-0.039578075672020784
-0.2391886674795971	0.03490093748882808	0.003174864816116517	-0.2414230934690622	-0.22395438904586099	-0.1562955744540604	-0.35183635492304605	-0.1908618195774307	-0.21242615002626766	-0.10679958496945782	-0.3647631468697363	-0.0290829245047658	-0.3057518610761392	-0.20381648743273556	-0.2573078230941457	-0.1108493288325048	0.09521142917795565	-0.4179688094635381	-0.20732722979895518	-0.07988715479431487	-0.24611888615459143	0.04549589000499823	0.03419134198523175	0.08323740027052869	0.022411947730774408	-0.1377462478034125	-0.1761603793126507	0.08051564137408973	-0.34850032650383345	-0.34007581501499284	0.01867268793892049	-0.3417373030176651	-0.34258335915245836	-0.23792392155980088	0.12247532580677818	-0.3405381133802065	-0.002195905169128059	-0.3592649857905071	0.0926639890157321	-0.1909154707865934	-0.389835602437911	-0.12296867441715978	-0.20587130461269976	-0.400387452361252	0.09173771823650394	-0.39172718764220166	0.015479157375587398	-0.22008268060884495	-0.13187743736831556	-0.2641767172925822
0.07182807285893916	-0.381053089140639	-0.28955355943613653	-0.15912081202766076	0.0997820112440515	-0.3595662436646213	-0.2615025000219314	-0.21617029368245874	-0.2682402722483125	0.033601677895206364	-0.3072437302773089	-0.004518322197544154	-0.29410397013671385	0.08832890577873187	-0.05949631095569567	0.017106713924064414	0.03309517401360603	-0.2827938057831621	-0.28151706564017953	-0.3306724254389025	-0.3182455686843684	0.07867431481098879	-0.16077358392892327	-0.09874581097064984	-0.23217390488887069	-0.27442907145520007	-0.0018075263692254007	-0.3216859477614357	-0.3440784302033538	-0.1975309554478156	-0.17844151713677764	-0.3690278808958252	0.1225513821598991	0.17737247813082438	-0.22547427807882542	-0.11284227736003362	-0.08598812125869444	-0.016640650018949075	0.08043048216899838	-0.1736950000214759	-0.06802454517499101	0.016567846229448235	-0.0016912729978138788	-0.2886967778992159	0.10424488573762317	-0.23111569676940433	-0.366542994532484	-0.2970213493481479	-0.2739157446531049	-0.2104810758520184
-0.025924993148872963	-0.2735232460644198	-0.3215319418302114	-0.29492664064042795	0.046338502389125256	-0.06868976143414318	0.05838597496380975	-0.31319535898410084	-0.4406825650208282	-0.04604025095255114	-0.21928390907414724	0.057364683844296126	-0.21466235391671476	-0.30636110521391385	-0.33107670490167246	-0.16866276761077656	0.02738442640062928	-0.19955229470507305	-0.20472964378117084	-0.21864241616010574	-0.12458941150896813	-0.016195265652268028	-0.42611161876162157	-0.20794651757550592	-0.23096973034266324	-0.2899867373475954	-0.03723345626830507	-0.24733463730050903	0.02417069713084349	-0.27953766435895316	-0.20668910961053913	0.037118941602617174	-0.15915438647992372	-0.0879499265755975	0.03318501365419669	0.03303067726770264	-0.3096124646808674	-0.1278634157228837	-0.09269252733296142	0.04226926818321569	-0.14541608639922338	0.03942825958620101	-0.2496871526676998	-0.0018903140661101145	-0.16206861686468624	-0.28668809195205297	-0.08635855353127317	-0.3731161650184134	-0.08029529799527699	-0.33928563168155684
-0.2962855418929334	-0.17244478014404568	-0.3962040376772669	-0.30405269204413615	-0.29109452406250635	-0.1862898900933049	-0.2427849210688554	-0.3885930407183898	0.007759646002032578	-0.1813705987706488	-0.133540218644877	-0.22721485817347387	-0.06401415189394105	-0.04653950004591748	-0.2995237456863812	-0.1573598616355973	-0.01828344494190799	-0.3588674683575057	-0.10967501735937957	-0.19649811552971572	-0.37930713346141487	0.142110632020464	-0.004134265632930882	-0.13891061827497037	-0.09367623144958542	-0.08044160865692676	0.10828053009712808	-0.15859433569804987	-0.0756070970336043	0.004111547207151005	-0.33219021190705983	-0.2371317050949938	0.0775071080158931	0.07512304093967699	-0.15376370076187537	0.05055219982755453	-0.33607935860961907	-0.15232590307631214	-0.29326348257087287	-0.12442202401869498	-0.4072929530325822	-0.05482437099154763	-0.04591559401699866	-0.08480723104182487	-0.13248983106651113	0.03165650090548519	-0.38681277133915715	-0.07876332055434979	-0.13476918885103223	-0.3386171427717785
-0.16239205322819278	-0.047331983859160404	-0.4561623297464818	-0.292258291866004	-0.0215978332808858	-0.3066182777528093	-0.1359213428337634	-0.41503768141007297	-0.15635500382733344	0.12058750040933784	-0.3638107113916162	-0.3205020531908614	-0.3888982007976377	-0.2832745476015709	-0.28245758551084615	-0.04948730620538717	0.00856365878735884	-0.07622172910247231	-0.07588647828769277	-0.08062710114879804	-0.3125269922562954	-0.025691986201267218	-0.04250789471194902	-0.3374016230882047	-0.22566785404386006	-0.24038698312375287	-0.12469216171144656	-0.18796257731074056	-0.37665602083173555	-0.18475789194374956	-0.08381499856582982	-0.24612849940211026	-0.15883969430041736	0.14759445326731266	0.08417662097694094	-0.1897429102504981	-0.2274662984718197	-0.0006583192306328092	0.006931774438179671	-0.2380819601804219	-0.014677068071001501	-0.2867473195379397	-0.09137768455314335	-0.3355749409550385	-0.08374191467655916	-0.28565863652988066	-0.028306307757297575	-0.3176147828852799	0.02335945011735413	-0.0793847916859256
0.10520799628572262	-0.41573133558359904	-0.11827623024011585	-0.04288789033912589	0.02712541830163175	-0.2983046694760537	0.0627729791120748	-0.3030481928984167	-0.09048367995200086	-0.029933479885200745	0.04594709484869765	-0.013360667409737107	0.0008748253827029869	-0.19551725608017362	0.014234912064699835	-0.24539117901811286	-0.21651795723738212	-0.2975742377453743	-0.3138686842119679	-0.2167910068127535	-0.35517499702453903	-0.04587928499487993	-0.3195061689480972	-0.24432355944511666	-0.06699646854199749	-0.14830100740926938	-0.12833785486515284	-0.23692635146467902	-0.2566420261551226	0.009374680261281803	-0.15431681474919975	-0.31985605072656037	0.07618540900864426	0.07654273706539637	-0.06633271155400002	-0.35262515990680215	-0.19304002117084826	-0.10674818093719811	-0.11355477835273399	-0.04788240454509531	-0.4402408776011338	-0.3023717843474748	-0.03634773899133391	-0.1687137183286648	-0.30723038375574474	0.001127551176152077	-0.20441553890596956	-0.3588714240027999	-0.041322102075873786	-0.18695193865384746
-0.1278230678772572	-0.40569140088306654	-0.28690014735084163	-0.19339557674907362	0.01847339957711841	-0.23474831988130793	-0.1720471683395561	-0.0457708751125957	-0.11870581266849102	0.03369858433844416	-0.2255527735091778	-0.07105388305108237	-0.029609960836465138	-0.07092003498172912	-0.42886115379432127	-0.008428027964278226	0.07380108632395159	-0.3659785263074231	-0.34173701107336857	-0.03584101914507467	-0.0019988424651134974	-0.03706309418523418	-0.3589153573455806	-0.2937691873122324	-0.046241814070292854	-0.16028290536341533	0.037493866070426075	0.011679193769086384	-0.265489785242702	-0.0004603379690058368	-0.3485057580182199	-0.29594452753727896	-0.027965100531107182	-0.17037783995925812	-0.1941142953589536	-0.09822052112362076	-0.31788406079810017	-0.012409488602890754	-0.09387100003397392	-0.09675468234050567	-0.33571253239663945	-0.29365198122579583	-0.40745275999339425	-0.15250605972578368	-0.2755701704001083	-0.09272725036136997	-0.19289243683546373	-0.0005343309797489645	-0.09428611959995707	-0.2822964650075431
0.11116836068451336	-0.22672208080886888	0.023723588681004038	-0.2466501995413139	0.06730877737869415	-0.2601317828083004	-0.14611994289156136	-0.18355434871941176	-0.002516884764369686	-0.07145915663989258	-0.03385342666130508	-0.19592182547369763	-0.10653965313795534	0.029816979179693597	-0.1288207700631842	-0.21316864923863332	-0.16307839091678	-0.1510948705002427	-0.14726595886416385	-0.1837120306104788	-0.4192463742500588	-0.10395931065244092	-0.27048529561372875	-0.33272464350081443	-0.19887134811200818	0.04440877140250741	-0.2080303821699769	-0.05227917950562008	-0.1165870570162897	-0.3620399372116216	-0.28350676829210597	-0.378705900552787	-0.1998023827955395	-0.08919583914932382	0.11591481524273094	-0.10295058381081246	0.12475544178277444	-0.07460451886466156	-0.0535014968624867	-0.17213268924725303	-0.20048967733880427	-0.331494388783322	-0.12462327614084506	-0.42603697123793166	-0.2540046801873158	-0.2597708064656849	-0.3350251045569404	-0.38366766911728145	-0.3902333476442736	0.07421740999003167
-0.05134484069987601	-0.12231797931705336	-0.1935199544876784	-0.3121688734291572	-0.07737068959007327	0.008201277778210916	0.08489782641383292	-0.29233604071396907	0.062022309593611324	-0.1675534449529625	-0.3420813907168173	0.08821572855747228	-0.236119156631012	-0.20300474382949296	-0.3837909147840217	-0.3381868339923809	-0.2521417240701279	-0.30427833072335153	-0.2587404812028686	0.07936042209408926	-0.3708210813670548	-0.2358932554270846	0.039664492366363664	0.0209394514060562	-0.3281377155167124	-0.05105984264409871	-0.17012434647640487	-0.08334544172943668	-0.3515005620461961	-0.2896730984442486	-0.1982767606536808	-0.40543501293204526	-0.23892361331140585	-0.1631025873100416	0.07149984915686021	-0.29807316524902955	0.14104469406763012	-0.38758463768139584	-0.21322911813199746	0.012382138600025738	-0.18823429223560087	-0.06625599673664995	-0.11910308324985945	-0.36169915792944046	-0.1285297639113042	-0.3097906928097931	0.051731659643369086	-0.31318296730787515	0.04964100330996261	0.1128720673511928
-0.2501420763328602	-0.3459610865327439	-0.4295100268835599	0.03346319024975158	0.09158309008893362	-0.2122587155531679	0.057539653010139	-0.10049049947261776	-0.36201876582080156	0.007157499037226951	-0.26285607685042656	-0.11011821405287144	-0.29130787348753134	-0.19853435889654933	-0.3857966810888185	0.05364200169259313	-0.07242685420036934	-0.2820948163994958	-0.09347062104241666	-0.11485925687590198	-0.36182548715469726	-0.09457135581319588	-0.24081238287828463	-0.07104502735801305	-0.34049139910354353	-0.1099950975864012	-0.11733116364939224	-0.3269911528909695	-0.17148222759917367	-0.176057857817159	-0.42199430072766575	0.016275132796246684	-0.08272003873884073	-0.12068382013361044	-0.12231218465730558	-0.0945492619091035	-0.12336355428436133	0.03688121140331805	-0.3210274585690024	-0.14663465518436977	-0.057879032210386774	-0.027006917001258953	-0.14783303205472484	-0.11453749626542643	0.09701939169284893	0.06622746691407289	-0.3179545504673594	-0.2547566073398362	-0.06552168102212644	-0.3295754574124903
-0.22394140142497748	-0.4279721021862614	-0.01663761856995157	-0.053715403317572415	-0.1390783468902753	-0.4093513821526458	-0.36226960385596396	-0.3162942971407252	-0.274362219128681	-0.1925926587659286	-0.1558123644317042	-0.1336573488648374	-0.23554601430361388	-0.08084503570569344	-0.06927079592092775	0.10846430963395678	-0.24243976292875716	-0.2607258745162417	-0.211863346589664	0.006071644580131462	-0.12395074530883286	0.08536185587418721	-0.11853600985338168	-0.10425034580707132	-0.301104473285744	-0.22160961919693564	0.13386059845277115	0.10206991207427696	-0.05742638479850505	-0.06133892150595752	-0.05165244964023209	-0.29917589970244285	-0.29615915151268146	0.07256030128656257	0.03157364583589564	-0.08931091937389696	-0.24757643993192419	-0.36427995235227906	-0.008424236348968113	-0.22394917514341872	-0.31999387165612414	-0.29065522800399546	0.01356246105963225	-0.20147060596946087	-0.0022120293666905086	-0.017801036958263707	-0.4112793780969073	-0.08370632697389313	-0.36285233427791724	-0.3523496854663681
-0.32324313811238314	-0.4588775323071008	-0.22328548789225147	-0.15687399423525483	0.07632617382483448	0.0022340657930546076	-0.23402972473165928	-0.221804511701116	-0.42239754114130723	-0.10278257253883202	-0.10423977774383238	0.07320106213855634	-0.1350185720613016	-0.3658385708534735	-0.08867495232631867	-0.3702683546665847	0.0442848783408321	-0.10592862711835034	-0.012169224489054394	-0.3365551184338369	-0.11702910101559752	0.026442636389288374	-0.2429829888015108	-0.07941408585068194	0.06735463250216046	-0.20334787277971703	0.11089628160659462	-0.032060036841960134	-0.2663049658607465	-0.35914800425671906	-0.24026421569501863	-0.09095681306589128	-0.328719810822722	-0.08324441111271187	0.03291920563689202	-0.16447047536334555	-0.02750685401653023	-0.33490100550681545	-0.3574339376271302	-0.3147777213702512	-0.085320552172973	-0.1187926517092768	-0.2919957381583122	-0.012268801450107704	-0.14713531842829433	-0.11812833871145212	-0.1946484588307101	-0.45768016253384136	-0.063811435322324	-0.3161210302832821
-0.07891003467079055	-0.44894967262312935	-0.12905664043693119	-0.23286131047340433	-0.15559415898694434	-0.04603338294103179	-0.24321310054523404	-0.4365715796009008	-0.280297550081284	-0.03821822513432467	-0.18368383237992406	0.06795655400207617	0.029726636775821352	-0.4519319772397197	-0.09049177356464846	-0.10760044685774232	0.0648737930625055	-0.29753490746602174	-0.2571891973208968	0.0530961503504788	-0.20103999940361153	-0.19029582023598585	-0.36491061804329716	-0.37037232354487787	0.015280375615230025	-0.08165854752224752	0.08997640627345238	0.05173039136191959	-0.2107500456998382	-0.19302317210414155	-0.1414505268490427	-0.18297763116854052	-0.1790024941161171	-0.08148029970348541	-0.08258446020123615	0.0073422467585119834	-0.3184385833148986	-0.4414093459894595	0.06863933713551261	-0.016669886260241712	-0.26898315596103145	-0.051440553993810485	-0.21134692505937958	-0.026284382144735052	0.04420343509262234	-0.35723407165767473	-0.19486686294015704	-0.22671964441999432	-0.04336497424991709	0.030519404828592934
-0.0879337178890606	-0.25812516062333685	-0.4173320224599247	-0.2542358121499439	-0.24025717985972653	-0.2580946525690804	-0.23301152143181889	-0.0844962675804666	-0.40994676480463876	-0.1953073228542841	-0.1298858571391733	-0.17665265854736203	0.0034061925264916473	-0.1034359000717319	-0.13812583399672468	-0.07080549012048208	-0.2774632994613724	-0.3202817752067239	-0.11885198470358392	0.0005654879786026191	-0.3533187870130572	-0.2334941103120735	-0.18302842112703452	-0.06894697993994525	-0.027681011966274843	0.08164826918989788	-0.3159499063263318	0.011038088541460071	0.07882814812606605	0.03326899379434901	-0.1488940859673834	-0.3399820740824918	0.0385278040484486	-0.23943456263608298	-0.14684599689454914	-0.03433796387813802	-0.06250364576269701	-0.09046176168166244	-0.03549705193698635	-0.031541450905982676	0.010916124151009059	0.10537325170696041	-0.3734254832828133	-0.34658970821743024	-0.1070766034943179	-0.23388317662083635	-0.3885629987199668	-0.2461804910622191	-0.06288620471843528	-0.2595094244268968
0.07508640198004694	-0.012832678446050192	-0.45022408412293824	-0.2516101233448483	0.02754028097447098	-0.2483733442135246	-0.19585523537255228	-0.07295412076783901	-0.2281091687235891	-0.21584950658970412	-0.032451838935004564	-0.05278224265413419	0.007213845702647665	-0.2624320082169278	-0.35698672545404486	-0.056362476182806126	-0.030383619259339783	0.013468873766470298	-0.08495932282089248	-0.1652355963721629	-0.3421357100390682	-0.13194314605737656	-0.37988178136743245	-0.28240049979523735	-0.24910553026069718	-0.2662236984056598	0.06432804937228065	0.02607677537170432	-0.36922408486376007	-0.26782308481090633	-0.16488970255644148	-0.19975737192196957	-0.11530679188563116	0.004587336730678051	-0.009409411434982612	-0.3556256833183101	-0.2609612708909141	-0.4125291896107372	-0.07318865841600644	-0.027467680459783227	-0.11835622510908635	0.06520987319711005	-0.149434483603623	-0.24369338282948133	-0.06356953765317015	-0.06094213460965877	-0.3831531294437208	-0.07396736895582158	-0.15134434017270412	-0.2886896451021383
-0.007277780165253876	-0.19310734983542763	-0.09292683142085661	-0.20166760962316285	0.10930345875107535	-0.4475259050503546	-0.30207319541560174	-0.08978321706582931	-0.1679994161916548	0.011004277398272647	-0.16531031654102007	-0.14571893457959495	-0.018276825726101086	-0.12291451213020554	-0.11640558793438216	-0.28969978074413766	-0.28462164163821574	-0.4236709753759883	-0.45067838493668927	-0.1060799566459165	-0.13180057501180667	-0.22160528873575897	-0.01971950634023476	-0.364784208388373	-0.27593032237065196	-0.25421296370063046	-0.04577312718966528	-0.15108984989584037	-0.3856634697867346	0.09227061780690346	-0.14096293331281495	0.0007876075587182716	-0.014738675583802763	-0.1120268578923164	-0.14880211703453997	-0.03184282255039281	0.07185857353390977	-0.3071110511820968	-0.30769072174146306	-0.27390000075141774	-0.11190915004427406	-0.13698195424015883	-0.3915186850320649	-0.058934399250539414	-0.16763906090148162	-0.41437816922929793	-0.3742474817628024	-0.06143824770102316	-0.1784601652518839	-0.0710338404932292
-0.24055005988242223	-0.013905229540379054	-0.2977613995114078	-0.24992804381853098	-0.20601836502462123	-0.16161397535124924	-0.34563025842189804	-0.18499679744506123	-0.04388531065619945	-0.030638389413845876	0.021975673738756696	-0.1089062097409444	0.0065363895913569696	-0.38702574275380713	-0.11823840872584701	-0.16871164081348444	0.023138851907694723	-0.016410861829269676	-0.12321332348624724	-0.18641459996639032	-0.10098620522623579	0.03949722291391128	-0.263774319937363	-0.029688369324795006	0.008362066334485278	-0.2110216102993221	-0.2172169947500106	-0.17268014608339066	-0.01870030259590786	-0.026539436780417733	-0.46252644503386153	-0.4737168019864431	0.01656234932883962	-0.1700504247239904	-0.11994542144232888	-0.13164602793960295	-0.014145729607437407	-0.1414753996738945	-0.35671479446238014	0.09586791924325021	-0.29729013932275067	-0.3128827376898805	-0.17244488532936125	-0.1865696538831112	-0.261953362308459	-0.17773913099848337	-0.4590469540241238	-0.18880939939824587	-0.19262750048082408	-0.2967544735165492
-0.03326376147531151	-0.13662879546684062	-0.26624350113540873	-0.3803959220072528	-0.25905294623269026	-0.40531917435211345	-0.3835306126120173	-0.12790291094046868	-0.04813005554342301	-0.23194480134233728	-0.2000356347189041	-0.11475774084120871	0.07517580305598678	-0.3303298571403597	-0.3513717019204022	-0.11135383645944792	0.05380758988906161	-0.3191571682751958	-0.00627912559485528	-0.19487902597162635	-0.3867812486748212	0.12843941230337882	-0.015558923328765233	-0.16990063750523918	0.03277947308117211	-0.06620894082385517	0.006394101718559377	0.07100064241751368	-0.16124384342370354	-0.29097193023316975	-0.11558665961529406	-0.4216597157534597	0.02943892272479972	-0.023367230097595296	-0.33921593037030107	0.04685806443470702	-0.1643076140278411	0.009152299485561278	-0.16515512906729407	0.06169877581333477	-0.3973070048278809	0.04113547877589504	0.04076798488822878	-0.3008497430704522	-0.1508300459790491	-0.08076569113792427	-0.14185786539179562	-0.4022856464052491	-0.3471891718720593	-0.31657786630941936
0.08827933076903319	-0.30012778380020744	-0.43432672534722494	0.04497408611857956	-0.24829925981789996	-0.14330001395820852	0.027500431640001606	-0.3715127577791404	-0.32997133428210557	-0.06264813874351774	-0.2263107185984172	-0.1693684920868937	-0.2075922474895046	-0.195196040039669	0.0037116509962020236	-0.0005002451180474182	-0.24593347109534464	-0.18132030794012313	-0.31784999469565683	0.03604681281306622	-0.3412910998508681	-0.04001563912531843	-0.14485914578803144	-0.1279485090000665	-0.21447353658918847	-0.39737481355414644	-0.08460619277805066	-0.01462926240266538	0.04144952422241781	0.059455912210305197	-0.22453609043898157	-0.2823142140878778	-0.20489172113844867	-0.21317936288807537	-0.050036667572328414	-0.16666832274391233	-0.2166705627284258	-0.1356747529696649	-0.17429339420337062	-0.06579421170287042	-0.20032141932958447	0.10643485307746944	-0.3238289257673821	-0.02409727484849059	0.07091441718811696	-0.35046794151575356	-0.020054323701976257	-0.15892804071161773	-0.4307989690247691	-0.3696961725063357
-0.2118855317660643	-0.3287182297551253	-0.12208385691165095	0.05760378600561861	-0.25870380911218854	-0.35299021894498217	-0.30531509677937885	-0.26233630484626363	-0.32073422196959145	-0.11754155316212672	-0.26265933295308036	-0.1744651628092265	-0.15704053617216931	-0.16610892382099643	-0.3373581314638227	-0.15430948692889654	0.05107008192250123	-0.012670007685613075	0.023435933530713653	-0.07755521473893072	-0.33365221846587034	-0.09583692653505863	-0.08120359130260323	-0.17629134712039782	-0.03694779400156613	0.0027013930600227757	-0.25853180489195815	-0.2337010979094042	-0.3306975673291018	0.04944710927528722	-0.4207972776678537	-0.32741975111650995	-0.13212854816915093	0.11387450133931172	-0.19902504529871504	-0.1875107772607519	0.0852389640498599	-0.24684608333225938	-0.3198313048814793	0.021857261930902327	0.01841871875656647	-0.22092747739867444	-0.2574841484533999	-0.29192831133202957	-0.2302589646046288	0.08129756337942905	-0.09049395050292679	-0.19139943934275058	-0.10962617092090109	-0.2891654423554477
-0.2984185270008578	-0.40256962520601713	-0.1667527264565246	0.0248361981078314	-0.07905347571838253	0.028999342187513072	-0.25097417631159064	-0.4217348183578375	-0.17509783827530598	-0.3217528809274333	-0.2670174945729491	-0.3448635456932879	-0.31187166107517655	-0.05568092059042304	-0.3306733453125639	-0.19946821562162234	-0.3151774483172488	-0.30191266414726536	-0.2500053417500996	0.04861220734540144	-0.03969596255991513	-0.015690747640588847	-0.050095060426664714	-0.3441087000675638	-0.09426203783233747	0.055595288807388364	0.03264070497858337	-0.03178855685873254	0.023710086704043863	-0.24190893451111403	-0.28816040641444013	-0.2569349005406857	-0.18627298406109485	-0.09558931510141468	-0.06811309933717656	-0.16578732237764673	-0.33617406700223607	-0.049073893497413215	0.0059519859849106686	-0.24105577485205704	-0.12897652970305004	0.041221923094075553	-0.2034573554808549	0.041267176382989934	-0.15470150041670203	-0.2773380784385921	-0.33259212988219033	-0.221253846960922	-0.22354708406561805	-0.11321339900337112
0.13274879233805356	-0.18140308654615855	-0.39727659531937726	-0.14456169082282874	-0.2697226334146021	-0.3707844311542484	-0.35170975161425294	-0.0732181379380494	-0.24667436999981768	0.0625868548748789	-0.14828138647016517	-0.1604450099967309	-0.189059059107387	0.015004231674081134	-0.2717743325251916	0.07023695047436622	-0.2706198182227143	-0.05126260900047089	-0.3278778946576879	-0.10896672664402184	-0.17973388380696476	-0.019693788308765045	-0.2280240002323578	-0.08585874361790483	-0.17866764580255692	-0.14459519906639193	-0.07705732814002338	-0.35713688662132503	-0.036457045740034014	0.05796494071659425	-0.07649120249855243	-0.30855825240683304	0.08185316424024103	-0.06030407815317907	-0.04934877609046542	-0.3817843249931669	-0.19551182992018395	-0.02601362086555662	0.057454624101904585	-0.14663505972793406	-0.021311544844063494	-0.29983525544820777	-0.16292458591306513	-0.2975156182081818	-0.10213153819534805	-0.031216758096973284	-0.16570836455719107	-0.4135553153635304	-0.34260032363033444	-0.29411763451867257
0.07008496690452556	-0.29134902866969725	-0.018643306414635772	-0.22236056935674506	-0.2563594697835152	-0.31694294245475835	-0.3883690903908424	-0.07358746383491947	-0.2894999287528781	-0.15324764908729557	-0.12413170423154445	-0.2929423508227155	-0.14569872591346292	-0.37927894794425454	-0.3259013619913072	0.0003812454851561531	-0.00906828318367945	0.07114229819170773	-0.18718899236641529	-0.11398108021984117	-0.4049096034541545	-0.11871715707808853	0.0052460374202389646	-0.30028160729288284	-0.36483154535626694	-0.0027893776050552993	0.08763949903237887	-0.16803275789651131	-0.33765952494690643	0.013297952954546095	-0.18031984103354198	-0.21675265299510488	-0.10116064003322724	-0.29252469619998217	-0.15505342931585245	-0.15766346222954583	0.021102712286411505	0.05844136870304446	-0.0727920606298647	0.09089050666456636	0.009961701705939996	-0.14763938924923395	-0.23222150714826661	-0.2424655906742072	-0.22521880359022645	-0.0815275669483996	0.05229912496777717	-0.12407165613703246	-0.031502124750965026	-0.3553814852123496
-0.2836432390173968	-0.2850710316492137	-0.25695639764917433	0.07281177890602256	-0.24923136982203822	-0.15708410711582682	-0.26620794622605576	-0.3323707040027067	-0.023953033193962747	-0.12489335075100565	0.03904848284256973	0.06762634683333824	-0.2635234670079878	0.0943699828448376	-0.3047442823908382	-0.257078452101535	0.07724727312848775	-0.09749422611967755	-0.05472273721318147	0.03243927784627035	-0.3352497219967018	0.04512338880321665	-0.26622888393447336	0.04340617400806915	-0.1696859110952873	-0.3957838552213355	0.0247241680946082	-0.04236670131789164	-0.2233655838191316	-0.21278797708247654	-0.12608937767222186	-0.2218321729782858	0.08508356246641799	0.009995638982203032	-0.10284169528146227	-0.11811019261685761	-0.22124972731884748	-0.02994029010560632	0.022978963855427095	-0.16002045043805	-0.3740855385495925	-0.06781421478972366	-0.08649192231769558	-0.2110276982107747	-0.2924152082076134	-0.09888138258814624	-0.001157100136162972	-0.1167142076672542	0.11074551985691453	-0.27057236925689765
-0.13857162922439228	-0.3714223060416748	-0.22598859235193652	-0.1610814241632316	0.1283814862113074	-0.3103632492811054	-0.4239582568718869	-0.14259620509482318	-0.14692869252332785	-0.1642963254627973	-0.01805614955430661	0.008213887309289472	-0.30682272729846843	0.08185528335627199	0.10587285732381252	-0.18477070090563572	0.0987470034418058	-0.35129865748517597	-0.13770875231599203	-0.26378806341883254	-0.3552815763445223	0.20697969412840692	0.0035389966943266686	-0.15469839496534865	-0.009139346330995135	-0.12652228916611194	-0.137011401015537	-0.1948749746561694	0.07985492205544814	0.017262530441956567	0.0309014858955014	-0.24638318941980342	-0.2464816232029365	-0.047889967556488056	-0.1282323201372176	0.0268444399481235	-0.12718724709387322	-0.010105769255229947	-0.2706043851896396	-0.1714314532294641	0.046891108117159984	-0.12855222877727454	0.03272412331793593	-0.31467893419086934	-0.34721298254711747	0.03114349015855263	-0.3230435161201291	-0.26592006843790744	-0.23052774506666393	0.11194505797422011
-0.020211418348860432	-0.007161720707620378	0.013431525606155993	-0.23310816591836522	-0.14122208750227902	-0.2058342973458057	0.04122876425664023	0.09103727485720604	-0.0965266706048831	-0.2011843683207038	-0.3256274571765503	0.009047822065534606	-0.21923062373256702	-0.07043775017853134	0.009076355774113655	-0.2018643552141294	-0.2684891798459399	-0.2623601393069397	-0.3426809316442377	-0.0379465231918023	-0.31526643667024556	-0.21611908216306047	-0.03984257575948138	-0.3696729470840797	-0.3699922788270703	-0.09181718992920605	-0.16513799763540632	-0.20620656699853954	-0.18545895609421686	-0.09787519987045315	-0.3594734861831967	-0.3469006006350178	0.07054462255756454	0.10970868814565306	0.11624355953062664	0.08650897217087639	0.10142055311766444	-0.18527381587718253	-0.14510346382533623	-0.32010075820934936	-0.053708522662819745	0.05405971944585146	-0.0941622795360601	-0.276340938814823	0.02272549014903479	-0.048813052515312295	-0.35607434388636183	-0.20605186501082837	-0.092864919235611	-0.10455661299856907
0.01663701820201408	-0.06797562795952655	-0.16033837425561506	-0.1915927850172211	-0.014415458979197637	-0.15701992804202256	-0.2893147841997438	-0.38825120482926345	-0.2499335620607289	-0.3286500751997498	-0.29672894818641943	-0.21046484137003973	-0.10624416937532286	-0.049466551623546996	-0.2585831588478593	0.03796678663061968	-0.28956838680789376	-0.2880753809298037	0.01471362494684299	-0.24506651911888233	-0.10389374151317629	0.16764067233685329	-0.08347445560843479	-0.31256119460028287	-0.40957373632831817	-0.22668765341772038	-0.17597837238313338	-0.15881185743792525	-0.09377647878720345	0.10115440762865793	-0.2664741135091723	0.04096071523203301	-0.18981301403413076	-0.27128161025564923	-0.2501907170389215	0.018089778540616268	-0.10120805383816596	-0.17472658781272066	-0.3360485483070538	-0.16576701455645337	-0.0257334682461642	0.11535728189803399	0.046165263357760764	0.04506938879317455	-0.19144287118853842	0.04063282671357915	-0.2919035008091783	-0.10118342238152737	-0.27119440196634204	-0.11312174966298545
