0.06134744017706633	0.0511869665677979	0.0187561556320111	-0.011106082775024367	0.06155447547295625	-0.03383295506780559	-0.04410535935902965	-0.04545893459926766	-0.03793540110350282	-0.012617837855866646	-0.10190734984461142	-0.04404766083503203	0.05786008818709109	0.01782990289121971	0.04087208986178369	-0.004767986895406619	-0.026941713907534165	0.04102441059928596	0.03928399450490209	-0.036515281387571395	-0.02421655725925441	-0.007219376007802522	-0.054016328387693664	-0.03262399779087134	-0.049131779398879985	0.0481458147541366	0.04121167502392783	0.02815523980419541	-0.0007092909704243117	0.01933752406228397	0.06113027621982336	-0.04180540133139752	0.00011081884835579398	0.02267892094583717	0.05402995158548835	-0.018133751148197486	0.09681841189955162	0.1251479907944989	-0.12687352518550607	0.024096949001497458	-0.049737873601216974	0.013770973749269702	0.05071647138075914	0.035781552961637104	-0.033007105912181825	-0.0410401199180445	-0.005198793359255986	-0.03575883524333958	-0.030928616436200596	0.017658848997266614	0.03545853776265815	0.03756152027413411	-0.01921425967002459	0.05619885543083029	-0.042007839732424515	-0.04049514434905106	0.05843475618576039	-0.00228696230498298	0.024178209422049436	0.008545043026819306	-0.022041444660952952	-0.009093867480262318	-0.028989948727053138	-0.02275266069078674	0.2323235189105004	0.09053651772528747	-0.07428213134342823	0.03576527383040022	-0.014261984485945184	-0.0693743956594147	-0.06916946109135994	-0.0038622998213306767	0.053919904659986126	0.003300632217899114	0.03285476844451612	-0.00885609053445035	-0.12128855398060266	-0.11167851294941933	0.00953919264989269	0.06097868326605541	-0.023191178062602714	0.05674939198442117	0.050386566318316735	-0.03547015047292823	-0.017950660373048564	-0.05847145650563739	-0.008663859228532265	0.05904697937302942	-0.023196469231611387	-0.023828820795910463	0.17981221005752462	0.09177891668060355	0.2433255126590158	0.15754719873091258	-0.08030425539777991	0.08172997093712592	-0.031535271519260485	-0.026118287234128033	-0.0005875721350104636	-0.09814640184409425	0.03021356821723275	-0.06420121711504088	-0.017630235867004202	0.14154573690003566	-0.11242344859744559	-0.14236424539300996	-0.023621190720600625	-0.0014171961727993427	0.05384176539872686	-0.03401630932763959	-0.048544294551704635	-0.006049609850740406	-0.04340913993936271	-0.04968909444891686	0.007726360220522026	-0.05922388921595863	0.0778406088837678	0.03886232301587807	0.05145856615548055	0.009419336794660439	-0.0776078679935556	0.26018648689007895	-0.35334352435552263	-0.3513286469556603	-0.19813578702955312	-0.1433743022773767	-0.05301230264960414	0.15089572750034563	0.10310127462056648	0.4034072597963234	0.33539744074219485	0.45573518588543654	0.324313669761624	-0.10032532616599814	0.05658328909609659	-0.0979207336918183	-0.08263428878244099	0.029455825669748806	0.017523417977603255	-0.05366669937610919	0.03497689192010272	-0.01584703775629799	-0.05758566623306587	-0.1644433742564878	-0.15474812633034254	-0.1267789509972711	-0.2016230796777943	-0.2448279968422534	0.15381350162819496	-0.08555294050628007	-0.3391433457744559	-0.37300502998343993	0.23290776948489594	0.1940187029287724	-0.3843992678755553	-0.13892013162540368	-0.011957959771947987	0.2611127819719331	0.16956150858062552	-0.1706795536415846	0.42066602392305397	-0.1988177857873744	0.04683109943678337	-0.1626356121613429	-0.25780877856852963	-0.180825969152086	-0.03527825480843307	0.02340692645860227	0.04135418616272692	0.0510378719559574	-0.07057845114383042	-0.2101151873781323	-0.31821723007824715	-0.269350417479724	-0.3750826976591178	-0.19408869557261277	0.3635908108340004	0.18354659333061338	-0.18428428439282885	-0.2796445897376849	-0.41125241943983615	-0.2820433077055799	-0.19964898993380034	0.14433257462370144	-0.08901785726113953	0.33984502715839143	0.3374314809867698	-0.6141536715294569	0.23637886829246854	-0.4323463305562571	0.47580651831025	0.3224382856078567	0.24737340130697077	-0.23616294399292032	0.056513172160845636	0.033971253956907456	-0.011024086043450093	-0.03296844328091676	0.12358621599904814	0.13433460261425265	-0.0616012392678339	-0.8963779486710167	-0.46816248835367386	0.3273247349952654	0.1435827752117199	0.887975215903447	-0.693248154683619	-0.020270126584852402	-0.518666513576803	-1.1201434961607262	-0.0031761466169586373	-0.7069763231293351	-0.05493054657192659	-0.43961295842380926	-0.149278027087198	0.264711662341548	0.7679204681589844	0.4269281541027182	-0.29873745356064724	0.0322209902431051	0.23044760040330597	-0.5466777592272729	-0.05131248310693703	0.04884050274603984	-0.02646263690509161	0.042459453313656505	0.18134270055513987	0.1354975439583125	0.11349436210630835	-0.09494173924033412	0.3373392440814266	0.6609918869422692	0.4733795724370849	0.16506256827828758	-0.1853007113120761	-0.6669180466492851	-0.6350807745523729	-1.3062845880060086	-0.3580508747589512	-0.42599882834629055	-0.09443859362894279	-0.2775259276568302	-0.7060907762780287	0.3861601385171901	0.7811553653321781	0.9134195021206963	0.5410045637483835	0.29046330521356967	-0.06633500478406579	-0.5738434118328719	-0.22562266756196708	0.030006185189525462	-0.025597949869103097	0.02435311221060299	0.41915327609287767	0.1615430847792797	-0.057051669361064594	0.007115520013807598	0.0777037694818565	-0.2270953020709905	0.1994018499882005	0.11718751218835564	-0.5723192242362758	-0.3688426621374446	0.33753393541417637	0.365363070949775	0.32894905987483636	1.0032797146599768	0.3925841007952151	0.09850078190707223	-0.23229991712454248	-0.06255426384053085	0.3836030403438362	0.0781299783876742	-0.2233164137019869	0.1536013686520562	0.28746637802593283	-0.31991137838386435	0.11298478322868524	-0.01114025412145973	0.01693886980252473	0.10841380969114278	0.46527830196218817	0.07398390961896581	0.17091195696800537	-0.04509512076601152	0.1551246897625109	-0.5012156229691939	-0.40687534705633266	-0.7509460519527645	-0.18970370577065493	-0.39177858001925653	0.3979565983601171	1.3767999307242147	1.466442110987813	1.4166203438713754	0.5661312286420711	0.7081700040651961	0.18622415526691813	-0.010854332877477127	-0.033925347505249254	-0.05685552858356656	-0.04803965563425962	0.18121545324259844	0.9720815366855554	0.3086141663841079	0.04074169221472422	0.03717576559399882	0.012405464708719734	0.08748461231588872	0.44976731424259353	0.039396195408713384	-0.09482414184775471	0.21578342447791352	-0.0632409822450055	0.38604013942076126	0.17523004387653487	-0.5198728114764899	-0.35244038611621636	0.08257433555389128	-0.11526092040549732	0.8010571978210658	1.459508635925953	1.7084337067675888	1.1563287901785755	0.3093188093612607	-0.4644959062808766	-0.5266800798636974	-0.3280213695432986	-0.6157313134355433	-0.38943265767619967	0.5590293115053937	0.3395568893897663	0.29913242994130473	0.5008433621741251	0.022967599867019812	0.05656731831113678	0.12200315776485021	-0.08180105682161025	-0.6061429026772926	0.21578177553014583	0.48857674541105817	-0.11694137386327937	-0.6085803460696182	-0.5720252047342497	-0.6855920490469963	-0.04893967299125386	-0.05942376381795203	0.045921701901854156	-0.035112907148144704	1.1904739479453061	0.904814120729275	0.5324760414942639	0.012293379716237831	-0.34104961179219884	0.1895768176491638	-0.479136643944796	-0.5140208967891816	-0.24599998867019013	0.31532586098555876	-0.05226392707931294	0.3829260473184151	0.42538188698672447	0.08743250227645298	-0.02961427298058049	-0.029110944391838263	-0.020400580441553264	-0.61721114545888	0.13787042234902294	0.7721447993454136	-0.1507495003007106	-1.3523577087858827	-1.0660522071075254	-0.6702247174076643	-0.05156112381305402	-0.5560577032006101	0.21143696212767527	-0.6586083310578804	-0.8685754139091147	0.07591280597754402	0.25661317008357554	0.09389006216041339	0.20942529565760998	0.5716685784327905	-0.21144847926201188	-0.2107728827521117	-0.6189943705989833	-0.7777668050043501	0.5380123508768858	-0.08262531444076383	-0.012442279187089691	-0.028914326019010048	0.05318106232618875	-0.10662206531537997	-0.017963448780601195	-0.341810249816165	0.26109407235683557	0.273176519204544	-0.12351434970268	0.017542924644806595	-1.3959470834507999	0.14469273230897145	-0.01627643956324652	-0.47641687647424225	-0.41790101632879206	-0.561338755818891	-0.41224448203507097	0.055749955627063905	-0.24800333643503053	0.252381927043958	-0.31185071750835	-0.3123268456023905	-0.34254846027732483	-0.7595701197767368	-0.1261151837393318	-0.11599022440915355	-0.2885754742686849	-0.3565288693064332	-0.0021590513573588343	-0.11644316742539336	0.03491120518651281	-0.07586349081642096	0.12451720195880964	-0.4544027028228631	-0.32354857329861375	0.2356482452135318	0.34132840760928035	0.49987494272303556	-0.0005340301184291758	-0.18618823916042201	-0.12125721297871198	0.07563206884018134	-0.4135732355004459	-1.0096401268971633	-0.6196960467630587	-0.12604182961415952	0.13549220360537595	0.1188036196852859	-0.08409142244445553	0.12911463324349742	-0.5930819075726563	-0.18601480052138342	0.2969674474466411	-0.1734003007962438	0.052772605289187195	0.2750627274983167	-0.11857453133634856	-0.09562310020063118	-0.02420268846931025	0.054842224013693	-0.09770119978252637	0.1450840927401707	-0.3210568592675466	-0.02788958611260333	0.6282001032084232	0.7317686855952555	-0.08474412652136115	0.03092405856309022	0.1624754346664051	-0.011450477676557498	-0.4693818541398169	-0.09555864277148352	0.9589410627620394	0.5190041601939166	0.42587770834690414	0.13398325704560313	-0.5154087640955483	0.03241585886164614	0.1998996778889314	0.2583654013467037	0.07098743977300104	-1.0114077316998957	0.23422701114794123	0.019692844723266816	-0.21297724133815257	-0.036408719215748106	-0.017344014125279035	-0.025070238912149802	0.05609542450745291	0.22229538248980885	-0.11417377684677646	0.05989192542601587	0.3826884100045663	1.010329056711991	-0.4300038383860459	-1.0629682311932585	0.028864965506085985	-0.08183080538205335	0.697142014570807	1.2880443346133672	0.724542410430522	-0.028989739328384473	-0.9286434093781241	-1.0434708018181675	0.07189041171605556	-0.13866183277176808	-0.15915022720683014	0.54715380349669	0.3504196849227105	0.18105959398533694	-0.25980628609061546	-0.23259795469498773	-0.20705372658344023	0.3382044275870085	0.05650001227333037	0.015572788576961026	0.037599664293333224	-0.38982146674756224	0.0018896815883077892	0.2884297363991347	0.47949943008827234	0.075088839564886	-0.06738463608698823	-0.5894207984737615	0.40015083755140274	0.3593394138700837	0.390362187935726	0.4555351881719904	-0.2741785898761433	0.0854546143211583	-0.19618207769266105	-0.5666179332018306	0.4219080222034103	0.4516792656328164	0.20542531659738608	-0.18639824296482027	-0.017045717974252448	0.133226237070924	-0.33501003901964627	-0.2645900243544036	-0.22344425926784095	0.18763563089528495	-0.030624777318525812	0.03646753837296047	0.07028806080761998	-0.6342205932385306	-0.14744378993973636	0.10388273683472951	0.6770568872450183	-0.2081457410479176	-0.38893751853975933	-0.03294373802069911	0.15858155156451176	0.35737632238777267	0.307571296544192	0.4197262245013779	-0.335354563612894	-0.16462294884651596	-0.33445313799290044	0.1845987348117281	0.46183143562998713	-0.275488705185837	0.2639167967109557	0.24838877321004668	-0.2566778775830544	-0.5990476152041885	-0.48278131528484136	-0.211756191634782	-0.18813340405372034	0.031708467525966816	-0.05405074617409446	0.009027080999376831	-0.11673987500519438	-0.1502217774128612	0.32076740270945436	-0.2919949765158962	0.32271987783917794	0.7811909924108453	0.10517831490765199	0.09039718490165086	-0.03136054541009044	0.29769510555460726	-0.03618855888597172	0.5288323815096958	0.563019107847084	0.5522453983088652	-0.2521238788607794	0.5211188050738079	0.7401000001468947	-0.012180230415711294	0.6141657050087821	-0.3737436489628794	-1.0456813251595596	0.45277519348127393	-0.3799058053780572	0.062420285263715417	-0.02618474677436395	-0.026257642575995055	0.05018225481484322	-0.012032016694262626	-0.17894815343855258	0.04535266621609111	-0.17309339472128965	0.6017482776490517	0.18708934009583228	-0.33458406910574623	0.7278207350050303	0.138992457008403	0.0741603093777823	0.35909952915207816	0.04574826980038165	-0.0071120690668012	0.1134238271127668	-0.09326992009505333	0.0701847079356449	0.4614104890816593	0.3616550473309431	0.7638456069859262	-0.0016627538651035761	-0.7710017694283314	-0.3888101755191752	-0.16003767235578653	-0.3411485938770036	-0.05643758846695905	0.08531461674297483	-0.013198454629676882	0.031819072835510505	0.048290415994352874	-0.16289781325045358	-0.06228454959201021	0.11183055964400342	-0.011001748280061825	-0.31058415002415435	-0.4805962103803178	0.022829644281290095	-0.38616264635129893	-0.5556094891057031	0.028299092370459546	0.02630274042040693	-0.1723272920641985	0.1996896181583385	0.2561965316831123	0.4443946068171806	0.014882618364347107	-0.4219845368927212	-0.403658626071632	-0.462972964572257	-0.34759271749235193	-0.6549067673151039	0.06625189874024268	0.04024655602457221	-0.040027573529236866	-0.06737854365289005	0.01749730368894637	-0.05357778496107636	0.05396805462511673	-0.09672302373868956	-0.053081982468570085	0.2692884044518788	-0.1471155784894657	-0.57797868699076	-0.5311668649259486	-0.2453513515246801	-0.3169226213171291	-0.6934751146604234	-0.5846878404165737	0.04628892607184027	0.5176602780544936	0.4223962363821314	0.4014101755680923	0.31979139079973384	-0.08230151918914318	-0.3052925230088674	0.03188050213754803	0.402439773734175	-0.11358994235079209	-0.1090934951759707	0.5652164550988075	0.15977903526568502	0.029844538668320895	0.050953022154552365	-0.004948930464595096	0.03558505768495015	0.05405774431629202	0.009011965364857565	-0.07820532461178885	-0.03380946635145886	-0.42220652122439767	-0.49863051497840233	0.17834838838722603	-0.17970515472864335	-0.30776398435089203	-0.049791721502446894	-0.22930213389672532	-0.2377796767337309	-0.3251165599257642	-0.6632846452815683	-0.4608087096578092	-0.03518757494774333	0.1902247375133042	-0.10280206270814013	-0.47243032004627006	-0.3461798419460918	-0.30101597060041246	0.112929297014154	-0.07290043820874573	-0.011360307169045757	-0.02336161611558239	-0.017089119679956077	-0.03263885093402817	-0.019918499855579655	-0.02778642189305449	-0.041423524212104254	-0.07321126977651347	-0.07833994049100995	-0.05217256458543791	-0.08859544974648256	0.13053299713557823	0.18488377057745353	-0.20543887930117968	-0.07693630991752796	0.12109732696965488	0.20181359499591084	0.16752846217771475	0.03163044521382265	0.004307961473993111	0.05206815837153542	0.041255286609428045	-0.2296059783754372	-0.44444054394654703	-0.05103766857096095	-0.07016746967001566	0.025386853281973633	-0.07669633879807468	-0.039057705601517057	-0.053951621868759334	0.0014212289560652722	-0.0023305847440607055	0.0015743887888236621	0.015923686573960517	0.026914210990666786	-0.009236055030182821	-0.043807940398357476	-0.07705230762754864	-0.10877671926894024	0.25899048849923606	0.15919248463961	-0.21741048200507598	-0.07062825856407179	0.01951533233603781	-0.031713535451774855	0.03053239215293699	-0.010608090458787207	0.01395895664762371	0.06387866263869148	0.10343941123495384	0.012471807602198617	-0.03872616333366379	0.08042545894518358	-2.6688748634533523e-06	0.010718185476109327	0.02144327740792632	0.05212696678376603	-0.051410975592759464	-0.021880317626915412	-0.017896159380296976	-0.013749730819327621	0.02878945218904467	0.02536701377585012	-0.04570955763188665	0.03478800134470906	0.015267430525794497	-0.010401304727582614	-0.05890332099808552	0.023381534726249077	0.07286204287095864	0.08261190166775569	0.03776263296726181	0.008024269919259246	-0.038860413906721875	-0.05188626948495326	0.04919087947859266	0.10951894713384587	0.03641364442427989	-0.01029991566814911	-0.0531998200515992	-0.014377410064998132	-0.03705824607665585	0.057465040168644975	-0.03619291928309573	-0.004134421717923255	0.05772853279452737	0.049375980624635614	-0.053236341101649196
-0.013389829085713456	-0.026698649820077337	-0.0071756463165556506	-0.025004482442031836	-0.05114880802620172	0.017270308957962062	-0.03832466605600887	0.012273155524001482	-0.011541689646811362	-0.01888492101420537	-0.051249710097757264	0.04937525374374873	0.04422091073703179	-0.04114535722763721	-0.0240639816370855	0.03472150887312286	-0.018996527047703778	0.034519174797870165	0.041442666287150924	-0.026310475333294545	0.03737831831098202	-0.04477520863708773	0.06154805310363908	0.03806518015587832	-0.004252145966475586	-0.018910378361452006	-0.06086834034866869	-0.02220337074511973	-0.045922782996039045	0.03901390002177529	-0.03708773834181052	0.049446740498189624	-0.005495159114650247	-0.04227274301666143	0.03233523656525442	-0.05721796578660459	-0.027817758597336754	-0.00609028947128222	-0.022487477977948152	0.0306302483982851	0.033625611223558116	-0.05400440441323607	-0.012614018159003773	0.02331186258791377	0.005612470485478922	-0.06150788368378707	-0.0572800014150349	0.04578872319447445	-0.022379747481291873	-0.035116027917858776	-0.021247043071893887	0.054240045010177616	-0.03720346723426915	0.05963539864453852	0.016168295019614913	0.01932226484929999	0.019771090546938923	0.04729497496483454	-0.02270903761152989	-0.04951830712042565	0.029428773607385585	-0.061662310452392975	-0.008875101143109939	-0.04918237552843578	-0.13847693317968046	-0.11433208138711633	0.12851284343023675	0.17847711641343642	0.07716193253141851	0.0784240292294783	0.03347959347205154	0.059502758905160706	-0.03943987291127346	0.011037334762461083	-0.03488238709860791	-0.03596070849852546	0.0008026254762229818	0.013720543215654548	-0.029790758131282475	0.008486570905246245	0.004212351168820884	-0.017898397712408302	-0.021798994223517505	-0.05409353759362292	-0.018499254897083574	0.029413821141915618	-0.04157424013768344	-0.01797823903940985	-0.031123292810827093	-0.06860478005757673	-0.009337920561287063	0.07247144684185618	-0.045624065714384515	-0.1729502885299937	0.04474056869844917	-0.06301409694331866	-0.1879223935003227	-0.17991999366302683	-0.25593632650141734	-0.42812293685762537	-0.3775792614423899	-0.08156417418518971	-0.01908724670752561	0.01897760827527962	-0.06668878339136337	0.16519239160814406	0.06080213786622579	0.01117780252162807	0.042319802377081855	0.05542198635100396	0.032838591104089244	-0.03980945838475937	0.007310366531959704	-0.06003333259470616	0.048652707268988175	-0.0386218439274596	-0.05348070978181958	-0.016240218285061305	0.06596312412177559	0.03193992389644856	-0.1786093649969396	-0.500457474111005	0.1324944304601888	-0.32487203390371344	-0.39770868177475405	-0.2884238884961157	-0.38019056256897227	-0.29001530581418433	-0.4104515205976852	-0.20804864348943752	-0.4457096146785514	-0.0710845484110154	0.2115718231908551	0.4040301372838766	0.140833609986497	-0.17936518085874928	-0.09736921001393109	-0.019431575108449502	-0.0010732577747364636	-0.0004370453833394891	0.0003646017595674636	0.05968132852191086	0.004845511164355992	-0.08724274904753218	-0.04747243653281737	0.16357944882630104	-0.1689474418879014	-0.1189015286310061	-0.9865066867662736	-0.5881084690600712	-0.1580983628659289	-0.29733183087721776	-0.333278190802715	-0.7008791672878876	0.11185270577901205	0.08029140802792502	0.06105049009967725	-0.19852005152201102	-0.28342446632794827	-0.28219011601568966	-0.004113961560040968	-0.024178812278763905	0.3126070044555368	0.29032390603915964	-0.019250551610870883	0.11273915442425983	0.035997401323142865	-0.03673760790594165	-0.020733587032200254	-0.05937304179948965	0.21722542865708885	-0.16147542427602538	0.2858306167170248	0.06379264774946174	-0.6151360524016233	-1.0826581243321536	-0.8416756262915792	0.053321902870526974	0.4642659167148034	-0.41682078331318556	-0.5619777471146088	-0.5107593700747274	-0.7369264534316002	0.33393291280591897	0.1910803587893592	0.2691525814817974	0.31757706155187215	0.4501995088043552	0.10200472346565913	-0.22647352003555102	0.2270863076772435	0.2733063363676944	-0.21050731019066737	0.2054509607343957	0.04593012760676759	0.025657072814178873	0.01996167250454691	0.05075622242444915	0.1522142321224603	0.0005001316523196265	0.06458221546210925	-0.02757449685248128	-0.5814758492459107	-0.06563535641838926	-0.12285403631077385	0.0064615763984669965	0.5493848180012306	0.9315953494858655	1.0758885708513617	0.0823148779910795	-0.5108678721611194	-0.12281850130442695	-0.6929834191514442	0.08286021828384366	-0.4643362695361795	-0.020040714763425026	-0.05158552171744276	-0.22995500223245197	0.3540909255422199	0.2680354802916235	0.2608294848961643	0.15060746494373572	-0.10193511853271983	0.04396527555431611	0.05968912025714248	0.00937131194517587	0.06136178279570713	-0.2925023222861503	0.4547049297068249	0.27630170404311727	0.1170909937081473	0.02702184901260618	-0.15490693419317092	-0.13971663063086157	0.5294148305095402	-0.08423413276843555	-0.8404071870254973	-0.768187033325317	-0.6639043682622519	-0.34314002259757354	0.236614086064462	-1.0220833757316448	-0.3345654100014787	-0.8838930418433524	-0.7101295002121728	0.2770294492559187	0.3419764573587965	1.4226775403738348	0.4664992728178189	-0.09895114879114006	-0.1555773098113906	-0.04100822687696763	-0.01937895192572405	0.03891743031693245	0.07627893054267362	-0.24702084642579675	0.07554454515802664	0.22569609275166352	0.4019886641438754	0.9211383250500107	-0.3427330595100845	-0.10084657133840946	0.3108299860661341	0.9831571091192557	0.08674317649121044	-1.1707294724384527	-0.9766433334377527	0.07537529831394095	0.7172925002543736	0.39544696479692154	0.1832448256863148	-0.1696162625412542	-0.9622551170510613	-0.12584404229629095	1.8019919646721951	1.1179552149112304	0.8678044786233199	-0.21223674044067234	-0.09985353024900971	0.01445530545150963	0.024761726170770347	-0.12866145815902316	0.2563071973921217	-0.504334856588841	-0.04898762035139162	0.49077808836934417	-0.11373230683032381	0.5900515712447216	0.3320302427612286	-0.4369986854415548	0.28746158784907583	1.149930880352609	1.1785373265612342	-0.537302907394818	-1.2854289271204509	0.07638336168854146	1.8952682508373686	1.3814889111345916	0.5678048524807681	0.3676685881449752	-0.5342074064665606	0.22878461745017054	1.787492094039618	1.1234059773421632	0.19346307797737253	0.35030691833401145	0.15145805533593587	-0.037722499056386596	-0.04493822706170149	0.21673939173762238	0.20455257224515663	-0.006456428968527845	-0.7094693729811643	0.8616176700659175	0.11175960644747353	-0.6329431747237267	-0.754615498499947	-0.5234221790586142	1.0772120012648194	1.0361222747410916	1.0128632392154386	0.07356705148256847	-0.5179599638252416	0.5615794257546638	0.4981629960162283	0.9662037148418536	0.010950234977896049	-0.2200490699765235	-0.9506869671231261	0.024252397775098924	0.5793262262231086	1.026461419458924	-0.3012508523541428	1.0794574536658348	0.320348370078193	-0.1321290009019488	-0.026351918087870324	0.2856344908357439	0.2983905337655595	-0.387492869042458	-0.19654796672445282	0.9010041145113995	0.868009201641893	-0.28946093275851237	-0.5881722632703624	0.4667906921968103	0.6935362383303625	0.00032362831515459975	0.9995952290402934	-0.4538013599583444	-0.346891221419517	0.26478588112038204	0.43562258578304086	0.8191702108332307	-0.3709396314705221	-0.35779684880110485	-0.0020873509958746067	0.14714741907174458	0.5773968462599512	0.7189338038374479	0.19589438087052521	1.4094330297461426	0.08741240032056323	-0.1805457179544579	0.01909736158350097	0.08757108927788604	-0.07277241875764309	0.1004791603663491	1.0113039042485914	0.6668747460642317	-0.1077667360871938	-0.605733990422381	0.18318108481678375	0.3214817225005378	0.6667862634163962	-0.8955464432381891	-1.2940715701002299	-0.5862801950299642	-0.4098218783356926	-0.05720871056617421	-1.576780940437847	-0.9172948010110077	-1.492513329540283	-1.0010104559952706	-0.05928284316329605	0.20306889849972395	0.43943774103732963	0.3109311856528308	0.1461093824068097	0.8917463283952127	0.6183905123383914	-0.04403003631221728	0.005371891551754764	0.0004794485878228587	0.3077550114980154	0.30174908344905543	0.5990303424081751	0.40994073254808533	-0.7155363229549633	-0.019364739576008184	-0.34600688582793554	0.1871942054749428	-0.07549296358223696	-1.0472120966408576	-1.865512283454337	0.1265177021668416	0.6591993188443622	-0.10483012366167417	-0.7699271259202041	-0.5778936503477994	-1.3820504776423044	-0.36659800775855733	-0.6450132344264342	-0.6863417122255687	-0.06714856926682168	0.013753216248967491	0.3875896137307624	0.63078205830198	0.43435446661912225	0.10141341909424804	-0.036978486514199625	0.128362487170226	0.4335008746298194	0.09186370666691947	1.0550969678416342	-0.5299450293060017	-0.741503075233109	-0.0558218802200101	-0.551888535269299	0.17212796837139283	-1.3162728992140926	-0.7418850958593132	-0.40504678831635593	0.7315365533943973	1.0027826845335712	0.7299078264493742	-1.0266258722791775	-0.028533056094083454	0.2554737033540839	-0.03926646782348256	0.42802270774066054	0.04179266682504785	0.7879262371335851	-0.057076657929893304	-0.3633782830040304	0.38041645351078224	0.22877669355589297	0.07282520315601386	0.0388079612326983	0.033150584808350134	0.06839404790036091	-0.5967501843526467	1.0101399706845386	0.1123762867005571	-1.3675023561950514	0.4010852790858943	0.3988925566646129	0.347833879745706	0.6478149519991359	1.134726733074834	0.32096274687179077	0.5054408108836892	1.0049172725835513	1.956169478238635	0.9820102359603738	-0.01883263410244117	0.762981055371979	-0.10546149733110803	-0.9240919768067265	0.4660388161645736	0.08003021987497363	-0.18887015756288783	0.34298671771860606	0.2950907020726987	0.13875169203200605	-0.1940692207230503	0.02010201238936995	0.18379085497353326	0.18290528976414913	-0.9151955868051603	-0.4061540032552747	0.014486102473087247	-1.3252826591987956	0.06565763681707931	0.13342522070512286	0.4719997508329713	-0.04404521575210586	0.09585084919033154	-0.1097214435882046	0.7976355016624801	-0.12678428674671322	0.8414399967295773	0.38673606763916124	0.19375319254609935	0.7861285073821855	-0.1772932482379195	-0.5751704546083486	0.11207325273176125	0.04143007820901189	-0.6309217559115091	1.1361868826922021	0.5820637975461777	0.40555504484365523	-0.06317568812546552	-0.027049708149064565	0.14800547095991037	0.4658740288138837	-0.13485526647344748	0.21030185327030118	-0.654678319852976	-0.6468447951416082	-0.2327142179400762	-0.33746666092814787	-0.22835513105381192	-0.42447789359690463	-0.4536147740662262	-0.406173352415313	0.6726517616004167	-0.10164529177262024	0.5239161356672001	0.5213943271136487	0.10390497693374624	0.27806404254091965	0.1904240637424117	-0.5081540797712384	-0.8715970077378379	-0.2948080011908351	-0.48944156473717737	0.15861480464998798	0.10688608082615016	0.3164191041714914	-0.010464212605827587	-0.041671571884340584	0.04543569977936613	0.20132634817780343	0.30714410024857824	0.28508523884531645	0.2416821003915197	0.09062806163244355	0.03922664000430612	0.011697766412194832	-0.30530422619130987	0.41552441882007374	0.06314528178323782	0.45231538699834334	0.7415909731641825	-0.06655841478917027	-0.45036245088476523	-0.9081005828790667	0.13872427872770507	-0.12847650139619124	-1.9684682867499812	-1.7889578021599866	-0.3483265515554242	0.10648636792154442	0.34119055220892347	-1.0116951803114864	0.14100581419777233	0.0947879559574633	0.061396434804377904	-0.030750640279762955	-0.03633226344040416	-0.13884503562691872	-0.05413142439549432	0.7650413360934095	-0.3920853731700563	0.2727660280495199	0.22317701419066022	0.1041921217968486	0.035531249591633646	0.3235276149418983	0.20333711167023366	0.5320521632828571	-0.4414235190081484	-0.8170221780948852	-1.5700889939919922	-2.1524427870929523	-1.0051175366747018	-1.2883430199342882	-1.1095766557891273	-0.6190876716432512	-0.4404199945185118	-0.2444502490102251	-0.3331185651585589	-0.11185865902163408	0.05141196434560565	0.07332748183601731	0.02129972695298801	-0.03519419209560093	-0.04051953183185614	0.051797523239538276	0.06560134213378475	0.5397684124201088	-0.08141547331559724	-0.20302087412240274	-0.14724810252283282	0.3316121476286244	0.34481741716306263	0.4442457797559985	1.5101323028796072	1.2621613474518942	0.46956035728465406	-0.8817372850993433	-0.5426021381617722	-1.7302941037504513	-1.0127898652444804	-0.07790098368584085	0.4288362699411939	-0.4213241002170656	-0.8679394699568262	-1.2289595578033343	0.160672448072713	0.21393319564805077	0.4138569032175453	0.18905692397519558	-0.024964383068676887	-0.01990982126769325	-0.008814682077275197	0.03584042825271495	0.12267344002600739	0.08990529252863073	-0.3071070400238809	-0.48140712029991656	-0.01705883906845346	0.08071091021757049	0.06854431114782006	-0.20836521425896237	-0.259728108007966	0.8153168079595037	0.32812309015672697	-0.14702348136114163	-0.1613349414986431	-0.4559719044494175	0.28762377032662867	-0.365693372676632	-0.4272110958121254	-0.417459933584843	-0.511399116345261	-0.3292144813786554	0.7698094898640111	0.06489116611912478	0.08752774019548211	0.06987378619036634	-0.032682786201445185	0.03711265624793226	0.010180996069553604	0.017853685610538714	0.0932447404344582	0.18894236957525007	-0.14807342981409585	-0.2593615230979503	0.8155256425300853	0.5562172206849132	-0.0001565177339507303	0.044541594827649814	0.03245123790284991	-0.4920598923587963	-0.5025361848853529	-0.23994611320211368	0.491484684552498	-0.24424756090710048	-0.7846509182520504	-0.9581613991308219	-0.7220065368161741	-0.3441871360083528	-0.036320254104684015	-0.060325903915808075	0.512975660825288	0.06703704272700332	0.054359885221898135	0.06156193035131161	0.01569003717958544	-0.03693431108800878	0.029529328157619834	-0.024564117667082608	0.023427932120374043	-0.0311339510611617	-0.32735969706682383	-0.23525653299120564	0.1982166652453287	0.08008874329836298	-0.3463471977346892	-0.01822314601012589	-0.21477583411169446	0.03410127188281256	0.3412468369980943	0.6384674764124455	0.21925501725137234	-0.49124845967683295	-0.4828152802558448	-0.42757115286427944	-0.18855698144644173	-0.20468266086955822	0.1117544514530119	0.13568013888631858	0.37925802593088226	0.04434338702834147	0.05343544487098085	-0.043921794814054005	0.01924651222051909	-0.012575150034162708	0.05871985982332032	-0.0023442598907103193	0.054567302082463895	0.03955087307113549	-0.021310674387589962	0.0516024532437847	0.35949025747812186	0.09589866688142404	-0.57095068541938	-0.2774759688113589	-0.22566525144899968	0.17178060642882825	0.40067654926816887	0.18671828875656482	0.18041473929636428	-0.12697666370236546	-0.10554785526901353	-0.11483365517687545	-0.03952741647936947	-0.19645726188869644	-0.23070138906103735	0.11501148560041284	0.3058084148186035	-0.01920465305863122	-0.04221315224124216	0.009077371457375645	-0.007759865489082904	0.02491012735819869	0.044997542583711296	0.03924757599536948	-0.050076564659617726	0.04285867229608664	0.11102674449239279	0.1811337059277917	0.31415536453384646	0.681747948716631	0.0907014093937499	0.02295047573856843	-0.08043814602005409	0.002209543268170796	-0.005964931441453048	0.0395254792263876	0.015203396838055888	0.09913702470920148	0.15648243708169027	0.05043014804058241	-0.05228939971679336	-0.05394864176043527	-0.14369453420756867	-0.005766954167338671	0.015047538786539284	0.01936117879016503	-0.007488241303076168	-0.03266431266331278	0.01930427052923895	-0.028372178191715468	-0.016958516516363764	-0.04815904589107037	0.040289537767134766	-0.05621382820892011	-0.017634260092402307	0.047503959237179094	0.009471545800926077	0.4061840449335033	0.09165197638749613	-0.018297223037207988	0.057287063184825716	0.00421060793088774	-0.042878641465603475	-0.048462825679069094	0.03991717337892268	0.018646463859591338	0.08302995840489254	-0.049392407528334986	-0.03250340110360928	0.031032694327511177	-0.05716705656898596	-0.022213722571033566	-0.047579230809299086	-0.00888216371130153	0.03800232107528272	-0.028991653612482834	-0.05611633713376739
0.01798209932837711	-0.01566099280395459	0.035927277410896886	-0.03616741998349155	-0.047981821271697006	-0.0031587843925874742	0.043425459108499785	0.0608061165754279	0.0437520067945383	-0.028732111937071526	-0.029471211668857807	-0.0012477524536839008	-0.05740956192814539	0.014391741482146968	-0.027443007144451192	0.05691064393529751	-0.021947441387579446	-0.011476629968519655	-0.03236462855359572	-0.00499303958944889	-0.013245099209887257	0.00935462785934272	0.01855890094449745	-0.036988415210029005	0.005821268298762623	-0.0146088795253917	-0.02599167917420509	-0.05634957935064189	-0.046942540502661945	-0.023860845414790693	-0.05439008625878165	-0.01226240693636229	0.014774873920797495	-0.0094596982936649	-0.03354053334884777	0.025655058784062913	0.002781416490153772	-0.0010109539298846118	0.03047658301501214	0.020245793093853708	0.04589139222858891	0.059355889801596375	0.040641255007023445	0.054154327929858546	0.03361837593279118	0.013089708899090925	-0.008497257048691281	-0.03444955300115046	-0.005319256117711467	-0.04281557676621142	0.057758867034070384	0.011918392983556313	0.039667903602220854	-0.05488262904006431	-0.029428063833959038	0.005542098441211528	-0.031192207627829153	0.01947053999800049	-0.03578059759866534	-0.0027989325808367993	-0.04893986996308541	-0.03200702266236536	-0.01190957492092391	-0.03489589267391805	-0.01022750480778372	-0.01612357573121892	0.05742495749057876	-0.04658188168667001	0.032914087264653155	-0.0007524880375533725	0.04273521374999391	0.028867792673651187	0.0004482854166131414	0.05688233665730432	-0.025175956124738812	-0.049139311660061205	0.04562111928900017	0.056171234188547976	-0.03429089188298887	0.01789309205538956	-0.019861855843790424	-0.04799397088166153	-0.03629835961549338	0.010879639807724252	-0.03354591588086482	-0.011173737697616822	-0.04297735389426522	-0.049412322288893806	-0.031253098184550646	-0.027531929043576982	-0.04142200083867687	0.013358507943706233	0.06049203168538399	-0.02237404280163977	0.0482101514074148	0.058314772357509446	-0.02285324450627544	0.020777908507740202	-0.04969435483151606	0.01817470549243955	0.004141886580999275	0.004200798022878434	-0.056415451881626055	-0.05977322347268624	0.05866747670105201	0.05406368303830908	-0.03605220402036238	-0.01220670939344037	-0.06007290568280941	0.020034501805261694	-0.046996473664821944	-0.001654851033671828	-0.004343696442464934	-0.04316934941967923	0.013938339615322697	0.007228677571312743	-0.0553513491611918	0.05933876907857171	-0.02126720393180347	0.0444446403316144	-0.009288582054104867	0.044558078913784285	0.017334817547698365	-0.0026478580757723657	0.024848507965264624	-0.03501887926693108	-0.024127551894256402	-0.0506618643996803	-0.02061107798835493	0.037829811427607905	0.009592887496954796	-0.02698412632646537	0.05426504133157765	0.0015988761554011645	0.019558862039635413	0.048606054327843325	0.03592350788343441	0.006055578379035333	-0.0013764071354772228	0.026536992159119525	-0.029233528756480213	0.005513708457745882	-0.013129901452829135	0.046189020278624524	-0.02070519750892739	0.0034435827930659087	0.04289222688200044	0.010458846705811221	0.03852367748001437	0.07943090683352318	0.0004468061056469869	0.06943414772765857	-0.019765430735645878	-0.03945413838329247	0.0373696487515488	0.060588191317522	0.015975768837993835	0.018570164507776144	-0.02963069782546751	-0.03843187834011976	0.012751964668454624	-0.004406223786180745	-0.03728506189282858	-0.027183882612182204	-0.045748469973462616	0.049238764107406685	0.04794531597375779	-0.050425268480522346	-0.010380431077464024	-0.007845735247500131	-0.02543574693184344	-0.008225376518541664	0.022425768037859877	0.012364675436731892	0.020252108012241928	0.08451631615223436	0.02675703423762823	0.095064918373883	0.08921090582276235	0.05653493157081898	0.08375549561816106	0.067141694276096	0.053863324833292016	-0.04203077365058833	0.027662543114223948	-0.014972617718745543	0.10269109696231508	0.034910522331304795	0.12629140898833466	0.08803716696633312	-0.0201518791571276	-0.01940207467521524	-0.045189075244648484	0.06395336249683153	-0.05653328037222129	0.03648578992236121	0.05876122296065573	-0.040196846861864616	-0.013722754262866099	-0.039351400316960106	-0.011602170669348048	-0.00934289345573832	0.05894684363967976	0.07602416118342074	-0.004173617685003038	0.027726692765434893	0.05538493178261308	0.05257496138212305	-0.03391089139060372	-0.02116962724122134	0.05303244782284372	0.046114658158604334	0.012337773350197666	0.010094769112577083	0.09296294723499755	0.06826547645797304	0.07813428283855556	0.0529354170377909	-0.008148538845621486	0.018117794190449853	-0.015147652412740823	0.05760177067217961	-0.023448538389959372	-0.04086637450243522	0.010473493956054923	-0.0007398592930641896	-0.03415099001591809	0.032585641107329845	0.0602554837151935	0.06113028569263714	-0.0027379128958130287	-0.009729290372354746	0.017923513110473615	0.035280367582087586	0.04599104938883093	0.017228503452651804	0.10151954706727288	0.06949348340405584	0.023101143277260473	0.07472525263966621	0.01831362284204299	0.021140978192815883	0.022363365563045908	0.05950615733246136	0.029254842635538014	0.09099510129137875	0.06552331901161193	-0.03149464702756863	-0.026714621993145473	0.008067720778980728	0.04460723847217975	-0.01013995642507666	-0.004671836596625609	-0.026369237601774245	0.058295509541292465	0.03900961533090703	0.039206233641029216	0.08571742373067708	0.07691602953787394	0.09595603325780089	0.0898071608183177	0.09033391170155705	0.08109422589524327	0.13760334001836783	0.09496449381857314	0.12357100721570631	0.09617644646904899	0.05408651026494244	0.10557595619018058	0.12414138106675311	0.09335584340662795	0.06725530599520521	0.03871143848114428	0.10841006145289671	0.01832120196248615	0.0077253462671016794	-0.030066498362152447	0.027620009243489705	-0.051127720289338575	-0.04989965929102325	0.0298454784349639	0.03154182101226595	0.057529650633039005	-0.05656402618267595	0.07566085829312488	0.06695892328977318	0.13123235192113905	0.06630835105344085	0.06523300207386583	0.10925214199291339	0.0899848585123692	0.09523435013401142	0.060993534901552245	0.10572490315236871	0.041605881623829485	0.09474353686515848	0.12029674663553565	0.07754876937535593	0.1333412842829487	0.06626365754983882	0.15875525863261405	0.046376063806739275	0.08836779273648361	0.08677258762025296	0.07336929959161496	-0.03693755034747889	0.04999089758081292	0.02665924243809554	-0.04714534571543049	-0.050364075761314804	-0.013959792098298864	-0.05340813347762359	0.06335332737853393	0.05709340832883661	0.13284866815692153	0.06763064261503221	0.13087697122384748	0.0959137029475132	0.13607327329153782	0.04993436632272337	0.06304146911576328	0.17859041618124222	0.11254194966849086	0.20615349435081967	0.11467654514601766	0.17332233217616627	0.09546603239538695	0.136120320692321	0.09288297742708254	0.12229746652150524	0.13803149876222515	0.05723252689166125	0.07797700835323927	-0.026144800037421312	-0.018214601003285	-0.008186792660151881	-0.009422378213834626	0.0029592969195045005	0.01282146353599975	0.04730687796439179	0.10350905844286204	0.12588122735570736	0.15995315235718696	0.1744033996667373	0.06540283345645001	0.12103645913229959	0.07353696981505381	0.13856067704922775	0.16501726934312397	0.13646882677512015	0.12574174899606635	0.12942541388046666	0.13136805208874783	0.18341574771943864	0.0974658499012432	0.1838740181344336	0.20283769118759548	0.2152404755905789	0.15621148920455952	0.1483550416663707	0.10174400810042039	-0.024804080916708583	0.00010687369183945677	-0.04954222804506521	0.012640483776888804	0.00027414238539904444	-0.013487451208704407	0.0018700117464862211	0.04463716562521769	0.1414801551102803	0.12894666848231556	0.1466153006645972	0.152137140683546	0.09740194944509599	0.12992747942563027	0.16484054409896237	0.1176766729431838	0.24061220403976633	0.15851689371873426	0.19892287134322725	0.26914474396789234	0.21236952904087184	0.1655530323834853	0.16002155326154607	0.23395993438587281	0.23374727634401526	0.14615615200200496	0.17115335810825008	0.1675730596932359	0.014014731910061452	0.03698345102237613	-0.037881673080457486	0.02955125420624761	-0.05865405475342718	0.017116908277606282	0.01320707461864682	0.11607782429512119	0.07983408568344527	0.20809984593727404	0.23217424135125003	0.22354041954912562	0.1515077492124177	0.15827318455789235	0.23646539918429021	0.18390114531243373	0.21581119708046959	0.2658464495396737	0.28067609868264104	0.27032520046279346	0.23102787948482742	0.17533804010541457	0.15500606448182283	0.2271801038847955	0.19379479317280074	0.1771910312890271	0.15658192126473774	0.06939953924908134	-0.03215788080080098	-0.006580707284252016	-0.059776512365492154	0.010003816183579282	-0.03945037863530034	0.0005299270444179778	0.00515231700927698	0.09644052095543608	0.12259101680382753	0.17608373559107163	0.14589402571259463	0.20142337399190144	0.23241800522352782	0.22137397110624238	0.18672917547984955	0.12851749335709486	0.23244133368165598	0.2604264966088639	0.1654325825906912	0.14342289482911316	0.1811570438686423	0.21455385778301247	0.150707223619997	0.17228225246970064	0.1449169297834299	0.17711765276514888	0.07505967766094018	0.03150080052799495	0.02986628816783587	0.03949058694526406	0.013181310127380625	-0.009756499644666752	0.053351129176499486	0.051158961454220386	0.06386150458170411	0.04947061828881645	0.04959823595790691	0.10458066952770519	0.12008959599277035	0.16864601547061647	0.17713758688853773	0.15682129516010235	0.09779534067663781	0.0963294308547801	0.09226024996968583	0.1374223157872405	0.18778202770723174	0.15937351523610319	0.1331341129539857	0.17193218038860858	0.18575944293641997	0.09988037424582431	0.10470890602742762	0.14325764226347243	0.1411682737207327	-0.01050704943016035	0.02269099837313669	-0.01434036761491482	0.027598135315513354	-0.03789561406981213	0.042975014012537956	0.03835005318490854	0.080673373739539	0.041940950002774556	0.04093450257604551	0.06569226008696238	0.13612986273561137	0.08189784495367214	0.12299117836447879	0.20229234658504613	0.1644647381758935	0.10813725266974344	0.17302950746914647	0.17504740103891775	0.17165066937004397	0.1819057617175275	0.08222880717367084	0.08519828417781944	0.21432675949059432	0.1940718144850673	0.04053523495765806	0.019353076482945677	0.004829996336193844	0.02510898498727936	-0.023237782987013185	0.030507727893162712	-0.05789986999524854	0.058882752380534746	-0.022443073060164544	-0.015242254252630351	0.05241823413454554	0.029362350253312776	0.1120041316880154	0.16177537065643938	0.2043381726750499	0.22566213826363554	0.17859399443145316	0.13849584553030786	0.16653676700724165	0.07435308221976693	0.12385838507822265	0.1184206914402086	0.18137100311165014	0.10054135836507085	0.1561935448441967	0.09373499895387441	0.16347129632718607	0.1096615291382212	0.08301978588631577	0.047309135087489136	-0.043103809450451426	-0.0008177771652972595	0.013359887304041378	-0.027593772736422585	-0.006954770978265534	0.006652611381885727	-0.04651063815296868	-0.012975457028658245	-0.032883176398757014	-0.007881056482099306	-0.0006304849285394353	0.06591281018999624	0.16595037294609907	0.2001003811003187	0.11598885171464764	0.17486099272202116	0.03738900806146166	0.07750725233128539	0.04374313746444855	0.10633704839142377	0.10417585223459201	0.08926428876914792	0.054687435535074436	0.07928207789699811	0.07183693630106754	0.10889565398961022	0.0351345777523679	0.07125565223702135	0.05813989604501265	0.03994999266806644	0.014930627698786824	-0.030207635894590277	-0.005493895932633211	-0.0015399789844137077	0.010853017979097691	0.014423235659537173	-0.0062935333504786145	-0.038329489746327855	0.02034682641564239	-0.005573888821397533	0.022627104737663443	0.06538309560748148	0.07318935918110062	0.07205727727840058	0.106388313192141	0.04891746872832107	-0.007307106399358194	0.008496702304308351	-0.023601056095463542	0.0668841339885673	0.006176270027762412	0.07539278802725422	-0.0050234384419378005	-0.009044614389185544	0.07086728806681963	0.02380539642777878	-0.01389020586224285	-0.028917366560873996	-0.040171140813887146	-0.05175336195740727	-0.030417718826800638	0.06011069168519798	-0.04215801502028618	-0.027343755161366806	-0.03327999796485839	-0.028646903245851556	0.007390112040439773	0.028936166357418802	0.05606422869367264	-0.017162633756883663	0.06490751752260611	0.011397331523072506	-0.007987861281854164	-0.03527371908813569	0.04275369632120125	0.028915647355499043	0.018160115988470588	0.028577212104842546	0.10207977400047219	-0.005250773071703517	-0.004668177647271564	0.006258325602947593	0.054176542026594054	0.0026065251965193344	0.024651220924754753	-0.042189012447477865	0.006075274080095314	-0.017504617877333883	0.04377349886004251	0.002065123455151953	0.004920929639703205	-0.021273150424838756	-0.02314683233031401	0.009486764487900742	0.044321171263474284	0.041336488475110456	-0.0027862288502619433	0.048641863791049615	0.10066717967215412	-0.014977428529702522	0.07889250349017089	0.08356582338647409	0.04201343781469404	0.053865750082265594	-0.04730805399386626	0.08418703741725374	0.018746737800492897	0.04335858791966081	0.002061869626728534	-0.00400709107265687	-0.033596674380009364	-0.011334876290566488	0.016221739583928547	-0.02376758964275754	0.05574306894587575	-0.004714423248018419	0.028002097685926382	0.03420444246473087	0.008977194530814338	-0.0265174582208117	0.025905782141625092	-0.05200255397146203	0.06448092125612628	-0.03520679806894685	0.07637633456722819	0.030980811639409817	-0.017583798025771126	-0.02445884979899614	0.052404442947761476	0.07333951727845137	-0.0363483775886807	0.05848362174262368	0.041115613234634085	0.046111577011867286	0.002923251810453008	-0.027362564948001586	0.07593305395605039	0.03953408500748836	-0.025477347150561717	-0.018224776383289953	-0.007962635549593743	-0.05834891344015792	-0.023392352389219825	0.03921933039687538	-0.056234878107926545	0.02897394546586702	-0.024701371407032095	0.054132636926577604	0.0037518781566008865	-0.04083021703153815	-0.02059486686321539	0.05571642368241279	-0.028509283202310373	0.07290613017731504	0.03568292125683126	0.03893378811419048	-0.05491515583787992	-0.03682743318168453	-0.05755100094231512	-0.017849192907808738	-0.022359836950022385	-0.04938186824348298	-0.0405210929264494	0.0022139354618118767	0.03893234408344278	-0.048839297219116624	0.03444340508846365	-0.0006785962314300796	-0.011901820698192534	0.05585846778869762	0.008757986900810978	-0.011919603198082253	-0.004256697813582816	0.03001207758672448	0.013668182223558485	-0.04025331029593386	0.01780182419779663	-0.0381534453909977	0.040928968120106296	-0.040277330498349286	0.007922613322140873	-0.040042103868200396	-0.03356016553502492	0.04943266347501285	0.012440876031855763	-0.05790432089209761	-0.023241619852499135	-0.05589657582751654	-0.05653723676407955	0.024472838400388705	-0.04855273883836226	-0.014581958935404244	-0.04996562640049268	-0.054177798978011976	-0.018005301798326427	0.0330551679229667	-0.051339490075089894	0.05106114302140914	0.010555441702818726	0.008536639077357112	0.01361336649294096	0.05956138133179074	-0.008423843355270418	0.052776896979746975	0.044742396055742005	0.03646294585479009	-0.0028461631930987294	-0.008115235414987232	-0.001795077592721411	0.026021632038550506	0.05499983623261782	0.065218028532071	0.022559113637060407	0.02128042085300659	0.05285595227722669	-0.028348203162494773	-0.059920498691442885	0.020976504770516925	0.012971380136004367	-0.033832569697598014	0.03861312079251346	-0.02047590274950999	0.02062505394957346	0.03486569292705142	-0.026122682942234854	-0.04331981979355504	0.024113417590060936	-0.038236324985323894	0.03402135931681203	0.016529408439355152	0.015403733733902268	8.424769785136954e-05	-0.026011235677366483	0.021639644547391236	-0.019415255914598015	0.016020212521054955	-0.05443205913991504	-0.016462261540757285	-0.03969048843029874	0.01944083793554052	-0.010431587804223187	-0.012145430108257305	-0.05612063889415927	0.051989912227700434	-0.028042394270880313	-0.04831925889895671	0.03903202093940992	-0.04600842206538863	-0.03973669906080398	0.022384654986999465	0.033377734128596896	0.041698868522294784	-0.013582117147428137	-0.005865107479475738	0.005796754950676393	-0.014075742437275114	-0.007499859213472036
0.04796410937568205	0.05270629303108113	-0.0299616458111074	0.04115907530823077	-0.011879729974314752	-0.0021306397459026974	0.04818594859795503	-0.016009782697865987	-0.06027803223534926	0.06559909900613202	0.004365223399352246	-0.06016934698913959	-0.06167876036762785	0.03190207217508565	-0.030956561383961356	-0.008544540799712369	0.015283261653495854	-0.06044260895610326	-0.05821079483520957	-0.060998335539674556	-0.03150456169117077	-0.048406172879469	0.03453668994699611	7.450882084263089e-05	0.0051659175022174195	0.015667313339410828	-0.020631622101342617	0.04855517475225724	-0.0443904375055314	0.013658899862478917	0.04845068012634359	-0.043516135945234694	-0.0032307094991929006	0.050178420501306824	0.011361426225342496	0.03288560134921042	-0.08758873718696017	0.02113406733369168	0.06551786510564635	0.0138051453817314	-0.04046395174710424	-0.03589439748072467	0.052885007041418845	0.00841487832381823	-0.03686903581536138	-0.03884527643088599	0.048290657558665524	0.004782475997570652	0.028764702213756994	0.053793401888175975	-0.005721520556375093	-0.023447849320636642	-0.044553525373884156	-0.03304944000352274	0.00561739471865836	0.02882683834759884	0.04156662407117329	-0.04367042786123412	-0.002742711597751503	-0.027734797591926028	0.046060990863694855	0.027141962948643423	0.00387883493596851	0.10742546860069337	-0.10374338199107808	0.06340440990248195	0.00526494981672278	-0.15676312700953393	-0.07932821706620193	-0.019331785369994914	-0.025685710833204114	0.10625630425758074	0.1092451351242668	0.08500059765549942	0.16313668228914793	0.019726243981209927	-0.044474134060407955	0.014097608352002711	0.0020621319323604293	-0.026517592229887574	0.014310552932650954	0.06091476748184236	-0.048281943293942836	0.03954652306952409	0.05492852833858879	-0.030325034282245866	0.025501544483117915	-0.0592503534284419	0.01914266982406427	0.01308358167261317	-0.05778103500645089	0.10176922162025563	-0.06018621032068318	0.2091513852969821	0.3315932627403958	0.09823275390645993	-0.31975845717832085	-0.09237169077202786	-0.08215773968558239	-0.0816292779465336	0.021194051033631863	0.16256509232535413	0.18783010544958986	0.09882710023367047	-0.08633372977611868	-0.08699545346028525	0.000488767446105661	-0.0194318971246525	0.03361542301112054	0.03474983113675958	0.061550144410400416	0.01753515694443817	0.029203762816679947	0.018326711086158083	0.05423225140386543	0.005609440613344556	0.03187081762082537	0.09838908134901773	0.37226747565235435	-0.2652401890038615	0.25908659606121504	0.2595371689887876	0.22938220017598177	-0.1495594401980658	-0.07730086193189777	0.15672954719874954	0.10688029739346568	-0.5171932444051888	-0.25759366899427566	-0.004508223365953236	-0.1575475364563195	0.04512218431311492	0.03062685400265534	-0.18378029463182213	-0.0321246092759777	0.18364538497126104	0.15581826537122742	-0.012839215083309633	0.05684996961065512	0.052706522196466286	0.006725871038275315	0.0018849795592252513	0.055699904972547065	0.003484298647128513	0.027006304439798245	0.34584911209332153	0.5734348887356766	-0.15538647579888168	-0.07184108628082746	0.03720882020328715	0.5275734762460267	0.6323169037678082	0.31298052965271256	0.2815394479008852	0.4042965576124782	-0.18660535339766893	-0.6836521623366576	-0.2818167142854804	-0.2456254720163836	-0.09408729319242289	-0.3508928681018377	0.209388812114745	-0.03563592014798158	0.07247945128289365	0.17372293294521707	-0.07143603470901022	-0.046228240815037625	-0.01400205449140026	-0.0030629986540608445	0.03264607762659442	0.10706801543626783	0.12760690673051986	0.013840009873131602	0.2891290562062932	-0.19665599278825643	-0.774393461719938	-0.6941275078683863	-0.11968693792773917	0.08532577064759406	-0.01883591260071417	0.061072381536899964	0.301844495980243	0.14617783341357513	-0.07713858761550235	-0.36851370673155814	-0.18184152512552768	0.7627645668212207	0.36782410659406106	0.08696273578131378	-0.18349141096348448	-0.5206370871345479	0.1729764591104587	0.1228211096971133	0.0030758837933092596	-0.047748727088251036	-0.04870090938336047	0.03841954551521134	0.01831119169373293	0.05742310865732194	0.20756239326498888	0.2974398624009148	0.3749638618428296	-0.2614639183743755	0.02417977207984347	0.05550221508139299	0.32908401637182816	0.36734784910150386	-0.07707186714013693	-0.0320847631512801	0.8466967164840947	0.15660078465587246	-0.5695196056749804	-0.19196782928004757	0.31705863212217505	0.08116909695040124	0.17285161261644685	0.2126495656936801	0.2976920947179623	-0.44548703953072943	-0.3526498178731596	0.05961889345965084	-0.018784561919441247	0.0008940263888245338	0.02389130831808744	-0.025875370748703816	0.10835662731081283	0.2195234812261876	0.15854340594888808	0.2757257997156384	0.3446263382328013	-1.0311656096457618	-0.3503279153557456	-0.5947423585205523	0.013732001297449547	0.5127957898099079	0.10852634696991566	-0.34133996573017683	-0.5618873780474559	0.3632098495122011	0.9943813087226984	0.3020664808396768	-0.19899720202303312	-0.5546728883508721	-0.7332200524348831	-0.004801998193379113	-0.3358074924284998	-0.06503798070975342	0.19459664434124238	0.14540992102046818	0.16073569539933585	-0.07685862372177371	-0.022943835366531058	-0.0029937111249557155	0.1485977333289734	0.480033723830195	0.7428417538544034	0.21860973042241202	-0.28670301725492336	0.17793524522930074	-0.4985783407475124	0.14230784998418103	-0.3547349253389881	0.22419330135970786	-0.1116209674301305	-0.060772591920170795	-0.4494951144979303	0.5934761366715405	0.32577120665189313	0.12268208030394873	-0.22784182822862226	-0.09880108656143483	-0.7762008897197323	0.2720749133101883	0.07789963763324682	-0.5705582850945579	-0.21488573463889205	0.5042435107594494	0.2999359286844462	-0.05413739320499446	-0.005132171881569601	-0.02710058326039186	0.015671157006575013	0.41812481700382154	0.04805038772767265	-0.5402373345798863	-0.10996891930467852	0.21523961558162896	-0.12139443560963296	0.06886820812596121	-0.27893245226916785	-0.30147909471180917	0.03557978603863256	-0.26613634465208597	0.11670208005406489	-0.813503167401839	0.36533675167121565	0.054111339892941604	-0.8326111274081665	-0.48629681625922505	-0.9634185829047516	-0.42555189512851643	-0.18390629114083168	-0.32880997760695846	-0.8004154085157089	-0.4260031516351303	-0.2778047680247359	-0.16323959417714815	0.011296970932500192	0.05192054407187686	0.1403510250103548	0.1875693513638231	-0.029111807841956803	-0.8761180471054218	-0.5002112821218817	0.2348514495637815	-0.3520491539455443	-0.5344712909022856	-0.2588699016446118	0.5641995504078691	0.997203461652965	0.29697444765374403	0.4978175597900962	-0.11296558479441805	-0.49199561127926406	-0.2593247539009375	-0.9134374360281186	-0.5836462423918488	-1.0755303144753587	-0.5086951065906035	-0.2929615634341069	-0.8090981595481436	-1.0753996987280494	-0.7096757646409796	-0.3492111463806307	-0.02733502203864368	0.020145095007135818	-0.04982296292221455	0.06458724935842367	0.04337200352463976	0.2036839172554226	0.2516690461744209	-0.73987821814607	-0.342414324852315	-0.41728012139038556	-0.11888923229770793	-0.7372668021932942	0.06074059104844754	0.038238713118364846	0.15713572815982052	0.42282190741079795	-0.17574767584658524	-0.13947844667334008	-0.27251077909123445	-0.7263097123838805	-0.5599587977144215	-1.5153198159927632	-0.763332245681229	-0.09356581367004249	-0.23357287318181003	-0.895724241853118	-0.5035954437407342	-0.036316380707387866	0.1905448812167884	0.06992933522640736	-0.014541246092982282	-0.011367064556519294	0.07945423864126906	0.2150924229586868	0.030303002908596107	-0.8088590446175324	0.004276395313885453	0.1966490911992654	-0.5277852392450915	-0.40183049073187355	0.5991171100533511	-0.81042796572341	0.3136817532772077	-0.2142379561589899	0.5258184833004397	0.13001721913362752	-1.146151553913125	-1.6088940548396096	-1.217833583489978	-0.731751736806383	0.5262906067510105	0.9338714370542565	0.23878541619140264	0.4010291832924312	0.13496525154705374	-0.1475947734486371	-0.023929504645072753	0.07411293168326255	-0.011571825867627637	0.03296903829968533	0.44341773786509725	0.25056482887205994	-0.43295809847404737	-0.31811158478023777	0.045617430501017096	0.6822509487486896	-0.024033164358732775	-0.6578559088243593	0.1235609432928701	-0.21073286558663798	0.6245284864088405	0.3132708271613191	-0.18164243895003154	0.7941473831405773	-1.0067138717768533	-0.32196172571899445	0.24623495044491542	0.4965066583377624	0.940122511638851	1.6073743958458637	-0.008288753147937667	0.15370235858590267	-0.015540996870134096	0.11755055369920114	-0.2718009464357427	-0.010987713109822678	0.030544715734655788	0.14539066321219854	0.29673212776931907	-0.23955676045701935	-0.18410934769848186	0.3552875121884803	0.6688600644596083	1.103551648699753	0.07342591323219666	-0.20097598649546083	-0.7511395778880868	0.11274732632568181	0.3864590272833138	0.9023621861049823	0.46806362822136316	0.39028754438811336	-0.764654850441124	-0.16707151757552763	0.4396978575531345	0.11252293530617168	0.8539739807659965	0.11428960581671518	-0.423729338717508	0.5989323426831291	0.7226716878989166	0.7363098589798744	-0.1625765538917446	0.06780043268468407	-0.006249185841567362	-0.023729674387563588	0.16731915698844824	-0.68269412892643	0.2795504677438333	0.9661087939493733	0.7291301816441172	0.8153555785159031	0.14465507209839015	-0.6444040774499611	-0.22359161286341375	0.04135730042996035	0.7848884004593973	1.0737262917492427	0.2505421183244985	-0.17394105568069662	0.0594717529036076	0.6549745553258827	-0.9635484810142857	-0.6428291431075244	-0.9663813034177333	-0.362065749276468	-0.6170443204259117	0.3358832597084023	0.1097848076574836	0.5139079873912566	-0.35878226053180445	0.16060455976163024	-0.056841164998894814	0.00868797656443474	0.1820182465373117	-0.08837148763560053	0.0531944659056458	-0.2606104836993449	-0.015092207053283194	0.5604391799465576	0.1301230719081015	-0.3614449041172821	-0.0464287742692418	0.02877107100471295	0.7779568789968928	0.6065953245033874	0.31564130072562896	-0.3313410009275798	0.30504328924468593	0.061930404276181836	-0.8520595600214131	-0.9505734543738102	-0.21931942055824102	-1.3184018087092728	-0.16133033553290194	-0.17267392462872783	0.26942035022820093	0.23466149269560715	-0.15029205935291431	0.00032804086547001747	0.0033079324671692126	0.017910634003806956	0.21991558514154338	-0.08531533453991551	-0.09622561201538513	-0.31068947097804245	-0.7037692365409778	-0.10051082874559039	0.28563419362137454	0.6246443039022275	-0.2575682052437807	-0.02179079226705671	0.5905645622771899	0.22330413995954398	0.6776810526020001	0.9183119970421626	0.9204628441463802	-0.041083970411898846	0.021257956732960936	-0.3314919698822405	-0.49157984364077334	-0.3761551152733424	0.02928718377813246	-0.6663156955572174	-0.45403349069377513	-0.49977379758874296	-0.056808242925250274	-0.04269434582261779	-0.03590458481649099	-0.0021127775669817425	0.036414933170085755	0.19988655863085322	-0.5441078890205381	0.14069410373609678	-0.5506184297031731	0.28257301641076704	-0.14993481903330133	0.3046327610249803	-0.26296668556532493	0.20658792055301295	0.38763761162928473	-0.054167544449836104	0.8519215412928138	0.2779842754431625	1.1702428974413226	0.5012625734544202	0.7289259770220367	0.9458867877385195	1.3393943194679818	0.8777138555930771	0.3733758730790258	0.6871478118892275	0.04186257674353616	0.10512814812077804	-0.04059473332614363	-0.00790923922900573	0.020317531609677843	0.01674262823481295	-0.019340327016920816	0.35818157272223455	-0.2821949846482682	0.10510782551381607	-0.09379379998570285	0.9862854133297094	0.34487215420206135	-0.21819836995338393	-0.4482168369209976	0.10132373338627268	-0.30567982104479463	-0.6130204851856677	-0.17442189528588845	0.1601324515303084	-0.1547516819642859	0.45580617693429865	0.3231532477323884	1.2645578017517083	0.9234568302512426	0.8241815044732906	0.4950514815330404	0.23825833893582574	-0.274700539214587	0.358904962322133	-0.02487395619440279	-0.02018406447937908	0.05636597249674998	-0.04123424336951293	0.0862926141033965	-0.0311762460869794	-0.37985094805371467	-0.12248802765738767	0.16417132614670218	1.086479549959461	0.575423272226996	-0.38181791446649577	-0.5007528485663243	-0.4307236380589606	-0.5182177849019742	-1.2630648583992596	-0.848035655583489	0.03586658618846345	-0.3530818858637399	0.3388190859118491	-0.046684463217285324	0.34064254188571125	0.14134544337064095	-0.004916155555782828	0.09532741496666491	-0.40759907038118476	-0.12385252297276245	0.08191344396316394	0.009292285398061158	0.043694541670416975	0.05530727378647663	-0.0021363837065903057	0.0012466103141532538	-0.29845389106150405	-0.5512329948032513	0.29030242805003975	0.11580379624685076	0.583780919685287	0.3169296665289228	0.05977378934963761	-0.7281439247518404	-0.28350360302370153	0.16145918996294265	-0.4787800759453749	-0.9681550209995735	-0.6100194318965524	-0.20576072629425915	0.1051945525750534	-0.16210725440258536	-0.4922575670084323	-0.7071706229860466	-0.31915880715190637	-0.0716734650673016	-0.014424427333703154	0.3014663754074296	-0.0031495529012850088	-0.0223733770078786	-0.013586125011617427	-0.009923516047873553	-0.04912343004015146	-0.01645010385650012	-0.058626522959756205	-0.37884102420738686	0.13780426685814381	-0.3111206553264618	0.09181286774002251	0.0721049868399648	-0.5899716514710339	-0.7305506944112994	-0.6442345635473953	0.01296472676971287	0.40985127907495267	-0.1373933505981245	-0.1278498508088515	-0.44470697262139397	-0.566732815033882	-0.7961411854231923	-1.3794160805368583	-0.7151706321511434	-0.14031088307190004	-0.2776253045707354	0.18137373161817202	0.15004921113208833	0.05470293066198122	0.05317161579417421	-0.06162494543529164	0.00022174805708494866	-0.05826323036253513	-0.02487488429158283	-0.029111815590685337	-0.0817347683490196	0.0009286546418245474	0.1645152703605171	-0.3573774064950105	-0.2956537906852715	-0.4503090911381746	-0.2590874667892434	-0.07259881841563476	0.018301741419723457	-0.1843070008690535	-0.07930688422687615	0.16173193289175725	-0.4047163053975567	-0.4120323827835892	0.08792928373638655	-0.07406772815479937	-0.047672922629698126	0.06470101827063898	-0.04852910364928743	0.04236041706843519	0.047283372580757654	-0.05222043374961801	-0.026126990371742258	0.01372183678238157	-4.533863466344573e-05	0.060447763497899244	0.019815671282948873	0.012287290294881034	-0.04568527046260293	0.06309908311828537	0.36006873218030844	0.11002739137204832	-0.0514384010340712	0.030679355619268937	-0.30793472141215017	-0.19453027645356077	0.10777971699382856	-0.0865779292361315	-0.13044643509783266	0.18469550432606788	0.2452208681188437	-0.013994553811445955	0.0643356569060832	0.27451086260801383	-0.04433728361872865	0.045650391282247446	0.06677671608534745	0.12600429723427858	0.05579101384556417	0.02776792551260133	0.04342170368485893	-0.011729046918514972	-0.054026516843346195	0.04093682577105336	-0.048840296236032484	0.06024003459598575	-0.0015571359193027985	-0.002929205141715807	0.12864391387846985	-0.07268291843759869	-0.1667074726955118	0.029559171944767416	-0.172127805754743	-0.018152634550464303	0.01319450740647636	0.0048889247303119405	0.056016165965980594	0.06132751244640763	-0.010174054134580028	-0.0033741789797881814	0.024129282880896736	-0.054548617549376795	-0.01183960998640233	0.05325658619612757	0.023359770631888255	-0.009465470832825569	-0.04255908750077779	0.026064023108258956	0.04887016949025295	-0.05045262947305903	0.0022876666165127305	0.04209250676803534	0.041024234913519496	0.04052129091853814	0.05796697556368092	-0.0028078701080948842	0.0800350425842113	0.008741179078134686	0.07954441158551598	0.028021163265152665	-0.018141815076990028	-0.051645140266293216	-0.032079325556340424	-0.006682867136636253	-0.0444354174700083	-0.014782233848339153	0.017547759327236907	0.05986248523780503	-0.060802951963635825	0.0595814472304537	0.05617026489664067	0.04815240849002913	0.05150540135742842	-0.029015155657538837	0.007816955826923398	-0.03595264345415494	-0.04962778877020892	-0.023993862648373887
0.023588858642461012	0.004029813423372809	0.025537920496370138	0.015277990258997502	-0.009690298602983656	0.019055877956902743	-0.018408617318235607	-0.007129713006151443	-0.025447222887375734	-0.05292037913708036	-0.027409853947709548	-0.016178172620739402	0.03152751444352272	-0.05476396578243602	-0.03623113766058561	0.049211416952374736	-0.03041755998865972	0.017706673165099808	0.046899952685824385	-0.009699677179176122	-0.017505076005631365	0.033267592062951566	-0.00482602055139586	-0.04111484398614011	0.037349675445812226	0.04471088449349107	0.03935447067915641	0.04139158761365285	0.0029576020224025626	-0.010670390845140112	-0.01218410173253718	0.05940576615993546	0.05884723828556352	-0.01724548812545778	-0.0032483944799388542	0.03420960212739023	0.061914691158569714	0.0844261395696567	-0.05800221774433545	0.04201400686009968	0.022952816948782487	-0.03233440338785625	-0.04882201053945732	0.005365229842739051	-0.04226291585901334	0.05895761142666366	-0.020311967628013752	0.03530990313469178	0.03560574833271438	0.05696458265865572	-0.03867286036047063	0.012642901933866656	-0.05750761094202376	0.024705465406641376	0.048216373959099175	0.06136304196145676	0.030482129560770267	-0.04564458226540195	0.026510317039513613	0.0031699436000788353	-0.03243609766154135	0.05805003979656266	-0.014763890947463264	-0.13034191914420468	-0.035021609856901816	0.027114112241510235	-0.10950416204937927	-0.006941939083210453	-0.011458302510807657	-0.055345828564101154	0.05218197114731346	0.04167626660264327	0.05277875088223335	0.030358089789355277	0.003444412494864256	-0.017268060940123002	-0.018131097929415144	-0.0408780518521026	0.011449083932000234	0.043405567236578256	-0.05588813539803436	-0.0029491550769860653	-0.0002441602239590182	0.018744551921217177	-0.006192676967481478	0.028793728350547894	-0.013505377213980117	0.0168780654430686	-0.01791895506193115	-0.056008242697328514	0.0030935106043854283	-0.13188406203999598	-0.10910950972929902	-0.05219317433770105	0.13512561034395437	-0.005182201936525979	-0.20019765081413746	0.00439200497493148	0.1194124442184611	0.09708991300279168	0.13840027641593675	0.10192861950373183	0.03347484326143965	0.08495467400230666	0.04062230201395251	0.12623804247868964	0.04965769088043917	0.03589645056181691	0.02023985870916499	0.06054061134680599	-0.043080902728191414	-0.016344482508543763	-0.021260235944885075	-0.042630041627303925	0.04990056136777098	0.02496382498624288	-0.05777578445583356	-0.19738974920497207	0.08388510763002924	-0.06676966850477581	-0.2821967061692849	-0.08020638480998775	-0.21497792034805696	-0.030583464055447627	0.05398053465153938	0.014743804811109911	-0.10295503319004233	0.2963948140019235	0.3904188554289029	0.18854591069795962	0.17465750304316827	-0.010181056938901997	-0.27868061829756124	0.15142795062315081	0.48584171068628695	0.24069084850277198	0.04569944149805371	0.05299387508471208	-0.013626246543179975	0.05919632181499856	-0.03766003443500776	0.005901597886629618	0.05348704269447876	0.11848040490988314	0.19486070973060723	0.0374661309796595	0.08670658414882325	-0.2638161997762296	0.27766083989109325	-0.6088615809475783	-0.3342591880806026	0.20407581069229916	0.18129182238328512	0.4491859101108724	0.5430696256978114	-0.2122057390747728	0.15058402914105404	-0.4111911387659652	0.33129871737627586	0.26923769484467264	0.20669061524381638	-0.45704996787552526	0.3268990269906375	0.1649517365908236	-0.08841941655414909	0.12051629338652134	0.0011154025328709224	0.04212458217208768	-0.022599594514921155	-0.054021982272132715	0.06963986122868306	0.2311316210372298	0.11816477183019079	-0.10679278157879028	-0.5636722387081681	-0.7848009644908875	-0.992424845187934	-1.1281286169037255	-0.5295893497688094	0.35429691548186654	-0.061168882200794104	0.8200644697178299	0.7679540643272941	0.24675035174730503	0.4819708275257172	0.0013432062925663399	0.08462059249913768	0.13149405875262765	-0.011797490801168889	-0.06034328563369558	0.15889015091792472	0.538547302511432	0.1414690776292883	0.143206301305294	-0.00020964231866783998	-0.006384517426794897	0.02038632140771656	-0.022847438253418832	-0.012695450979748443	0.105905055456353	-0.4411114799490704	-1.0869316369936233	-0.8888987486812646	-0.23403803576871535	-1.0957927644649497	-0.02588201926128811	-0.09162235319136412	0.6479477849912092	0.4200221801946937	0.6981631113614671	0.3445016019755482	0.5322501018293071	0.798040804695573	0.13628505692308293	-0.1382553323000179	0.07946036986557893	-0.7530878483997632	-0.41598524073391413	-0.7821241055155714	-0.02542485996491242	-0.3441377172619261	-0.0465017316900411	0.00678671608075893	-0.030284016731631086	-0.045173335356578234	0.005203743873589662	-0.07137141101698777	-0.24431691418388626	-0.9739472157419731	-1.5023437767276444	-1.0379171672116285	-1.554026837990616	-0.5138413965974784	-0.062013325761156736	0.4417731910213077	0.2961809604574505	-0.18239819494910584	-0.27513290912103355	0.0641084409396534	0.26566639125290575	0.07561726498566256	0.1847719677281767	-0.5095692145117529	-0.25040898597635775	0.3888095784918343	-0.15976713787093924	0.42046964681419463	-0.09782064861527472	-0.3761854450455123	0.021017445326117077	0.02158340532323172	0.008253354729151875	-0.050296734823296704	-0.08819854998967606	-0.0821731094519015	-0.43752648619608275	-1.2711368661628315	-0.8491275155579542	-0.6965003215325927	-0.9215999743537088	-0.5931667835670674	-0.18558932363018296	0.4932329461902058	0.3508122000310709	-0.6043970304217929	-0.41933156493637747	-0.5423546417675076	-0.6030032731344919	-0.9119085947420287	0.12630062884487855	0.3217587634778653	-0.31041266413163177	0.44290632796291246	0.06615441397407745	0.16036685772839115	-0.17930213193700748	-0.06994222344703249	-0.33744856275235274	0.1063271662691308	-0.0029744884946185323	-0.017981843998304665	-0.14122030777370892	-0.22223131436335256	-0.8144426869669819	-0.7295913831756194	-0.34037289467621556	-0.4417408772038687	0.06432196316213738	0.19650357588031786	1.0873420059982304	1.0872156221292342	0.05580813492718131	-0.28543245945011936	-0.6379200279749707	-0.18385328273565538	-0.5820969488840051	-0.6056362890774228	-0.3491412100916568	0.08659777787295289	1.0793091525085043	0.6279766591063182	0.5432713878528791	-0.1189290428923887	0.16007200881578876	0.3824530861993731	-0.6217263477393252	-0.23355755218880705	-0.007030220578758852	0.059435292566366156	-0.2937352892248028	0.07307609191187586	-0.3067163366170486	0.23562233473323385	0.6648397642826415	-0.12386566891596008	0.4266787199324921	1.6517100078907356	1.0442578650221226	0.9656402360228399	0.25771217996199614	-0.10487993498597592	0.11113977482607296	0.21902301208224453	-0.0752669954265582	-0.49951074369091525	-0.01791736466004958	-0.07383901626398118	0.5799479870698777	0.03783984759915597	-0.006181215592794902	0.6450632211164542	-1.029629852934848	-0.509726926057062	-0.7340471018287877	-0.29286737015819025	-0.09547330022605749	0.011131051504201843	-0.062124754173211734	0.35783804767340854	0.621164221173471	0.022758123105430926	0.5807541701773571	0.43134328076684564	0.4003845874116778	0.48422712048043964	0.3872882090578853	0.003238100331046668	0.20845932223734612	0.7730036511685213	0.012798256024390525	0.21878073903453213	-0.1166350815838307	-0.44623568394111063	0.25923101490365497	-0.37113279500536017	-0.3552683839447622	0.28914876500597086	-0.3162517438464697	0.036478055498187376	0.3920166680656181	-0.5245521089717258	0.35255795071933677	0.028978670056687812	-0.16065652825973625	0.009249318160128688	-0.024337316768130102	0.35745723678701885	1.0053589854871678	0.6451962510625895	0.43049298108840145	0.031234296562695323	-0.9541214523445883	-1.0993244621023197	-0.3883188185726723	-0.13343255057669376	0.12099873928493261	0.6895753114572778	0.558338259818608	0.24459284274815002	0.18949500820522872	-0.3979290172547318	-0.4671909600977292	0.019606673646954124	0.7765355652017872	-0.6372676523754066	-0.8125135800836224	-0.35860901786962196	-0.4891192492827251	1.1140634483316194	-0.23849180966578373	0.10390904761208765	0.1559763870234522	-0.020864633042894903	-0.04245909112471902	0.2741697409365155	0.6984891347742072	-0.6052597682145338	-0.25680706365973555	-1.0341363668448373	-0.8495177963797362	-0.5459268408454333	0.7163775049661977	0.05725844875923925	0.6184007055619269	0.8931440318203285	-0.12087411462109353	-0.44844201282260354	-0.1712344554827706	-0.7378986474115207	0.11635611081599889	0.06520770447167304	0.007420627132514365	0.08242701129178533	-0.49687629176851694	-0.6590972431051914	-0.244655612608902	0.09342740195421938	-0.3021804870904078	-0.4515390115928137	0.011369356372894159	0.014811319518875647	-0.023448633148176634	-0.19758808441950423	0.19862214680284593	-0.4566022208595329	-0.24967287182402986	-1.2647094194662238	-1.2864075879735515	-0.0060662346214673995	-0.2955040742511909	-0.13862602537444862	-0.0875196487819499	-0.11099493499563479	0.3042749536774157	-0.46657137076005045	0.7197650634212763	0.46900311410262785	1.1286378781586937	0.3534163714195305	0.28999242157749455	-0.4650571812418796	-0.9589944108725711	-0.47162357008391065	0.23948534667872276	-0.19614348092764228	-0.2218137809236891	-0.4151214169938888	0.060071555670446884	0.02013868287929705	0.05878886775640395	-0.2792196536810258	-0.3923015232491867	-0.15400141201898446	-0.2193827368054561	-0.2158121605879087	-0.05542342732519631	0.03281851954603983	0.37226449448414606	-0.1454689014198795	-0.3620755537861999	-0.007956652568557255	0.049950877118539024	0.43900067996459835	0.16028855253045643	-0.26515231639462655	0.6443798960791798	-0.1805339431536952	-0.44986855186066393	-0.8661178147552787	-0.7484938999215929	-0.21542148970523273	-0.7480986240082996	-0.4870524451465403	-0.26800058115780373	-0.09317509898341424	0.23360403384414313	0.02313382463286264	0.016667862916762335	-0.21938255708688692	0.08924645399842912	0.5121266320384984	1.1634075364961143	0.525563093020227	0.9096617584502004	0.4603913077977796	0.18607064127862954	0.4146046658358822	-0.123142664058946	0.015143058243962034	0.38616327814444973	0.2832713856803699	-0.3190807964676578	-0.9208915771890614	-0.5295980083278962	-0.42086552585409703	0.07524456512397767	-0.0833070762227364	0.3346681677896546	0.6147037659717111	0.2738372345466649	0.2651447292598901	-0.4764477415835909	-0.40540823299724016	-0.0846193715074856	-0.002552474706320633	0.003490321077162182	-0.26931140212717886	-0.7489047766796164	0.13193182455943378	0.49429030074778313	0.7082881273865038	0.7162827950118178	-0.007212999288248077	-0.2273069456826032	-0.15829690313291916	-0.04643603469447417	1.1171421684456873	0.9828568881659977	1.0694827901829704	0.4800260529851405	-0.13532368911614095	0.38636908757772237	-0.39384632073610043	0.46751945155245894	0.5370845045482907	0.143839884545409	-0.16266606210739099	0.1860624930461424	-0.3238499564697006	0.49415141604602547	0.20034077589364815	0.0007166557399481691	0.05300366503598863	0.04614904978088028	-0.39724289543598645	-0.4779600099218767	0.23148024913904774	0.8867461212654103	1.7312120694376496	0.5777581818494125	-0.3221697394780418	-0.8744039568912032	-0.9757292574857064	0.10161962357115116	0.12602098110524554	0.7494879999390578	1.0672279764942196	0.19382020618125725	-0.3993286396072066	0.7913844280738646	0.3332413365038435	-0.06693499316042699	0.24576129276395925	0.7017904153230423	-0.16516676440986958	-0.328885978257586	0.3111147151831582	0.22477193653588173	0.2180253758458942	0.05724247729621201	0.06113863803552518	-0.010285403296235153	-0.4914912820032016	-0.33881479581267593	-0.13865889443975274	0.1985158208064271	0.9843297366259579	0.19986858425107565	0.018701820221766603	0.018079050732166604	-0.46213844782602087	-0.34783144841690344	-0.4129742490034066	0.25578209461446466	-0.08651273339635847	-0.09242490473903303	0.5703512741837219	0.5416500734911561	-0.3215154797146083	-0.057897911386694235	-0.155190401445066	-0.6762368013304931	-0.7055078286386737	-0.9473945781359562	-0.6009872245278661	-0.16199361089191286	0.11770299607639954	-0.02769433459833969	-0.015236621451105103	0.03867230348590022	-0.3564333041795235	-0.16671098448469843	0.1767677304796277	0.0793153074136273	0.4822761669506504	-0.02223335127939452	-0.17683651903500552	-0.24479184958895184	0.16160803244249344	-0.29852807650663366	-0.43156449487849746	0.4917055830880813	0.7769800255122705	0.21532966304284984	-0.09062773790611729	-0.8082661646702125	-0.6270212630097733	0.17052911092614984	-0.38409866490120137	-0.573119617328817	-0.7368482750681964	-0.6566691790569653	-0.1758900185533917	-0.14534323170825256	-0.03381766678513996	0.028308594518550934	0.005213935804455873	-0.05981799732995039	-0.18881421574322593	0.12392247178005224	0.44083802015186324	0.31557037440383495	0.5721993734047278	0.5686982920836655	0.230131364974079	-0.4646006000433351	-0.17151405129973415	-0.33336448639654587	-0.7258901440909465	-0.5932193441320002	-0.052852461376150496	0.24978328769094152	-0.26840150680784514	-0.18107233928925934	0.13529331890410476	-0.7961946387013678	-0.7757337132903545	-0.4859442439525069	-0.2878371761786188	-0.46303620816800495	-0.33189487514058935	-0.2200561579502041	-0.0390791934649301	-0.048884599064445075	-0.04370088659647124	0.005012756889195079	-0.08225187347701642	-0.0372004095084058	-0.04723676591008224	-0.0460707082137679	0.26787433413664213	0.5525462880223624	-0.07864604721348592	-0.4009827888723857	0.17254970538006356	0.23791344938048217	-0.19621840345807517	-0.3108267936441288	0.019119034514804987	-0.45543770339463313	-1.3994698243953594	-0.785898087901389	-0.418461329241691	-0.8455349536371057	-0.16673323524990571	-0.2611051929992478	-0.352763936703116	-0.12179359768546777	-0.11102859780194348	-0.1013752693786629	0.046251725770822476	-0.05276689358327835	-0.040615683066863174	-0.033732145113942416	0.04720441074228138	-0.07404264106462646	0.026774837357138016	-0.27331470251185336	0.10452388663164797	-0.4258201362308008	-0.3114227029629353	-0.26125001038611945	0.00010080941115807937	-0.5372446015520488	-0.5650423352740322	-0.3903503524136196	-0.14399706595199416	0.01638120430165154	-0.2610467191496366	-0.6094930633537411	-0.12233126158923834	-0.18775418879539352	-0.0459150036511653	-0.37307103103038497	-0.0962610858311517	-0.06422201272413103	-0.05404580990030135	0.051897497862975164	0.003083695190975573	0.04060170174891412	0.04148724454873954	0.035906666654624185	0.03693973192547332	0.004699455034699257	-0.005296528018552689	-0.04200987520997774	0.14525439441966148	-0.06357028335214104	-0.20886155274511392	-0.09634498911468924	-0.14868348451821464	-0.0064031613030093365	-0.010990390815320791	-0.014766628519504844	-0.09832330932722418	0.11284283559194726	-0.49406400331420003	-0.20521119257336923	-0.16918132259101248	-0.31880977107969466	0.03494839976206764	0.05777503572044624	0.07497461078952186	-0.05514728090240391	0.0552836651083372	0.0014216127292777728	0.061657948664490723	0.025885846402540567	-0.023302824457189474	-0.0022405271184408534	0.0394685467199536	-0.03632387695632857	-0.0013759796364902037	0.09165307657971335	0.05588437047122629	-0.17833741223370658	-0.371933460217441	-0.08506218043326415	0.07534164973907442	-0.17228903846992316	-0.05551051203801092	0.017939577696060117	0.00740127612070359	0.07666634861631055	-0.13732933703575897	-0.14499508326512905	-0.08825187026843716	0.05782577536479805	-0.03704628775924896	-0.06590306096704844	-0.033561319831497086	0.031402162282255126	-0.021459656958068465	0.057660773348401397	0.02631967716407422	0.056810860944369844	0.03138695449420218	-0.019922471852581954	-0.031965364551823736	-0.0459304892984289	-0.011274461419407224	-0.024888167261805746	0.02410525923039312	-0.016896540499606323	-0.0678466006656446	0.0020592555843592843	0.0031176074540978185	-0.02214885337682243	-0.040136577572194354	-0.05753122954557391	0.005983640045023601	0.028103389118694495	-0.10760437248980813	-0.1550015927214837	-0.01763426131002033	0.01819675508668931	-0.058720467693706875	0.023861098953990183	0.06143766734806271	0.03282105176048725	0.0025420681365677447	-0.006058882757652949	-0.004575372706357432	0.04677664291093784
0.04901655950800523	0.02196539485822411	0.03494627453171096	-0.05579684101225901	0.004887794603042138	0.031885579624696146	0.015987866483312844	-0.010738555393889987	-0.014408489830737753	-0.003372596223223874	0.0534252170876689	0.027763097222663728	-0.01969338490597841	0.037516601838701195	0.058291657791768973	0.026698088197490692	0.03916737701215294	0.05460945655458541	0.02688099993182915	-0.022525575255544404	0.04056556393265085	-0.02861835394741618	0.03184076912291212	0.04802007361191316	0.05835279877035126	-0.0517619178389505	0.03369589300568248	0.004781283498591381	0.04147880540656098	0.016912946800086197	0.03308316900825916	-0.04552680913426603	-0.019454178719152858	-0.047566088249535246	-0.016278571719897786	-0.010039886207967	-0.044493321266913646	-0.01431849070354924	0.01838543382586513	0.031231476408772225	0.043713876079148194	-0.0036046981899061116	0.04869131377318087	0.001368620038084932	-0.06117690935617008	-0.02984142083706475	0.02775005634534195	-0.028815118122424883	0.050806934139699104	-0.02384409669501366	-0.03220015162237995	-0.006584149322213871	0.012986630632033043	-0.05545684922454663	-0.033403435513836156	0.0016064319892311815	0.05693183548666709	0.020063249400960166	0.026657683898893426	0.0007420944903807417	0.0059096902885729455	0.022521741926690937	0.060321719410109526	0.011752935423371061	-0.21603339764026733	-0.09634858436147022	0.06265936080405964	0.02087817877035908	-0.044315690512086295	0.004133645510221551	-0.07629566545156742	0.13206458946414237	0.04508229185395744	0.07932802988121525	0.06866121307063587	0.06791739926872359	0.043532755371564605	0.014020056345502097	0.06604347568834906	-0.05371999706680442	0.040324989168793866	-0.039438583858590656	0.040247756446105974	0.04373619022649363	-0.0193722097780376	-0.047055189288169846	0.03139039676246184	-0.05752385195872459	-0.09513351829561281	-0.0652525514352037	-0.04042538521614609	-0.24382455270866532	-0.4077981612834136	-0.1054102043200423	0.16881187695505429	0.27082368689442626	-0.06372848895696577	-0.2535475759348702	-0.21298297616791811	-0.2273429089184839	-0.11090008294982041	-0.22155461266403376	-0.23913257336931582	-0.004942178274918704	0.035484409798054395	0.22984000506717114	0.06959281247711831	0.03773171508310496	-0.001385148165069152	-0.0002827866914769592	-0.025916329516881935	-0.02397744320398481	-0.0004509655002412072	-0.04819514165411825	-0.028617973917722972	-0.04018257985042476	0.0156129550341087	-0.034792449581870714	-0.231847430984739	-0.2907117504258632	-0.8289770981107993	-0.8318681139656974	-0.1474214526302184	-0.1561273516139986	-0.13305402828223498	0.0209756067512372	0.044991966359266604	0.13714594072426037	-0.166840913541301	-0.3321555570974492	-0.2754719126667478	0.01177987691548361	0.10140042592314878	0.2127277922927761	0.01104906517173852	0.10945897010908467	-0.0612863942273359	-0.020955001180633166	0.05404134953867041	-0.012901541615686407	-0.023249690262214663	-0.020378238363953673	-0.057159679124771316	0.10121683668946359	-0.0018183291368009031	-0.43239533966187926	-0.6596688259069388	-0.6862397151069883	-0.7119343149563462	-0.38231382532614755	-0.532022712691995	-0.7899420064444677	-0.6276231172432083	0.5511487901672109	0.2892420825516353	-0.5669270528188385	-0.26459899745015225	0.2328410772518414	0.1411337426440059	0.1163734609791112	0.520196628769559	0.19917668094351695	0.03072381882344275	0.20632534828855675	0.17773549729270688	0.031694250295728456	-0.015774898097072707	0.012423295961442878	-0.039909279249976816	-0.010251059720222735	-0.012298236349837425	0.016066944742603534	-0.16450473615716885	-0.26388172026546397	-0.3541239083785543	-0.2008891394447364	-0.3701798190404623	-0.09084553534376258	-0.21493804676842357	-0.07519143365559007	0.082835527635111	0.48536959840652005	0.39583291161841977	-0.4574906338215221	0.05080296330029711	0.047934906982265546	0.6164773353397347	0.33783398795198905	0.27068590742491094	-0.44633720237503616	-0.37797721781991356	0.03549574340998876	0.0017028327040493106	-0.00834521858882647	-0.01184194986389185	0.038609095646553994	0.026141057251311196	-0.04043933198216097	0.02954501203095948	-0.1466065651934461	-0.0075710550715985935	-0.1380891970049951	0.6285336821603761	0.32910505927811046	0.2457260911655983	0.3082959863342579	0.6959308618391729	1.4820695426972375	0.8695143786801276	-0.15844340475838475	0.17161942355629847	0.7086819032036429	-0.030205211925192852	0.030754773929959633	0.7640812651801694	-0.32355931855854286	0.13567154768755102	0.02070907763701814	-0.8213167506116756	0.012214328043882585	-0.3642625493628153	-0.0219644481947977	0.039485033143104926	0.013932911304696101	0.04341113341461821	0.134532593296915	-0.010730801936021495	-0.12130661276173603	0.002108900801291939	-0.09107791833808423	0.43371541978683015	0.022708449758088403	0.36618366342602005	0.7147731305607427	1.410106051905358	0.6977225348571573	0.5223396157929852	0.6560107796998258	0.12293422102446025	0.21540684882683858	0.313433749303903	0.2261280128807029	0.7701881484557032	0.3238203418440421	-0.48475173468945265	-0.20104770958952436	0.4595616574880928	0.3522448858723069	-0.4908540442090288	0.01066550193387458	-0.02110812178447143	-0.02589081728049831	-0.012938877231974004	0.13690705477328682	0.1387261232636187	-0.015108061068299913	-0.2787825695868574	0.27250776980966374	0.004770709082076429	-0.09107507241914849	-0.5597172047874622	-0.23392259638717197	1.0657906775815231	0.7495652908888167	0.634422185167504	-0.21639282318329334	-0.5999688580965995	-0.28929022216655675	0.43660658804470587	0.17079582472576482	0.7670958008652258	0.5194946846431852	-0.10795878782698809	0.4087798407164226	0.21110951534631775	0.51344824300239	-0.07411065908247462	-0.3419957830842466	-0.10116045686352891	-0.026771645119613878	-0.001728000561919664	0.013438681157473318	0.27588784349320455	-0.26563412547360005	-0.5984782817779667	-0.5649576271545659	-0.21367021114691323	0.210674000489864	-0.7202012729859075	-0.23781956340100374	0.3965092267132673	-0.13793148408126527	0.21441440768300746	0.5108394277188231	-0.8055406465320025	-0.47270357479523684	-0.4315099456211631	0.11595141094762035	0.48462226597917984	0.129056144687636	-0.015574355152059531	-0.15120668238701807	-0.9812578762001755	-0.5917528658923809	0.03892880443840383	0.0443877725545469	-0.16257689583622625	0.059050632720406865	0.032511532475257406	-0.06342750841125692	-0.008149294644433144	-0.2714127955620161	-0.1659382726626954	-0.3726087162795247	0.014250034233818099	0.42802966998831227	-1.1722453334051868	-0.7916686157459841	-0.21609863712985883	0.1893244763202211	0.3970591410311469	0.24960925135290934	0.3567876849664152	-0.6733202184727124	-0.2647128155456738	-0.11321988320623916	0.2293418493622059	-0.30551977286532644	-0.48567466609146837	-0.6370436809496729	-1.610866152248549	-0.8316538128735566	0.19427689937273168	0.44211892287060783	-0.43747182319475564	0.012004680028970333	0.05510548689823145	-0.03128318355622113	-0.7737496191567234	-0.47338612322789264	-0.6164134367469376	-0.1835045309767396	0.10998121068974648	-0.15959888784958848	-0.9178341680775033	-0.32575275322465	0.32709688450176233	0.6084437480903593	1.147547810764451	1.1345637015900412	0.5050201503892682	0.33072370259702794	-0.006814155845663604	-0.05001066172481242	0.20731528364541216	-0.07851611485228611	-0.5199347969479055	-0.5210561799715996	-0.8101441065966818	-0.7916074917941801	-0.24243591297649805	0.7366596291022762	-0.2464640707431294	-0.18618775259283163	0.037264092890843904	-0.016365830181010572	-0.07669094954541342	-0.3059990276157611	-0.5779367869143722	0.06884068941620974	0.09533832348895757	-0.26619962851154705	-0.38852220075295546	-0.9023230878287405	-0.2593495365650733	0.27966134126865805	0.8532324220965932	0.7967289861858518	-0.47932391107048694	0.3087889640016642	-0.049411808842653115	0.720457551928477	-0.05264576645267506	0.1337202207434174	0.815913522657783	1.3666237759306843	0.606606658476253	0.5255624046478788	0.33586019868247236	0.40018307203937886	0.43219444700301896	-0.06522071925346962	0.041330838602334725	0.12628306930278604	-0.3806964810955539	-0.4236642071680547	-1.064866949796347	-0.4511401524886058	0.3510863222955894	-0.20867660666718474	-0.8674235806097875	0.1903970924506824	-0.21968977629755435	-0.002144013761234846	0.32405507908870335	-0.8615154582985364	-0.7061567264513473	-0.4266164197609688	0.22439916614450703	-0.11737452296576996	-0.11647471100658574	0.34182384743317346	0.7833043956516633	0.38383127511320303	0.15608570710634032	0.030046774107730087	0.42488229743286243	0.8586272588744819	0.15359196898276375	0.019112393949339196	0.00291110227767636	-0.044983410402647805	-0.01898304244913787	-0.40536429699017956	0.12838634038143623	0.16316761787556952	0.5465437721033527	0.14858348611174677	-0.3407383247101316	0.2536810836949611	-0.04183289991130076	0.5312428909986109	-0.3168390980571371	-0.6344393556703676	-0.16778228662405947	0.6519379213945868	0.5209731932220718	0.2011729681293009	0.10982110735924562	0.4017572060019826	0.17357306558079966	0.5258112159215111	0.5322369997925781	0.5892653252307021	0.6508595451237447	-0.11796361620159276	-0.1531524118410169	0.2940904772889327	0.05678843880901214	-0.06842800892946063	0.01895959379686938	-0.9344204807300214	0.11326243331100128	0.3026433833801436	0.09497621416817201	0.2828905870675558	-0.3189636779819434	0.28315145694592886	0.025355181590763387	-0.014281588676097835	-0.5501906110178703	0.06475513622444526	0.07666580315001853	0.18426011378417329	1.3361184029276487	0.053238800942816474	0.9079134232517491	-0.4614409403865797	0.8821398264101828	0.5564563920123767	0.2881529725262124	0.4254699867175208	0.9003345258778724	0.6174898315448792	0.07080831570819207	0.31951699857007354	-0.016157982642851572	-0.026566157510102367	-0.0558033925997841	-0.7988427259070054	-0.18036873820681998	0.3919789101178466	0.3279848448738174	-0.3021674130387321	-0.7572525582972004	-0.6435250508389868	0.35849646117936074	0.23387173677050518	0.15605235881818386	-0.829791921493699	-1.0915654315271022	-0.5340994072057456	-0.2941060527205669	0.055482288618243496	-0.08093205367377358	-0.3951825493754647	0.3113744565874981	-0.4536138957815378	-0.13548068887524176	0.6757556824792555	0.4596907378560385	-0.18872927556842764	-0.17039590174614205	-0.06867314740064374	0.05052309623598892	0.09019671321921367	0.22510513446809058	0.18790978874787284	-0.04271692270086601	0.7373910384939172	0.1940295899739047	-0.963798711510714	-0.5797780172603219	-0.6317294428872421	-0.7536610535254213	-0.44271291199839846	0.020772288076808205	-0.6341208407175853	-1.0572763591531311	-0.5928546546076002	-0.1412571546765685	0.563356067616619	-0.08762869398775457	-0.4863993329907382	-0.6046417973165675	-0.1129289406212923	-0.4243010632975352	-0.30462869895406347	0.13340703447742908	-0.10915547932522403	0.23693981016248924	-0.02212492949288546	0.03424904405560741	-0.03015216614379653	0.2407857924062112	0.4914624567920722	0.6589488908715192	1.1932160040474928	0.8286138624350486	0.08584793735845979	0.15035828528926537	-0.48971694690469636	-0.8759522902520742	0.5012639201919905	-0.3627323323697368	-0.37798201356353756	-0.5183360425576276	-0.9021109814131394	-0.6441824010727829	-0.13661112904151645	-0.9115032269469585	-1.1628416935037216	-0.5493460156812274	-0.05766274818859826	0.37930194037120063	-0.39315501911216716	-0.30407309502632285	-0.07112727872428799	-0.10476853415067369	0.01902182543226724	0.02978752305849971	0.010650010216025248	0.10629336512895854	0.12352003639287029	0.8872194535918451	0.43277190836677465	0.6198003150450525	-0.1165581596545595	1.0600175261385698	-0.17446066152942108	0.08951591469106045	1.0292217759983313	1.0835908952826567	0.2690735402962773	-0.0771239058798565	-0.1912347576725605	0.22879803812885596	0.11999716363348782	0.6230216162074587	-0.051624093448156716	-0.45784807717370235	0.39910533523540404	0.041025337458114874	0.287243367979324	0.10369330111220539	-0.18378429006175195	-0.15026478841161342	-0.035740959731583706	-0.020939069292383407	0.046002862837339	-0.07926329678390871	-0.10018352788027564	0.37685247623282786	0.5268506014142248	0.08149511131726285	-0.0906422640573567	0.06114637318689487	-0.04873749282902018	0.3403782111231292	0.5554572280289136	0.2584569425863655	0.20087651688383515	0.2165330489447368	-0.04822993523159411	0.16211876243895368	-0.1103330667097893	-0.4155554340038685	-0.3576177897984027	-0.5339165694431017	0.5945211563364956	-0.10788325197611442	-0.2295734357195026	0.16421848219250795	-0.25630798205417316	-0.15801418799215936	-0.01954998681195831	0.05056754984387147	0.023108874132673603	0.08145408547602852	0.08994342256888997	-0.1493698691092375	0.12058762886837292	-0.4139549574175269	-0.18441234464732853	0.020347652365466425	-0.04225264494252002	0.1547890022903191	0.20740886130581238	0.09958776607974261	0.15700080409869438	0.4801479763507915	0.4013712845088383	0.34337561887853224	-0.25046204259646043	-0.342163761663093	-0.6458358210384104	-1.1501488328455542	-0.3778074267512079	0.0039406652280635735	-0.017902434930623618	-0.10373264406037841	-0.10818752040344079	-0.028664114049272885	-0.05153972965993073	0.019668263292231793	0.012455628262200973	0.08362755702211541	0.09075347198130702	-0.10127403583426653	-0.05617549991018113	-0.45671648947999827	-0.6940554393356849	-0.5321884799267829	0.2385895596300873	0.2626739703480724	-0.016825406005072888	-0.07883644825729812	-0.31679809457658875	-0.28035913750420255	-0.2783955039707702	-0.03606636892953405	-0.4035874197255552	-0.19349653177458717	-0.875735572217581	-0.7707728995628924	-0.6404321106322377	-0.07633117963940049	-0.016008232354175107	-0.15937775069158575	-0.10369524966040196	0.05458571428691852	0.02101961366687736	0.046477335198638885	-0.003239356666290348	0.0013594660060500762	-0.0043102409981331715	-0.06313310767130606	-0.3653991901596028	-0.3247327439760178	-0.2200390706701852	-0.2420718425421289	0.1592734506630279	0.21106443347237525	0.04635386426342367	0.09352873196512357	0.36949840637828374	0.23735681176310827	0.3490044988114388	-0.3289724996936978	-0.6743929531216937	-0.028028452920669446	-0.18544261141194968	-0.8172492679852299	-0.14502630812969727	0.10715573601094981	0.29225103134429486	-0.026412098532588062	-0.06756493061422492	-0.02471465097264723	0.013259564520515167	0.042122535671389315	-0.012517773482742377	-0.001028295850456419	0.0013406073212658882	-0.018994875395037105	0.08698016567217033	-0.18618726764981616	0.406638383275443	0.3732173302231839	-0.06882389490526743	-0.10545185097264516	-0.2815726452380953	-0.3798642880948028	-0.041381537980912514	0.05457867135466499	0.09877762301767144	-0.1714006869088647	-0.10846483898126626	0.32632059732012125	0.14670458136790346	-0.3108692993656441	-0.0541046701874775	0.13101201729376133	0.2241751145329131	-0.001961570535374927	0.03468556061865013	0.01413819008827092	0.01729651433483468	0.01690051558370178	-0.024817102316700285	0.021524263581324678	-0.0421137893910029	-0.09443141467371198	0.09538242879670349	0.190301288384895	0.27518706267886583	0.07594439405206263	-0.04606533745156038	-0.20830855348285265	0.08547942590419716	-0.035361075429175784	-0.03419933254694521	0.03732725065492676	0.003307489023503525	-0.021056414544501946	-0.13435371800438828	0.08556997705145569	-0.23684773272628806	-0.08411677216694058	0.02882972294924373	-0.006935293958582041	0.05969114075895312	0.04839674043278764	-0.01720965931670726	-0.05691955948682554	-0.0083065460046279	-0.04478379852170999	-0.03480853663249906	0.06105638609788929	-0.03435728446537978	-0.03821996598086193	-8.597148884247757e-05	-0.006735364323425718	-0.022882298902909586	0.015757399309719256	0.07995729412122216	-0.18462925550388373	-0.03848492873921852	-0.032309892542946216	-0.04194879074494176	0.05427304926270606	-0.011707481278044307	-0.09061605947739283	-0.04200786463366951	0.016515541117146832	-0.03965094484787339	-0.031238411772925752	0.055810721619301264	0.025725380494817048	-0.00789779135469227	-0.015008051321617172	0.054761163142928886	0.005532973238827989	0.006930717984986505
