0.02309037162162355	-0.04556573558082776	0.017834511625851958	-0.022245624802463844	-0.016986286453916935	0.030301315892766113	0.04416415337650916	0.028078639412166477	-0.013048743696910337	0.014666088188081244	0.01036201490039124	-0.06080986153553719	-0.04725492149967931	-0.052463525177777325	0.049377147425016275	-0.03924268418408658	0.039947260128908764	-0.028115413325358343	0.05539082277829826	-0.011481414615942653	-0.0487843107979725	0.05419400170905075	0.0013622070201691414	0.04996864535928255	0.006140602856909781	-0.04883876933069387	-0.003073222281849683	0.05720500804105367	0.020160866315622993	0.05974770151910722	0.037625040054612126	-0.03206554350564711	0.02935112138784083	-0.013756730206800655	-0.013200666683674138	-0.03366512854060053	-0.017038463895209553	0.0367249195559072	0.009332508184012614	-0.015775530968146923	-0.030374207338925627	-0.02637559316367728	-0.054585566275422645	-0.04001441809639264	-0.047633389238066086	0.019863597888289404	0.05571785320480901	0.009838347723878142	0.037927784558611226	0.013828837589290537	-0.058831408661161835	-0.012912605171588556	-0.02177481777494101	-0.018876009102962235	0.04163656249342588	-0.052049081513445034	0.02714645918123356	0.022428733567611124	-0.0028871039053295078	0.04177199877867307	-0.04362164166401575	0.05205292171122019	0.025679624829633554	-0.029789365086059637	-0.018990176045360012	0.05311999000542293	-0.033398573920922284	0.01930614026956514	-0.021809750819400852	0.0453556991983325	-0.036154647198396846	0.005042246507743018	-0.04641011900791563	0.053610255745908844	0.022698321923457974	0.047237222954550864	-0.05678906689796932	-0.042160104033681804	0.05216660317636182	0.04328745585129059	0.016034329366538973	0.031738584156367884	0.02770143207010837	0.02421319310861831	0.04924605094978451	0.03840684513899819	0.03529142688426239	0.032852879064511696	-0.033840937537505826	-0.029705234387441996	0.05156345885233917	0.03547450963152688	0.05453208734914397	-0.05919573332934261	0.014995181002366775	-0.004428162765711847	-0.04216824571198968	-0.03568265307434123	3.531977234733821e-05	-0.03305985010668507	-0.02042899463720283	-0.06326268860907405	0.01713866981774647	0.04265120189681432	-0.05739644225921659	0.05533990543946671	0.0017398148750757635	-0.007957616546225552	-0.057006638486729946	-0.004700411006970127	0.049233588021100776	0.0034453651968820234	-0.02540648236098947	-0.028856723350914965	-0.021184207885503223	0.000771900836698515	-0.02136947811134293	-0.016935536726873084	0.01738761112699566	0.05629825534455178	0.013214795970193469	0.003577828011546519	-0.023721596566348105	0.05497800089324831	0.028238873100314848	-0.04008569081662458	0.053414412076221156	-0.05071980587499162	-0.04583590424075344	-0.04151576244721183	-0.01723648171009506	-0.005657796460199099	-0.03663901676837253	-0.03361078909156219	-0.03465679845863325	-0.040795102884662475	-0.015834485781923584	-0.059234691605909065	-0.0469103840746599	0.014859818885799868	0.006767682762379025	0.045947817307518325	-0.01934415941280137	0.017470402604648737	0.041635627618738104	0.01791674428462276	-0.03018759805161832	0.07038862939989576	0.058348361582851706	-0.034928968476251036	-0.03020140139656977	-0.03770766780648348	-0.03796997128085272	0.002521930075092037	-0.022833836219994973	-0.001990201040346432	0.0008946036278276633	0.022596892244859473	0.07028938323001224	0.0653336543658158	0.05831007336133115	-0.06099494752094965	-0.04706287059148224	-0.005606436496474171	-0.048546937709251954	-0.008789542704640467	-0.022263527835824318	0.030412328062229342	0.0006903329485642359	0.026096192093066135	0.04144200626273772	-0.004988846231718978	0.003859184430885555	-0.04842263006091989	0.022363227908010628	0.06890260467376517	0.004234290943779085	0.06046010500730788	0.09581370978190883	0.04750856141297156	0.07767516859170626	0.06436784281215895	-0.022089515454520682	0.05808208228349048	0.01118979953043861	0.03223461365803276	-0.0014696178018847267	0.023093633320484395	0.05458658668409476	-0.023022177990615535	0.05429481799103831	0.042607410736941506	-0.02835598126619976	0.04688437476334059	0.016382026481893748	-0.03677682646041765	-0.008491319610128403	0.0300935462334427	-0.04004150615842807	-0.022721034503857585	0.03197420811684789	-0.053856308023704245	-0.025093671190741414	0.05097228326223698	0.08039438908199041	0.03205493970428336	0.08031138598146362	0.01188564791100276	0.06280403316794687	0.053075677521825425	-0.02066664137272004	0.011307757785238477	0.02878497755434504	0.024572807758985807	-0.007461735543841689	0.060563683830855926	0.07992251246889462	0.011320638398256448	-0.04353760580382344	0.07262634709943201	0.0530490007031356	-0.025028207082503643	0.044323407471492694	0.006677997360059897	-0.040836588231532675	0.03016022198164144	0.035658454718155506	-0.03891236172403787	0.04010083577934467	0.03275402338958829	-0.027533958775294975	0.09586092283240033	0.012345937173776755	-0.0057045977258965	-0.009638655704940768	0.030971530710078896	0.012619429123198016	0.05007899024022809	0.10011599152166427	0.056660793590668675	0.01680435520201894	0.011797612645604626	0.08990706778407534	-0.00865273348184325	0.050594475625556884	0.08390432818245161	-0.014503023132496757	0.10039749311445995	0.008650739725211026	0.007258333656054135	0.01297756003592367	0.024149035976316298	0.03142866915710097	0.056139000851249884	0.024741302477973518	0.01401436716939836	0.014977528990964347	0.08746758744972806	0.027537011491994487	0.04259622569853688	0.03580091665471319	0.062929405911092	0.13933865449643057	0.1460066892987268	0.11840775255579863	0.13764543706592797	0.04313928845995186	0.06074551802281405	0.08876960206487677	0.07575661975256279	0.09319023770119705	0.12317625144203039	0.08045585742149242	0.0657812771822778	0.12100617365613742	0.006307538310090516	0.008272604767123411	-0.010021778168818498	0.03846560582462825	0.05755064782770006	-0.03744321855729663	0.01735041288739572	-0.051355825662415006	-0.006340517759028903	-0.003148041719962581	0.07428715747106264	0.1334484451699509	0.14099191876153125	0.060847328479588236	0.08598647242645513	0.13431970495795384	0.16908506387510222	0.08422966848965262	0.19175776233801306	0.09001204610078346	0.06495918277836094	0.028984949983736397	0.12938080117830775	0.13693796067996697	0.08615612143118379	0.1549257967521976	0.11871492384846394	0.1343119414806773	0.06259313255072889	0.01474705683411686	-0.019222058868561164	-0.03217229249666406	0.05589196515789548	-0.05208049487713243	0.03107395555486706	-0.030111760978390793	0.050741768672324286	-0.004670969289273166	0.13717071070967313	0.1490914393762432	0.043179341480565174	0.14110449580540338	0.09466476428555219	0.06625061199491865	0.080527249512114	0.0754528404118054	0.0922429374286968	0.06948770175492758	0.07936341989393221	0.07441971568681259	0.08744027724148401	0.1856187700070037	0.15781645778604544	0.09617355515161335	0.09493606147889905	0.12199074879627678	0.043528339967972396	0.06525078582453257	0.02652603501175914	0.050214965960652884	-0.03952711971629481	0.024094339515567782	-0.05956099274324574	-0.0376087878251125	-0.03174488480035847	0.08756304148235305	0.06301562962190566	0.15821555794242098	0.16824335873086482	0.13134588196167213	0.11915082672959275	0.08692496427053217	0.12003459477583174	0.05969381286905284	0.16907746407273916	0.16624908035162073	0.19014948701032086	0.18164626315396845	0.10967887356719208	0.1956720690972008	0.129984909100235	0.20387168955390422	0.08515595067380317	0.17240011499110486	0.07379733305575033	0.09990326463192375	-0.03265452460288633	0.06730526853077423	-0.049733964381337856	-0.04608018257928594	0.05066824784067606	0.06355617523165054	0.0421045387398032	-0.008017804626873569	0.16159067070772634	0.14082415164347684	0.20310105156979488	0.1954098056541145	0.13231119409112813	0.07510412849211587	0.1352555473810639	0.16814087821999008	0.12621202125453101	0.2501201335312399	0.2712270469792616	0.14298058648402773	0.2193776093393705	0.11464087577667184	0.12780672758661138	0.14998145165271182	0.1688859129148978	0.14845075028672863	0.07829755402032498	0.05308991058872159	0.001350334429338619	0.02683830814132261	0.019645646083451488	0.0103958734672309	-0.024914518563693963	-0.054081525234786376	0.018144968900504137	0.1035406577295845	0.16065574408130476	0.18944925671158624	0.1645217000628233	0.19828641993403603	0.11925386289681104	0.11746279358191716	0.219283921438997	0.15814057414251234	0.24758673156522484	0.2200262480608211	0.27892775751115795	0.26696985600085227	0.2277871632783804	0.20228976623970799	0.1634125923050693	0.09638609196339776	0.2161089312490294	0.20187877457465173	0.11803591002169737	0.07294498477005287	-0.011451241590339322	0.06242378118995399	0.03453841041035523	-0.030565943658867424	-0.0535973158354582	0.04010564452149153	-0.029543952149119368	0.10051167962144068	0.10539551672542583	0.1485418799786456	0.1529435251948448	0.12649967527219466	0.20991939560638834	0.23038305942062914	0.18379964124134143	0.2163415726927825	0.22899080574537584	0.22569651783991404	0.1755833944641796	0.17399428714969167	0.2575045814445991	0.20842209046842017	0.0986963337690867	0.11379055798802977	0.15653504317772282	0.13238376609685906	0.15543865970506926	0.11478504208064319	0.06745978692287727	0.08973465512458748	0.018980437359199097	0.048424917938111496	0.0339802355266653	-0.02299104542237201	-0.028218863031576717	0.12409322497852661	0.080687231979623	0.17322089556162398	0.1389848348869611	0.1475699781422342	0.15799361228576758	0.1668566350596314	0.14530861492821584	0.13556890673582975	0.1724965042209641	0.19947829473756368	0.15700488731692458	0.1949443492739965	0.160743360433109	0.12586901779454174	0.15474127826348744	0.21666990532726443	0.1846655596351044	0.15750349424185206	0.09771722233190318	0.048896645383554524	0.04793480962429186	-0.011815647508415829	-0.002342297834654623	-0.03858421857736431	-0.0628573528919608	0.08297752586552448	0.027621041838969122	-0.02065933224321913	0.028888225027989444	0.06960642729756791	0.1491713488972084	0.14240662408329044	0.2044838939263062	0.17173861923337075	0.24243660529272065	0.11653430034875528	0.16611519369780642	0.17142544886229039	0.10572998567733069	0.16927289113938815	0.1365937289430147	0.1614084452868258	0.19041230640260884	0.10248835171000292	0.13791276163675104	0.07291166436170524	0.07412056506925388	-0.02721290416453457	0.052911409179844354	0.010094014716564141	-0.02384199878011355	0.011584921145352041	0.033481017766652264	-0.004502887824213411	0.020669625158216604	0.07422216312800436	0.043247074698353004	0.1058231735487803	0.05116568135159914	0.11129554868508805	0.18419925750635374	0.06845720804567129	0.05246277029976412	0.03259731675875739	0.1433779937198528	0.10330291740805261	0.06713501311229327	0.10663820965405238	0.06905003381607196	0.14072280915121405	0.1009451377333988	0.07441081614967798	0.08625038490871204	0.08419903039809859	0.045638313901330205	0.04687357285799722	0.056613771982271986	0.015543305400943737	0.04802910629866302	-0.059296336270198285	0.03026244921309481	-0.03686334409210007	-0.006814167455546366	0.05091748048949793	0.014405651257960743	0.048946921915062454	0.10709154697677407	0.04355354823631274	0.04447510541718822	-0.006305879680072663	0.020087083212892598	0.014449469226593724	-0.00034788597858880784	0.0020731489070294593	0.04272406497775166	0.02374524713378951	0.03456006723092034	0.06687964192378897	0.023155864744818642	0.09260418877247027	0.0571096154930751	-0.04715950246886257	0.03151672481214264	0.012780530961048026	0.007798624749752221	-0.050309220442126164	0.02552764572688018	0.045847896919616	0.03337235372124977	0.019506409648455268	0.04339480256861475	0.029870535095512053	0.04448117294444574	0.060524447434101895	0.030524188386264414	0.06505660376566791	0.08106040853174103	0.10079463525644101	0.0035235351921727707	0.08444177187985359	0.05974325660664617	0.0386804261331489	0.03899433594323252	0.05545969003564723	0.014385611709457539	0.06288525743922163	0.020095550077786566	0.023556695633492275	-0.01882422968470925	-0.004841602033489157	-0.008481017515594746	0.053969878697008096	-0.042365249052700046	-0.031551983180135273	0.0001201502629111269	0.02873785582650528	0.028618090182462842	0.0016326386967534655	-0.017045040468206644	0.01784958178022403	0.036495687045399065	0.02218012211227924	-0.02970201676003169	0.04282748638843867	0.06145408569564925	0.08490329188802953	0.06604779087768704	0.05501649920677369	0.011688528916989543	0.06115682921442456	-0.043726525067278976	0.017425546152230062	0.036859726916403046	-0.0022623492746168708	0.06877525183775246	-0.043690786543028756	0.005567595033419799	0.05448656501385299	-0.014956703754884618	0.03386102199598671	-0.01893264475822366	0.05408138359313638	-0.013682013846894832	-0.06058862606406502	0.055171969026061536	0.055105391856275006	0.04232161880609864	0.05593938652436422	-0.02498397396601114	-0.026947603055457445	0.011966482663131823	0.00031579803661562606	-0.007734808338749708	-0.0011411934886553688	-0.00800886478358846	0.07015308792993499	-0.022013531093560856	0.02522143056930203	0.04003358721217135	-0.02697538174454405	0.04255429649731981	0.014760144212684942	-0.034772535150916564	0.06346725747037388	0.022628056659975172	-0.007473874543260068	0.05371966313289996	0.029792220205735024	0.06012588946264701	-0.04677004884949307	0.03297281789011996	0.04926966622645062	0.04779895268983448	0.03447531334849818	-0.014328120333180452	-0.0024953021741676257	-0.00788134615585454	0.0629882659209884	0.05447273944696815	0.053450332664401516	-0.021308993700349787	0.06004289408746635	-0.027946073803890324	-0.04269971632185787	0.03213553386575306	0.040704888637134715	-0.03079036292083171	0.03425030432131346	0.032978598969360645	0.06011678689452038	-0.008613234961422975	0.06147040198140174	0.041416376915537643	0.0538255580536076	0.013115939602496424	-0.027450960073633967	-0.01092816988731513	-0.04798797326251218	-0.0055735969098719695	0.006171355681473541	0.05419839066058312	-0.028899337742563924	0.004885389728305581	-0.03658532234638896	0.01690828702858154	0.025349894295644864	0.010568505239785322	-0.015718604655184844	0.031286827344185815	0.007439769454329108	-0.030868087952680368	-0.007647459911820012	-0.030856802870018102	-0.010093527782864	-0.04453878289050844	-0.05171458067042932	0.04923578254429903	0.04625955240325208	0.03976241088342872	0.04893318765166053	-0.021512285678382075	0.018142236478746188	-0.026319052454577344	-0.06084783199690985	-0.0361779363610084	-0.0513081474666424	-0.030819157748178453	0.009233468322398498	-0.047488106135565214	0.04714547177265669	-0.02760859248703166	0.01157492628003995	-0.012218989820945797	0.03225626233281526	-0.03708725406061607	-0.002744984330265915	0.06276861372009171	0.05263644115654661	0.036845096258064695	0.0023207528642742795	-0.00639672523432228	-0.056045468730563874	-0.033835867379041054	0.010750163226912435	0.05634776374518364	-0.05876236789713026	0.012424560873088648	0.029188833906153247	-0.027115710416316295	0.04118860126394485	-0.004013354439117828	0.03421697544710795	-0.005502632165694146	0.043389975503686874	0.01527746396057262	0.027708576305521405	0.027490451429280173	-0.021019044193526452	0.039965386618293304	-0.024864011559579277	-0.03594007325908956	-0.04314151584127331	-0.05817545243968449	0.03893121025970154	-0.01023437752188535	0.05021707228836986	0.03872720581682704	0.0377381635912298	-0.04641013473887832	-0.038924786256430075	0.04074946322431028	0.046312815329267246	0.047684674931564044	-0.008406478881169252	0.01342246808035439	0.012020673971000005	0.06169282142755738	-0.03971999092663586	-0.03342001145911814	-0.0018197693187162328	-0.03719083825462595	-0.01912748255152534	-0.054387414791946295	0.04195902135549375	-0.03895818476069132	0.01033106643647002	-0.04577269222557937	-0.048751304917758365	0.03836925384530598	0.009872635446751958	-0.0323001923487817	-0.03180685290934968	0.014044880777099165	0.029858096166384542	0.02507284027006878	0.05666973558240516	-0.051157202752209016	0.008242953713745095	-0.03340055450118406	0.04075285839713821	-0.021479225032384416	-0.04295718381389166	-0.00861587685817502	-0.0016143710626995295	0.012625045492561458	0.047708441920964996	0.0338335906146407	-0.020466914589660976	-0.027005651964042178	0.02214903977188091	0.039456047642908255
0.046878812800005686	-0.006226624930086737	0.02550786227623989	0.0231065456165502	-0.0480021662224714	0.05796996629447077	-0.056416884037070215	-0.05282481106282182	-0.0065453337263945074	0.04682024437070577	-0.03046887335311351	5.480056890119767e-06	0.04258136012741353	-0.0026841681910476645	0.027535992120162577	0.04533360236580553	-0.050553726380433886	0.053098831823266364	0.03455400576727236	0.023980041963935002	-0.06136743565529992	-0.041636715419773554	-0.0012162992998317954	-0.02045802375376976	0.06060036079622793	-0.05551139398945493	0.00014577020000919316	-0.02867851161183098	0.0454284920677925	0.036413998686293504	0.01250861218694272	0.030338576032029586	-0.011691214710285336	0.015702546749113776	-0.0458355488457823	0.053426884133789154	0.010468011524043834	0.05999560932569707	0.04188236856306688	0.0586582003313233	-0.010950889886180003	-0.03886984901670615	0.04450032758981464	-0.020987402589339968	0.01043548963023578	-0.03245339831023926	0.04633787825586417	0.03923323311010416	-0.04595535360447524	-0.010615396183894496	-0.007332777028216331	-0.05154897595942419	0.007644703656257933	0.027608221400106887	0.00545042425910084	0.03676690217616547	-0.03572356991742653	-0.024993433302122232	0.013999471277727361	-0.0018031845845499633	-0.004129432203512674	0.03857021993041757	0.0026616277026651446	-0.20680101910072393	-0.13792710224179242	-0.026884390069010194	0.16047659288017566	0.1396544161397413	0.15320946632451218	0.07188519047622384	0.14290720883656516	0.12088321088933657	0.0688622258268724	0.12114168128060493	0.03975552372924924	0.06007571683371674	-0.024601351892686526	-0.10474274510931364	-0.02448543648797698	-0.03420140711861028	-0.03132862587923661	-0.051254310684693355	-0.05077502456199814	-0.003350873319449721	-0.04830611826049454	-0.03338600815386717	-0.05545631429233641	-0.0045065092263719755	0.015665887220547858	-0.0001690872192155146	-0.05004479610862115	-0.44392771753480426	-0.4438451385285775	-0.3824096223929624	0.0958006791565624	0.3533583290352908	0.20078492399379694	-0.0044102603491817435	0.15629802986553076	-0.020971865494800342	0.03597709704744641	0.1981987292157081	0.1178440197243984	-0.1363634498248624	-0.1665923541111985	-0.17715313631261873	-0.05459714229734373	-0.03918756554172473	0.048615141811446126	0.048518683467984235	-0.046388869408748826	0.05752651801647895	0.040405167885187894	-0.05750041307876998	-0.023313588172269993	0.009727558130354037	-0.05123190976374855	0.004352531947388862	0.06212610970563087	-0.4334661098618508	-0.4455559927005578	-0.13409487643527107	0.3962350241503975	0.16266905888766714	0.15427340314200266	0.03974986884467757	0.5395079208942031	0.22658216382054047	0.34547663602900264	0.43464193593140366	0.015547482596364166	-0.006024853034839741	0.25370161579016076	-0.011475533173933109	-0.2554920980256609	-0.15664546244686658	0.012687192706707984	0.06593190585201943	0.04434496869910224	0.024815315785029553	0.05895528643172953	-0.04929616284385604	-0.047656246769082616	0.01945846349409515	0.07770954560251597	0.06212222126864691	-0.21886406572639835	-0.8231505518336937	-0.8327247801879619	-0.03588248829275359	0.5851586628787114	0.5374653790851754	0.40541809511700544	0.17700442702562424	0.18775030957608685	-0.0329081323656723	0.028100605224253186	0.15865807616163288	0.7445094220631848	0.5659006836790669	0.11025785038227247	-0.09864105128503267	-0.30414329110956856	-0.2521477425524954	0.2930060345985668	0.11519896484887564	-0.06182344377800508	-0.025931281593086816	-0.05063063945268309	0.0005014326052110857	-0.008294527213371594	0.11139095176752516	0.05497345419337288	-0.27794152745247114	-0.5689819929767859	-0.44643035361812544	-0.0771377939403082	0.8135063856210943	0.5111706579951907	0.32535067454396005	0.4625466785807318	0.1482109710843823	0.4351550969020234	0.6046356962817397	1.026069711751232	0.739667263310055	0.6555179633904705	0.28948323438173673	-0.3833406446931254	-0.5987564362897161	-0.14967477379917085	-0.1973097950859263	0.39100119517111026	0.4445650380740716	-0.050310350881864634	-0.03758189056457552	0.030257957540968126	-0.03175970270336381	0.04663193304372058	0.08880544212014359	-0.10148315310208679	-0.5942085726533312	-0.1721561933159016	-0.1272967885608385	-0.16161466851005588	-0.27194080295036227	-0.11892449052379724	0.22978272329153984	0.26524546777190566	-0.2145910007061099	0.7393330380409419	0.9754586860102555	1.1106789991791057	1.0680448922537005	0.47786333314042445	0.07186696291134671	-0.4495187859261053	-0.646439062363358	-0.22002022280191563	0.13268227419102038	0.6565485638848241	0.7782126716732866	0.25322658357291394	0.05081845277743289	0.024719445342484374	-0.07577695016786525	0.14554746785851583	-0.2535333836754282	-0.30857369774787513	-0.5149560787836989	-0.2257790384243141	0.10059157305186517	0.1557060028862217	0.0009229165914378207	-0.08910966436510266	-0.09029166991824665	0.2673470100193781	0.6145974860252745	1.4823604591281023	1.0709355432250864	0.9345700565981644	0.5937205130460033	0.26098159001732657	-0.36752472003154407	-0.5040178585417096	-0.965174484605675	-0.36759927346018617	0.1251649606437914	0.38480837585488775	0.25054360333470566	0.12468269871094	0.021898216208483805	0.0014990499942244481	-0.0653678653925108	0.18815828134082513	0.3178888485874772	0.2563900427073156	0.06314317791200093	-0.1082428846404825	0.329381835514479	0.3397539224823567	0.1904978891407014	0.31939508782860593	-0.11600269823915636	-0.013298762669627387	-0.06397789898548618	0.15987411403307744	0.2365223795989313	1.1845486074517886	0.6815871445684671	-0.10388025247415303	-0.5484192346480935	-1.0602887696062158	-1.226737642411236	-0.2519650918225744	-1.0260742476485634	0.3986140651119185	0.49057392072148703	0.34865634951630214	-0.026443561161392574	-0.01906824735329031	0.047900521104669296	0.2550104848710888	0.2914785401602028	-0.8860647284027675	0.20791564112569916	-0.011133015709834734	-1.2060138879212614	0.03904041984623799	0.4074345802464644	0.18993647593369664	0.4774430816109581	-0.4762570890993918	-1.3288102818271788	-1.1888316461420023	-0.2395274849622477	0.8955111413226317	-0.005821330026360367	-0.5418490788470103	-0.08750322314919738	0.47626203618129875	-0.19746912523562668	0.2826579962512117	-0.43490621961983605	0.32139791567495474	0.8922869419645801	0.3716825519235807	-0.044812826068329675	0.0021923396061495556	0.026346397323758205	0.4725700339431666	-0.06959612225025094	-1.1561645352290935	-0.6523542895508756	-1.3807237283888296	-1.0611114397341244	-0.700462844614109	0.21463495331519117	0.09336878024232806	0.474374924961031	-0.9796998196165477	-2.7833597108893673	-2.5342545955461304	-1.0359849181665581	-0.572973753506087	-0.8972313040630173	-0.8145375587796224	0.9623647250496093	0.3536533003679867	-0.22145380850380697	0.7804780816273197	-0.24971440583232987	-0.24375092490696473	1.2791405868923922	0.40914050182953077	0.03251361494016	0.005969954718657418	-0.041896377880537225	0.45308407630295106	0.4848679966660215	0.05347164474134609	0.15069232065699087	-0.6885182441094722	-0.4232900043101541	-0.15413899883269663	0.1595763138757978	-0.5490070452828189	-1.013314992720682	-1.3334707693087882	-1.3098505930139384	-2.3841193561647396	-0.6808860225963295	-1.7692703909095495	-0.7482070364457939	-0.9957141475985051	0.24511932307803205	0.10873522985627403	-0.6874157892199115	-0.07628182731417289	0.6185827638289122	0.7523565687697469	0.8890644646386199	0.6136006417657117	0.1774699320846464	0.031189276319769636	-0.0022759938180054932	0.4465992559078405	-0.0039726977582939926	0.12295803956516381	1.100690829474706	0.5695778385261729	0.21758939348948772	0.7407951887589846	0.18933266693734258	-0.31580159123992174	-0.38113314898798567	-1.661029982508972	-2.1243814854710905	-2.306725644392694	-1.459922137154604	-1.3152097135469334	-0.11963354253607515	-0.962367928772125	-0.6594522102825653	-0.5888408505107283	-0.21454545330260466	0.31173765065092496	0.3446248870618132	-0.13383270166130432	-0.2857505578327076	0.64293431433271	0.16082415750684442	-0.05166087688554144	0.047174282758710995	-0.050577619761459094	0.22965466641923082	0.8618974996297742	0.27545831780019453	0.5504423444015851	0.8248727492970565	0.11892419195384388	0.37991074806053265	0.8012597623903489	0.640616819462898	0.37931611883186866	-0.5045294854734674	0.4658811418711687	0.5243926056452244	0.29429600004484374	0.07155686005659595	-0.5532422623341953	-0.11305099976798554	-0.011956232588026462	0.0753456200848941	0.7025871939967843	-0.2812979235698252	-0.587714037812016	-1.2384313762328552	0.028081697634266375	0.03531698592060936	0.040884542347285134	0.09927382833927265	-0.25138067632841954	-0.4115185693805368	0.6143970664462521	-0.11812507978112956	1.0418932686082056	0.9156368183952472	-0.12256982387591697	0.3169708025642968	-0.5004840608811781	-0.18415351482370168	0.4740960664384499	-0.07253208196741201	0.3015837061171643	0.3476095978562381	-0.16261251064698207	0.24714767809123567	-0.0754913436417882	-0.14185262753958022	0.7186707143228597	-0.18294861452274067	0.14832985775609814	-0.11365898957646729	-0.12552815076824642	-0.7803680470191409	-0.2840878612573465	-0.2042355327978971	0.04186528616015971	0.14979200580008437	0.0670358438914066	-0.2996347949993875	0.3617573690817718	-0.4990320930457311	0.04047106246198344	0.1735362045847416	-0.37240089040009083	0.5265854542159	-0.5926309889457264	-0.47864220826975834	0.5443642997386849	0.28004076068452	0.041239997053488305	0.19868509555101532	0.3784097107207201	0.8055285720994821	0.8300592259828335	0.775025258726832	0.7073491741465665	-0.0246656152920695	-0.14909349095697164	1.0562622934257522	0.3625573844206415	0.4101754499929526	-0.6158383226959119	-0.2965047042839415	0.04890063391520342	0.1922274100387227	0.5347072034481688	-0.3916485755017102	-0.23186820210562425	-0.5486574648331254	0.024073678784947893	0.9255499718699588	-0.12670336497184564	0.8718043515175453	0.1829959967378091	0.4324598020244331	0.43238513012191343	0.4112818024040783	0.1065385747275072	0.008102676043552236	0.40215507179842797	0.19392040986393563	0.5602118275761687	0.8540167185614033	-0.16664137444685576	0.24240562170151628	0.9479596651964882	0.6026773024977777	-0.26909863605597484	-0.10766437901905403	-0.3413981875184239	-0.08072925267070906	-0.06058425602852727	0.15127200221515089	0.29213393486350137	0.11538340059611427	-0.5280630366024386	0.004650115589862716	0.6431319149647107	0.5381836589614346	-0.487212928092162	-0.24216405242175565	-0.2869552324541837	-0.21207299966437287	-0.6427753639065	-0.52612261433442	-0.20001392079760277	-0.4528679593574246	0.34175026728587166	0.6089958576566132	0.43366606703374905	0.32382892876035574	-0.240640495635421	0.7833350944876907	0.9216302564751637	-0.052583408583901745	-0.503894522467812	-0.5598197354149541	-0.11879478997502639	-0.013955921430044118	0.04087119542635447	0.03918769760870141	0.014794059832584198	0.2807214658462111	-0.6289770046292421	-0.5023654743976712	0.4344454375002054	1.0059218945924489	-0.8392533344290577	-0.9863449091180989	0.17865509081020267	-0.30702681834230466	-0.8088629030643177	-0.4168517235587381	0.6005426961368668	-0.15626496049480035	-0.5280948390262044	-0.13657407270817587	-0.42404348728374647	0.05824050443687485	0.38817416884149347	0.40054387053111473	0.29633138097189804	-0.28430070097105353	-0.3486603220388052	-0.27989541459898765	-0.08957650346140088	-0.0288408152830133	0.012886194275635775	0.010307233478327883	0.2288446675442203	0.36379931213835104	-0.17014065409239293	-0.2985794562816373	0.3861514135844286	0.019698911443830423	-0.49630140203664885	0.5284933173623994	0.11950048065351179	-0.943513920149016	-0.8006196682744666	-0.1906237638124233	0.9068794203084402	1.1153643082124245	-0.5620917440312978	-0.15256066104549945	0.11325929268578817	0.05697562272687716	0.03571740491285323	-0.08094081342317903	-0.10079649236873423	-0.35536515282119896	-0.0716825962989938	-0.04720290699330406	0.03792468582146766	-0.03679910528611417	-0.007412738937711702	0.013901409995928836	0.140732175328086	0.41803108121000987	0.058421402584263975	-0.3167302432959176	-0.15673060371978542	0.2837948224237197	0.4993768295870678	0.46346589831388413	0.3403547241682415	-0.1930971948552409	0.3631586926753151	-0.00021079092959953117	0.1275384157109283	0.005477977179128516	-1.005249402559502	-0.7306525977160004	0.27736783595401465	-0.12131426601524888	-0.11876373147571201	-0.1658967123477191	-0.02381112510554165	0.00965529313632372	0.11133339255428329	0.04668971293620566	-0.036192222993677324	-0.02942753716193017	-0.028471103943582536	0.029076082237247926	0.01386118286268377	0.21735608077452853	-0.02628904336140014	0.16752150021523665	0.9951558045781217	0.6684439008857703	0.22867355630109656	0.1568309926410625	0.06063329165803454	-0.11766275188558246	-0.1891992868241059	-0.21358718558635637	0.0034678546054616923	0.0580157599063904	-0.6647113387592588	-0.2883074701598155	-0.545911468152346	-0.13944840341715445	-0.18904731545975842	-0.28117508688683235	-0.10955542874661485	0.061668800205036456	0.060394936426140466	0.022793451783108876	-0.05245104162430961	-0.04814804139241406	0.011986627366235438	0.031887407342693914	0.0315828276793943	0.14901731487735054	0.1554919096565552	0.6220578175831194	1.0182020794689473	0.6903813069286057	-0.12356467944431211	-0.08331256051862501	0.06346484080043811	-0.1085631198336866	-0.3421811768484226	-0.42519479758154527	-0.1714823340399528	-0.026198431754657203	-0.26557153759155655	-0.6113057612458991	-0.28928085742641385	-0.3660985486370836	0.08104007761202414	-0.1635630496451944	-0.23258060774247172	-0.09099725416705517	0.04057451675511812	-0.09153964884114377	-0.018283627051862754	-0.0561438196086531	0.026474350673592224	-0.0027006744152829124	-0.03902486165688461	0.09364327792605551	0.10090746572591731	0.49951947506588196	0.764265286288656	0.05718386037434879	-0.07888489113197646	-0.11192472880066573	0.05885182591796051	0.2288646857938561	-0.05791519748121714	-0.026978960656112515	-0.2073057918648234	-0.12173048347698104	-0.3648744282895334	-0.31416186094710935	-0.5804033675432865	-0.1809813624702775	0.00848671462695531	-0.02340427599254616	-0.16922022462391778	-0.023691473972113547	0.03174901369422024	-0.05442977445242593	0.06079583108252883	0.041605167333950054	0.005010693272758722	-0.05445932995221066	0.009684349705339136	-0.04183687441646479	0.0698820155664944	0.09551006336961325	0.3305162855275952	0.21871497186780472	0.0925891434567969	0.08324912898560038	0.19084508124471827	0.06747286157876094	0.14366733494227507	0.02325166134567073	-0.06693722870057495	0.03954596125022898	0.10096898233315646	-0.07137954190643274	-0.1588068646952642	0.03750343738150806	0.11057584658883525	-0.08118919188456268	-0.012829837011014483	0.043327187205675334	-0.06049149850456838	0.05850819166210756	0.007973221291308515	-0.015262878291200987	0.04617040716431819	8.562002104769983e-05	-0.044041574214089885	-0.015422205132451086	0.035068372483371836	0.10496981072286168	0.2103412195688813	0.22798742047443935	0.29951911837327694	0.0628869759604098	0.08977375830903393	0.010513218635103534	0.01677848998313196	-0.061180916672121124	-0.023559348773416866	-0.004114485379650418	-0.04677358960771399	-0.030863554754228407	-0.04422523287317581	0.07517458392877532	0.004976002972780591	-0.030752062662300045	0.013191863768472476	0.057333087108819326	-0.049999779700086955	0.04248597322337342	0.0016039245422457896	0.012824455267875935	0.038734906733381196	-0.0014477368099560309	-0.05820130472671599	0.018868498226528217	-0.05817938671398423	0.05072873981091849	0.011822428714450635	-0.03478256697301421	0.0028453634582910775	0.0632569765351586	0.14612367963722095	0.02063854445301847	-0.009075515209523509	-0.033940217975319695	0.00909426197048769	0.011993526216668259	-0.00833148687117021	-0.05978655768973055	0.03935669169985391	0.046990428257898856	-0.031020110536110316	0.05948085264670674	0.017084005935396405	-0.01692594640485355	0.02714116912936914	0.03917813533141632	0.004534921226904277	-0.015127672237081183
0.057013389674009866	0.053808508540344226	0.028149391375515247	-0.049126824524310345	-0.04886431095231042	-0.027351573620793324	0.033975914142086526	-0.05732016978123077	-0.004608158721818446	0.019190900908259863	-0.008433993591744874	0.009599833927966935	-0.040188710909496266	0.005767449835344392	-0.025291742872753195	0.02233442366888181	-0.04143718018214681	-0.03170590242383137	-0.016161898218424307	0.017343092513693835	-0.04347592992840352	0.05787006337722147	-0.017565864872042113	0.0020201700792240665	0.047269596210906185	0.007248088389208034	-0.04329799252362464	-0.01780778689200306	-0.05802718311414916	-0.04132182616564725	0.04894982092886447	-0.035983482554172774	0.01644781909463893	-0.027463913191013913	-0.008054375898060698	0.03032741631522268	-0.024966793849742444	-0.13562156574923945	-0.03746266712408086	-0.0015499833027266712	0.001704861982145038	-0.04993783338520182	0.02889208203010151	-0.0018877522454350884	0.0044215015995046	-0.019930021052881552	0.021670758764763577	-0.03196486237592552	-0.050412787793293445	-0.05664867273250576	0.03761331498329936	0.007107780996215056	-0.0018590682768757777	0.014869984449243236	-0.018738271741965268	-0.03371165997936215	0.060371142365042894	-0.04178844331333598	-0.010326340498441361	-0.005596959624829208	0.05480054102727231	0.045695348634388525	-0.006794893680463716	-0.05423743724302205	-0.18470368649614488	-0.34905529562759213	-0.21205609586837348	-0.038357617631255524	-0.06509975156936308	-0.07901248053250058	0.024233775729722653	-0.061147565024647924	0.05754788268200287	-0.051817533495276104	0.03662689714058597	-0.06117897999896386	0.04476377189210428	-0.06606999355454996	-0.0574228980783264	0.022151972443122163	-0.020394406819277996	0.031856948768394046	-0.023690008229874063	-0.01868765440748353	0.03516928891206896	-0.020330680282109118	-0.052887985856577155	-0.01586580824887164	0.00717917134157886	0.0062219756347342454	0.03522766133880862	0.015337196830962681	-0.426194388296793	-0.4914317558918149	-0.24717127734511657	-0.12739122957392687	-0.1429907407323789	-0.11276282622336589	0.011595774615642035	-0.12500294258701172	-0.08661015867684377	-0.06651316275290745	0.023867466693387438	0.1271615582895323	-0.036510681388642774	-0.07376525410108255	0.0509888920784334	0.030855722363512944	-0.04471794073951509	0.05552013976305547	-0.004841278917187504	-0.029026303594242825	-0.017144659331117695	0.048001381566545744	0.04448291510236519	-0.02006253674079709	-0.052630767815650265	-0.04642282026345526	-0.18820936221612353	-0.4301180384326713	-0.12227408696954557	-0.2180153574518615	-0.1121201127472675	-0.13244650573555006	-0.0901984741962038	-0.15004313212773437	-0.17420906727093896	-0.045190391782301324	-0.06037395190535753	-0.19577404642488747	0.1269591292370077	0.3252711171401983	0.014952951711218243	-0.04985251456138786	0.04352999696941407	0.10477811366992391	0.04911429304624677	-0.052171447856081035	0.056639980143790646	0.04093004745671367	0.030831440327658312	-0.04285288822859831	-0.06696710861666391	-0.021192600162724073	-0.14373289333666886	-0.2767714856763759	-0.1612138966664737	-0.4525198170171323	-0.3810184502091262	-0.37214161391122286	-0.5860198008505642	-0.4926798823745787	-0.1377109904196399	-0.23381911313474638	-0.17597788190059022	0.03974135214430473	0.09883345379812962	0.03298675135187618	-0.236059874542561	0.0517390092713707	0.16573126774200764	-0.03726325605437127	0.03132185110702769	0.36590545429419397	0.13880670766523995	0.016278657334242715	-0.020422383063116938	-0.0282642937519862	0.057001031412538934	0.03720950490788102	0.015377331726958317	-0.10295198402206679	-0.2025127621362961	-0.28204149255099575	-0.24108711636659735	-0.1344147278004309	-0.5451882628157954	-0.21533125543280107	-0.26081691367506576	-0.11302032900028272	-0.2670616228762073	0.3431071037881543	0.12130125646379399	-0.05957970508187986	-0.1059753375596728	0.7056352894120884	-0.05261422247243415	-0.3191451288816173	-0.4524900363867308	0.4834998684415842	-0.1336981511961315	-0.38825044228864125	-0.024436290703911522	0.0993890083246944	0.004495152900986501	-0.06149624108881069	0.0008478486084392903	0.030715662276905316	-0.041155275591995916	-0.03550853229769534	0.055146196273296165	-0.08541575325083237	-0.12801974215228923	-0.5507982836916239	0.01417854486091508	-0.07966368353013645	0.3036880169377405	0.27562854413952304	0.3713107891459868	0.08892849260700482	0.14100611393322154	0.3867163488051891	-0.04478329324786409	-0.3350275485646297	-0.16353598778910072	-0.16232839340921137	-0.0035613288122058363	0.08702241970944433	0.12970929119508648	-0.8468433039455493	-0.22431350611726178	-0.06060416270583179	0.03604071449757121	-0.048300775061146765	-0.036363323894068274	0.1451795764007995	0.06440945525326941	0.11819006206640237	0.15349769888770032	-0.38031495213430533	0.3001299534104455	0.07487471045281878	0.382186419277521	-0.20390946450908784	0.10270767780417561	0.4607524501160218	0.6869824412318395	0.34816289807796735	-0.23152021908979029	-0.3691349375941687	-0.1332336732908023	-0.4695023217978024	0.01651923924147669	-0.09094613407081716	0.049083573599160824	0.035709572583871745	0.010333469332566176	-0.03395526286064846	-0.3485220250118099	0.013645023981955605	0.007153350816796463	0.009608692198904333	-0.022664950754248236	0.04416511979204293	0.08360702380586912	-0.04088334995393973	-0.11107037881942604	-0.12153540329982661	0.12141081886678795	0.25983465571292813	-0.22208328009036957	-0.6128835943317995	0.5355837761783676	1.3206480501965496	0.9837679856645334	0.37466459513824696	-0.17637390990391028	-0.705884650746779	-1.400821464472578	-0.520212648186565	0.20713717603914608	0.1740466041413587	-0.012286506087663088	-0.054901500002477524	-0.10572303545905136	-0.5241301400366258	-0.37774562632122477	-0.16619567198506227	-0.05786639882175959	-0.018587143404350984	-0.024468624365188194	-0.01266711725011442	-0.02903294248532901	-0.39911506979026856	-0.664564471069431	0.4163010458236059	-0.17899025415363662	-0.17591374488758416	-0.7346597690426645	1.1368738993610978	3.369496521259706	2.7369146419934482	1.1641102498308256	-0.4031189535735338	-0.43211262645096066	-0.7443661199267508	-0.10546695433170264	-0.8136976500963659	0.43394905985773635	0.19089151727786097	0.2164022365376703	-0.4709424979412888	-0.1367725128266301	-0.139411213569608	-0.0233292640419491	-0.03743848248048888	-0.19917953585000941	0.03096002738686243	0.03540091260519091	-0.08899429805957933	-0.19607917521959978	-0.49419515085775634	-0.39448279156360866	-0.1724041626602992	-0.6239370739328853	-0.037810745510345314	0.9565677385365208	1.7169165524987355	2.0352662522042086	1.2663163974219893	0.7430621991095167	0.04842057215546645	-0.043654258259911066	-0.4184207938638711	-0.0073143566206429304	-0.42595157398536804	0.9491846041487697	0.08403719874704868	0.02331034688810212	0.4426729277321359	0.5959641129350417	0.37343213354614024	-0.5771586867733632	-0.24248144013531425	-0.37421035113341317	0.038233799650279614	-0.03545939136911043	-0.051090852581044746	-0.11045976207975783	0.04703425365891511	0.17332340527709306	0.09698947716794057	-0.1518602724132224	-0.2373528158406298	0.24116254308393228	0.08050172096540205	0.33752905378411435	0.8325629255606894	0.16845127542552726	-0.05146836968759415	-0.07545828583572964	0.22525046453582884	0.9362071511301769	1.2789858192543115	0.7468654230212448	0.20338501787324229	0.3806858773479769	0.9574609951700981	0.7725046167390566	0.580787675487149	0.09923994780105609	-0.26113106309600265	-0.5208354450020402	-0.19630499764037174	0.00733970121442503	-0.06639916852988294	-0.0017420672768898287	0.1512300442743643	0.316783135438117	0.0344418466889915	-0.3521592836156779	-0.11659267175291728	-0.18151820464029433	0.18368673759131532	-0.47246206757999104	-0.5525650715556298	0.5558946775397724	-0.04394376256121401	-0.11200870251966687	0.1520476565032055	0.21231964104788795	0.007120970176728059	0.1896423555811502	0.5843485414623939	0.24044314361920915	-0.48914282721211455	0.2858691722819463	-0.005999750602182893	0.6684430266841059	-0.2786982204127705	-0.4526995124946749	-0.1778595869218032	0.032974318144251065	0.09676332622748351	-0.06768511965926621	-0.35211367098248364	0.004535584303029362	0.41644567962753193	0.13517164085661923	-0.4210337362078078	0.12467222429666344	-0.3556987831820893	-0.4231482118744604	-0.22045600696106837	0.6232358948764252	-0.09191582440410549	-0.5074926091177862	-0.6677521715013004	-0.25488658262363645	-0.38885041160268763	-0.026908725607918998	-0.4675674562739588	-0.6346279485526415	-0.17328237086767398	-0.34641498251940794	-0.36093766719222636	-0.0012397032714658524	-0.13854470777689207	-0.3365210374665269	-0.15944586649385498	-0.06072889126893808	0.06339194490477576	-0.32717750227849934	-0.42470865219361836	0.20068979435932086	0.0414513138492835	-0.7258071436346696	0.037412207713055284	0.19640531691415686	-0.3284332566048445	0.3187394641707337	0.11463168884935099	0.5460433996404306	-0.10304561395812473	-1.1791265189936384	-0.22258403772643792	-0.06422765260585447	-0.5229563236892937	-0.5506627055841309	-0.85476880692073	-0.47546204801518566	-0.2874094405319207	-0.08578724767085216	-0.17192191143728058	0.022440352731029924	0.06497813404348035	0.12388072225892047	0.04081283489472923	-0.01900993766014343	0.0398218397355428	-0.40683478419361135	-0.441465577906007	-0.5937259451903637	-0.298266443589933	-0.19657080444315753	0.14640700946827026	-0.18355770318308773	-0.617893479857989	0.08602580541224696	-0.44271988094881	0.16961732891588538	-0.8057108465490375	-0.0942046664633425	-0.2545916965395707	-0.025402475183512126	0.2776432265198013	0.1583600211883224	-0.016659792305125546	-0.8384842664949637	-0.61610911262349	-0.28757971405803895	0.1562744901159266	0.6176011668627589	-0.3406511239079891	-0.21969410349718496	0.07669186138572381	-0.03767698166227433	-0.03093340291112171	-0.683134003914904	-0.028703241230380514	-0.3313435081382345	-0.32662076294013737	-0.059630734263921306	-0.23479131050020188	-0.11217534369550404	-0.7196407039727968	0.10391212007871292	-0.12230550363009371	0.5038600980180392	-0.16376952469683326	0.11831134738559079	-0.1122377649635868	0.15441556536810633	-0.22679842605687112	-0.09446541110143467	-0.008918332601889428	0.15674642781100356	0.3824884281855704	0.6448824921764222	0.6950272274660771	0.5448603601454731	-0.022311577560754116	-0.27430155967801645	0.031185709626982517	-0.04846498130701857	0.017666895607782323	-0.2231765427070858	-0.013336890859131048	-0.2660882731967267	0.04426227161040609	0.024281436446438445	-0.2620313546940116	-0.1563981871304664	-0.6258084826822071	-0.11699313948476503	-0.3312215710293884	0.30997480120721793	0.8171295639731617	0.7736793881272552	0.003405248643309481	-0.23179252662066174	-0.6898647190127775	-0.40143067789941606	-0.11099750153404202	0.10136030519146969	-0.021337727844210674	0.15409394132056392	0.005111144749953085	-0.3923732409242723	-0.11523691261295528	-0.01866199769150309	-0.08107132310199953	-0.0044829745794830525	0.011161800222710523	-0.17461520521351628	-0.02841504985011004	-0.14295771049994843	0.01198333911238642	-0.48280366505484335	0.6571214325758128	0.22522283614018154	-0.16957321969668213	0.041797407239745316	0.040903049005519596	0.4219672505537052	1.3453786145343478	1.0581582368573992	0.2546869314792149	-0.3843143830609498	-0.9339785925000704	-0.9339959094979966	-0.6328551422300358	-0.5739133826559525	-0.2973557813492736	0.3098522436182225	-0.11386942469064269	-0.2979783300440265	-0.22631801360129325	0.09732191226624157	0.008304903850587358	-0.0034719677088700177	0.017353920388214754	-0.10086880764298996	-0.3223771826000065	-0.11146435902210239	-0.18545464990394409	-0.13531489280802153	-0.12292735056698602	0.2356454572781013	-0.3779359146909637	-0.21613814441929907	-0.35708485669259366	0.47128511849971033	0.7488203457018799	0.8788579987398446	-0.008475008043936378	-0.04464703815502206	-0.5407308978615114	-0.35750940307342505	-0.48256887796360304	-0.4757085703003337	-0.047705282203147355	-0.3285024885516804	-0.5751509551798398	-0.10002472199916797	-0.10688548147521772	0.026892987227871475	-0.013131455208029965	0.01167902618030394	0.022298042733264488	-0.09268599074812131	-0.37174372614981044	-0.3083397109915988	-0.033300039305757596	0.3838940989672276	-0.1307920068124419	-0.34379679385676304	-0.2180544707410652	-0.6754452404054899	-0.7417131613699197	-0.22320849667255543	0.2198219884506561	0.11784971935917966	-0.15735260642539986	0.060792744812834594	-0.1836834985911481	0.2566013704816072	0.3428303841640596	-0.3112733889319315	-0.46651618019175317	-0.6701320235859083	-0.27580716980586173	0.026686885475355783	-0.0299967594411499	-0.053742286244762454	-0.02083187428521901	0.021766101123940444	0.0394650349976896	-0.015139283343107076	-0.2996764682627491	-0.11166152238495279	-0.5418917059321693	0.0943521357923705	0.17987411192491864	-0.14088240251310719	-0.16175830100217012	-0.22344234767382606	-0.033160809241066964	-0.2102650034423892	-0.07415531839129758	-0.07419824845742912	0.322156775912981	0.044858348965561005	-0.1416970453888388	0.2896343288004348	0.03527077002342646	-0.31177584349230253	-0.2235371650984471	-0.39012138001224106	-0.09662159665178961	-0.0344333706956151	-0.04970519365315438	-0.06541874025971393	-0.009944770686257112	0.00919831502514807	-0.017545585712569964	0.01728965074039789	-0.07771398413931119	-0.030456681594843136	-0.19905623422066113	-0.20776771609424463	-0.48802553340478144	-0.13769683964066426	-0.13963983001051755	0.018323932129173038	-0.1900087934463712	0.4030155365182755	0.08255469680032265	-0.315637228482385	-0.2130423429107444	-0.19395608856153557	0.15023285384831758	0.2022221805139341	-0.06716399209766963	-0.007290752379745605	-0.3411041618629202	-0.18073107387402365	-0.023045742083804166	0.037230750214306586	-0.02889548298234595	-0.006495045673522007	0.01941182645637212	-0.012287720887228758	0.04289933873226697	0.008080545148624175	0.02042857737013123	0.13826155085742503	-0.029725861648310946	-0.1376392698797677	0.1586393211057761	-0.30803579927382435	0.26000704793983803	-0.25936428511439535	-0.4605235367282724	-0.058068564600430965	-0.06387667817108293	-0.23943564401141573	-0.4849251076072385	-0.45654703757828746	-0.6143954032212369	-0.12323453970820508	-0.09124775447656591	-0.40024571094463524	-0.4059518489497261	-0.08098808818133356	-0.030840679930780403	0.011977570817211873	-0.052774304855223025	0.05336744395654729	-0.004290881804536198	-0.05355998810759825	-0.05590932751385709	-0.048430387345330575	-0.015349822283170216	0.09749802053056814	-0.053801031292153904	-0.0247095769516496	0.04314910689504293	-0.22107889456962357	-0.03212805529781995	-0.05761421362557961	-0.17458316145378502	-0.358241463073552	-0.17265417061399718	-0.015687117360706177	-0.1984881136101941	-0.2143047796443839	-0.17058915869448302	0.16311231637600057	0.2506804093511187	-0.10307160610795635	-0.030917045229305988	-0.022923697151568837	-0.0035089765649075804	-0.05674210576566623	-0.04332700264399911	-0.019157577851509087	0.029032576825045432	-0.05195144377957996	-0.0600016377555443	0.004114538189810078	-0.01672205036907435	0.100962730532219	0.0203192933651988	-0.10047553479073014	-0.058216015065170386	-0.12316789708478318	-0.03189156727693116	-0.010463449356826813	-0.09920305816208604	0.04667211955308424	0.06375386016376203	0.04297270281334776	0.024169599662556617	0.059861671210238346	-0.03230809185383357	0.10579616192722231	0.05249310394341534	-0.028563028216705703	-0.03656679557093618	0.048520614884535684	-0.035848976320071474	0.06022971167029261	0.05823517636322536	0.01368886691765054	-0.009933652404448663	-0.04393635375689611	0.005957661624299941	0.01731061942347218	-0.028840873490171524	0.04941222445933354	0.007153346320065056	0.03882394771982959	0.05821404735998404	-0.05817253697869029	0.03319344263289398	0.06278983904884174	-0.02517260520442758	-0.020937708815098433	0.054433029287655595	-0.00028679983699075873	-0.03315544962904494	-0.04084928643204689	0.03089472619590193	0.005876520269998106	0.003359427914866299	0.04575278771163669	-0.005855688418865114	0.022990742513407873	0.022101962552860448	0.016199462575646716	-0.04766452969049253	0.011707026833106378	0.04556837537629369
-0.05031730113338915	0.054909289478159685	-0.048402354361086156	-0.056027271079027205	-0.005443348135947726	0.0563215466578224	0.060572505625621366	-0.04582632411997888	-0.029879477668908944	-0.01576830537409276	-0.023200916238124328	-0.054986306141367396	-0.019563706807993297	-0.02492370366523603	0.010680624994504014	0.05900117932942502	-0.038788802628339406	0.03066412044158128	-0.025955449042328743	-0.0025499935497651435	-0.01139332536512526	0.01603193559647085	-0.028464742302411604	0.013260207088862337	0.057808502434272664	-0.05586742010623481	0.01850580622567815	-0.01684061916077674	-0.03695377561624709	0.034685550601690145	-0.0028237786961856845	-0.03457617884268516	0.019121957691303364	0.02503816811442245	-0.02715046064943774	0.011763680344885863	-0.03862302994230532	0.014803985420090203	0.04444887606711121	-0.017118037684166296	0.05471344349825219	0.0542123611395629	0.04603432448463198	0.007914869525145439	0.06014623764074125	-0.013480000677552041	-0.0434407728122429	0.024421724504320737	0.04524910000900361	-0.04396188313726946	0.03968769893061775	0.03567784091909341	-0.05108915342349476	0.04870083437790889	-0.01107455063430915	-0.007725311039210293	-0.013272972579950873	0.06154330829621215	-0.03275734663982954	-0.06175395194845908	0.04019081123419135	0.022263718771554055	-0.020063191045548035	0.03089545209859672	0.030896454189838492	-0.08154418894109892	0.027969903387497323	0.0997658443729362	0.030176524209869063	0.04415664806367969	0.012450974949306396	-0.1688280875589179	-0.213589197823344	-0.23067256763709254	-0.2707285241609947	-0.04545428908978847	0.01944488071542035	0.06031319018633898	0.023206509996803328	-0.028487294422788384	-0.020475375477725995	0.011253460965939842	-0.06000851370950552	0.016411063677816994	-0.026006543910468645	0.016342638950543296	-0.018659434808282332	0.05587916962493301	0.06417386902392626	0.07691406803421609	-0.06116088006427669	-0.13200391806247047	-0.20989599803548548	-0.10977522859242868	0.25614199890873546	0.026597422773453436	-0.09717100823840406	0.028026450212458063	-0.25390025443402287	-0.08009535655923318	0.05920523850521618	0.11839176337181387	0.054378212117224226	-0.06444557060732312	0.25284524711942735	0.16380680379974472	0.02585624070746694	0.05061433927107159	-0.0036908562502157914	-0.014675116604893249	0.024158478560149778	-0.04825523115168574	0.056129282076475585	-0.06122957788275869	0.015755456984952378	-0.00780677982666194	0.1672238340922733	0.2000610612421969	-0.11549094949590019	-0.15374048152447303	-0.239005448830993	0.04257512563521537	-0.11520964029795495	-0.07419492469491455	0.24300165209824195	0.1635598435436919	0.182641447681764	0.3364285272427422	0.5210260254345361	0.10778389854441495	-0.05539699810608061	-0.10210634313730588	-0.25782368379505993	0.007869266110116364	0.10277183806104657	0.03343940612140927	0.06360232245275955	0.08078517368594065	-0.030893874073082226	-0.041828853949236106	0.015480670884541255	-0.038566187633083004	0.08923754040035062	-0.07064986866270395	0.16062881130782794	0.11489705686906107	-0.09321262108900642	-0.4570112636189913	-0.42921509995341933	-0.2804230844410423	-0.2425873519364321	-0.5166421011824075	-0.20548356350319327	-0.25689608920674334	-0.4024232510669743	-0.22601281161904463	0.18391948528209934	-0.008275101674435003	-0.34797604298703366	-0.36102655603313677	-0.5684392420617657	-0.3011299582402002	0.24255318548661065	0.08699264127099085	0.08939765053518298	0.061459781244439626	0.000988121263302548	-0.011344400388623263	-0.027529604301041066	-0.004550008936224655	0.07206041210335101	-0.03733917500681307	0.037549782142705636	-0.04097460539490911	-0.07627642462284996	-0.33068049426308216	-0.5430407986596083	-0.017092630511619324	-0.27607747229157276	-0.465000061046175	-0.20056054264561018	-0.09424899146855627	-0.12797343253433016	-0.5934218992619482	-0.07402510032956841	0.16891314583671468	-0.1694153950713185	-0.22937110407004674	-0.1933801302944618	-0.2510102421671201	-0.023484654943267593	-0.04296974595070978	-0.09207198645902097	-0.07359394926381352	0.007903724995144029	0.027112233364725007	0.05038177399338752	0.021446952732285897	0.10055037678858073	-0.09877567410449337	-0.2158770863087024	-0.1638714209808512	-0.002556037452072964	-0.43782695189030557	0.01722436579707462	0.14887913893739246	-0.1248493425713423	-0.11497753768862577	0.4491742819663199	-0.056930330337875756	0.09351643552680385	-0.06516598853111857	0.13182640993561823	0.3099620212967508	0.572561175034836	0.5905750110699564	0.31088218339517437	-0.12610492089948458	-0.540000562253615	-0.3695368562272802	-0.24063920722342114	-0.19203877092094518	-0.09970890489967901	-0.055710765508641485	0.0388142822923215	0.11420489422591532	0.06267913991440814	0.11525986037539326	-0.33225034118706254	-0.38392185017764835	-0.5124322032838873	-0.4922159641676558	0.634838589013686	0.47528347112649527	0.2871140484071833	0.3172069828379068	0.021134458408077806	-0.4990616499927914	-0.5047007003567066	0.21943226603948293	-0.3956040906441819	-0.0766325052990078	0.540817259181589	0.5217407374352755	-0.17857362830304271	0.23306473571584793	-0.2670225182996226	-0.604813251909892	-0.013613839649946863	0.007428609272093141	-0.058449993068661096	-0.0007762674742068931	-0.014677588389560077	0.153657059944822	0.10679514104475749	-0.14298147493837945	-0.38307157803543085	-0.19927260370334188	-0.587822131538943	-0.17656875399033262	0.7886569963177132	0.016447692407551548	0.28779589589961985	0.13605307344981893	0.02506355266943647	-0.16614258261264547	-0.5807077418053527	-0.17246423007992587	-0.15255415866247585	-0.11281112603760221	-0.01592632964247822	-0.2565740539612108	0.035411693297158445	0.09153293192824553	-0.5221917931345581	-0.8631190577073989	-0.09205544351200205	-0.18159898838727281	-0.02369013337537229	0.05211413830968893	-0.005243241459608805	0.06980863679730054	-0.010140178050981333	-0.20067783862162694	0.09689959882037344	0.0440876696527886	0.02925601999207781	0.2295423152274153	0.3161081017697275	0.15407954158502504	-0.1929146514143729	0.4460115591581321	0.056955212550008134	0.39534936043072927	-0.17973787353289025	-0.23317433591568845	-0.6191189370039107	-0.4901697426995815	-0.3450554219485124	-0.3166535540176005	0.10296783577505078	0.28923600869230887	0.08083063834972906	-0.6931120268396762	-0.7087301202127093	-0.3233677868517465	0.09904656622930307	0.05913526332928906	-0.0501185360782925	0.010646171388739224	-0.36225700046695997	-0.17711236803939454	0.40671412762171016	-0.09367634330575171	-0.7191139557727693	-0.008093608772807237	-0.015419541842926343	-0.2749290870411016	-0.25930373348000346	-0.17487867282101038	0.5597288421571539	0.22781913793907901	0.18089962867223017	-0.09150892213237573	-0.06761733374237959	-0.5346545035924314	-0.8317785262376375	-0.6192099201691227	0.3518940037267944	0.5986007735268378	-0.17317224259296077	-0.9514198205104535	-0.8690692916179363	-0.6611302416126842	0.0008187256651192254	-0.05328082233781437	0.0491640477754992	0.15532112804199338	-0.4453032448081965	-0.19043803802027362	0.2549596800452296	-0.05796847966689986	-0.29698372513271803	-0.31416025288132204	-0.4620918627126578	-0.5526617072355035	-0.1935126773880127	0.24858652074186188	0.6386864676653163	0.6774513700168622	0.015728417523451176	0.028692050771672483	-0.13933384426474815	-0.10564871269792642	-0.41176877950296703	-0.05597143539900602	0.12033853130949237	0.6300250218557729	0.2626197784161386	-0.4127373981126746	-0.8875634398821102	-0.39699557452633777	0.04912526631657192	-0.06169873680196154	0.02821555373248403	0.0892606384815652	-0.07300676207705575	0.12507223647386292	0.19379603383186725	-0.2734789590362912	-0.3533531016442752	0.28796316449021014	-0.30881602792002183	-0.5294141709117585	-0.19692665711918295	0.13127440800233178	0.6514297552587992	-0.10757354787998676	-0.6019934288962336	-0.10948961732476668	0.3522986583346725	0.5050733670821301	0.1490033764883122	0.17383691350055946	0.4272875543187422	0.48977169308792856	-0.3932016870744677	-0.5302270847533264	-0.3881898179974163	-0.2645390946777966	-0.08485559092846803	-0.07542382921993887	0.058958650510283615	0.006026073124872232	-0.27384813745316133	0.23607905454824205	0.11475273425726189	-0.07777509114436669	0.4242069237743946	0.381179612341457	0.07434745727952181	-0.5811131325315024	-0.44641428547187806	0.035282084129097814	0.18675770123915394	-0.40275093304212517	-0.6512372160273624	0.12379593972842799	0.33689647649799886	0.5658287246592472	0.2654780095200989	0.2520378232276087	0.5190774838024234	0.32575031927151377	-0.315210723242968	-0.6793020724733171	-0.10403129558932356	-0.12857213916112478	0.273393036290967	-0.021083542402206362	0.01633058345323094	-0.03161628664153502	0.08343553675302298	0.4975672787689167	0.5000684543232713	0.5396580904533496	1.8262347687444314	1.1942095472629597	0.7688627497566942	-0.43527438465498236	-0.46473975052157723	-0.8745532168169919	-0.45138678833570783	-0.36962167099387944	-0.14787541228654033	0.49971924108273613	0.7061051668141285	0.18711696879070638	0.3022091169239773	0.19399351283753175	0.011838250010110742	-0.3579990223913634	-0.29491618891221244	-0.24205836772145103	0.3078343648193254	0.20817036476963055	0.060401234862681084	-0.005400024258431431	-0.058665287547512476	-0.004056381695483884	0.07230278507223352	1.0153617652745617	-0.16691149642806175	0.5464427712275893	1.3072570824144027	1.129043849949095	0.11752858003393368	-0.8157755267662273	-0.7879145215542697	0.06077017763376864	-0.013491869827822299	0.1699304511078609	-0.18277716940405056	-0.3081586121229228	-0.27775426479335313	-0.014846101876450373	0.3631133833851783	-0.3475792497084092	-0.2999226742318028	-0.9426885556554547	-0.6731567228307005	0.3714120039769754	0.5510854611914284	0.1761153588552628	-0.2449355483871481	-0.03745148721340076	-0.055089121805468835	0.009945636391751615	-0.12050408209577863	0.47075464441905307	-0.03204244141392626	-0.07580158910087147	1.1645692162189691	0.4037200844490301	0.23216140349859277	-0.3183068917968429	-0.527522092219064	-0.2684249523457495	0.5168923856910667	0.04877651128673101	-0.544475428189817	-0.22721264819453343	-0.3296238954997826	0.07524806272484168	0.13975750432503473	-0.06177407753913286	0.024786774265374897	-0.09475113454619982	0.031174451808661647	0.7542198139092918	1.0083979509940058	-0.2919837890418911	-0.24182708626950736	-0.026470821329910663	-0.009483728913290176	-0.03116792207417835	0.020241155992128234	-0.23518388511650543	-0.15184923934518207	0.035607276782288304	0.45847789904697506	0.8016999919023394	-0.04982139383662524	-0.6334969610755585	-0.23019850311462273	0.3292957290334084	0.052438196825063246	0.011599468649076898	-0.26370042753529316	-0.19811761200750067	-0.18555819523805883	-0.10219764729121472	0.5162822129123843	-0.4350971546070294	-0.21956310488165726	-0.3389210349048338	-0.00027864629478292926	0.6438861931747012	1.1634946828288197	-0.37114653885127463	-0.33911071680991345	-0.0739589123528135	0.04346266015604689	-0.054708544993750725	0.00772409963657134	-0.33229593929035767	-0.13836312253326613	-0.3411755790459306	0.19930149177187476	0.011222843742596144	-0.1457991888254743	-0.0030552497929742834	0.12488133793677872	0.45521016141345216	0.5017930656152378	0.22580308608214472	0.15041020755412476	0.0685427809411327	-0.5731361158101452	0.37238919201634146	0.027368592006005152	-0.009915791905565203	0.002248467452003613	0.5806899354473536	0.20497554377973545	0.4100945861567416	0.26183968709343153	-0.3678133928322509	-0.20264446106775377	0.004263964786396751	0.05717410086972207	-0.02935291629137758	0.09579698573748585	-0.35910104390922537	-0.06149567112194568	-0.602426900945562	-0.3490435690395943	0.07578001223772159	-0.4796948522983299	-0.2518181429871595	-0.06836778940197051	0.5940131406620254	0.2991215883544331	0.21357543435642581	0.1912310050526103	-0.15513570171039487	0.4869683727808386	0.3172489781949597	-0.12125983502724703	0.31438809846113225	0.2625775844768796	0.2086271606947268	0.3038870299395825	0.16583128608578596	-0.05383241662123246	-0.24270538291561952	-0.11289961832276646	0.019353148493522414	-0.034836068141231455	-0.05545212262864446	-0.03850103138342664	-0.44863394729154804	-0.03853266737436934	0.07930075821570327	-0.36935829855833086	-0.18935994086952723	-0.12956111036241777	-0.0015050924293109683	-0.3270101435118268	-0.8953683537192672	-0.3990913722380599	-0.36045121121918233	0.7272156405642636	0.6337752905785342	0.572984694601297	-0.13417207754536378	-0.08332568732882642	-0.09006126550609123	-0.18804422673889565	-0.3194076424758642	0.08493512956029933	-0.14555901096135943	-0.067196667869039	-0.18248973062101856	0.004834970520111553	0.024666850873452578	0.020409726275226046	-0.01204600904653446	-0.039804714675643914	-0.10929107189804411	0.02041346516334231	0.2939909670719931	0.053147322200992116	-0.0380989039949842	-0.26934062088071625	-0.42069176935263997	-0.4563671650590458	-0.48340958242022064	-0.01558431629424309	-0.18645900641824834	0.14582051980764457	0.41473298227526484	-0.3003318706836939	-0.39274058480916524	-0.48295871650741923	-0.5547861427327334	0.04779393357289648	-0.18160237904469767	-0.20358817131298154	-0.15012489121894143	-0.10553859664195041	0.03995847021766364	-0.054785738173474444	0.025839173924453097	-0.05503176852683212	-0.020774840579700873	-0.11011287663747865	-0.029018587301032198	0.007843947916553138	0.17921759836034162	0.2004374445379734	0.2686842028851129	-0.3092553039925403	-0.3691786974954475	-0.45565572036366137	-0.18270341329917572	-0.16895602552979513	-0.3204017971157583	-0.3710243489518354	-0.2804312560916194	-0.220012486242955	-0.19569460283322657	-0.30462582432866336	-0.5955561130583761	-0.06888403701463704	0.04780388545194691	0.1136924059310919	0.015545072374761038	-0.02193736022583535	0.03277911638982091	-0.029803899531531154	0.024470983873741643	0.02259591248015807	-0.05696210036063909	-0.03548609206346247	-0.01110764131504924	0.01629747147580974	0.14777098093075494	0.20276000509368286	0.5002268043166171	0.31462760764976105	0.1307631826709267	-0.32129998402623194	-0.13523145844792644	-0.463761670674518	-0.7328269772054676	-0.8908568296810561	-0.5637733725941002	-0.4644604599862252	-0.2885277415691363	-0.22226495674859686	-0.12415079972710817	-0.1286927379747703	-0.1282680787178618	-0.023998913613926507	-0.05763670422402006	0.02576219093482868	0.061606250612778614	0.0111546813164888	-0.015217238408467872	-0.04070546818192952	0.016484082617769825	0.019534171560431045	-0.017155477272445076	0.06639484017137853	0.07890827571416772	0.10872477307339411	0.3946566767221888	0.31336027992875	0.055327181989399746	-0.1646445954195041	2.7682249556021206e-06	-0.05929178720243443	-0.005349974003321528	-0.08719573907499656	0.1222335422191503	0.001797663103800886	-0.05476998778817999	-0.019041279946878303	-0.01746087936037341	0.1543414155468549	0.039731018233018014	-0.041756953175360795	-0.014782702649682336	-0.004185441949173651	-0.02649540345782745	-0.034686374370029166	-0.053867047703014405	-0.046763319500063835	-0.016721115589026475	-0.0336399130479688	-0.043967800126220674	0.041596199197552614	0.033564231194301936	0.09588430979672836	0.052903046936457386	0.03160869384585294	0.055702917331915236	0.02770503861131665	0.015666335325859593	0.03274611751789973	-0.01988285770639022	-0.020388176927705146	0.04123517746904405	0.05584016247059966	-0.05236158940503864	-0.014451775477424033	-0.01830908787882723	0.1359349637157511	0.05903126358461324	0.01974351684804853	-0.0573756191199659	0.041619690570199576	-0.056278735348666085	-0.040149259869033616	0.020127309568883874	0.016846888509150802	0.04941088623750916	-0.03570314948291885	-0.04774471019922123	0.019425280047410558	0.007455864093134389	0.036227398268546304	-0.0192674672863501	-0.0818060998184995	0.05223957555620934	0.04603864851571567	0.06095253354391939	-0.05321836150651012	-0.010498116080174015	-0.050757665816052636	-0.0655450338189566	-0.0681024436014664	-0.0702263395296363	-0.025918419822137342	-0.05519152580072666	-0.007857781565026409	-0.00471869701204107	0.039248210813000235	0.04607507260834987	0.05844477370304855	-0.06139203280731799	0.014612866878186616	-0.02320798877216318
-0.032935839811475055	0.015885945090188404	0.04553214536121546	0.02019263425157338	0.012639770438429516	-0.004717632677323863	-0.0260044730552979	-0.035543479391911936	0.058984092638910655	-0.013535914882119578	-0.035939731071353884	0.031360714721647386	0.06175953663137249	0.05269335932715429	-0.05530354296312542	-0.010596407858016132	0.011679149594752657	0.031510445454348744	0.02569904398747904	-0.035404027526211836	-0.015528667048166862	0.04980442531681573	-0.04822165667163093	-0.008390690415512284	-0.0006213249265794724	0.024195134487767216	-0.014217093037700891	-0.061107517241661385	0.008317628681930193	0.01003202204714352	0.052438114533862566	-0.04986158738947912	-0.002160042850863554	-0.02407300842712301	-0.04661675476153702	0.054233199409624434	0.0015900382563409816	0.039098852036798776	0.040187465529561595	0.09681418991569456	-0.009437667414350018	-0.02802736458558308	0.04361502568425583	0.009776774307680654	0.05640555894054184	0.031111723316065536	-0.020044090403524076	-0.047274833659789545	0.006654850612774509	0.054052029828148655	-0.04775707742341369	-0.02039071780047095	0.06135888216569834	0.041173404401683315	0.03550851353978591	0.050708714291754726	-0.001199426826385519	0.058523229474973605	0.03458683971289419	0.03531625192425054	0.026450506948380352	-0.05928788320206001	0.015203092223315524	-0.002709647606783552	0.10012694818214575	0.012521805060271654	0.15100978888199693	0.21510942042188677	0.11656968065897648	-0.05759546478205997	-0.03461730977733211	-0.01563166114488122	0.012406508722004508	0.049912203731625374	0.01236672904323499	-0.05748098477749811	0.03322146211615024	0.16247893885206124	-0.012648917592219967	-0.04744722951322048	-0.060001319675189235	-0.022807324065432524	-0.029913768285803437	0.006835354301801107	-0.02261264352727329	-0.02425884880306868	-0.00366815458965445	-0.031403477724696115	-0.00028957256453595226	0.004488914326353444	0.031020859305258133	-0.08933640610268247	0.11235887072533389	0.25221234763935096	0.20686459325859047	0.07864562213042701	0.1809603304940989	0.0923272501659285	0.08814538358698831	0.07169802049379989	-0.21480323820309147	-0.3738440863298905	-0.48639024124497504	-0.38144685574815945	-0.03629121742947985	0.08146600450281204	0.084082205610946	0.007375996333459886	0.02451277908527808	0.05310060022085849	0.03768250424778471	-0.02699894983072791	-0.028009248809880184	-0.041246274933267615	0.05070163214927972	0.04570313580609805	0.16826890690363377	0.06673791179186729	0.1899745641123639	0.14116709770926267	-0.2347542182527261	-0.15678744857963872	0.1360817096160787	0.08998877427434113	0.1345531909734119	0.16980268485287184	0.5621990694270912	0.3233736520477353	0.2751064239079086	0.22495213766757974	-0.15280086563847384	-0.39238021369189524	0.15842949333276418	0.11339954635989916	0.05109432974394466	0.049654443073319815	-0.09161033841037675	-0.0037906970152221035	-0.022195186281074947	-0.05858504822108704	0.022640473125886747	0.05855048644427533	-0.003633134877523606	-0.02646326138177436	0.2151106209402769	0.28408164286938714	0.12253401781515305	-0.12388919411293446	-0.11083749125626809	0.14800331069392708	0.9136940765935139	0.7350931169636211	0.36489045986864244	0.37866324032325976	0.7638882889929622	0.2597100933292682	-0.011342877816666245	0.000719477947316525	0.5077874344562961	0.18402714651046626	0.33214188616506585	0.360950581888152	-0.006366518343179649	-0.10501068275729943	0.13712506596324586	0.004967890469438261	-0.018743602868895752	-0.040646502078134056	0.03809351424378279	-0.0469789266124443	-0.015358622015968309	0.08124654501769883	0.12697310468632253	-0.005535417100464067	-0.043402342030239974	0.13943374029094593	0.13659975351068948	0.054549899160393066	0.13950890944235503	0.4551916497118387	0.5380036586308743	0.4120719354963644	0.4311657985842554	-0.027535907103918983	0.117492416967498	-0.08554396156723852	0.22585101137144584	-0.7488606037772156	-0.37747711529161676	-0.4240019966867753	-0.494309738826281	-0.35863175958943805	-0.24020027964278126	0.12512603389919577	-0.0555862696136058	0.033845838346211334	-0.025805743064172243	-0.03323338065630642	0.1142959211655412	-0.05942998684897828	-0.04570505952552491	-0.34771134133555065	-0.12702512245622116	0.14331757075432897	-0.8462262359830471	-0.31137372581626643	0.2101285135088285	0.5946675675464718	0.6749546314078682	0.18706601878508985	0.08416573686156549	-0.05268304177294235	0.4038942479181699	0.40727352258492	0.5819711516444711	0.4416312064977359	0.18022510759451668	-0.23406422159595625	-0.53796292218345	-0.2453343327197862	0.25707635581402033	0.3834541053860965	0.0086033662046563	-0.05180804819864605	-0.029060486327905824	0.028102761358967863	-0.23771707559925082	-0.7346639160175029	-0.5113452913678576	-0.5514624281709174	0.12618275052816108	0.21885603442504892	-1.0225102289439298	-0.24860996144219122	-0.04460678134699546	0.23928310023448057	0.8411643302844471	0.6302430260307726	0.3660108818330969	-0.1888432376245188	-0.36493612865055525	0.27771756144179127	0.28398897500222825	-0.30231274841167816	-0.4645955118509973	-0.3458198339054526	-0.5514320737393562	-0.2088670700214439	0.6120065750452284	0.2811847919743268	0.19102726110112594	0.03973188469783925	1.2228542344006055e-05	0.01545929938937557	-0.27535674311700825	-0.687843767623814	-0.330674376690262	0.7444966140358947	0.8188313431039611	-0.2106918869953035	-0.8998778418151616	-0.7579039101486129	-0.46411212503046395	-0.03175497171282568	-0.44793165341849406	-0.1406897735540295	-0.5141689306445956	-0.38581729503186896	-0.09191436094160606	0.226400038181197	-0.8354943058799116	-1.0005906767982895	-1.1331161852944196	-0.005535259692532992	-1.1218860817188017	-0.9179925698483657	0.7035958425732278	0.33947825612278565	0.4334020641875297	0.03941217422908506	-0.03961409200264015	0.09835696256258965	-0.0018559980777019894	-0.7406867513410011	-0.2158728663260088	1.1068474404147366	0.5480232479963577	-0.12651625109418158	-0.28438351061577244	-0.6067639747667698	-0.004345021731570509	-0.1976691437973407	0.5640405906466468	0.6134664617072385	0.10937790670760715	-0.2552733132503905	0.22206165812023698	0.07147282160615515	-0.3158378899632338	-0.587915784062429	-0.7784202834917462	-0.5233905351122776	-0.028070792989495663	0.1412705313585484	0.301532593157514	0.4130554652882742	0.6155054934560873	-0.026839860944011456	0.05458030969018856	0.23705745675176412	0.3417997559047287	-0.4335476258104614	-0.5688657819389905	0.7170241162500692	0.47805331916028937	0.2083456591146317	-0.417797539511348	0.25943683981219573	1.017012982279544	0.15747016691558732	0.252760828939727	0.4444635754050594	0.8245473040249918	0.8506283348529444	0.3000025928442886	0.5732645516814191	0.35720797951519645	-0.11088585320584202	-1.2364894894422798	-2.1455626748285095	-0.611469226561294	0.44649690047218926	-0.10706818257293654	0.014101778157717118	0.15421115832294854	-0.0014709863232996374	0.01659457714339648	0.09326897273068444	0.3699243682342952	-0.43536488979934873	-0.9697818683098537	0.24548644804794564	0.14469166329068936	0.39280894138306716	-0.38835182152839554	0.16659570889160918	0.5683387774912071	-0.5023391436324229	0.14619243959791792	-0.8746954456388644	-1.4746483618042452	-0.37459752132678686	0.26674760487634497	0.0838066571449094	-0.18831337691100536	-0.03073716855907077	-0.39870350374826324	-2.2579374896437145	-1.717253711734385	0.6044279118958155	0.25723147856372736	-0.21986044942227792	-0.019107056543461683	0.11794697671086045	0.041976140916686146	-0.022322524913285575	0.17959010831179376	-0.6896096076466937	-1.5517183009641995	-1.3552605177959205	0.6343185916338732	0.42134038197930207	0.2236766938166008	-0.30882130477388325	0.14024818691223356	-0.848120363008867	-0.7329669715867374	-1.0043576502121405	-0.5686919997898406	0.07932444094623997	0.7362740869666297	0.8273285686004875	0.2781198409928577	1.6696714512581772	0.2908165858642463	-2.96503902181681	-2.019893102846384	0.5367917341163864	0.8328420892450419	0.4983237261460071	0.5899533063596809	0.36016555288348223	0.0474950869811098	0.12215209269219662	-0.2010086030660387	-0.7354178873691781	-0.6487153565316027	-1.0100311310800008	0.4778255755209317	0.05128766851375863	-0.4577448482881379	-0.029652569306840838	-0.049081421232265596	0.7799190958227217	0.3124012060889936	0.11233946654091606	1.0549431979103017	0.44522223220865487	0.15540288945640882	-0.25709577325268607	1.293474063451201	1.4904305678546075	0.2541930356715709	-2.1928827626123355	-0.8566962542909862	0.6239587733856126	1.2819014158939237	1.8464777651054631	1.0334423792944725	0.15043603765876956	-0.031641334482510025	0.08021218857065039	-0.8245076406087097	-0.6374610069498107	-0.6174711073805212	-1.0224482893114377	0.6326831644122186	0.5292567960275052	-0.8697106106014052	-0.2759029499792083	0.5249097816673539	0.3087756972146363	0.10091009722826631	0.1856639110227634	0.11998617348803235	0.17408840353451624	0.23442145721461333	0.030490743134168337	0.7876496397812325	-0.00984364990719952	0.12235899033039431	-0.5709275965261825	-0.162234331696278	1.4953817285285873	1.77699609178863	1.180148322148174	0.31613589290904903	0.02827431057268731	0.007128925531952886	0.08768597329280829	-0.7037131610893954	-0.8511595157744924	-0.28356753333723134	0.1839041977476721	0.962028103510355	-0.045091579759966624	-0.10957712801749298	-0.4771522198536481	0.44425699868673496	0.7014508766411226	0.4627609997850965	-0.005226633379888706	0.09175777900287709	0.7388561008653606	0.14806016704706695	-0.40263557068947226	-0.939257460842621	-0.3199987528885965	-0.5596173968779967	-0.4873672440132644	0.8192105835330651	0.4761590465205179	0.7633453738028426	0.8251139804810428	0.07049704225043109	0.05720412656679378	-0.014303594956840013	0.13357435623778724	-0.057439616416034324	-0.6451364233078818	-1.0738964613378272	0.4334932608553073	0.8140698270058825	0.623785091770149	0.07794955221866869	-0.8769188351703697	-0.8345790178924006	0.8135095098462879	0.9475697385280051	0.3207513371947118	0.510026641662806	-0.21780842781542367	-0.6150489370391822	0.16926869577228543	0.09949692961832689	0.38152000671867714	-0.2709070728515965	-0.7392386123053691	0.22283802641978737	0.31417829746409626	1.354524566938268	0.5581666144932111	-0.03846480275373354	0.003288782584615949	0.02434318983553705	0.07233426504220472	0.18941659159351612	-0.1588528151033779	-0.8142957026368933	-0.3043583388863693	1.3235813063503412	0.8760390394262157	0.08837780507075985	-0.17970615912023472	-0.14026952179262284	0.4214179553794502	0.1271337187175448	-1.0764863873730437	-0.1936347203326281	0.2711607627018557	0.023764086636059646	0.10903777814314593	0.29864892337152465	0.007174728469524357	0.19777564184060176	-0.4167475579694543	-0.21318206549253432	0.7811207012804975	1.1996334294057498	0.51326940695225	-0.0003406509194895379	0.018351611292318916	-0.009876268409472574	0.03312133858437973	-0.02541006487113036	0.17216391004810955	0.08440589289343578	0.9461948875688172	0.5065962563200439	1.0971753841898777	0.7378438549844303	-0.04577926665186416	-0.1840403803730903	-0.07589691044765219	-0.33407189837717277	-0.1376673324269992	-0.27895852144376587	0.12173386626214246	0.37581978084283024	0.2570107984728728	0.42900659786299855	-0.48962151077868044	0.29096078754412213	-0.6917048154121469	-0.0395712633047766	0.5684133609226573	0.8445725358427604	0.5807771120729281	-0.048186474744381765	0.019723032852756908	-0.036889716919107196	0.039791210581437676	0.018783479212258154	0.022658812321361934	0.4013080566877088	1.3199124035640333	0.37503857490119613	0.8674058463717541	-0.23629499444694005	-1.1539665937471497	-0.5858744848824705	0.08663755318365109	0.6645909826783536	0.1325557238701979	-0.2706259577767915	-0.08026890696390618	0.2546918738633529	0.13517103281735965	-0.7520230635959664	-0.011407497676659212	0.12422032928370297	-0.7897676126900085	-0.08889187128233436	0.3848455301005375	0.37594829164931665	0.24596900673278413	0.010050038055538989	-0.029880028119218742	0.04239335262214184	0.06118634494906599	0.11621811242105069	0.07927718053377174	0.07946374027697263	-0.18912189019558517	0.5076066131630523	0.17167999955020893	-1.0031374076730395	-1.3723940046324186	0.04343914592617654	0.12053386436544257	0.44103942224817233	0.9605499514013015	0.22731169338194615	-0.47361095580249274	-0.596694552128723	-0.18015448240142523	-0.16220797984470467	-0.4273950093411942	-0.3999399837739751	-0.243838192476859	-0.1044563955913823	0.05392459307399125	0.09788358005974529	0.08600358674748695	0.04757306021102976	0.020141642525335898	0.0050134667676236325	0.04869897086646841	0.09455819680959095	0.19937255305966176	-0.2001580857373677	-0.06799363482135418	0.16654118533772447	-0.2580107464372756	-1.9164537082009974	-1.3627940353314707	0.1554559657461044	0.06428147037514152	-0.30574339481673674	-0.10088470493275077	0.5570216692514008	0.6594462282422162	0.1628247425506236	0.2666690363319198	-1.018425748014564	-0.6804741093454777	-0.24054715231741838	-0.27518394251244277	-0.049719971602187496	-0.042524092364418	0.039223921992673355	0.1250883294718121	0.009642763347075756	-0.05171147596156009	0.05389919304934602	-0.03642021825371286	0.10053570838068687	0.1100223688676816	-0.03644850293511311	0.13792592845877	0.12355572868208227	-0.14347149701368825	-1.0796695599061146	-1.0011095620264985	-0.215495807879909	0.04713162423226382	-0.20349140953101683	-0.6154965695565776	-0.41304828246265146	-0.08459655987776309	0.4074234228039456	0.1045528032414633	-0.024073990789158402	0.19872132814682944	0.15520323910338926	0.3784653116315946	-0.05041547752016699	-0.12584753262314893	-0.0363470812655812	0.04367834602746724	0.008181103824206275	-0.019669674768506437	0.04483019966285109	0.031713343235939696	-0.034689277255060165	-0.045303151061187256	-0.20691131273996335	-0.20069675865223388	0.2756576587375771	-0.40254131257834624	-0.2370428981118363	0.0897483615470169	-0.12554291539633491	-0.44295980807671137	-0.4256217384018679	-0.4749751964711597	-0.5503039984405814	-0.3590228625580434	-0.013998003355946568	0.12306549423480369	0.38032426816355874	0.8730436683764615	0.4154641832817554	0.07522994329040524	0.008832462095718727	-0.022882594974111572	-0.000740030008855139	0.041220838247944924	0.04284211296470939	-0.059825282710052406	-0.019393172211296036	0.022835923741087887	-0.052263125649093814	0.04194101514245491	-0.1382069997780976	0.0022824041967206814	0.26334408143626403	-0.15319494361163757	-0.24981379447560353	0.16724546610737293	-0.008993174828916916	0.05008282653803309	0.10161626292990744	-0.10762442842874546	-0.4431733586189981	-0.3855117496091003	-0.04541079976850584	0.056530682205938716	0.0038570781259992626	0.1534407726557985	0.13302965786756035	-0.10111787936490668	0.042576192895212146	0.0016669913685292154	-0.015534557623115092	0.04975810007442467	-0.058267666614287304	-0.025893365532919023	0.057638342371582184	-0.01543583749511613	0.010625717865160055	0.006513515472066904	-0.1332709876321803	-0.0772505126356968	0.07838368824920566	0.05859517677215154	-0.056128600820110945	0.047819880474243855	-0.0568437228285333	-0.05503000564557186	-0.036203728973045766	0.022388614852705314	-0.07216019725416828	-0.07786211229023259	0.03900697383711845	0.027478581935478648	-0.025862524358942623	0.07026521953501394	0.11068215980404801	0.03349442195499464	-0.02399170753522787	-0.03658589827672487	-0.06126343127720527	0.01194698293023675	-0.02304130589007683	0.009435858086953762	-0.010630612331013096	0.015330430929206225	0.04421917081906967	0.030338491136759523	0.053878010574259456	0.021213354516947898	-0.0042748097664269645	-0.04399061143228178	0.03422348481502679	0.04269833195327945	0.029453987190892747	0.019646476862671146	0.042479067392861315	0.05564968808605108	0.04662716192310513	-0.021374200826709388	0.06831434571079778	0.045659852111819034	-0.008793679299963868	0.03323003398767765	-0.0104166354309616	0.040624341916209804	-0.026335220914622016	-0.014663898478187408	0.024487592039500426	-0.05616429406915776	-0.028487442759260816	-0.03158194155253329
0.048113331111813325	0.024964251736530697	0.040293448982277165	-0.055186541668253236	-0.014867068770658166	-0.015341335773802381	-0.04905129149518618	-0.03465193947281025	-0.059061895328362445	0.048879259958475224	-0.018007266985248228	-0.013118668456569588	0.02596192681963177	-0.038872942001888525	0.05488764612372018	-0.031760162591382216	-0.007659545217692215	0.0030950093669458376	-0.061432350078085285	0.04699845042919539	0.016496312482416543	-0.058195129434162836	0.049471821019097216	0.024340971306577315	-0.007055146939298408	-0.035386260327347034	0.059886445786716404	-0.047833589783736315	0.028400105809164432	-0.04974385015861137	-0.013345381812796944	-0.04029445641233461	-0.019629276668149807	0.024647822308115845	-0.03127670802652466	0.05735486957540935	-0.008036494931810089	-0.0112527100500362	-0.08420255487535488	-0.09282887814850303	-0.09581962463784768	-0.003813938617882087	0.030786402515756935	-0.05124091311547775	0.060434713031136185	0.058042711549486016	0.02777577921316462	-0.02709662781105776	-0.03935715222070501	-0.045275901585323255	-0.05495203507593614	-0.010433678717347024	0.013301705809642607	-0.029868098993509985	0.02064338069039697	-0.047814848875724944	-0.015720762107302957	-0.02736369346444538	-0.06182510916457851	-0.02597387801431602	-0.028485615276123005	0.030190452336046683	0.0485982019969826	-0.0034067883611397405	-0.11620391898663122	-0.16818262339083118	-0.20079177295980835	-0.2095375472447948	-0.111567258312963	-0.09528100138434045	-0.06488086169755557	-0.02377562744648728	-0.0739476260208046	0.026928462514695387	-0.022822471715476505	0.022529023926791084	-0.021298411614032554	-0.10387128427017221	-0.012566968554946293	0.014234136893575562	-0.004084248404230051	-0.046025581831235944	-0.004118976598202782	0.04130606736445721	0.00826025673398998	-0.012847435451139498	-0.032233646932559375	-0.03443333002664803	-0.029412247574640532	0.023988370692554526	-0.10772356206688156	0.05440413561083174	-0.0714314467925245	-0.3346137711048238	-0.19139432001522053	-0.07099116039631086	-0.08352058244700827	-0.14053824676830565	-0.05117084033254624	-0.021848644881562435	0.0421910436539169	0.02796519016654842	-0.06801255354953568	-0.05178528154853419	-0.13227610650681307	-0.008847624623233597	-0.035790722355801524	0.015989084156323424	-0.009512358175204523	0.01149855605788886	0.023904483292049063	0.06134805184368714	-0.05827113395971063	-0.012102524768907892	-0.039115653374594765	0.019805668634389352	-0.024307389288215474	-0.007680679884179234	-0.14230864898022924	0.004859099643618734	0.1611447333082549	0.000729481315855818	-0.2158025357016453	-0.2522413001447806	-0.1542553147685316	-0.07682803356432916	0.07200499726161733	0.07985167277205141	0.1393300479415509	0.19402363002019243	0.13256180675144572	-0.11223413571458875	-0.144919949125048	-0.14049300431064318	-0.11183286309444905	-0.0904730500411387	0.06251015029851091	0.04684706154491242	-0.03957818856664008	0.015428079737347992	-0.0600403485430473	-0.025873091730110397	-0.049014501033949144	0.007472197635262247	0.03125947858615282	-0.1404513077854874	-0.10371564883153353	-0.20155853191592593	-0.13935881063946312	-0.27164600460981153	-0.40745632643701113	-0.0997220524408736	-0.20704933498654313	-0.17274357264022167	0.002868818825935594	0.1617200422851681	0.17939784714757356	0.1228313321362762	0.5114291452191276	0.16772788557085	0.13473113566956385	-0.05966829024753469	0.0941983218294592	0.08451019773570007	0.031988376489283724	-0.008121573132671216	-0.022304836557000197	-0.050435730043210544	0.012019640222002421	0.005940323692896467	0.04307575776083493	0.13244287122599546	-0.0588666818466393	-0.01195106608577001	-0.27361446723417227	-0.19830393579885588	-0.02087355518455652	-0.4533612539103664	-0.30880087454070515	-0.2650639948660905	-0.1481111998663218	-0.2777907560094885	-0.32396945191151644	-0.219502822216758	0.14973679060486964	-0.24026552797017484	-0.09888477695680634	-0.21396968049648954	-0.23112734648891123	0.23032871570588498	-0.34687442147037684	-0.15794962290011066	0.04753629611620562	-0.045964734222542374	-0.03124326030155265	-0.023599984238303694	-0.05383706277723902	-0.042541169782861696	0.009131276382186613	0.03143430742444	-0.10217453791070674	-0.11256861003475513	-0.18805090868312088	-0.02831882394592887	-0.16153001841815826	-0.34507331414952397	0.10107504861644145	0.2053206784402608	0.23705059729296404	0.21895215658804476	0.15787189548803587	-0.6987687314495524	-0.4853754745204589	-0.07418133969613887	-0.43558599319304836	-0.26555452420827885	-0.38265213794851327	-0.20077793760877014	-0.2760712865825847	0.09560366065024462	0.41924939072733164	0.10631933153519546	-0.04928117639478544	-0.014161352123851355	0.02933334213549079	0.070002723805595	-0.055177099326178036	0.18453544113572246	0.0714181457334048	0.057414289099355795	-0.03555194715614908	-0.17354459523160676	-0.02643744640337821	-0.1250225644472217	0.2475190574270546	0.34638102183868547	0.35427641613687694	-0.0019908544186293814	0.02904520587684342	-0.32116034711514657	-0.39440962426289755	-0.7621483001457843	-0.3683228822900734	0.2236621019073873	0.048816811177196544	0.03207887349108645	0.08148621779180111	0.4213004408626155	0.4073133490103032	0.2781080793435926	-0.009151204151328604	0.03435380819283109	0.05034153186300538	0.07222972389812475	0.1512915722393671	0.15361170524127687	0.1732876600565782	0.06519208492722647	0.030205768333240193	-0.12716728238865296	0.19653863372395491	0.2537455775467027	-0.06127036208789571	-0.06128286016302195	-0.4261358766949685	-0.00921045310802137	0.11890131860341492	0.5650064292729847	0.03701549912565614	-0.004893486817979481	0.2599314866984624	-0.05675455318424463	0.09888645101699566	0.27240614935806573	0.05692048576633193	0.42990189908521287	0.47187304349637893	0.3811523187315719	0.1826199263236878	-0.03065302136609643	-0.06101880004387071	0.05173669103517415	0.1921665815233669	0.4076052859687061	0.30240404851603914	0.1433366145541571	0.32985270063257166	-0.1392881690200041	0.21401505146500946	-0.1222890798310359	-0.3172515580351998	-0.3894272826153405	0.2799302691803345	-0.21785818995492862	-0.24821462395517632	0.3221978650538907	-0.04008731378154239	-0.3016927056565307	-0.09263153904824445	0.027511734299218812	-0.03999162270032043	-0.15460134130665662	0.5420250978508231	0.676148527303018	0.5126143806482893	0.49955997219265724	-0.004279237627004916	-0.003323785428825849	-0.024475313531914608	0.08268405595578458	0.07176942852209581	0.27597955149177317	0.38425631330812093	-0.06833519461449779	-0.037132642605060474	-0.06315259606451276	-0.31828978577802347	0.06805050142593783	-0.22585262703273828	0.06322579964715314	-0.0628231569804718	0.19342114212217565	-0.0844028800794211	-0.7797006223741945	0.26857845084304277	0.18136141140142664	0.29474661049157863	-0.12910389909275574	0.16499007691959838	0.09680972244899116	0.5039995420909961	1.0308064554599634	0.7498388282685138	0.6459834293561698	0.07774051515272919	-0.029635229443312636	0.060490534503904715	0.08003051988246865	-0.21960089757532547	0.31841572988548195	0.06975721073751603	0.2610080899428868	-0.07287779392787488	-0.08880878454463674	-0.11513162241425864	0.27524887950967214	0.13513084438553663	0.36719470638558277	0.17235299259288014	-0.19048517315438268	-0.09795442808984717	-0.44103875930756453	0.32169306346060245	0.24724005759295228	0.18108409884408527	0.031986575679867034	0.16994208127562585	0.6201311146430198	0.09402581105509995	0.06450258815366079	0.4347644618596735	0.15876398151463586	-0.19135632691043275	-0.08067447930675445	-0.04775454569655557	0.07372278189153496	-0.15246392279835524	0.0007672665427240208	-0.29534162489151	-0.002315022147159828	-0.25617790294997295	0.7554861638178915	0.6057806762353268	0.06018004542505121	0.08059498608414768	0.20329080091449822	0.7979936864643408	-0.24704776033803205	-0.40953067191570436	0.21558317056199125	0.12162707614259353	-0.12760253814876343	-0.052344691093724964	0.13003617411183227	0.13438320732516562	-0.15754834269801177	-0.6053726582501864	-0.8867845417609705	0.027273571994889202	-0.13547595321717157	-0.4741416613381638	-0.17449820665072754	0.0038234113624507973	0.028844108104673732	0.21827062868428618	-0.23904423571090855	-0.10599381271361318	-0.3589422430512895	0.19636346279178785	0.05027868098244586	0.0872681088087158	-0.21642629760459275	0.01740676962494491	0.4736872791621825	0.18534542208724586	-0.03011356693958069	-0.22493090254052037	0.16493674806007985	-0.6196560595572937	-0.7520767356230939	-0.03265604715772721	-0.27388783412435175	0.29253288152804274	-0.865270831467831	-0.7198698476439308	-1.4572004746192226	-0.482350565647937	-0.2267544887018739	-0.33408121128984086	-0.04708971196755602	0.0107824887389966	0.01583588086536351	0.2978146389791284	-0.25976988600213186	-0.14954341591865394	0.25532055311661345	0.6563874446958201	-0.11818818964681743	-0.4399115469223055	-0.3359785254626452	0.15668092152488616	0.7027481969818542	0.5121472870639243	0.5344457156966289	-0.029465823817775193	0.07005558800778357	0.2891036878381747	-0.23909975410920406	-0.20324636651539282	0.04880735920685165	-0.31626329859050184	-0.8223556640343991	-1.3555135677852737	-1.5678163264089735	-0.9082763219724255	-0.7129310740672945	-0.2578411716115038	-0.032379652866698194	-0.05046702096467805	0.043409320889411164	0.3194410892950678	-0.4393726022660518	0.0952666944870165	0.340030982433045	0.22836912580543803	0.14203428049881706	-0.358672072823537	-0.0736399804318613	0.7148454211755062	0.2997800503535084	0.20166414118605028	0.19483523709889428	-0.5112921324292652	0.005144902736648961	0.43090020160403386	0.2581563480973659	0.7487861899118233	0.5454297151222303	0.763468238570398	-0.37107120012791245	-1.0055052171958245	-0.7180713035657349	-0.10887316928033956	-0.25661916804261364	0.05386580769949046	-0.19606365050426955	0.053170845058500386	-0.011657542467355687	-0.04016814243029621	0.12919299467321277	0.2548411666363216	0.12353818876537062	0.6217089339161082	0.3065880414717408	-0.3642905238254496	0.0677245848024344	-0.10145831834750615	0.1959039883702747	-0.0963067533539268	0.06650698278383194	-0.07799202544504835	0.04807885672066992	0.8372158961849562	0.5257894727921333	1.3305967741305664	1.7612094645298702	1.0987613664819431	0.18920394641685848	0.05053629373333967	0.3425519924953087	0.3753765642306676	0.2224516473094122	0.14159408274509563	-0.16267064764058747	-0.03511638755511064	-0.02971961745874451	0.0662440082508509	0.057958083571284895	-0.34812057098816657	0.16276666586290037	0.9597684856088199	0.655623522998485	0.22241601155309176	-0.1988784894594433	-0.045956414883948984	0.46516770408301467	-0.33869268932228713	-0.626750909842819	-0.7498092449518937	-0.6378260552737597	-0.15711861335537397	-0.02200532363681335	0.6555534772854597	0.7605769340720907	0.31826310228338306	-0.3388003203898721	-0.15983550547701872	0.08360206709447354	0.2713370221866339	0.5525392209574324	0.07645014856201485	-0.006460633691824208	-0.02296385291892679	-0.027006164299740974	-0.02436715253100496	-0.12604617728691248	-0.3929321208646026	-0.05792650785938003	0.5923647192999826	0.2981064116278744	-0.2902787262498415	0.3968386599635721	0.08281310624731088	0.37355703647367366	-0.23531094067146532	-0.4023790317657424	-0.5519836938942986	-1.1048576004609851	-0.5933564252841576	-0.19506503332811392	-0.5150675485685672	-0.045574634374632245	-0.7644923012503113	-0.9422207302524934	-0.9091309108138284	-0.4125960490658858	0.12021713615237836	0.09155926973935803	0.06294526804099307	0.016722232015271423	0.05906830269361057	0.02898703075217226	0.05908226939594392	0.005808579635158935	0.12838057784685028	-0.30403915863476205	-0.3538873007272203	-0.17329741897765263	0.01195243596630346	-0.04070090595009808	0.155725267209749	-0.005529287201239282	0.4133186437607381	0.10259795013664204	0.0792167391389859	-0.06568209083428468	-0.3552145774079282	0.15560753141156294	-0.5167844040600909	-0.7130832931664107	-0.9511573258276547	-0.8465383600340343	-0.5452512958080944	-0.5834885018017386	-0.13681907541043373	-0.05930620340675792	-0.01928390430624835	0.012595380462248304	0.055576257864272414	0.004777634857219874	-0.04538159227218153	-0.035513515623962405	0.08032383863421035	0.17001521027664115	0.19070180881562984	0.3021911423559663	-0.015917159937188872	-0.25643320241606704	0.03529327316397379	0.02236931773792954	-0.5611632792324294	-0.08580857862737142	0.5278492412107593	0.14140046835029724	0.3904438620348619	0.18324854722029882	-0.18762852884148068	0.3653137002244659	-0.26084781844044885	-0.5053514412003787	-0.6377049623360327	-0.39196391626685034	-0.18179332106122714	-0.14154674110493612	0.015836169549784146	0.019885439703143777	0.0527341568808077	-0.025807779850827564	-0.0026250822853251107	-0.03141651751914589	0.1281604460405995	-0.3122476828535906	-0.17428544177706512	-0.1170575335834259	-0.08766706623457932	-0.09795901895962748	0.17104121031070066	0.019150889081874223	0.2579409860554493	0.5663632229287668	0.4441388819426083	-0.0319971597880501	0.25754147975051583	0.15673551524761495	0.1490945334843426	0.2566073207691404	-0.21324340284221674	-0.42599485597223063	0.008500654710190788	-0.056594677048675074	0.07666248191909762	-0.037387806446107244	-0.04296150747065052	0.019697155888448357	0.035975010975989936	-0.04825967809248351	-0.056796870095073566	-0.12255006087973369	0.008525093488320031	-0.19262591624527048	-0.34572760141934805	0.051764788488143074	-0.2841501388333161	0.007921848209888878	0.08466872013359922	-0.00484920916010988	-0.03805720594629944	0.08353529995329993	0.0551562979800453	-0.1978211688041275	-0.18414717736793168	0.27141308273719994	0.21749243235712598	0.13667443065009938	-0.05771437663458105	-0.21595998988470064	0.023981037415136963	0.11139190002328923	0.13101829670833084	0.11024999139832245	-0.0048955438101978485	0.01274907180100595	0.050136425991523216	-0.030201534363450078	-0.0065982280240261875	0.03037529111740751	0.0012634355488230135	0.007551285339123937	0.10770956372360287	0.25394971999397037	-0.00676942227339491	0.25489337789926175	-0.13704220796968458	-0.11908285890849882	0.07192784868047818	0.1847345540720053	0.22245945157606628	-0.16419275389316312	-0.14877792423766137	-0.17300648922712777	0.37552615383134785	0.1266515155831569	-0.10458465503667834	-0.13739410253465348	0.015505884025672077	-0.04912529892954033	0.016104606333166172	0.06520362909855273	0.033835404396873194	-0.045013011026049	-0.026599017923375996	-0.020228136128638302	-0.023156242911279414	-0.004976506781455915	0.026364203755397424	0.025491262870767663	0.18750646105121543	0.10393317250927234	0.0958931628525085	0.12496237668631313	0.037611713334628	-0.08783660665821495	0.0009924262162741776	-0.07733309419233439	0.008475974100629169	-0.06060341298635954	0.025801700520316852	-0.053045312360776205	0.4063440409722178	0.2134297987448275	0.06793692526610833	0.14321184094055397	0.0007026276839638278	0.06557472577472576	0.05570335493779136	-0.03322676170660015	-0.016573932526171016	0.028467830997769596	0.020746709575457246	0.04054685766528585	0.040465080595269105	-0.020638305960430495	0.0688290575768874	0.02340205358051348	-0.019330632508314616	-0.042848440296893	-0.026808714659207106	0.11312290019551756	-0.007324025066768395	-0.04150850001649692	0.013673785406991035	0.056908761599775794	-0.043381909707936234	0.06408275218018214	-0.03941709535785025	-0.020984038965337584	-0.047375607262843025	-0.062119950242983356	0.08249795939572693	0.13877208239310962	0.06878830788687931	-0.010177055115714657	0.0008968245186594184	0.05704868394317209	-0.0056341506999582555	0.018814405538784655	0.026603788995327386	-0.04722794434946785	0.024884970859091117	-0.04617073153584812	-0.048998880594763275	0.01465385443355053	-0.007667416523220746	-0.04075852318635997	-0.06963477665619476	0.0168301092946176	0.06928788044383594	-0.019297708771274666	0.04440005703102073	0.033002958828076044	0.029351424069482428	0.050447735553680415	-0.09807511674257365	-0.10535525734838927	0.05607671064172072	-0.030187081751806562	-0.015934855995111886	-0.00678801211030583	0.05936491747098988	0.033092288613423775	-0.021868567068160746	0.0493646967213723	0.033072074314760745	-0.06137732027709876
