0.042967272563691906	0.053278614238832685	-0.05618597177537093	0.010299193898811614	0.021512770624296927	-0.014886764906954314	0.0604289406488791	0.053580638461892864	-0.015085181463335096	-0.01529849404226358	0.04868463637077828	0.020675572987920714	-0.0017379629985300113	-0.017586891553004948	0.04305313918843733	-0.0492867728785384	-0.0241993669104442	-0.020095666505512574	0.031280339475491074	-0.025640455765874356	0.05411240105002419	-0.05830221255116669	-0.017104603157812766	0.04001072611545014	-0.031885576964834385	0.022150671652310848	-0.01790406656731955	-0.023023261015369563	-0.054668449574824564	-0.028619931298123617	0.05980210499327545	0.04124558597296416	-0.015391044757520858	0.0341394588307476	-0.03728710353973526	0.030389658999865638	-0.04701153452827223	0.07098673965082006	-0.057619782322082404	-0.05868927327382222	-0.05293259125981239	0.0394085228959965	-0.044756391727589044	0.03705984097851062	0.05058951600635061	-0.0069150476257951385	0.019636108390517555	-0.06009796986091085	0.016976152976703483	-0.03020052941515805	-0.026220566976544693	-0.01916220753404633	-0.047592671682699865	-0.00413896159457728	-0.006274772097288148	-0.05833370826689502	0.01126144070943156	-0.06093370855768477	0.037607251180963995	-0.024059553145226405	-0.045724243055467115	0.03397025829937755	0.012714863297410919	-0.10790192109467334	-0.12193083447992173	-0.04717494232542852	0.14863925454114835	0.09240397915918125	-0.018218449607241758	0.05643939603953015	0.0003543214043357023	0.012269717286318017	-0.02821644447285351	-0.021319213953150357	-0.03676816588684154	-0.008511307722428184	0.035700284461856004	0.07618791051071366	-0.049276262010298784	-0.016528117856090783	-0.01631642434755594	0.0066615573672484316	0.0015207749793655703	-0.018580228516919657	0.05706831805760907	0.027222509242488292	-0.054438223972099305	0.042119763700583714	0.0009241548478403394	-0.021450063146524267	0.04320346778865505	-0.16319684020185524	-0.11401335038747645	-0.113361240265419	0.11669977178548079	0.05140507412008923	0.165624739118934	0.029106837632460414	-0.26696324382467396	-0.0898821343015032	-0.0662159757037833	-0.08103904683178284	-0.028820419716300467	0.048619648580723374	0.15938018148667743	0.026192301356997093	-0.026527993343540255	-0.07541925486543752	-0.05077342422076746	0.061449524874430346	0.016258821072669884	-0.03462868431640224	0.03397473973353365	-0.0008053647089909591	0.011064115826240624	-0.022759168470956707	0.15791134318558864	-0.02292403768037227	0.030383548688856718	-0.051914242978431224	0.010866602455197974	0.27094297025028197	-0.014080685712899917	-0.41033356908603413	-0.21095740345608943	-0.1422847492749095	0.18220942971589316	0.26401742944379397	0.1226002327450348	0.08277756265539782	-0.13891772504146074	-0.06600000673799773	0.07782545696151331	0.008206926623871366	0.0018472467593498066	-0.11729718339462696	0.07796455861149018	0.06798903847229486	0.019371622817089894	-0.0012235296103943263	0.018268318880808578	0.023197582824793207	-0.009461350906065528	-0.06706599106079592	0.12746466391697972	-0.04453739612636564	-0.23688977968512745	0.07246133518130973	0.002134324774840664	-0.21557694014124548	0.057347983915051526	0.1621921123700258	0.11615446477645676	0.05750733102256306	-0.10814734812459373	-0.04504551889397402	-0.07364576253985335	0.053679692411897545	-0.20775371411870408	0.10217694114315636	0.16562476298096493	0.02948487490807939	-0.022948485656131532	-0.008039780138270416	-0.04032402524578101	-0.05519893421177226	-0.039449226933176006	0.05965632754726389	-0.05762770435267031	0.006960541449934625	0.03176203115993333	0.12254259217424936	0.002286454468080251	0.1731516671767496	-0.20956890987391122	-0.13975707163052098	0.05661391078475748	0.09232230474991733	-0.06701689872557402	-0.05068432363159721	-0.07905651914261407	0.0723369205025356	-0.07634608016530435	-0.03366490101628051	-0.030800414913260122	-0.27396672116948606	-0.0031261107106165037	0.24911774856893223	0.08472160068402841	-0.17012176058654097	0.086438340542919	-0.010047343899092585	-0.12827584206703407	-0.09732993262999544	-0.007012825457996793	0.005618019620441221	0.005476734853549943	0.02196584802082848	-0.004972788938498617	0.08139145297289549	-0.013020122994531851	-0.040068666018688075	-0.012035588823993826	0.07539853204218162	0.1167419202181012	0.05185793964813628	-0.044064191587268174	-0.09895659950811078	-0.026573429427224706	0.01645484789179136	-0.1218254172328883	-0.045993542487855046	-0.11968730855078222	0.07224977770194489	0.0627902605658214	0.3796742079218929	0.07712051107539578	0.2900126589666708	0.03792583119921837	0.1161880271032644	0.07016835153693461	0.07411652471099439	0.057157620710827535	0.006402048214191526	-0.00991350487298006	0.07366857927660167	0.10226522988831732	-0.0905912975382015	-0.06787879504745002	-0.019913926726391303	-0.02280859345491316	-0.02520711647707768	0.030797530441441536	-0.015210297661815492	0.009748722041692382	-0.09391253777182342	-0.012913216094007779	-0.25390266176932474	-0.2605898494255287	-0.3430787426054339	0.014946122118326624	-0.30889550843134306	0.1519774672564986	0.1472160146187667	0.17162204924354477	0.06936561754498688	-0.1448569966981153	0.17608496154855305	-0.10708209569394754	0.05549609122441455	-0.12770722941879353	-0.004866590535157485	0.05675660630426136	0.010557951693694547	0.06124047738058212	-0.19066363510347767	0.14121498748225073	0.09171164781864809	0.13482058052375342	0.03850589268012689	0.1617979657918977	0.1930006132265593	0.03981699145333229	-0.10558422947840483	-0.09389174208587932	-0.4218010562320198	-0.3256328768716191	-0.28994765784941534	-0.23218574737099484	-0.1872283437875508	0.143321544619601	0.03759963257146155	-0.034104720564247126	0.027054468851649995	0.0693675827586446	-0.09823882511063152	0.004690924674520125	-0.012123798415490357	-0.3068167151232896	0.024940152476500214	-0.014257370536633937	0.03466842809985439	0.10029398011857087	-0.2517808611387573	0.06725785388202654	-0.22819622057927552	-0.013183954678129505	-0.10907872682123226	0.10942021755081681	-0.01896175914093571	0.13060550502631643	-0.2257516370631893	-0.09958706081348276	-0.2771988900770884	-0.376770756518544	-0.3548267270502469	-0.3208789813940118	0.379308457340398	-0.14541414958905244	-0.08160900418001807	-0.011995275775288866	0.05548414009479193	0.1334884826281329	-0.2673372774527512	0.018238271102076032	0.014823666753553524	-0.07990461305617078	0.04876905384392387	-0.04643618678550669	0.18943061382023024	0.12652303474174423	0.34754069961895	-0.03614521302514572	0.03422268632488557	0.18350516416987603	0.08009735541245876	0.03921470946563341	-0.029311663095754132	-0.12917584289305095	0.06825473932512524	-0.03025042393988313	0.015504390076911243	-0.16312408332080833	-0.29662996389573365	0.09118404832213761	-0.018206619939196367	0.19095524315942952	0.06729806091464767	0.13080551604815488	0.025623969259060308	-0.22388387689111125	0.03897222863887187	-0.29080448667378106	0.27256713491895157	0.06539710756439118	-0.008940457594242892	0.05771247016894345	0.031156157768214197	0.20155306046900773	0.23011361221802099	0.08784963218514007	-0.13591968921336922	0.000792198167207618	0.08057229786595034	-0.20749390097110715	-0.4089760965228543	-0.04458947554773461	0.07185452970651435	0.17130453770574375	0.23459987551313566	-0.059235533195589746	-0.034971137311373524	-0.08386905452005337	0.08205209685790678	0.022626949957372133	0.03960829101959706	0.18745308162242996	-0.05405877973289558	0.23235135660513867	0.052030601228449665	0.0394445500720547	-0.07589836108211924	0.2774126339559248	0.18349423364425724	-0.04390975651826984	0.0012754901332911973	-0.13201522548705283	-0.03567333193976397	0.08660111351663069	0.11647178212094515	-0.20707952059041124	-0.10129265075108164	0.03246257686113364	-0.33609395169632766	0.007789933552328576	0.17820927029862793	0.389845192174557	0.41595302465014317	0.15606170331893326	0.03573883452407355	0.17749486730155956	-0.06710628835470404	0.13378287601014643	0.11459929918659632	0.07842004822432429	0.3040550963347947	0.07855741123422502	0.09697318223721525	0.11993800560932728	0.17163639103708686	0.024196990117119378	0.2576584858113623	0.02604173881846416	0.11957034701238561	0.11718958789112682	-0.27048527966672936	-0.036349635902551795	-0.2292405316305038	-0.05759543864767483	-0.15261628773212477	-0.1134834926318483	-0.029874679329064954	-0.09599917043414066	0.16720484073274086	0.09419237040452466	0.2171171246348554	0.1035719680099457	-0.07670427149225309	-0.13070807526862593	0.0776345716013096	-0.15735927477504455	-0.018220786794373247	0.09465318844263146	-0.010393882045581844	0.163494239040914	0.2607906079178294	0.09264824815051852	-0.0044484427649520925	0.1266335722957265	0.244261117658072	-0.028244069136175887	0.11532201107083362	0.0243932712061794	-0.03441090694418296	-0.14865224857611778	-0.31137247344712354	-0.08835042827603504	0.15532865215055	0.15656150739967378	-0.17889331383210666	0.05564011994044429	0.06135512749684233	0.11169503633013306	0.10720242044737197	-0.04402070981551527	-0.03075810369519727	-0.006665625603934606	-0.10306009247501734	-0.11106043741423932	-0.3196578994831213	0.12471801490101239	0.2241108678583261	0.1587894110647983	-0.05249242146959882	-0.23503224557789493	0.04166157774888291	0.12259607503947685	0.16623970951937012	0.018483586135222003	-0.050806890488530355	-0.04197555130334381	-0.30852153380044905	0.18967988881822667	-0.09045140461164354	-0.07273077060773661	-0.04372251977215688	0.061592164232328855	0.05623127223852641	-0.204989531374892	0.05266258180471575	0.030683530575934988	0.21503652974934004	0.19644050121652995	0.10920929442980025	-0.2116560952015129	-0.10876016930147275	-0.17659032570756716	-0.10882362598536456	-0.14834426990129554	0.47486213788607823	0.14032538284727855	-0.26967589819575855	0.03377642477520889	-0.09976344414893938	-0.05868823284571605	0.0383884086119335	-0.01729134376944725	-0.03725016197646203	0.17038225613889513	0.06228147536548069	-0.1379888717395153	-0.16656452330510532	0.029658719411899296	-0.17136031946597027	-0.029419958709337328	-0.04972333317646879	-0.13654904645366478	-0.07658740471702348	0.13858895246917452	0.38913993399072655	0.08147433389494052	-0.04419606210612423	0.03764112215389948	-0.027381536408973554	0.033776597972028095	0.06778958069746598	0.017486780461652078	0.17663857643914038	0.22341633403177621	0.04331776671366866	-0.2856888565535248	-0.16166635381334638	0.18870200129214465	0.13834716576795275	0.050953338666819635	0.12276453744385644	0.22953287178943105	-0.014195923469542421	0.22517841880059677	0.05795732680431629	-0.061975799059958855	0.005216323314273586	-0.1457221580001142	-0.06059313933734384	0.10025259523525257	-0.021003679175226497	0.06407862625747328	0.19931436128528116	-0.041048867546536943	-0.09702248255435031	-0.017572993150675485	-0.076552273441397	0.06058630375180335	-0.015682995913071106	0.18252085094681406	-0.10068810766799867	-0.266503869154976	-0.04197799698677378	-0.06998168357273052	-0.00016743202476269826	-0.07346407549400367	0.08315433744181197	0.00855455216174391	0.0026833395400309087	-0.03256990348050126	-0.022303359151351596	0.11264091628043912	-0.0032169156928915617	-0.049075701275079604	-0.21524429123297123	0.193711951784221	-0.17333818115962915	0.01480466886975731	0.1644653045213665	0.02564213455041036	-0.07050782989140261	0.00939233034125228	-0.13998740100082482	-0.2592827585811848	-0.0085679683890539	0.24069840681863583	0.05592381251610771	-0.05788724100564877	0.13630096304537914	-0.23156599849516535	-0.31157931473961487	-0.07693520729202992	-0.02150862799726211	0.0920705003841838	0.06998143980877371	-0.007715593001719978	0.033700269855289046	-0.156774625932278	0.0214242641740229	-0.3488101075054884	0.2169327188367585	0.07537109881712933	0.19846474632189642	0.23802094507280583	-0.045463650447365785	0.029674886169605105	-0.24074932884993974	-0.2941892887508305	-0.11291172719961445	-0.22939191977345166	0.06327701015699325	0.13828843056387582	0.14706736863637537	-0.19850846410663991	-0.09269547458731336	-0.22081768054830872	-0.4231694242028676	-0.08238536614677441	-0.21818021722039765	0.007394982256994726	0.06509104401203462	0.10912671778104321	-0.03704645138938194	0.04225025871222051	-0.029569159074762694	0.039289450172245166	0.22678380459343542	0.03755283681787435	0.1191434140091741	0.12854655431026446	-0.011502958687129845	-0.03653407164063207	0.05257867019264276	-0.12015659805162462	-0.10662446115939085	0.18760850191318204	-0.20203444686618915	0.04948268287449081	-0.12581539199118913	-0.07634272360984505	0.07712811329628383	-0.017787425456003664	0.1460215572661061	0.06721471899095527	-0.029274685944238814	-0.21347058687542833	0.1745844014993485	0.2617248555636042	-0.0032321702013691184	-0.04766682305372522	-0.05424589384080472	-0.04331180806657792	0.020305145693013053	0.004795780392642866	0.1044356216404815	0.044732688437310965	-0.10763297128063319	0.04198553529442012	0.06318765679590581	0.008436071165871122	0.10860767769399673	0.009293997432816175	-0.0175712941033057	0.022206931342614894	-0.1026555227636141	0.05065828409558431	0.1473547237550159	-0.11527180427548127	0.171255648186165	-0.17973771470673847	-0.20439814748710639	-0.35050593203751873	-0.34446977688054203	0.00881916836426092	0.16833173883571168	-0.1016206125891513	0.03767790945768015	-0.11588516807940177	0.051777155011872224	-0.04569222181699348	0.061593800183044216	-0.04471555256672228	0.10957599275993143	0.018171655108611583	0.03956525254178586	0.07455020628779134	0.2749587719952087	0.21304533384285604	0.05148230166710501	-0.19514767032599015	0.021756550365799557	0.08511658882775487	0.1041308517393326	-0.19705432574627765	-0.0040977413063792495	0.11832124096212294	-0.10597762157900618	0.15946562326472802	0.23026429417191835	0.2296423769862466	-0.06787611343964803	0.05469330719530653	0.01582012402838149	-0.10118972323215865	8.03571714141898e-06	0.022721334000392633	0.041308677971876755	-0.02678114777197002	-0.011606482089678287	-0.004098035002574736	0.09703473911933981	-0.05208261559239157	-0.17209713221112025	0.07043530900212554	-0.18349939766313167	-0.034581315625486	-0.20248131808579123	0.14805416505900276	0.11553581277815757	0.0731019821633029	0.06757968635282649	0.14741246712169026	0.08911518256193984	-0.018627186763199414	-0.17599333707494733	-0.16239358456847813	-0.20858406141979025	0.11959061414201134	0.18204428664743194	0.13308083851832647	0.09846108770961495	0.009558963005650315	0.044774531107644365	0.03159261032061327	-0.007712105853521743	-0.02156461265734095	0.008258724423802218	-0.0395864296838848	0.019505211793003616	-0.046335198792882046	-0.18011989218436336	0.08483492691703783	-0.10316557618456894	0.19516347417034186	0.13138656680850327	-0.07606558619976093	0.07447016368518782	0.08260094499216053	-0.08575956592059662	-0.23227531302518115	0.20280386858906657	0.16322508770999936	0.010090639639908016	-0.2508036444470425	-0.2906998700544344	-0.007209902786991376	-0.11927650322178424	-0.06539000842553067	-0.006460949035311638	-0.0463246869675924	-0.03661689565208644	0.0038127075851337802	0.0033442679799958394	-0.013807759300765776	0.005842117563917774	-0.04962786422853055	-0.012990535490116077	-0.08723476883682336	-0.2553850453433348	0.03276659620983237	-0.13795490747465705	-0.0423264107904015	0.047198362924043835	0.1124122233725134	0.21534669739542797	0.011295573171195564	-0.007198042232692618	-0.10989861888346628	0.020594125730983417	0.06556704159593493	0.11659825071650964	-0.0738430031458728	0.028221091119221425	-0.021816931408805862	-0.130360757937024	0.00422201991872849	-0.03093503115780099	-0.011428835970967118	-0.05088363317256587	0.052823998090928144	0.04891836741954184	0.02739078975918772	0.011026383272839356	-0.020877961639546694	0.04523305757682685	0.007139637192630811	-0.04785100981742939	-0.03856935606164537	-0.016198886234704984	0.06659129789887137	0.00042223206278809843	-0.019480774077791384	-0.027461476631308164	0.01627483881393093	0.05710268095906438	0.022142063936132418	0.00407228279655103	0.12275578268027136	0.04441363336090914	0.03933007488125763	-0.026609996533842106	0.06176861824651241	0.05365118232336601	0.018424042007344675	0.005087962489965771	-0.06056644191104859	0.022850429630857226	0.05646303999001572	-0.028353375779644835
0.033490641822302776	0.0004517512005637811	0.03008380851052974	0.006818017361356489	-0.02602006019407945	0.060275547637861145	0.015737784244191554	0.003240789560976197	0.040204013090886746	-0.025069666344007875	0.053389846842139085	-0.036914423331902285	-0.04396456437533194	0.016475716556825677	0.04558020822230897	-0.03943164349754877	0.055418367496784714	-3.014827194246228e-05	-0.035948353665654326	0.02871060354892701	0.0041798182772207135	0.04994678734076979	-0.015107098640195646	0.023616766811581237	0.004257249247758534	-0.0249622894497361	0.031662748777938086	0.018430810437924293	-0.01182020776034809	-0.022099223395081483	0.05266915274929813	-0.017859716776725938	0.03193458969910485	0.037597966586499866	-0.061185221709506146	0.0012711010791423686	-0.04086693168920546	-0.01995310530895496	0.031495490604795465	-0.03452844491438187	-0.03768947396260958	-0.0262500856276025	-0.016125970885309475	0.052983435969918495	-0.05709909918453108	0.019247296288699346	-0.05578653113826311	-0.0079828854608811	0.04698786056985759	0.022816193842901573	0.03735747289282235	0.03712170808652839	-0.061154864122500145	-0.005258698807312168	-0.003649581996258769	-0.015666941198312932	0.020153467896597853	0.009293584697613468	0.04310703454682737	0.04184292049723307	0.012986410230760241	0.04145854288406447	0.04049035542908543	-0.004675858867699825	-0.005932033150289246	0.016809685169306587	0.03248789098654886	-0.032565328586233955	0.030121638668957503	0.0030861008960671697	0.01916531543829379	0.056188429844227825	-0.04617263806317359	0.058467877283386455	0.035231654912164734	0.03827876477934548	0.022788813508406672	-0.013057926799303768	-0.05786752409688895	0.04413806311499165	0.051277860049044714	0.04109152550534575	-0.017413441992722163	-0.0021413925786555876	0.005821818401130947	0.0233906301595913	0.001204858549005712	-0.024133506284935588	0.027564963738482152	0.01031214733562902	0.01788907549088898	0.025499139803768587	0.0255107583723189	0.002983345021734451	-0.021724147207529167	-0.009272243045069661	-0.009213095846193687	0.05817505391853195	-0.042645547499878256	0.041227627348844643	-0.05604951961248242	-0.05271379638240861	0.01719569616327198	-0.004503655021173938	0.0006810880387190558	0.04010163568934281	0.057006159030414644	-0.0030479179948769276	-0.005226498886913057	-0.0037357705882320597	0.006532763734539017	0.02296817420223076	-0.04566879136864102	-0.007917763903460537	0.0601240464446277	0.017168052469425467	0.053853383938174126	-0.016331946760875755	-0.021205963851009996	0.008589976847875297	0.00805369979140596	0.06339189785117132	0.011634665281710529	0.019218440551138024	0.01937978476199663	0.026041345291954184	-0.0014581970195100458	0.011165162920936887	0.03934982195297037	0.025413493366267616	-0.026936248327603284	0.012229651185744319	0.05329840800495823	-0.04560583105273527	-0.031179547301971467	-0.039500487496100606	-0.036234330087335696	-0.06009753552260046	-0.057801601615836466	0.04775073256742544	0.052784664440749425	-0.012662038690948556	0.03530674005866185	0.029455688457009355	-0.043358760173663434	-0.020732112313730743	-0.05601460708727029	0.0360312940276788	-0.0256255014420844	0.051118551304439895	-0.03344690961386319	-0.009197190575712085	0.06814697671717833	0.042354500663957996	0.05837744354923965	-0.023416730513596044	0.05876676313851067	0.01696958390382391	-0.03755248488674274	0.038872906581705675	-0.03285934991971807	0.02658257798076728	-0.05256842060823867	-0.04925430625907394	0.05554161367456052	-0.05998608581846172	0.003272149133632919	-0.0014947595712809444	-0.01160888305616204	-0.021945936143159497	-0.05909743369133546	-0.030118701884879456	0.05404823528531609	-0.04283018998791677	0.06819097272543656	-0.0006629725734755785	-0.009488533047674459	-0.02722395269007819	0.0701926430480521	0.008905652772461562	0.0026714751750839903	0.016819022131002552	0.028663604369326905	0.05994475922916729	0.07918896049322754	0.029195020937337272	0.04668146355482203	0.03848635461173188	-0.013869934295608835	0.0705530205294843	0.021115311505981928	0.03883501815536102	0.025125971319493755	0.04175670316680878	-0.04406064151868108	-0.02677986495483682	-0.029704491657800904	-0.02702158083791977	0.06160435464180436	0.013253237214538563	-0.010074335658772311	-0.049141101707397515	-0.03140122380547632	0.06917330761921282	0.10761767861887243	0.05848576076279036	0.12125543215169857	0.09277299026032149	0.04501884842294384	0.04667953352441229	0.11408150569505192	0.1106131182891569	0.09184807343985651	0.04113370372874703	0.09991721875003719	0.08764305568714223	0.09472501401699887	-0.016113256234596054	0.06315139602633445	0.016552752637324017	0.05009008473582529	0.0037372587590617404	0.03231798770357185	-0.005057626194145952	0.006817454895267326	0.027861658602834342	-0.05445007296085859	-0.008821559416991765	-0.037511085362311264	0.036980759938040335	-0.018889177136355493	0.02307493553351629	0.05827872309073274	0.06441084128179303	0.06588852310024823	0.1476540113276844	0.0782759023593603	0.08095035883631986	0.06907472423217963	0.13460091265842747	0.03955682812387761	0.10507769143187376	0.09579398584618076	0.02125002386674451	0.03339622026637775	0.06045196764655908	0.07563363935137458	-0.0036959304793571014	0.04928993251170422	0.048535632012544676	0.0025628624738389784	-0.02074126956523216	0.04864560000294502	0.05444879308427034	-0.00995041868201524	-0.017829977214706805	0.035859700907186695	-0.015062832836042112	0.13222342565201775	0.13659701113548825	0.14403008791272395	0.0773102798939608	0.16933066335661626	0.07353565992419256	0.07964863640335264	0.10745963551238118	0.05303908279968607	0.12705375308080422	0.1020042456580768	0.03357984186113648	0.05177065827178725	0.11175349765508444	0.07423801859932133	0.11761281107184798	0.12412265297758927	0.004705901525736215	0.03396387867782729	0.04061464574549437	-0.007460682827976155	-0.01075649872920997	-0.020914069727608585	-0.046706538007819334	0.05850736193672532	-0.0321313961192781	-0.005983441120367941	0.004913623017323997	0.12386890987507027	0.06140076671004123	0.19587948521387416	0.10928915005004163	0.13209300728869822	0.1027455464638337	0.1315701362235065	0.13529350813275448	0.08901060452514134	0.07353172860319297	0.08160157399086504	0.10654677241808687	0.05586427152451123	0.10413303995357552	0.054530474096880346	0.1172427831500368	0.18188750707744475	0.11287041029158854	0.06603812429110113	0.0615807050459842	0.016481935363491275	-0.04308861538843406	-0.03260100706318101	0.0026261341061998116	0.04765607104276103	0.05005073741049097	0.06461742422848375	0.02626822060736027	0.145300135271016	0.16324078930936253	0.11244982821409855	0.08889212700980267	0.18466580965601884	0.1532339015696344	0.09169143026117127	0.07589685449552336	0.1399157593772454	0.1678769595556045	0.10376824674110552	0.13953185799628426	0.1820648629573345	0.17270950770757995	0.17743123113204792	0.10131196215324169	0.11143691442826831	0.16833710947986782	0.10923946252472404	0.07540778962695213	0.018745685662011468	0.025680554817598247	0.023281433215904708	0.036674688477771125	-0.04558201111941954	0.03502659982408496	0.0367655239826124	0.13940665702705277	0.12349580688345997	0.16928066841421147	0.13838612379130294	0.1145625984768511	0.13125046492694348	0.07154456362003538	0.18530534803235663	0.12472340734489942	0.13240090846302852	0.1923524655493184	0.16990614830605216	0.21485017601409756	0.11800146157464397	0.15038830740505066	0.23505211073549423	0.16096883446897045	0.1670435957021201	0.1798936476837516	0.06223029828205404	-0.01660261761651095	-0.013877076560702509	0.01894147333391747	-0.039577220259822216	0.04938179541484946	-0.0019800232118056043	0.05052964635722342	0.009433006675852961	0.09121995328678953	0.16656133966704353	0.1540856443458064	0.17961086740736926	0.2105717490108972	0.15483615816214405	0.230786322414183	0.1610554454757402	0.1251984664720142	0.1748944499037305	0.2772914131344569	0.18170332972839287	0.20573809432813703	0.1865387946733974	0.19478451843077255	0.24573524608194955	0.1568933710242708	0.15260410319354328	0.19459857450918697	0.13258449877910825	0.0012658411413288937	-0.03725974297145811	0.0032092565565190415	0.008745900585588932	0.0551812170128089	-0.0014351114952371477	0.03204901957865825	0.059273870683139655	0.13461638681650048	0.2259668387270162	0.1618067103303617	0.21999685849176973	0.1536860176629612	0.18175146071230033	0.20068664337973835	0.24054198647897168	0.2729163033229283	0.27956460929491644	0.2987207361977112	0.29558001920769666	0.2586200367705952	0.2114669689102095	0.1459543241137795	0.16176486867754084	0.24333451754181668	0.22470054770604508	0.10370319736541192	0.10788258822405093	-0.001987183912788629	0.019502117007707924	0.0049888363834404035	0.034084894407412615	-0.022159907514781876	0.02817830468436189	0.011371997743294757	0.09172371438958883	0.2062888671783092	0.2010401303837963	0.2170413043028608	0.21096631100527544	0.22865860650657	0.15807659088758685	0.23045189754189135	0.16912868800655842	0.2575652518910911	0.2484979465474969	0.22049621810678263	0.16623754601812976	0.2456824628862571	0.12742421195872328	0.1935147659119855	0.13685728340699665	0.14768373299621826	0.19771817272927683	0.18132429662163976	0.1467347618170569	0.08523645130687126	0.06456799998341947	0.046223236492350495	-0.05177121458906616	0.04451334581449275	0.0237727973041925	0.019555248447434583	0.017184290108773675	0.12950423081431775	0.1734087266585153	0.2325126278876763	0.24361908442765637	0.1872551516973146	0.21085642136157978	0.21711832652318708	0.1798253482375219	0.13967010875846064	0.21119330275261175	0.20367611056051388	0.21794671007889638	0.17104106956146156	0.22405770091134408	0.1896102268378648	0.21115069845746026	0.24490315109854183	0.11026120269567476	0.13990346546906746	0.03434947391837331	-0.00518076641525639	0.0019004800904135924	-0.010123003492286484	0.054528312547129566	-0.03637199190737274	-0.015711269251311243	0.005507252799023698	0.02047438266052246	0.11708242933068991	0.1808228479808274	0.10721788072198175	0.20544723660171096	0.2133854619529103	0.2160841845054491	0.11781676563749184	0.1568019225422358	0.1863613731107347	0.14282428459766602	0.14771126505743254	0.18227764999009757	0.1619859623507052	0.11953868066568872	0.16253711060432602	0.2090029198018969	0.11056252871205637	0.1486505442417435	0.027846255498356887	-0.0015349999808381702	-0.024185504784936918	-0.0558628733436847	-0.018680967916986275	-0.04306897986161472	-0.057984644686278994	0.05846617154284886	0.014784123294207594	-0.0046545552695549264	0.04313533711197733	0.05149114972579815	0.12590171093129657	0.144066365764641	0.14251747775458126	0.21377449305213117	0.0930748222108928	0.175332037822544	0.11427276103891566	0.17977069732384096	0.188314856906418	0.13056061129547755	0.19213110196371772	0.14939292204606622	0.14092860673741578	0.11555289304841133	0.05505086421279795	0.06430748926432403	0.023497636507915653	0.01923406195544485	-0.010604979598886512	0.05083942069060617	0.019578630487404304	-0.05021827811917552	0.04437245988378712	-0.012020391760952879	-0.04760678295392283	0.004758249454547178	0.06135256608168961	0.12180904162859804	0.14311979831808316	0.15958566479244715	0.15777569090441027	0.1637128543258221	0.07930042160448544	0.10591887696958784	0.1187339431204126	0.11069524581892105	0.13255773059450224	0.038451761164101525	0.05194365934398259	0.07981807161581497	0.13809712730633633	0.1249691896524953	0.034532984690104476	0.11503693653015594	0.016118974663154106	0.04798873410350732	0.010916629531519883	-0.035596656788571907	0.019476773618959522	-0.001416076474717115	0.025588569068705942	-0.01886927415307503	0.016369610063922346	0.006118451036180977	0.07037490265153439	0.08660696243432582	0.08072989320806023	0.08576147714080141	0.07092647935325584	0.12476616097766965	0.01070588807375469	0.062008882982089335	0.10836631660586568	0.06926500667368084	0.11638200574232296	0.11875412209888955	0.03289894088445545	0.006878698761983781	0.10301288419438052	0.07237029944328086	0.027051109277273572	-0.014943759082825237	0.009766143638284484	-0.03660507783560515	-0.019428398783926014	-0.014481531677567524	-0.0072822062604138964	-0.023359379104323084	0.04048203275593657	-0.027974055705448028	0.049261034095679515	-0.04308204460205745	0.06859989267281884	-0.007343967026633218	-0.005657267275140128	0.011517427308175378	0.028417389043731627	0.021649958199656368	0.040747523502336666	0.02300108172651535	0.010781518945951616	-0.0018461562108079848	0.08383361765568871	0.024788564584861637	0.024095583502502422	0.06527456823219796	0.021715621204388025	0.01896435169992404	0.019299683068987116	0.01063818700521478	0.06251651320753775	-0.03669254190563507	0.0538003646270366	-0.030048931826074994	0.03298706828727493	-0.011442639462916765	0.04193535558834629	-0.03229118115176048	-0.015808751912163084	0.06251367109591625	-0.04639985036715621	0.018224337379470296	-0.003769031771913948	0.03309280522597573	-0.009466018572536478	0.022546714472546407	0.00542426255016914	0.03612180029395834	0.027238012894209775	0.04971512091261274	0.08358530891676634	0.006637648099481262	0.06373047555622909	-0.03278772821886061	0.002897168937972216	0.024372367028030355	-0.020291084118570956	-0.00442976082098694	0.04880719689876472	-0.015146330219136401	0.018785932822599546	0.0020264039112906987	-0.05173022844500006	-0.02409618455078339	0.010119303841176812	0.05984234856978233	0.015476960226670734	0.05466614279366625	-0.043811403850068244	0.010918417261580998	0.02092741518045862	-0.024940386901130058	-0.004847098580729122	-0.002369260701585349	0.05052916941900141	-0.03914159162087914	0.048187653427525796	0.02084177613368239	0.006596966171559617	-0.005002729990107303	0.05325324363017638	0.0012055481133957631	-0.041608096359522354	-0.0053053578742463655	0.035331019185034666	-0.04857741561231167	0.019974382409840407	0.040308765955732094	0.04903625429815126	-0.04190739387220458	0.051705616133978345	0.025517115651120074	0.032098266492423845	0.03410490157980205	-0.030506049257245968	0.014946598016719232	-0.004958960187909438	0.02884374299044743	0.029423295080207388	-0.017206953610887563	0.06024235835356322	0.034405750266189965	0.061494599033860876	0.024177119622638445	-0.04320075780139306	-0.051129419940575606	0.034626068765512844	0.058762547035668716	0.01950292005317407	0.05708320529336542	-0.05423669674745556	-0.011348186896822012	0.059074880717157816	0.016603694758103842	-0.03345193819370467	-0.058406973857847454	-0.0452310661185132	-0.020929367040854567	-0.04751206231183784	0.04978415964501492	0.025090715550949917	-0.00841748467008982	0.041634259492051066	0.04510419968501514	0.030183918369639972	0.017634009284645993	0.04153997977137067	0.008776087593581491	-0.04017637446573075	-0.03999285292793557	-0.05987646812902032	0.04402081881046475	-0.054677113859070606	0.014791165152279385	-0.018129576784958433	0.05060215400959286	-0.03988028066184898	-0.0007859835078265658	-0.038251337981527106	0.02264103579919548	-0.04883928319188113	-0.027051590412788096	0.005127729944372006	0.010518490602847883	0.019291155343801512	0.04444891154658625	-0.04402781837417538	0.003808701189296361	0.036575436255164746	-0.03719003533829263	-0.016477749734998902	0.058319184812603106	0.022162168644791168	0.021580226755743028	-0.04902741682426012	-0.032406666730447044	0.03755821186101296	-0.03888521043580194	-0.05989485731763086	0.02465332953210066	0.061197835087121386	-0.056979101301912624	0.02436762469749447	0.05717520574543422	0.037814850407062554	-0.038883080324630226	0.05278419751011613	0.020331642123044977	0.015386659686265475	0.049840395957055666	0.020363451323467	0.011648930952834431	-0.06152878494269523	-0.04551529334316458	-0.044199712917536355	-0.05040788840217626	0.02116814347083209	0.04317122296325949	0.05258059191070138	0.015327007129527635	0.03611177263542941	0.045543536250894676	0.06069853168919039	-0.009201963976789908	-0.06023188601228178	0.037942460386230815	-0.014447313198327691	0.03440319189946129	-0.04513130036431282	0.025027221838057966	-0.02178833653311823	0.05134595246755236	0.037316025289326184	-0.031880389739372426	0.03589435315011495	-0.006777939050946362	-0.023015098536821828	0.004136183887083235	-0.015003840345598103	0.016228756736652507	-0.040779264676580745	-0.03434104808000937	-0.03368163111832714
0.061035542848970385	0.04214747165510382	-0.05286391022768107	-0.0028091488040124166	-0.04891068688596646	-0.018027704914445344	-0.04609065692278042	0.05920622686082846	0.02867888247485085	0.03939857818170541	-0.022417596712340268	0.05427151381060397	0.03301376472518348	-0.042226408076989824	0.05327412462136242	0.04862625052817226	0.013142094580001741	0.029278105464511296	-0.05167664685949103	-0.040858631272377564	0.04598141119746812	-0.029202082441164998	-0.019104892089865315	-0.0545914501292136	-0.03007547128123647	-0.01180598007982736	0.060856406391777036	0.01746809051418114	-0.006219853400205651	-0.001948242235628124	-0.04337531392506978	0.04780854886044187	0.021066188655031202	0.058861701740779836	0.025954226062300308	-0.0029118136432380397	0.0273428352642837	0.048129254575074616	-0.056274968805324954	-0.016697415647077562	0.04457306732409041	-0.015829528109522942	-0.007702318713904886	-0.034905720784276645	0.02380309564964856	-0.04172316004395017	0.0541660967350844	0.04036777028482277	0.022286876931586257	-0.04560115001867586	-0.04996505216178586	0.05464152983843774	0.04527079625341996	-0.05944603404616489	-0.006123588919549824	-0.01816469383993667	-0.040851240212637085	-0.022238992201071034	-0.060592178248812315	0.013461944402840285	0.055450863362237195	0.006487756219126732	-0.05523771894879045	0.018109657512544626	-0.021743518877426014	0.05119514021213916	-0.053887223019534615	-0.008677136084352565	0.015629109287117922	0.05901113697016256	0.06129305747956991	-0.03703265900690619	-0.02704331742032962	-0.00044053197894732227	0.01839855789483604	0.03222717432621717	-0.053142931958702344	-0.05447540042352832	0.03605161981963373	-0.019920887282350926	0.05286913378397431	0.03825004034177872	0.03652863070433609	-0.0163029878126957	0.0013431784449334863	0.015377684590327394	0.03935187046788808	-0.0021678939205152514	0.04745919601998838	0.04911712322446298	-0.03423531104815788	0.04068186411111862	-0.004097821792141653	0.035509073837655794	-0.020177501661083504	-0.023621403135068057	0.027951722084188824	0.037122961917935036	0.038573850699476685	-0.030337784725017008	-0.010253377974151118	-0.05914136836296594	-0.05883121049407875	-0.02978463592444098	-0.03109065547782899	0.06025932987895231	-0.03275221312515008	0.016030604858882507	0.04440711659169425	-0.025733228429510868	-0.04502139035961665	0.04970022960217619	0.035178875970714056	0.04927914458190081	0.039268211867654536	-0.022263920603148996	-0.0031265052247778755	-0.0008900392904920463	0.011836341933596225	0.05800523022095627	0.04615865343422973	-0.05070896899594545	0.0013607479297899738	0.050173834228062576	-0.002380637208345471	-0.002898782462716544	0.06453646476820424	0.03536148050665044	0.016755655785150935	0.058140050587188054	-0.04822740598759501	-0.05383717026752303	-0.049697563011757366	0.008095749021605703	0.02722289721337353	0.0033142120291597865	-0.04056384476775966	0.05027290120639267	-0.019791412669475192	-0.05982354302847595	0.03908480640403821	0.02697088917633262	0.05859867221696649	0.019675332888130708	-0.020232302499658687	0.04070146139078265	-0.007529749715807967	-0.01107323629966842	0.015778478345781173	0.05801716851621827	0.027728250288271302	-0.04423522434295266	0.06553210196600694	0.014166351192341428	0.019350646921635416	-0.005046633540775524	-0.029836095474089046	0.026619202394553683	-0.01663343655009395	0.01822323997824061	0.06582352424249269	0.027639493804700998	-0.010254115726409581	0.003991148599334801	-0.05654092639859637	0.038413463460582484	-0.05713637679695838	0.05068670763060872	-0.0442971699272253	-0.018066562901705344	0.062140087435693936	-0.03991987275874332	-0.049190006532206294	-0.015099372063363358	0.04396558610055766	-0.03828114836165955	0.03805525029956144	0.06651174603546216	0.04323738888873668	0.03809222807202389	0.0406337974024939	0.01730140437719474	-0.005097047644170178	0.08977698409100267	0.07848588226052354	0.04268534924326479	0.041315533703502307	0.013958401354726932	0.04517405199969556	-0.021325845727992006	0.03384915871566823	0.005297320821471396	-0.03269353971218047	0.04855002846407617	0.0034807762627574227	0.03894728424271227	0.00291218302565794	-0.006693946697884576	-0.013900656637177556	0.02934538752549543	0.03088519236583096	0.027543041112518103	-0.013860920848050746	0.07892669305043772	0.016364928239588766	0.011992684712359007	0.10142675431750865	0.06852609859169409	0.13203174463011388	0.12550755747038755	0.09418263778113371	0.005814374735175972	0.0592156309251804	0.0024089677628254267	0.07438813050679847	0.015588780398040736	0.07539336728351219	-0.022146359188432156	0.05225563900907181	0.03912892684361704	0.03869646778582957	0.05331248739675298	0.04630612412790531	0.033426905067218966	0.016300117311683814	-0.00598480811577634	0.029362358651270914	-0.00013430386381471128	0.017496277020579223	0.03964365272925781	-0.030388835828707706	0.026270385392029208	0.021384437797600745	0.11297765229479553	0.055170945391684774	0.09517084872751408	0.07346636122425593	0.07001049845696704	0.045724821327786505	0.12110328236257256	0.08143670630326567	0.06033300518350713	0.10691163084306461	0.04878927354597965	0.058241140852215274	0.05162231413598183	0.03271120861526034	-0.006283691798264446	0.07373809710150359	-0.04073872552135804	0.05133262745434117	-0.050511139756766396	-0.025735355810214404	-0.018060573083640105	0.0035052017696464858	-0.04432593045414113	0.04519881440059017	-0.024364983887607636	0.10483964070942543	0.10385385150094276	0.11274121449797088	0.16793373648080734	0.20634516998817543	0.11437902399188092	0.06265009551893203	0.15366982127728898	0.10135502807097352	0.12814493840744148	0.11542803634968131	0.14235965682187987	0.10301539685107836	0.046199848672969876	0.07201287103859842	0.1555058461056545	0.07088864409393889	0.05792979666098824	0.043055482095661644	0.06081762998036977	-0.033092236207906155	-0.00380458597774199	0.009409104375905246	0.05355154193015414	0.05986005410358524	0.07086193571409063	0.0469005347918899	0.019316218332600978	0.05384912020192237	0.16662592321711836	0.16934620375654955	0.0985650979624906	0.08667837168135195	0.18320706669463172	0.17424302727088425	0.1307304899015921	0.1532516048284079	0.16712474592298715	0.07963451948864855	0.08448181378353546	0.11264233191557484	0.10977151415765816	0.15177736126747787	0.09852720621681832	0.15355950433038615	0.12836132788682858	0.012627123139383672	-0.03748487468665251	0.013289052664504579	-0.003145655929077466	-0.04455295935717203	0.03828041541097104	-0.028025036018572334	0.05793471403650373	0.05910272830073884	0.0436450268924046	0.1293461684044025	0.12869601000992922	0.16652437676603915	0.15904680929732992	0.09996034718353945	0.04978048745463557	0.07261363489078605	0.12970018720088425	0.07306653262741207	0.07504161913382566	0.1690412321311173	0.17986735737221582	0.14544489038047584	0.11006710226759653	0.18237381159274438	0.19722545239098044	0.19049499415133342	0.11552432294293151	0.053457224602651905	0.010447463532407157	0.0633353347683166	0.052260891343371155	-0.018092695295188546	-0.041142226739777805	-0.024887699945968938	-0.046030526678610496	0.03588756603926612	0.12574549739118995	0.11560822822078104	0.13058973390144654	0.13848454584232708	0.10240087074033158	0.09471915544202218	0.11429266755159817	0.11842454049117528	0.12677379801802865	0.13207040854519758	0.08952167677500346	0.12118885735685678	0.1929109067603251	0.2184311407729289	0.14208219597745383	0.11968502026630662	0.20828012884469188	0.21225896407268632	0.14652906786630673	0.14113279622322775	0.01659238531513381	0.06420740426410947	-0.03762548462991559	0.02562196293675128	-0.05907693620436126	0.049909173267551336	0.03730774277969638	0.042593868064085244	0.12820094649996563	0.15554302038317488	0.14585727962954853	0.20839051870502714	0.08957393724197778	0.14707450166772942	0.11462250507567628	0.14507107655510973	0.16600888175884054	0.19009124391240528	0.20764347532726915	0.24795155504766167	0.1569883573151565	0.2337884732954624	0.19259164243192525	0.19714127013475	0.14371305215266342	0.2466457035589158	0.13353684620851303	0.1034195921390963	0.022252164028046906	-0.03798530541066343	0.01660484993295773	0.03350373986993633	-0.0522304941090701	0.06236689266819589	-0.029986440024927525	0.08636028329730355	0.11812218059910932	0.24513543897403633	0.23366799949513833	0.21290622646089657	0.24280311232925963	0.16678765212570065	0.21611331462023076	0.1756773102001534	0.18436746690421882	0.26381484075218226	0.2970733001808694	0.2773505929918158	0.20310099519632496	0.14916651665979944	0.22411830805678448	0.2482668707060736	0.23677884513693925	0.25251751652758836	0.19299896503257452	0.06472592295574349	0.057845303697721034	0.03208250426247322	0.0057520635543797235	-0.01627704658768695	0.04130205623455484	0.018327702924516288	0.03708687404489808	0.04446591823819621	0.15638990577016473	0.16301415858327256	0.22430795854680094	0.17911134682004046	0.20312167354596836	0.24534475414124676	0.25065948766346724	0.18165764791411365	0.22173247485269507	0.20536595805007254	0.23263765252279392	0.24019974798274268	0.19339197218144333	0.12202280536736451	0.1075139379052384	0.23573957767594814	0.221165594930513	0.15758453748239984	0.16038273415811857	0.13644606887177615	0.0589859969490938	-0.04658912961693591	-0.031236798171115566	0.018701244152804046	0.0320932337546588	0.002973739693495433	0.016705565563007098	0.05616849370946412	0.13287792646877353	0.15064140051807695	0.21346279107739038	0.16556624297259753	0.251892130403863	0.1913364681434049	0.2054818853112194	0.1198103428404065	0.14074229635805469	0.1970909020517358	0.12988041074860873	0.22541466126856594	0.12077281787904372	0.21014602578020083	0.17238156320148745	0.14675810698132738	0.1941686423433567	0.18239923880370976	0.11779427349669129	0.09895530486016649	0.06380921271515728	0.0638794766122622	-0.02904358467611214	0.059258462259739166	-0.010915437695041098	-0.02528198290645779	0.055347964013626995	0.0780307225431228	0.16134659250683192	0.2030940038060817	0.17975167366719233	0.17570103833861433	0.23979197703451796	0.20310873827338188	0.14819265694885433	0.10689136976203986	0.14708392330109638	0.15051286762739707	0.11423691547566117	0.09500558926235614	0.15162289260018724	0.21006060612952515	0.21135088546801567	0.14329826648257754	0.08334881628214752	0.05047754996889875	0.06820869483669029	-0.009566680218882254	0.05379033560468448	0.05015148353060519	-0.058593187866973234	0.047557805801259755	-0.013779797213917493	0.016399534054078024	-0.007327423361744812	0.09006538403347641	0.057976036338545825	0.16594206008192275	0.14843894416505696	0.13992010651465614	0.1494551827339822	0.19680751171673705	0.11759063523558357	0.05341117142908313	0.10157899829809759	0.18113313571963918	0.12041887961433019	0.12793076063110426	0.15198993438843655	0.12700332902791872	0.09905066116855557	0.10821768963854536	0.04979125676795264	0.07976630746498174	0.02238483622458022	-0.03314635699947867	-0.03177047826550506	0.006409010549296828	-0.02297186648063138	0.003491413139251699	-0.018383361886344568	-0.048940783671768885	0.0633221757309891	0.03759061254077966	0.039617098246232524	0.015156074479322329	0.1023550118761141	0.08159529441736305	0.11255456493904918	0.04524871819243665	0.05393235145497294	0.0493670385912705	0.14896671610415788	0.08006268322117219	0.13417514938749753	0.11737647277511816	0.06322245224966391	0.09820288760177638	0.09409797549139645	0.11403144791269224	0.10083965461788476	0.1108878885143371	-0.010553296875432182	-0.022155119195394465	-0.028621211169116003	0.03082088844709968	0.02772759685150273	-0.060411678450805015	-0.012283348845128557	-0.01347537453066314	-0.04704771581330355	0.009626935049763329	0.015796718291889184	-0.003863043199542613	0.07433137156583221	0.07543310073438804	0.13358836744016203	0.10781447383662163	0.10386923595675052	0.017307716411915447	0.06762910910797808	0.11273787087909559	0.015567105139479162	0.010237717250786465	0.06271181335520419	0.05074790160170147	0.03090032264453549	0.0880758030138489	0.05508097706262316	0.031448732017719944	0.06388698533287643	0.0003054095785250804	0.06034603815953841	0.044434840203825425	-0.05323839545232388	0.024562415548878842	-0.03382701054923322	0.03140509671394179	0.024940471034531442	0.007931549115132252	0.06860599033121124	-0.013061181109678102	0.02012316570332103	0.003750298439155132	-0.0019064528652634226	0.05560374987235715	0.023440111040283405	0.02905949154288482	0.040413108095863785	0.1009688978146915	0.0270372686088968	0.05485113571768229	0.10355479347251918	0.08008606900000319	0.045230424312580245	0.008442751904303466	-0.018997788746511382	0.02361453712047399	-0.012123253996807387	0.027043885356729472	-0.0126875257632399	-0.02236048511038874	-0.0007406370377514411	0.004964208009267772	0.026658097975322585	0.04864697127952694	-0.012249075537437513	0.018311705070196554	0.06988605354683593	0.06486927437181923	0.045186953087978134	0.07730362413246843	0.03145934906346713	0.04536598760435205	0.019559962633590656	0.05797720052349373	0.010313691963749611	0.01934965602072043	0.020751643927456563	0.08244210712325337	-0.02639456683716233	0.011389080839114035	-0.03263836985373743	-0.009563869837849629	0.019706145810428736	-0.024438907322766934	0.016668699415295626	-0.002392430872224373	0.024858850143198958	0.0050692862626317186	-0.01210546675658361	0.035801376890362176	0.030814831061968577	0.06099297231357274	0.03072690090773792	-0.01776057998651665	-0.012106837353409845	-0.002495193179004424	0.030094460955497032	-0.0036544784130049185	-0.03582549290917326	-0.026381410309037154	0.04134073060323699	0.006921365917735166	0.04353259075940965	0.06966812164471282	0.01352641067118304	0.014782452785864238	-0.009771449058157933	0.005780070421901857	-0.041324642912224	0.005943680021542734	-0.019601456126823014	-0.02067766588172596	-0.059837253742084345	0.01193908225876831	0.05511602639527745	0.040714235763927874	-0.0016925733986603644	0.03827323933000624	-0.009023546540095975	0.04953816621058011	0.04907153870974082	-0.04832731476275684	-0.028374745639431338	0.015488556513588981	-0.028235180028851666	-0.03708015031548154	0.023380247228764424	0.042597043769306696	-0.021176983574803528	-0.05693833230892104	-0.05710672924330445	0.027109070186361005	0.009335427719339083	-0.049316974055789685	-0.02072263990199142	-0.014049679118988322	0.014265910335550244	-0.0059029423391222646	0.029723122294043086	-0.05091970106975992	0.050315455428477845	-0.026285391000017522	-0.03542024610177246	-0.04373161101112688	0.013904338851762114	0.05908609646320218	0.04118555404572501	0.007906748181974087	0.022164726046199533	-0.02024390323541553	-0.051363621655036364	0.02402659041163649	-0.02020209798628708	-0.017717177918316448	0.06285604854174372	0.04544977858017631	-0.007738662539824603	-0.013037234651838724	-0.03048494245271931	-0.0072506043399304864	0.053185204292216785	0.0122976732898546	-0.03432340663038164	0.020262430730384518	-0.03626636366299031	0.041043420292623416	0.058816653529987994	0.02251845757310058	-0.05394149017092429	0.03914721559323835	-0.021302577071314492	0.020766835225223622	0.02180204157562763	-0.017701450815055822	-0.03727903599617289	0.012458201768493445	0.02400174711779552	0.021532560392667766	-0.0033677949301402403	-0.006070594012298685	0.03538966323604913	0.0699316673026266	0.038090475409549705	-0.043232644159834605	0.060697457075984965	-0.052410369970121023	0.015513303084742133	0.06045338519834359	-0.03166214556822295	0.03955694605411963	-0.0586260494744639	0.044189649954178616	-0.039622819156289846	0.05709254779505067	0.039866012893652034	0.043062722587530834	0.032669328892869255	-0.05278614488607606	0.04949122382540843	0.05344312415757398	0.018607397288458317	0.020193593661111987	0.061031695245152694	0.03384129688448436	0.03525673460428732	0.03200745227955993	-0.004424164248028717	-0.01241379386661595	-0.005498030577147245	-0.039420510872086804	0.04838470720016719	0.056224238861160736	-0.0060860686287695295	0.025953142663380648	-0.02042883740698974	-0.05503245784453101	0.0618565053471081	0.056050664846743786	-0.030901180081221148	0.004395433158961883	0.0015757857010874207	0.019014863879430043	-0.027412429006060002	0.034168888642169444	0.027618255225592032	0.01573959617257121	0.05604422046725833	-0.022775184012741173	0.050844345736243975
-0.019090824184815357	-0.007674888195196079	0.05880737530471395	-0.028661220080880914	0.010077231933331314	0.030926396428113588	-0.036523173682898674	0.012928999804419854	0.024030979969952994	0.04569313144058796	-0.04662599315405594	-0.05327114017819356	-0.02852374623416344	0.019155630895470795	0.03351255493481526	-0.061463624533271366	-0.007268733458218657	0.009670725888491362	0.054664223658300724	0.016543838154802197	-0.022125173109307658	0.019524623044184154	0.016200633602233262	-0.0512064983127051	-0.014472205819210264	-0.03024649087234172	-0.057375914132752316	0.050676333813039466	0.04026364154423411	-0.01461051203407978	0.012944085354888092	-0.002808784472918331	-0.04343934368480541	-0.03677989863001785	-0.03879940001344974	0.05691517707898063	0.013857554644104608	-0.0630360167810862	0.057090184386690716	0.02066480793426107	0.04719346700853543	-0.021531480050642673	-0.035060035197822324	-0.01613697965990042	0.037451886693375895	0.020022509954476637	0.04051415984086098	-0.026522272729299738	0.0571765105881531	-0.008819128021976694	0.03342633454307572	0.023965822582825556	0.047213647720695605	-0.03924323881372506	-0.05918856307496316	-0.0524673006623037	0.010770374854403707	-0.0063568447112600165	-0.04278815139446601	-0.05406421568744748	0.007382967504601413	-0.038562258327392504	-0.04074712070400045	-0.0885116641564804	-0.18800472637010032	-0.20926934123445592	-0.07620202575365072	-0.1088478610729623	-0.0747997261759129	-0.0889890144838554	-0.17959854578440382	-0.025820952433751567	-0.023186636543478658	-0.0015850469915080828	0.016151724380270273	-0.014325540948052877	0.01896756936649728	0.003250019367107688	-0.06092684793128932	-0.00205228583529362	-0.03348606422646379	0.014339472741307653	0.06135160983323031	0.04503855288269009	-0.043536400455787716	0.029923759109862634	0.0030433300092851043	0.038948774520519834	-0.04144663219200979	0.016049611477561673	-0.14543025836747087	-0.08607346999893638	-0.17326278711426737	0.01557072592500026	-0.08074035350606526	-0.1455163148484203	-0.08687992246998269	-0.04179633859401282	0.052072236226488516	0.16333525976491495	0.23169576473217912	0.06571925512207913	-0.03754311528652925	-0.017751885841114475	0.013848781818630421	-0.06916563184972542	-0.13417120150480405	0.006855865138934198	0.04776511432340554	-0.0035147280081318025	-0.023099726074826354	0.03385035173149211	-0.016655094733757966	-0.019550660282630347	-0.019482022251183458	0.03978799340603937	-0.02718198870587507	-0.07292638201707402	-0.0942344393238912	-0.14194245807603417	-0.0758885784351294	-0.025203851640625583	0.013101955820882019	0.29000627673124174	0.1284962131301847	-0.04987595185041034	-0.21314661196516352	-0.09269427265057252	0.00431224545789488	-0.15024810108710487	0.11952194283308215	0.2246755292319107	0.014811110099953763	0.0348530688134035	-0.044964730219712826	0.2154741337967865	0.11513795903842246	0.06548201739912372	0.032005946074509066	0.038112955710551906	-0.003146366429921603	-0.0003945553397841986	0.018935409310113824	0.03552623807354137	0.013245212606063829	0.001349035526224559	-0.03823549667248075	-0.15243593589928506	-0.03448393167106865	-0.040612983599265615	0.02062986231311702	-0.07681133477950675	0.0988946450598487	0.08804418136676154	-0.13130248383995116	0.10205958279907519	-0.32193301426265863	-0.08565502297834697	-0.296626260341007	-0.2441267189174437	-0.19807899725489178	-0.2393585775732882	0.0032968582975751804	0.0818991354735205	-0.1150375273565367	-0.05488600532943078	0.011495161723610432	0.05236451093382289	-0.06168693801231026	0.020978914964022995	-0.09005691653657182	-0.05971305659862035	-0.10719622247053386	-0.12092669410383075	-0.05343058690893434	-0.08274434710759133	0.04030247110604191	0.22949988433664517	0.1537905822377829	0.18051730100025112	0.048330116337663744	0.2258100896353616	0.027696995110647736	-0.08204228461752111	-0.14520176663793352	-0.1541520884747717	-0.14352038635086867	-0.1973342239137951	-0.21883506683637294	-0.30218708556142804	-0.39411594013183004	-0.037810745465674	0.02148439968491988	-0.04145480008481239	-0.03289652562534939	0.015665624573142335	-0.0511718385798709	0.015077262153462188	-0.051977386102610684	-0.0763795156498933	-0.1573685041313175	-0.08855832627976772	-0.17943356898377227	0.0707594790289403	0.14498952114538555	0.1385159187048553	0.2556807648891498	0.17363595571634552	0.21685359919245653	0.19552509984072447	-0.11023643352134545	0.24078013752664387	0.06794200982431403	-0.05415439534364003	-0.047434389246479726	-0.18877728193782928	-0.37258363383834714	-0.36604095085622307	-0.3693674851129416	-0.22121007295531417	-0.13640258466414462	0.02265277543440166	-0.08535060410298037	-0.03454122877041649	-0.010871078778121851	-0.0580545496181116	-0.16214935887372928	0.024192166833233233	-0.00780163387856757	-0.14226651202186347	0.06511874407727042	-0.018623683521297108	0.10604473107396914	0.019967578059436684	0.33100385057628195	-0.025769456905672516	0.1907256783829555	-0.1907472979492893	-0.022662818317645144	0.13969485766867057	0.07053364066119051	0.0818056305458397	-0.04528827024356598	-0.08122153033710196	-0.017107045012480088	-0.20101161192672234	-0.19291684043677051	-0.3026000382062194	-0.33351664908323475	0.15169197426694805	-0.05215268561680944	-0.028299483851873836	0.061460565342867084	-0.12592526696050438	-0.135995783303883	-0.17710465727614264	-0.18105573685927762	-0.0862905094552708	0.13810165700713228	0.07441619668608124	0.0006637900468246258	-0.024747678742703914	0.07834989826547246	0.10991681954871095	-0.10049265393706402	-0.03798537632568816	0.011786379056689488	-0.12326447179036941	-0.01187401189398451	0.09514141167050202	0.2606597365178621	0.2708612604699773	0.3692890916686296	-0.0507696753021629	-0.08448628344441517	-0.09529942334595276	-0.1878637262057475	-0.07697011837198588	-0.14709613689420278	0.0026760512106958063	0.025113578374557834	-0.039892251000287975	0.07618316116988672	-0.2066172698114269	-0.23869636734202276	-0.19162191054745295	-0.19320857541639697	0.33946432271630594	-0.016125742809725604	-0.19683439626706303	-0.12506069711849585	-0.31497254731471747	-0.15539259844674647	-0.07766208316463025	-0.06738719470300598	0.10966234263929345	-0.18805753997721256	-0.01080426347645598	0.11432094722036765	0.4348310670377643	0.6127896925883353	0.5186634422598881	0.29608622336336055	0.028739763599024037	0.04384244182239931	0.04033854619336658	0.00853432613749295	-0.04400926075145401	0.040851226331553935	-0.11777788562945288	-0.026935176450537307	-0.11689326864749233	0.016684617789737604	0.12105954429620137	0.06502036944195379	-0.06885989338566505	0.0008782395699870537	-0.04127580163224744	-0.042974950194855394	0.02586927261422365	-0.04152214582879334	-0.02611011755789295	-0.1901843116657121	0.03588166056952902	-0.16112705541463315	-0.2301856889156656	0.1522149895292065	0.28970995920025555	0.29233530952015613	0.6468235694373552	0.4027266550855037	0.12578635946997635	0.10647193826817766	0.04897686100146902	-0.08972915434177177	-0.04356461652503655	-0.00025636926462390547	-0.0660740175308224	0.06070856077579197	-0.078964859153379	-0.11343790831971713	0.047012511570686366	0.05065326280992075	0.022440824790519346	-0.17179061722484779	-0.04612931678670586	0.02069360259165845	0.06008287833620769	0.05009203385752122	0.024100836394630572	0.0957310200988873	-0.06696002422109618	-0.12708981284349408	-0.166882826678779	-0.26494669387771774	0.0656396549716386	-0.09416969589518075	0.43990170190327665	0.07152443317772189	0.11286458703163557	-0.07401623576645158	-0.19802852541597435	-0.20658539626647748	0.009973912724750495	-0.004442729550791828	-0.016032091568859676	-0.08406209342535842	0.007714647850544735	-0.09907038116966702	-0.03516612572927022	0.09411605604959485	0.16290922988840945	-0.11802017893366361	-0.11195540102076139	0.03770581554808415	0.04223234904176509	0.09573754753403717	-0.2108551322752452	-0.0780624733236499	-0.16721227639819133	-0.18137840299165653	0.021616857435061063	-0.08493983458735548	-0.22072336742458157	0.1315166509091678	-0.008203003388613109	0.17643963696592474	0.06965193907886985	-0.02023488322699556	-0.051000519707467246	-0.22876090856339554	-0.07396317784499075	0.05676019212973626	-0.060412098038675636	-0.06217343186661652	-0.0736000102302479	-0.09123706004611491	0.016684284520879215	-0.03543240894726311	-0.05399942573579078	-0.08518352646657316	0.31196261013818366	-0.04928023526745302	-0.038587795909784006	-0.0067790411747716255	-0.09089172434074146	-0.25936278201656027	-0.1559015246857214	-0.04057205695379496	0.22792063946996416	0.08430691412362964	-0.18850181629228255	-0.07968808738390312	-0.08516408251934113	-0.02757459431151799	0.09147286472182994	0.05290678478827468	0.2582830009517222	-0.07258046193717883	0.03441695173132447	-0.025847998726399972	-0.03955442067477718	0.014814819056190703	-0.23786432049117995	-0.2000927938433949	0.019067859406895437	-0.038563706092667085	-0.28926316359209636	-0.06766145849814631	0.05711090523685331	0.4078424377393537	0.06255282776277152	0.23251985038533	0.06535496311893504	0.41200895137312143	0.21056744729411384	0.46341466320255986	0.026901537344558035	0.09139997054416957	0.15203520455666866	-0.4615467141971036	0.12663295996330426	0.15676627673547958	0.17215532913974763	0.48600853824717133	0.2725278826523246	0.1374717779541787	-0.009189228900564216	0.05925682162764024	-0.067852826577248	0.1366663864065267	-0.11712230998436586	-0.2228013822614439	-0.09333557940615574	-0.2721012512124637	-0.1846908638602129	0.06670736893919797	-0.015393012963134532	0.21506051186310887	-0.04153841707521491	0.13259164365911588	0.21603798307502964	0.07338380823382036	0.060630773789548065	0.006905997317147299	0.18626796652141456	0.01288919937403625	-0.03815400381213604	-0.024194245634532357	-0.30825450140234334	-0.07712662089120267	0.18365970525378866	0.168782467362545	-0.1449282418860296	-0.10182552245626912	0.004783930764409393	0.0033971786517636784	-0.029721086117409642	-0.00046673947430375456	-0.02445870264076737	-0.17423003420805128	-0.07733863800931254	-0.11373369704644949	-0.3955912642937117	-0.2156415895337083	0.1730634263568095	0.170829858170225	0.07584681951209389	-0.15599248386962417	-0.19041790085844507	-0.33958736017321556	0.1453747613378466	0.003464990070336856	0.09934490037700955	0.06668312559680703	0.041264399856228005	-0.025756250987035913	0.04282177704871706	-0.0561295179788075	-0.0007050398288924828	-0.07709557304133403	-0.2545210981237997	-0.19965405412381096	-0.08164751933741346	0.01757650869354934	0.01462517748592765	0.08502845839324873	-0.016205842139415078	-0.15487197125167942	-0.12948086105426704	-0.08951383753341992	-0.05667335485092267	-0.29008625973603974	0.04103391112871492	-0.23773559836098382	-0.11125413052570805	-0.25901403503818204	-0.1271614658791662	-0.0905635395946885	0.11837175235690339	0.1549070937162181	0.39306399584104484	0.15942682341812267	0.026874095423045013	-0.1800265773797352	-0.3311488316271505	-0.1410026136299357	-0.1495922509265919	0.07258278627872798	0.04199835465032379	-0.0349755662106444	0.05309121797139375	-0.009868471014964263	-0.02240826402593011	0.10552520008348687	0.03428163556822354	0.025230359788477676	0.25313492628551115	-0.11688621342160613	-0.09229880431571923	-0.182887272808469	-0.22194618252986084	-0.10981574515972994	-0.07291068120741655	-0.11873578438488232	-0.04755909910384391	-0.06869861208537123	0.17706594622159041	0.3498344806760855	0.16679926729353897	-0.0307326088394046	-0.24605016160937404	-0.15037927980144133	-0.17029905913518495	0.1432500122608164	-0.05274072125763972	0.3283913218512501	0.10989909264967707	0.0017145096338337614	-0.06859174022909441	0.01796094710239047	0.006704012021633961	0.09514618850718157	-0.1697154661581187	0.015715818955978865	-0.0200184435975085	-0.04523410853022428	-0.02072243560400087	-0.026389040414651073	0.02122892861781044	0.006905718656535123	0.19952280706488204	0.020173226731203028	0.04328193410542978	0.1726316329200821	-0.13771534138727134	0.2895195438832108	-0.27135205355453784	0.12886320963365228	-0.19834484380924042	-0.15352864015919834	-0.2236867258315388	-0.15894793455601847	-0.04579869040419913	0.09932148048064553	-0.21078698895851794	-0.0942089684285611	-0.005182840497763444	0.0400004555946463	-0.024743736074508985	-0.00031871971906320863	-0.19675606308412127	-0.1512226570238648	0.24546979552086948	0.12748606413956554	0.16527562651696395	0.06145729412236207	0.2254595607018715	0.20857806652574717	0.17917552729697978	-0.04834499153333275	0.06342470473106965	0.09556642094422226	0.1207643722652666	0.0833403422828932	-0.013991235224310585	-0.05358743190240584	-0.45186831320946286	-0.18328945670965033	-0.040798808608565176	-0.019383844865731838	0.017930224195917183	-0.1123943046503498	-0.1771614419892183	-0.12498603849048365	0.03172177809366952	0.016428790103505016	-0.052183125955474655	0.051751862554556764	-0.061560622708401	0.1806516850783047	-0.12203577249853952	-0.16722020743794255	-0.05846987614451255	-0.011384225802333541	0.15840757262100297	0.3308484440645211	0.029872247428989522	-0.025469388492541097	0.2569581341625223	0.15886297048373568	-0.26754735278369973	-0.17137393573042017	-0.20295619999232722	-0.011539563939488625	-0.09866927687152044	-0.12235981439728512	-0.03290101492440827	0.019879078563854444	-0.11215751881538578	-0.14387481082138148	-0.10872027323601333	-0.037403980870422265	-0.023590860289917193	-0.017503350264867462	-0.01028953790335281	0.0378983120904197	0.07623328383483513	-0.06582830503508591	0.010529722471878462	-0.0025561428473961294	-0.06588297227079963	-0.0241817504713467	0.06928794273249682	-0.0062904682669603145	0.047929167416549776	-0.14786949734476165	-0.1142443369616712	-0.037743616240848724	0.021783160919142817	-0.1973253028180304	-0.15010357969528576	-0.216267954812686	0.14385176564808536	-0.057361890090197994	-0.2062304732991902	0.16151920481155582	0.07653315300569807	0.0580438489922254	-0.0033296645570503472	0.027961050647125084	-0.009647011006093102	0.005346926944348733	0.056663820111122955	-0.05935419524092366	0.08061526523363058	0.003478873402258198	0.06255155634897126	-0.0002510014027847077	0.01189874224563095	0.014811037283089534	-0.029314308673972854	-0.17598613635739216	0.044285930192578954	0.12061402419200819	0.09176503705745545	0.0028597061513712502	-0.17616728517819413	-0.03273903528101155	0.08284272288663355	-0.013160570916798177	-0.2779426858833702	-0.13588935204564603	0.016575275329497853	-0.05100512922784878	-0.1003557172673872	0.049283592854314925	-0.03298620664511607	-0.052544564901730595	0.0447741654595482	-0.04170217914580979	0.056245841503896006	0.0569650604272215	-0.05301170072005658	0.013362973200605007	0.07400466441097094	-0.12285642711561794	-0.20292591651258665	-0.021482846884557486	-0.19514186903783218	-0.06849627730402977	-0.06107570275131309	-0.018106686627553898	-0.053658173999380644	-0.07456719259444192	-0.006700563796892994	-0.11559998248283783	-0.10907225772745249	0.10359877738273883	-0.007938427391343017	0.2092127023970097	0.10362367378567139	-0.027672636699845356	-0.06060274202961279	0.038455771021920014	-0.018763752960406735	0.026077211428863857	-0.0006867103210559319	0.006343812363065034	0.04761018757567965	-0.04717379656970275	0.05979818429290091	0.033975900982621446	-0.06219574363689291	-0.06844346080292193	-0.10947804933071692	-0.11854462600540776	0.005112661399536098	-0.06111052313425229	-0.021943581781892988	0.05566843227353608	0.01820339244947754	-0.00519641254746529	0.06916320767820004	-0.09431988669671984	-0.06733941625678902	0.0421790376730024	0.03938244754683087	-0.03157034692679903	0.0938586005373789	0.0104311605073274	-0.049952653586251616	-0.022711790596374917	0.040966757872035596	-0.04430444054091874	-0.04901757782799174	-0.023941908208810876	-0.02920546934646861	0.06049618136898514	0.025291122128812772	-0.012487830652644832	-0.019363188205556728	-0.05954851118184917	0.04681486496099797	-0.07616022116391104	-0.04966216251966887	-0.1444040828189971	-0.032691602787626256	-0.056276651275347936	0.027005660848446876	-0.009673956530368899	-0.03197903562857943	-0.08102195526270045	-0.06180511632738704	-0.051137670303998885	-0.03745121398890262	-0.02679804544071384	0.03648037810489383	-0.03478354077805795	0.022463331166078897	0.05753033983230533	-0.059179820399898726	-0.0076174739042489045	-0.028303807621299026
0.01962451856770433	-0.0182274970447703	-0.013334445399769856	0.03378769099175983	-0.003680951088532218	-0.0025806388395258756	0.058320399948409714	0.042183967241072644	-0.05860259252570252	-0.05739669879276315	-0.04176925489881109	-0.04160441549530958	0.01664789322669783	0.03399047133730113	0.04411848420855049	0.04459624096169266	-0.03239978411830825	-0.0564539510364394	-0.035578943263367996	-0.014949614214490828	0.03383031990536573	0.02122473890119248	0.04713010632709921	-0.05867011072161061	-0.042283739494471055	-0.033418245314673994	-0.058132478488901025	0.004432995481717862	-0.04624354675945137	0.04642700942981629	0.009110128761302273	0.00012627254892238343	0.048181696628579414	0.0379880415161381	0.019083530597661873	0.053825726783017336	-0.021268786562546566	-0.020278011704491495	-0.018865973263877785	0.041917973019712944	0.0625307290407423	-0.008988882094527058	0.01039371399266633	0.03594416374815577	0.03035748248757266	-0.046437480522782806	-0.04836684917099769	0.0394909868118691	0.013941421154072021	-0.02795074339878998	-0.05809717953691144	0.06107573428888991	-0.004711184693231049	0.04589787547833996	0.04721486610579228	-0.017165255997457385	0.0345462522527499	0.03605004930271528	0.04281875899892212	0.03637903109294729	0.003294037684234953	-0.02921712028609089	-0.024473262095744852	0.08724409048489791	0.021634723931881535	-0.04656659569783497	-0.06599923278891609	0.08306784902973065	0.08125827849242223	-0.06086232395241791	-0.05793286239325075	0.022389237687124676	-0.07195630067056402	0.014164956348276988	-0.037802389117564755	-0.037797961708935075	0.028068884642185668	0.07488772572817916	-0.03491300094215951	0.056731688499624865	-0.01979399438117757	0.05534707619512028	0.05501927488606543	-0.04350022482245382	0.011062185429026948	-0.04726100945702906	0.04274407935149987	-0.028957809451881783	0.050562900661263524	0.03452879111479309	-0.02038968664533723	0.20935637036987603	0.07462681360659586	0.18767347249377633	-0.06954358063470739	-0.05182858587832507	0.2702207236711718	0.09770558590958593	0.07507738050925057	-0.031545059047476044	-0.10984349903901466	-0.09212906917957697	-0.03878588774141329	-0.07194617749009424	0.0659273764125183	0.009603594232107241	-0.0938918179625708	0.018781808521260417	0.0075733549282594615	-0.023310425328579208	0.009146516775889908	0.027994552512008018	0.054071284471013455	-0.052087058494263774	0.027568100424169524	0.031554254086767784	-0.03073005579807629	0.05860761744184374	0.08169906474194095	-0.1411776428101826	0.014255276928844207	-0.0786065570720487	0.006601561733980828	0.2199116210023555	0.043126630647022254	-0.1703836723124934	-0.018528379222992344	-0.0013997982351989966	-0.10405600687119901	-0.24702346444710546	-0.04032311447373332	-0.018321707187096685	0.27084137091475463	-0.046734261210118394	-0.045434427973562126	0.01727436495160937	-0.09646534078922617	-0.03914153541504997	0.0010414229019406543	-0.0022202284862771066	-0.03895403952728167	0.04015592944562734	-0.07558044512142786	-0.04872372237351051	-0.0288211870044129	-0.0007484877495931286	-0.12654519870644307	-0.08689642809795635	-0.06984461166625043	-0.17741076455030633	-0.06931284473220671	-0.04111111246097511	0.004184855120325092	0.10078683275297201	-0.055719254721339095	0.09334306157824314	-0.049582797357153874	0.1928230402337643	-0.11930724852843427	-0.20711232446821196	0.030818288814989745	-0.1333127187781472	0.029016705777233674	-0.03919183709162531	0.13654078284273	0.004378190218291091	-0.04342724518235983	0.020913293060960243	0.02098828285435874	0.056844317229907494	-0.1254416840555069	-0.02370378325446264	0.06492988055159517	-0.13501356427476674	0.02730198804255213	-0.0842164928479941	-0.16009974722077006	0.001664142288171017	0.15302867197325637	0.006928361410135193	0.04305974232676724	0.13934719400136855	-0.07438189057810957	0.32284627826148404	0.10091548917440744	-0.20821761012095172	-0.015528701240942272	-0.1330010925465892	0.09907316595076149	-0.21707728801171555	0.013642754077769565	-0.04141426372032369	0.0016044828497955399	0.055849114363075755	-0.0051983597373847015	-0.03346961085280947	0.011230623231307392	0.05624615929714772	-0.06301808129456213	0.19738726367597262	-0.07431476939026287	-0.31522454005943773	0.022350362835798828	0.11068237814828641	-0.09161327341844139	-0.01882843399204224	0.10337782762033064	0.11966015597049226	-0.10047450537959725	0.22317394026365922	0.04275295168526346	-0.1400117051863068	0.15617238378826953	-0.05694532686267885	-0.028805674071653596	-0.02046949421480909	-0.0725825515215785	-0.21274854787600775	-0.1604304747241684	-0.00917697970783769	0.15487332704857154	-0.0738286885367958	0.008971720283938568	-0.017173183758866548	-0.04950598853146385	0.11930732325919842	0.08667297757098434	-0.02148534001380753	-0.016294515620420565	-0.28028645676405595	0.02257220293697122	-0.14802024192056384	0.00536978045040739	0.007834596519967641	0.14308829234392959	0.30223282353415243	-0.21921429361013786	0.006819957266093254	-0.2533756520958838	-0.0033795183783491087	-0.10383198164625686	-0.2143588405517636	-0.1073732736584945	-0.19642737955181258	-0.0660769620774505	-0.0410793931805464	-0.18290574211441762	-0.005820024267532135	0.03469169878531319	-0.0362198688579102	0.19627726552674754	-0.04101040541398422	-0.05372744651889213	0.11333349644826043	-0.026860728221513704	-0.026419030786332082	-0.11565056173514952	0.27761949063953845	-0.05620621991718237	-0.018587401171112527	-0.00657166972775647	0.03125775247854886	-0.03005031636875211	-0.08550432076009397	0.1516856895808474	-0.23766150181906243	-0.01718889144371347	-0.09572565173317196	0.013542668967456773	0.11267253530366736	0.08087124335895983	-0.1775165053597271	0.15103963243165283	-0.20074776686288395	-0.17421813437415776	0.04800392390063954	-0.23196302199525762	-0.017184310870283454	0.2344283027180008	-0.060344082416635206	-0.026676789050246237	-0.104843847714019	-0.023804691154115983	-0.06952215357337481	-0.011993742968780429	-0.006446009584262039	0.15985581394548634	0.019721623294283144	-0.0027965688232379376	-0.2358953593764832	0.19244568854925317	0.061882419149442744	-0.1126277429341005	-0.08584315157041567	0.022990091109425438	0.11163748559316652	0.04313066036937705	-0.12883047413697338	0.06579116362664596	0.05879511853477418	-0.15481079697313835	-0.2374614250555944	-0.0516484893969812	0.024611775087773957	0.21867133310825201	-0.10381751017267808	0.02041211978119225	-0.0778606703747353	0.014528784048650385	0.03353213510779076	-0.088899370580375	-0.0302511540003583	0.008530117395682695	0.10306124227327063	-0.047628824536291886	-0.04863586854223056	-0.19974341433188536	-0.052625138418099196	-0.004328746210418997	0.16317464806990484	0.034832454660163346	0.013801711942081022	-0.17748546202891188	0.13379561745011212	0.2305569712465341	-0.04314671131718523	-0.020867384417013416	-0.13467596563570963	-0.21740877788276386	-0.16087702622269037	-0.009369589513325316	0.1008976687622663	0.06213787133440354	0.19688736550215905	-0.0321790327324364	-0.12066712128970267	-0.041837003661148155	-0.1102301753798948	-0.26016744946751025	0.0643435467855527	0.2777852972424351	0.06840330045009568	-0.0028060311648885655	-0.1933675752510693	-0.15985386333285312	0.28700247601003265	0.16002778177316374	0.02988948747868703	-0.0223843018176437	-0.056281684176215686	0.1536252955979672	0.016315147673909215	0.17185580333035194	-0.023526715550979245	-0.1823152371174362	-0.23153728349440536	-0.15623903262761407	-0.3614366331403259	-0.0021806049691869226	0.12954541966987346	0.23306046619944232	0.07560363319978576	0.19095317938511194	-0.0342966311048712	0.0484633433554607	-0.07251960651270188	-0.018317371953938327	-0.048031821825331555	-0.06704866910520789	0.10265634874393569	0.06161020126631311	0.07447596350369247	0.026586413444120348	0.10175090206653639	0.18536270147227057	0.09972075137781075	-0.03843945312884677	0.20595316654338927	0.05620923846052851	0.10483791888247837	-0.07880234478348656	0.014256985211758813	-0.10947957870421829	-0.1942874174372284	-0.174318105501346	-0.07151554175228587	0.09650635526821542	0.248441669320469	0.011166932049705989	0.16423266775311046	0.025538271663906258	-0.0660744042345844	0.021678020490184143	0.061308084690248434	-0.02663689822059661	-0.07637996155190639	0.12675701813461665	0.21924813817930777	0.049676205946950915	-0.06263886149367622	0.12906535584317425	0.018400728512680143	-0.08332690428594695	-0.08269361186028366	-0.03880839725963994	0.005316070615606309	0.16977552054585746	0.024698401307177854	0.04008661071716237	0.10195505541662211	-0.11937347308692713	0.0895471420477217	-0.19960909756570294	0.024402761091530892	0.05637095641050262	0.2546415489165047	0.21646095303815813	0.186843121927303	0.1687979767545661	-0.005539310467140055	0.05089903027820052	0.042863791137709994	-0.018962049757159472	0.013037392308270326	-0.22964021342352223	-0.05304139528671401	0.008224451912233883	0.20307887552476833	0.044453432255773535	0.09694562446592689	-0.3700865307873976	-0.15388615736241842	-0.220426070110618	0.27074938085133704	0.13009342717423342	0.29547643740043145	0.0841359116505879	0.08232191545102861	0.08815813492671028	0.04721070331444807	-0.027894277361036873	-0.18606422736280065	0.0871313765039569	0.2596015467344333	0.11882035791546318	-0.008244299275104432	0.14665762576257008	-0.005441615172076436	0.027558324423173818	0.058897714613291	-0.21460904850797743	-0.18383281268562285	-0.06655653200329928	0.09279573343989793	-0.17753277688668015	0.06090358950904906	-0.13957810005966148	-0.17338290714093585	-0.25726045301477196	-0.23129008711357243	0.12234060100879912	0.23618506629409525	0.3352844187518062	0.015827206670833274	0.027363199927649892	-0.07088593854920971	0.1335362765058666	0.013311577965942976	-0.06642184352269162	-0.04065550117903225	-0.020540845864083432	0.09733534924062527	-0.2187334392067052	0.0016939317369692238	0.00015284927218482395	0.03124754152346887	0.0450770240625162	-0.04511396318925978	-0.011317339284868675	-0.03335273127369207	-0.1753146358169971	-0.1743059828311384	0.03209961906731623	-0.12115566023177035	-0.06015041727999117	-0.14017410853197293	-0.08457334677969505	-0.08063326722295601	0.02786360932504194	0.0720177118667257	0.01342074255843895	0.06452733093879648	0.025038444256924357	-0.004045968931770109	0.06408676180116447	0.005995321184193001	0.1541041433972513	0.05333485261714395	-0.025353785645727146	-0.00667347705254579	0.0383887899089587	0.12285977343175974	-0.0430107507767671	-0.1346859339206753	0.013694493614142399	-0.1101109291766089	-0.3087241631477737	0.02256230798553704	-0.17508965171163876	-0.3040112310234418	-0.1276316363390694	-0.05550819434547431	-0.05000197531555192	0.06358425886960237	-0.18132904719137471	0.12383739232494251	-0.00036266432973865447	-0.023429075626145757	0.06660841526207602	0.05955907211217633	-0.003672055832333145	0.16729447196666664	0.1177427984221412	0.14555369919109343	0.13288921354858402	0.11192218602060976	0.07234952408836076	0.16581275301876555	0.056181351467568294	0.26107674026242284	0.09368002311760065	-0.0037738435037951612	-0.02880518831591644	-0.02044777216199308	-0.19492983142166218	0.04394325220503669	-0.1020067246581405	-0.27642422923366294	-0.14062975800373717	0.080909195868241	0.05272128043136258	-0.06884712908892715	0.033068588414948405	0.08611668089821409	-0.09299751347142518	0.028528416762384406	-0.31714375973835335	-0.12002603869290276	-0.06449109357517195	-0.1472192602779384	0.08642223333111769	0.09650606473553358	0.18839748255320019	0.04492991726699039	0.2518775174383644	0.09955223944443534	-0.12752484398992128	0.07541424799597057	0.06194101512084414	-0.0071086931451417165	-0.050774422691232196	0.0341139689844371	-0.21034940127850416	-0.05552230485903256	-0.10877408828972442	-0.09907966024599879	-0.08379704380332079	-0.19647633016789046	0.03500608348034199	0.06722062868664865	0.056900718397971554	0.07022515786367681	0.14991447015708062	-0.12536075881774447	-0.19815579724560523	-0.30358099212696604	-0.24420218939343002	-0.06145264361730596	-0.08702223395025607	-0.05000185752241755	-0.043408541611805546	-0.16756451373682826	0.0014025630615714852	0.08775804241375547	0.03799215735116274	0.15460068609831118	0.09609278201274095	0.07106063040529624	-0.05795733726691801	-0.015366371310802658	-0.08223155497120464	-0.03226387732420334	0.03429980988279835	-0.2891900936148035	0.1531336128444814	0.20266247736066012	0.2657595742519718	0.05046526184392589	0.24204898935439065	0.07124717322096237	-0.13323184946550853	-0.026798344843462253	-0.08034137628488641	-0.20786009842127737	-0.011454902034174515	-0.21885771900959924	0.046075181326811945	-0.2385729298853	-0.1995252883710082	-0.0942117185802201	0.08986348942933983	0.1090290956507105	0.03726344799517158	-0.0546564958398857	-0.013695853525093829	0.03322263097527228	-0.027602055421604772	0.02617821238723602	0.04820517579668026	-0.06667647645478925	0.178780744269566	0.11713184459737631	-0.012034470098091924	-0.15142116770342015	0.07785314099325458	0.11964943694840781	-0.03972462587950267	0.06098733714221328	0.0009245019944465486	-0.09456013832128578	-0.038134517845283177	-0.08265677587321775	-0.14350828350404837	-0.08092863578212726	-0.2534104756931662	0.02186588523307757	-0.16239743336199028	-0.013821609102443037	-0.056822093760571984	0.07297070613813447	-0.050283481377301285	-0.10694096153516526	-0.026560807525093905	-0.053930944205969514	-0.021356802613322276	-0.006367430238887965	-0.059347409340136575	0.006359121803600341	0.14034077938842907	-0.16495240556788873	0.2089495015752836	0.03150660254167692	0.11854313686946	0.09300958729340733	-0.09672442638509021	-0.02561162585698099	0.019827315835181752	0.2051511809480687	0.06567327569023813	-0.0771568856395558	-0.045167691825640274	0.24810933395919285	-0.1613725491489164	0.0018640875083888058	-0.1587700263885123	-0.12248083000490959	0.10336301598781734	0.26297391878836784	-0.08408407262024688	-0.07869703743736996	-0.0373765682825565	-0.0014488408994824606	0.05070418261071787	0.02602507199669512	-0.008158157791835813	0.010125080138695081	-0.03286173890197249	-0.07833621001694688	-0.06673544884052052	-0.09985768223989684	-0.06602883964328103	-0.09102709752776818	0.08316326110776401	0.0770152095308078	0.030090527271488615	0.03500846740124973	-0.06491220344994472	-0.16375808912042467	-0.013112586141612297	0.018822340113124968	-0.03616771265314407	-0.025075110046738465	-0.06677490804502527	0.0652021772757342	0.043050270944364394	-0.09667134987982486	-0.06240057269464092	-0.06872296703856833	-0.00479492180018147	0.0017096487149656434	0.03828116711111749	0.055874482092778226	-0.02782093852552376	-0.055965522850102346	-0.06446704075333305	-0.06203684723933309	-0.1020574831174336	0.0247306000176596	0.06998226914961361	-0.128381348327154	0.03321516569611037	-0.17698151849252733	-0.1877917318537967	-0.10209347878922258	0.09551613613456547	0.11963759436457547	0.02386152289338553	-0.02592996400353247	-0.09606554913435637	-0.0365284286047585	0.04423845837637821	0.03364330953917698	0.02098099701604675	-0.05344445192507803	-0.04824752514830402	0.04875759794850725	0.014647294392136918	0.03011620804837347	0.018949326322153313	0.008230458491412483	0.0013854658602812167	0.007706639418393772	-0.061898455241619126	-0.04373634592786144	-0.0901318266490904	0.07619118280421527	0.12248658928913757	-0.09493936995670267	-0.08821111858805969	-0.02278848682539472	0.03500278610138853	0.017415271502698663	0.29067453858061537	0.14763094687804684	0.20457918666136976	0.16064877112599238	0.06632018645128035	0.11995162337540406	0.07628327374267715	0.05295029100997031	0.031073736111291012	0.038164980091595406	-0.01389882505939228	-0.04998444879691442	-0.028428003592549315	0.020279879155262574	-0.018237868953951346	-0.008239011418443784	-0.026067986315037928	0.04533521281685544	-0.03116057210467103	-0.003265851899291905	-0.043654661451817366	0.009014727560865965	0.13050401319576316	-0.049281966213387374	-0.11882430187360468	-0.009087419668928787	0.04561191257251181	0.021287678172508186	0.000479768615991881	-0.025784658476754565	0.05278389105023994	0.09798913977991605	-0.014219907251072582	-0.01569480366127927	-0.042688207224084104	0.008702482470131147	0.05382419573639704	-0.03660870462468296	0.003137090822250811	0.053570053086800525	-0.019697953920997782	-0.0015610400002356029
-0.06040158395046856	-0.038111843035523396	0.023361232191524688	0.02928284944380339	0.023696622711948716	-0.040761322829160576	-0.003906977741170957	0.06134361556366349	-0.03684996949243048	-0.02873097055573057	-0.048974367458681715	-0.015865945717395816	0.047111873453560195	-0.05247099209381274	0.010122121632464003	-0.049426418654896026	-0.057465527259423596	-0.056059642245701626	0.007488957480751214	0.03383270619133134	-0.02839595497159607	0.01899644759783916	0.04950985529366291	-0.056863491055731095	-0.011404344408716093	-0.03360643035537314	0.026094973871908435	-0.005442719161899021	0.04168202948798689	0.02224694979007185	-0.052056196916553554	-0.03758592141585672	-0.02804576782052498	-0.03296987160210649	0.020439171245416908	0.016112243412913434	-0.016672925828793053	0.06222962318192194	0.041574396010439316	0.03775057382604687	0.03165031896419406	0.048635557301811	0.06067522140696504	0.04610566507953625	-0.029685826983800505	-0.034056162178152036	0.04746211980294806	-0.051926519434194664	0.04789632796543911	-0.019294599913503345	0.043936496856164846	0.020866114520539374	-0.02035742757464034	0.017760947886787996	0.007970609345488232	-0.00019791199544903076	-0.04594761630642408	-0.04198342666110705	0.058922470350374574	0.041727616286996984	0.008158044875668562	-0.01447515738873034	0.0489245611290708	0.008565284158342732	-0.04370572508698782	-0.04627208556833123	0.030997060487558098	0.05328494632951002	0.01062264264773134	-0.04654855659180814	0.0126449624110902	-0.035173835462496375	0.03157905072501261	0.03786968300667381	-0.012484677197245627	-0.0029236821251618036	0.01954422285301057	0.056375760232681635	-0.04428567814100787	0.011093910298212405	0.026525609061482068	-0.03434403801167066	-0.044293574968913736	-0.054077438535903105	0.05713820318720227	0.011082815636974906	-0.04743338456487815	0.05310562218512405	-0.04843624787427702	-0.019384640023285233	-0.007772980347454301	0.026053238882959392	0.045254603685336806	-0.02633261310035457	0.022709081956577472	0.049988097452335255	0.010831636306001835	-0.039169188273375	0.04281638205136197	-0.009342141519746019	-0.028972750697513375	-0.004599696732750152	-0.029081826431195057	-0.05320171292432465	-0.03932932540991085	-0.022018619297806487	-0.02766408729257988	-0.04892163429990704	-0.01676887672595526	0.026369250327295347	0.03217739925258269	-0.06030964169247804	0.015274054139313008	-0.03135682033999379	-0.02486868472192355	0.05131169533539711	0.016094576849683278	-0.04533985548294709	0.004911458415498748	0.05952761928706026	0.026530984899014648	0.02925453409412059	-0.038830103069368925	-0.009515489258185775	0.057796051412861	0.010273046485007119	-0.0012320173581191252	0.026053098674890952	-0.02622243725611506	0.015327182934878933	-0.04430919410018837	-0.025010716357438612	-0.056947228152661816	-0.038602869787316745	0.05272342383889066	-0.010574630857435553	0.049401603601254146	0.05790898108008495	0.00512128853657557	-0.05231383379029861	0.013606979041695007	0.02041922198464096	0.057127459822230116	0.056346940067946376	-0.03733150122654283	-0.012819895993615457	0.05974793144950013	0.017763718929457484	0.007752604543123841	0.021405531570900097	0.06761605044081465	0.07309622436962888	-0.01736492356520453	0.03423413611270222	-0.01465718052527679	-0.032017674669042845	0.012728528931488596	0.05587283362357429	-0.026555542723410472	-0.007079408759505365	0.005553943955908663	-0.026528577400554955	-0.004543193821191024	0.04776681203929516	-0.04071772163088435	-0.008274870436497671	-0.04689601199041662	0.03483498769586748	0.04495526260621913	0.0355081476234295	-0.021504620921629934	0.017398373755992888	-0.03194486964640314	0.005440326242501781	-0.044661092981567334	-0.032934050286978885	0.01164769986709345	0.002910063772589609	0.07985079162559962	0.0346712513359964	0.040552496367401	0.021976418660365427	0.09091187315383911	0.03916490478211737	0.06300865417526791	-0.030810304549305847	0.05650538924846275	0.018524709681126048	0.05253132663186992	-0.033216915751061886	0.027672678309275996	-0.023568690942833127	0.017868697231244988	0.012703733504464956	-0.005635832271742728	-0.01934316360225495	0.027390804967493874	0.026132329110716036	-0.03536410342023915	-0.0005816293441602035	-0.04446593183080678	0.02371279446097725	-0.014050764454193345	0.06730182610397957	0.02752340758120254	0.06063180581875934	0.09653401676695997	0.023154617808450517	0.00813952015008622	0.09022628129694105	0.1088459248748177	0.06090626541968106	0.021036071566791967	0.050678772069814436	0.008951537305768918	0.017947295927086205	0.00995519756317955	0.022601940742342733	0.04336627930847208	0.049379495052052205	0.01785988518416962	0.06476276022145572	-0.020058593272231567	-0.060886034683318456	0.01965180847679491	0.006519688680650516	0.041703336091677694	0.03677867099669901	-0.033283256780585434	0.07539033055327989	0.042261442989477205	0.04527034833666144	0.09675905568182425	0.05601851034529327	0.07136658141793045	0.13756867713972792	0.14467341826103927	0.09097216515929402	0.11301298548588218	0.10324859204469802	0.11143394534573085	0.040487337937634135	0.1239109478550623	0.06769232569278472	0.07358545463157397	0.03656811394535946	0.07108979155109293	0.0015628232343645836	0.036195931966895134	-0.05196774241927377	0.030678560289515162	0.00229081990056456	-0.012032325156049482	4.9520718837335705e-05	0.010679526993312214	0.054104956412091676	-0.0014220119728915125	0.005677710720974697	0.04778407259310527	0.08574377799145311	0.08101280200666035	0.15981207997058527	0.1572996173843916	0.12560846108817317	0.07917573899533739	0.1034650325307475	0.1319552477604485	0.13647321750008984	0.13557784361213115	0.036968443579354485	0.02334985990625929	0.12094708138610466	0.04898556784438395	0.03043244099710131	0.022081002585851793	0.044039457291931865	0.03159321900131853	0.04346276779953788	0.024517755460908775	0.0122618967971376	-0.02256340481528564	0.0533497513597761	-0.030442223116555357	0.02396033526617079	0.023894057134744177	0.10500748448848647	0.06716131532522408	0.12573867945509512	0.1060190614704432	0.16525018491922383	0.08483455308181853	0.15105209212937606	0.1560654254987722	0.06712531317206938	0.06737506299173292	0.07307630711531098	0.14833425292983898	0.12888026089296528	0.04353848784884558	0.08722407335388678	0.1116061232941559	0.13730117380187518	0.06781696405290821	0.08263066768965997	0.01770778591803375	-0.019364955603632137	0.026317375847552116	0.01026317459483	0.036253178810241475	0.02701172890814567	0.04295827619569935	-0.00037150112355241514	0.08123942609173035	0.04222189596428286	0.11381706062514714	0.1851761210620859	0.14784358525406824	0.12422176611863311	0.05987555656993886	0.06872605721592254	0.12895945654306193	0.12181500413557024	0.13697371347331283	0.1975536925660121	0.09681913258096468	0.14238348573211138	0.08554948614782773	0.17189122930441528	0.1391635004194513	0.1148103039189008	0.12312828667510092	0.13797293787521978	0.09134786154257292	0.021117170505201014	-0.05065665926505129	-0.04579240057441672	-0.03884662064379254	0.04093995495922097	0.04988715902251092	0.025441330933679774	0.047153990234474405	0.14336123073920154	0.11906666680032343	0.17905830942952983	0.09275824544745716	0.08183678964539814	0.04417580894429106	0.11324919357432596	0.13927231272995266	0.13967091176349034	0.12790446826772595	0.13368255900602724	0.2060244580508089	0.21727457216989138	0.19673925005378118	0.1658647834287659	0.23153725362832386	0.13399674861226357	0.20561722148685216	0.16467088597264345	0.08406643632665534	-0.018765395138903077	0.025035223311011875	-0.026590299564492322	-0.01220270967564615	-0.0044348710495190225	-0.04984537276464085	0.011676262560405088	0.08167055417416651	0.137219491538578	0.11357909589156191	0.18123999346859712	0.15528790000594067	0.13143647687212798	0.12629577614908086	0.10812716467242406	0.1864331018614441	0.21110499211505174	0.203354224551678	0.22199241549749948	0.21633522484287598	0.21041096704115791	0.19005850652654252	0.1808987387041802	0.24771213988142335	0.1579432393560023	0.16675564454800818	0.13426132098907095	0.12828282169558744	0.012169123028814644	-0.01300795542949978	-0.00022168835116988776	0.029608237980648135	-0.011981765241776153	0.04339363198315398	0.002430872633881546	0.13733038689568633	0.17468852319394623	0.13312541776388442	0.2593854583650505	0.22064188858632608	0.20246046712461233	0.24290145288552092	0.2306751912110191	0.18937502090172567	0.22780294603980414	0.28695311449114763	0.3419552597798237	0.2604456757007872	0.2090639314036056	0.18705113038222293	0.17335517307602985	0.22396919551866384	0.20300215048722553	0.1807161459459462	0.10287164417468696	0.041130339446172136	0.03724526762792661	-0.0004387723798117278	0.044672443684342276	-0.030392697458060433	0.04433588029337328	-0.029681662815417995	-0.004166406239465609	0.029386564819264677	0.19752331524185046	0.15400121506112469	0.2687626760585099	0.19667078696814988	0.12852578289450187	0.21568932257753426	0.21079619617764925	0.2590579193570206	0.19100475138821685	0.20874128437657424	0.19339733685234106	0.1918343200496726	0.18199681463226253	0.12830041682560442	0.13933114624156231	0.1467355726165092	0.17253468443142445	0.2498021832637975	0.1951089723508432	0.06722164412972001	-0.01144070798457439	0.001929647083860158	-0.016125487738515753	-0.054470633106069	0.05644176676600872	-0.0127993898163254	-0.01328900566229047	0.04719046295672746	0.14409746999078762	0.13383958808462845	0.22611897378012796	0.23444173387363237	0.1558169462202311	0.15708218584370712	0.17073125040907403	0.22701932456129625	0.18994237928810284	0.13626312272230748	0.1822461497753892	0.13248055084857144	0.17195849043782857	0.1783743275580619	0.1968150850598552	0.2485449776398874	0.16019079790477941	0.19232276506818397	0.07136737246582953	0.09629802561345509	-0.010972716118096098	-0.0037677777933531023	0.004031323031294797	-0.029854658763897958	0.012327063746013988	-0.031111535168485485	-0.024494530105171386	0.07729426069553053	0.09813923500489272	0.14250046162021637	0.10804051330160265	0.1883085069044985	0.15307081957781826	0.12863698734970733	0.16631551034531708	0.19989018965574762	0.19923151406553388	0.16946082721151998	0.09974096248594537	0.17805149968044692	0.16510482124452402	0.0894542156896035	0.21058317767171658	0.1648333171377844	0.19625401596836428	0.1329921783316959	0.03323921276131347	0.06912261918532796	0.00839755133764758	-0.0009270962799116975	-0.019180732129870533	0.05791834370779549	-0.02530249111498063	0.028832658780426065	0.05009136585905287	0.029306761067351743	0.06242669237144422	0.09384600538645227	0.12457071421545479	0.08443255779322595	0.1923018963919748	0.12557987259423536	0.16730843465372802	0.10741209891746337	0.16144134842483648	0.10881108846403456	0.1510093697335467	0.11990703495800967	0.07018517336593023	0.0930389806443879	0.13548385269564947	0.13574447602982379	0.12265294945210423	0.11345252889675025	-6.705016183205264e-05	0.03416131063453619	-0.020715246371102804	0.04242659341829082	0.03262770294583968	0.013375704064923465	0.013576624579886808	-0.03566128335569384	-0.0468157584657254	0.003498275623232684	0.04630313700320742	0.09464200891656828	0.14607965275825874	0.05668375804278787	0.13290551013335758	0.05742601330690483	0.06339677551433416	0.02522259668101029	0.1220688519198172	0.071141699567389	0.04983302518177227	0.12769314394302764	0.10226217554118754	0.11086046955881637	0.10537290310741002	0.138141201718234	0.07438363260212978	0.09031721344804634	-0.004773617050062043	-0.021892937872147484	0.04267744731845011	-0.050393862458337886	0.04407804987478857	0.01856507722706153	0.04471207260360672	-0.0008192230970313325	0.02852399921655989	0.038819347797929754	0.04560314472798338	0.0025050445199170978	0.0446719215596747	0.11319181123548736	0.08879555177507273	0.1282256602703552	-0.001127041098061336	0.018986451272078115	0.09469306841495596	0.08116068037494487	0.009243602046889857	0.058064389862288714	0.11881589780969043	0.06808401427056154	0.11445058270499561	0.11774697677676844	-0.022280166265900556	-0.023703868931734835	0.0025119919578381247	0.042371774265351346	0.0500734654461957	0.05178038741269387	-0.04608361238506301	0.0008982581827956873	0.03291537099662737	-0.0171870078132725	-0.05693018851339331	0.005414366413367053	0.029555920779485944	0.005303767555606272	0.0534811051527543	0.07546385620282181	0.07888909172777361	0.09005816904784877	0.00677285778127094	-0.007876817544249225	-0.014194937927695703	0.05810163704464853	0.06595869433624749	0.06532677822252522	0.01165364065178339	-0.005396531135393066	0.03255886746378281	0.047860642312010704	0.032920410785871886	0.017030814682614498	0.03893570007946936	0.022579756233558422	-0.04300361550511833	0.053702177332413135	-0.059164863178177096	0.012877758468339474	-0.016629619070313663	-0.022765484252807545	-0.0034164376501974202	0.026608667588208044	0.022535658966381863	-0.0031125593895519536	0.012854243263556686	0.03486760391798112	0.08056889916382795	0.02564022573308666	0.057846535127896566	0.06943756252089606	0.04385622310870783	0.06834414420630579	-0.03435482954038959	0.05704303244482407	0.06360068958723801	-0.04451032262016	0.050894902350653075	0.0043905394898283165	0.040506551020712246	-0.04643535376490647	0.046863386417983995	-0.060772121114824024	0.052079043207423854	-0.004512053859483588	0.03148947850984785	0.041765461713761394	0.05171859040634579	0.004489628408912202	0.04141777320265028	-0.05280149851318031	0.050696840207794795	0.025023425322479784	0.05683788781197437	-0.035285109047994145	0.07209360637326079	-0.018423509235108777	-0.0003782658431165413	-0.021164134575922082	-0.03754997660040337	0.0015650143292008012	-0.01097175948694637	-0.04893997366022886	0.03230442622169991	-0.03652966799832713	0.06302879673601886	-0.01168917209103585	0.003902993809184482	-0.023860664437350736	0.035995910944022866	0.007574283913501408	0.017793024180986525	-0.037197865770633984	0.035514323243299915	-0.04751386032620114	-0.011059413522569457	0.05291580703993334	0.05880750317426268	-0.03856839508290109	0.04242072965711122	0.018546063162467676	0.0005617719984289503	0.027942532852602838	0.06735927555582753	-0.04659954542519521	-0.03179372431037708	0.060344575285882586	-0.031674449031425335	0.059912015025918516	-0.029562110302981916	-0.015007755573542737	0.007812333806874026	-0.010516784792435858	0.017236201433259733	0.023147362397763944	0.03847453216807807	-0.009963670196200617	0.016072068213081846	-0.02538050911178645	-0.03202560884982481	0.04925812831492445	0.00541294442529789	0.037791780198879334	0.0014375568363406768	-0.013756558897398678	0.01755065219561559	-0.015017694894213153	0.039201646002663196	-0.017505153846551186	0.013184188582074707	0.010192501526337733	-0.003783209027262763	-0.025507686266095054	-0.035089964840090096	-0.03292351197717778	-0.04234019605838115	-0.05355578036281053	-0.017974408073231984	-0.00916508025326237	0.010485324324404592	0.028031353203536263	0.05574611245282652	0.01899106423087656	-0.013102782224011839	0.014809219440771392	-0.016633783495949947	0.011535621497866626	0.03810159523998546	0.020475122291821198	-0.012543454772144746	-0.017240580344481553	-0.0012180089192392954	-0.016180224452137626	0.029869085290393206	-0.00897036226741063	-0.05195588039074544	-0.010096495702703354	0.042908517617938256	0.015077749735960037	0.05368964218398906	-0.024088321179154243	0.0472722369045233	-0.05449741863385521	0.009274792149384254	-0.04289376905696139	-0.00824194870635788	-0.05355164978513632	0.0236363275080872	0.03285150729794776	0.04336444551177332	0.028907693686114577	-0.0002451792244701537	-0.025478988471411914	0.05233871836693197	-0.04911713454675792	-0.016129780970755465	-0.02498965106619573	-0.028562395206326738	-0.002177670686228539	0.005653902778539492	-0.014161590836747208	-0.0429815275997617	0.014099927258418833	-0.0237725661923264	-0.024011255984048758	0.009863882558426816	0.0518970896447205	0.011345401378051395	0.04688641145672011	-0.0061131480700886	-0.060784759651072454	0.053210909072788935	-0.037297593036882154	0.04439605923715299	0.013676220250797417	0.04705505150662201	0.020777890282881455	-0.060324127848161956	0.04321243360248788	0.02613337895673421	-0.009592679727593922	0.03922385176775665	-0.023520509885437364	-0.01064913133256496	0.04916832888345924	-0.020491290618035396
