0.006041309400907878	0.006024192423018108	-0.0018168462560069903	0.004302132263416936	-0.0011885247208095837	-0.005174501464374131	-0.0007676151534398695	-0.0052152094884536865	-0.004091535176258321	-0.008521419751264185	-0.004687020874034465	-0.003856500368219739	-0.005858739312539291	0.0036305430809058913	0.005814364078440246	0.0013101670277785946	-0.00032146261672290344	-0.0023418560482143516	-0.001682013371465548	0.00794554680734785	3.183924528159243e-07	-0.0010061792223745704	-0.0027628539411623026	-0.0037431999332745427	0.008086309030369544	0.007460026702294675	0.007858142862127201	-0.003755850330785646	-0.006419231846367322	0.0051420515883379425	-0.0005486561689248028	0.004796924840775919	0.007949745271459838	-0.007322687859447938	0.0005815945620056273	0.00562374874123921	0.011856102994485142	0.016986432571874634	0.006923129510677339	-0.005749708620572641	0.003421584772456183	-0.006075242198943922	0.007702803798332408	0.00688705876799698	0.0067124662088812875	0.007038436776083835	0.005150505133186184	0.001431055232508931	0.007447649963753331	0.00416242001637393	-0.007409386521038492	0.006186881478199006	-0.005322047819965897	-0.003171413202513111	-0.005854820474324151	-0.006916651678946997	0.004876033790008007	-0.005592112489269333	-0.007152137039935322	0.001406671532887177	0.005684434024795038	0.003455805384475919	-0.005445103677103746	0.004914750969816136	0.028232259137016862	0.006882975427942123	0.005819518754148846	-0.007486145181483874	-0.0027245159970309385	-0.02078731719612184	-0.020986618093681002	-0.016312566753111653	-0.01968420448526261	-0.014304761836976942	-0.007336471869666932	0.0012166442322467605	-0.008660147512399269	-0.024539521553978164	-0.009631970994394222	-0.0009086878043781596	-0.0019511871367792512	-0.008236370664386936	-0.00011316151819459885	0.0063103294628133015	0.0006014145973314237	-0.001564699557688543	0.007333963169358186	-0.006354162471722151	0.004205786777047571	0.008103542398447365	-0.00802220410998956	-0.0202501790770767	-0.012414676169200242	-0.0234565441877596	-0.016672950093534197	0.011454508303283161	0.02814732004769277	0.028582010922180923	0.035753592660315435	0.045325986168868376	0.019672102952285827	0.007006530631554931	0.004849261854904585	0.0072968992142522105	-0.007736155236175241	-0.010316162199334029	-0.022379210761880538	-0.0011765754403131675	-0.008209142124308302	0.005515256006209168	-0.004251553310932795	0.004015972480873681	-0.007961679541784401	-0.008285596896018677	-0.004845434495729483	-0.0014105683122439573	-0.010619355367768084	-0.017719328969879572	0.00655037408520746	-0.06456107294715534	-0.07999901568061844	-0.08997445946882805	-0.1096801888982487	0.004287375868451482	0.08379539120995026	0.024385922713586167	0.056093772157792314	0.10226095829950416	0.12741272537997472	0.043410663125857764	0.04174755208165117	-0.007125248439123929	-0.0008832115777630591	0.002333219637319157	0.006616554113423198	0.012618096363428175	-0.0083119363486276	-0.003428965003121497	0.006753526579078066	0.0004851087938739333	-0.005016291592311383	-0.0029837790561988015	-0.0063938163723555996	-0.010697818899288851	-0.01005771295930738	-0.0013102224792634698	-0.06655457972504061	-0.050687343209372945	-0.05856635384262902	-0.11910208067941155	-0.15164037012073636	-0.05099713771182319	-0.05691559352837301	0.0090471677210293	0.047117483051090966	0.07130036518193265	0.04867897652564063	0.05473822291364419	0.023749957593145233	-0.04339646345425061	-0.006699682575077527	0.05169572707984098	0.005539634403001608	0.021536403700086356	-0.006095218246044246	-0.013828587185232812	0.006988325668230891	-0.0024341469874378597	-0.0019779099913968066	-0.0015071633637950667	0.003913826694447126	-0.021233145321394805	-0.04100478325702527	0.019822813285641217	-0.026615300856180465	0.049790134026864274	0.01833558063520475	-0.03205191475235784	-0.1694601751838562	-0.16295916377851688	-0.08572725644672938	-0.007310511819851604	0.05360726854015531	0.029316020252575396	0.06573394934458425	-0.0074799719672001995	0.030204097235230487	0.10012132880789189	-0.007986420284990643	0.017961434626465538	0.022629904004106832	-0.0810941528046988	-0.010515973559395871	-0.03634716484226744	0.00785448318343025	1.409331784314391e-05	-0.006431286687897036	-0.0015254961980059384	0.008259537968859964	-0.01552007503452951	-0.0037538750754388863	-0.05497433037231944	-0.02168162221783503	0.05095726911787731	-0.07517264780003757	-0.08874706177716843	-0.1811556952874158	-0.06344070131001853	0.02381413210065037	0.046779244440143315	0.13515336158679778	0.2279962255699183	0.2218147200125533	0.13910431307069918	0.06415363589484958	0.06450114904309069	-0.08297701632714127	-0.1423536819287443	-0.07275459001530059	-0.14918622724414823	-0.18137082476581703	-0.08223845021366723	0.003710722590041687	0.003969699097154561	-0.0019706980114509165	-0.005777365135905913	-0.003264780573971313	0.00817433502675629	0.062061148168644685	-0.0509134828403952	-0.05351470011619997	-0.03729779274527205	-0.052794978312010334	-0.19504582266040932	-0.07895915352355184	-0.02159957207767928	-0.0020993471332598043	-0.07705787045645746	-0.026444966889729766	0.212139268476015	0.13932136464759126	0.201271745577922	0.17774949511534824	0.16423431720658316	0.033827641440617645	-0.032273030546024206	-0.1287931439535627	-0.23686828201806007	-0.16568650207349025	-0.10035177176004992	0.021951614887337316	-0.004946871803506902	-0.0018451586357470951	0.007381434440760048	0.009103309958495056	0.021936006808998623	0.10993976547941962	-0.14326226857695493	-0.14572189393566135	-0.02155162122629028	-0.061938800260658844	-0.08457019100090653	0.04978077258530075	-0.08719412076494622	-0.08582617071810754	-0.07237408074612062	0.0005712642599491083	0.0993529810876942	-0.030211994529109217	0.03714933930989082	0.2340252694672069	0.16715047063173827	-0.04542961273745107	-0.039786524340964566	-0.04631337092300897	-0.23479053364718888	-0.15510601970619542	-0.0474275324421988	-0.008814605679238127	-0.005968287131409625	-0.002866507121146198	-1.7116045158491818e-05	0.0024034340723372775	-0.007449146489549253	0.05777138575502745	0.09043840205682474	-0.01614790291407124	-0.003430415043844746	-0.09516414593933392	0.13387970205743469	0.05017131816833872	-0.14486707490656062	-0.15209374530312988	-0.21621033026320213	0.06479667289415711	0.05638336528405892	-0.10056064478047204	-0.029298726933424026	0.248373809109324	0.08324919038561039	-0.2504499960953686	-0.05051855153639324	-0.23961647307906242	-0.4125822651050744	-0.23785560560481978	0.045651972709354956	-0.01482795101618525	0.006363420728008979	-0.0047093447163712365	0.0033804971721920363	5.3972832022932645e-05	-0.04996240230706356	0.17617096486594708	0.12153999892062987	-0.17612858632942882	-0.18816432029637623	0.12013514460191911	0.04508816437682454	-0.017033217349194683	-0.057880697388585235	-0.06848270878604774	-0.20360388554097503	-0.1464613625056631	0.0530511146517965	0.0614310809582775	0.17668041780516355	0.1282861174356729	-0.08270770030439228	-0.2486085043083063	-0.05148508372386289	-0.18735557307792677	-0.3671972379348698	-0.196489626204718	0.11534489211508658	0.00801289444535825	0.013400996176466527	0.002860377936333227	0.00263981528289926	0.00910359223748157	-0.020151376736912207	0.020586814611779615	0.01964545514006849	-0.2278401072525323	-0.016783288631015057	0.15700856584920433	0.06380183322213957	0.03849314975274197	5.744792407121566e-05	-0.1253637778005938	-0.07893439652014483	0.03402163274588804	-0.05347050501645069	-0.11361872371816276	0.11151519270617699	0.19700186276959358	-0.13052127850763787	0.032748612607239234	0.018734590438745657	-0.19343186646875127	-0.2935807561690431	-0.23507059094451813	0.0424371915891787	-0.013560601013415824	0.00045074745627012367	-0.0010913010265926875	0.0011658207662899073	0.01754555893134615	0.008683579527437044	0.03245035407066186	-0.16078272943540176	-0.11800344746898127	0.028091197443141622	0.21204619475255243	-0.01694603974571883	-0.0889266388188816	-0.49448862358955886	-0.31748083225277635	0.20916505875164026	0.22052987653664585	0.2395528169410214	-0.03817410655862039	0.300003820584818	0.3603627366074244	-0.06890767326393053	0.007131887857901606	0.02369763670770317	-0.11205597255137624	-0.45177548470997553	-0.17446274048057964	0.04325419260785439	-0.040044532049168406	-0.002827988259541477	-0.007951776649011623	-0.005667029699440602	0.014113014908793662	0.02601984633143925	0.18274938924300427	-0.05496004643809942	-0.03756588676580338	-0.02251291367545323	0.05345150290980882	-1.7394791236716558e-05	-0.22964648214474617	-0.22677617806150804	-0.19809986802272642	0.18987523280082755	0.35162779561739266	0.2510538729654707	0.20290930088366219	0.42016901658229494	0.4529345645765498	0.3367950336232572	0.2721523453431428	0.031126419746321844	-0.30238626339993097	-0.3928933185644922	-0.18289254709872085	-0.00635393245256261	-0.003676644162303485	-0.012901774852387677	-0.000716634589364171	0.006997197734333128	0.004089729695490803	0.04008794249163413	0.23507279964069605	0.0033696085475075207	-0.2759307326007442	-0.13005006085324694	0.05563709127007378	0.10920960831253415	0.10697687635265907	0.05191902510694118	-0.0004493325819520143	0.11653581299175918	0.2286033740113465	0.03521859563162756	0.2824131034591881	0.20637184692183455	0.07784630984845009	0.07869514198611592	0.21148297060118781	0.04416030675478461	-0.29075161914889297	-0.2953951009203582	-0.21876925221174445	0.04712325704753922	0.038559334982089494	-0.009397013508456975	0.0067478249996247176	-0.00350241544748124	-0.008511735365037337	0.07231220355605028	0.0802057193209439	-0.15222668964127598	-0.3075753529557777	-0.06201912706985012	-0.06140678018166904	-0.04096249013898796	-0.044364484886620544	0.19003910905929774	0.11523032904871647	-0.03642623483570154	0.158186667490881	0.21410303028353	0.27069790535081834	0.2655547027954783	0.17174113326985627	-0.04172275006420625	0.17868523630938368	-0.06105813412167867	-0.1600346823170985	-0.21556395689197752	-0.034710512032635144	0.08830762750028912	0.025622379947149096	0.008216934707617474	-0.00850456840308105	0.0035801904060684697	-0.012745118312882156	0.07793389523083767	0.061782220620540215	-0.06138880440722808	-0.43465165950647394	-0.28289777585922127	-0.1635007706718178	0.04274858838376673	0.1674067741882004	0.2282192870838126	0.1555421527768328	0.23103485693968775	0.23044593260452956	0.2980217502823177	-0.1284882563204287	-0.14684965842265577	-0.03904300817029589	0.0015597782770914684	-0.03917492901006473	-0.21110696046172928	-0.060571294372810475	-0.15222630736767417	0.023173251514061324	0.09892623761448491	0.043429276737274085	-0.0036945394847303714	-0.0001262008150049506	0.00018441076932676517	-0.000515339452569604	0.059708033088764684	0.07126382924902405	-0.002460570106270554	-0.2686552887314934	-0.46689804890831316	-0.3345742175604192	-0.14930909275370352	-0.09822423619830813	0.012659440289387338	0.06459554828090384	0.14635889727654688	0.21990942768811303	0.0073237495146979735	-0.048067810201349245	-0.19782393448386273	-0.10234061704721517	-0.08030520065896729	0.08475902422965848	0.022656854021020075	-0.08410702006772962	-0.06544557181325543	0.09380484621047769	0.1378696557536994	0.05326744946445701	-0.002342510741602665	0.007099719575760589	0.008666974917942185	0.00691338521504487	0.05179022139166092	0.12257425906929796	-0.17016024881774575	-0.24425943533938624	-0.3041507360830992	-0.22160160513089616	-0.05963239528989173	0.0559922788816076	0.09428488119950815	0.11109647915559832	0.22442160024248292	0.10803204073950019	0.05051984121000413	-0.011058035454542505	-0.09664641791458534	-0.0751102122139831	-0.11799615407321119	-0.010863851538188524	-0.0919692160923013	-0.20121923114681975	-0.105731441016264	0.048893444435594145	0.09884148897319568	0.02377347595368015	0.003978467066390538	0.001321378087312806	0.004664906228315035	-2.4175781641506303e-05	0.034584657977078784	-0.013272938028235974	-0.12315629855913958	-0.12663618338322308	-0.09932977286246428	-0.009878589781601017	-0.09542234841063842	0.022723575912873092	0.08630385530962466	0.1921020647848725	0.23453815728962674	0.05226345446822012	0.0054259179225510145	-0.0246492007809143	0.046169236596806655	0.020186870977669084	-0.061617743638804574	-0.04334280291307785	-0.05502143804813748	-0.12792600967394663	0.07823833385432313	0.1565737301864506	0.027758531485157823	0.011508581363243916	-0.005052589559511965	0.002674543657347905	-0.002994294749956947	0.00228831229073845	0.027474764266415392	-0.043363140242723565	0.036335470112087286	-0.04793171710980844	-0.08998129043749056	-0.023967632333350492	-0.21332010662273024	-0.1611666151437053	-0.02656194954496357	0.12653251326708967	0.12299538283352088	0.023739648897169358	-0.022853024057525095	-0.04551235059751367	0.021757351275835377	0.04426494484690976	0.09390008705248704	0.137402146054444	0.06929912552248563	0.028751738325862156	0.12441371218403144	0.15483213070114663	0.030590756413568083	0.027174005161079564	0.00025101445526148176	-0.001335641488581324	0.006475928871079098	-0.0018122902694667157	0.036921576664035206	0.022876441327311457	0.061633630077537346	-0.12407622298437157	-0.2024192117412221	-0.2200078640579678	-0.4070715361603696	-0.27326940437767516	-0.023915272223533596	0.10839030261021765	0.009994319270996449	-0.01753392162561059	-0.09089532197587173	-0.08638887244927851	-0.04941158603937801	-0.030533225456134613	-0.01644281068849265	0.008757663998619648	0.04728866990849585	0.005425892114547769	0.04225653506477589	0.056253016575327275	0.01078197316610414	0.013150857946769281	0.005894732631914082	0.008689187554057363	-0.005390129241865947	0.0018230221684155078	0.00631483113843641	0.0010960238186388726	0.0016184038975781089	-0.08441185239409878	-0.15264184628499067	-0.17291389809219335	-0.2236507361120212	-0.21829710952528603	-0.06428196163186228	0.06621952276927215	0.007440549054522643	-0.08199630102597484	-0.12244333702272885	-0.0821727831870842	-0.06288787866761412	-0.033536225658852906	-0.004904121797524301	-0.01885087863139794	-0.04640044252347193	0.001654567434150658	0.06358001783486969	0.02023584085554882	0.009403715130788033	-0.006106807239211738	0.0009336726272015771	0.003158390230764977	0.007840554130472337	0.0008081739363504422	-0.0020643617719219402	0.013889802205716525	0.01870277168841686	-0.013418665714966553	0.0028003309099419397	-0.15368300042155242	-0.16224354219303444	-0.12821742482229043	-0.1470019872094382	-0.001362898910590505	-0.0063465675250947325	0.008666261251969409	-0.016561114481078804	0.019506461589155692	0.011084390675594368	0.007533892671185464	-0.01674496169594934	-0.07366443601683262	-0.06818225200416114	-0.0012957115653421678	0.0003833089959855577	-0.0008533544412209934	-0.008070466870913529	-0.005541383071807526	-0.00045776469612158685	0.002989361716322648	-0.002000341943856049	0.002396340299101995	0.0007647188468792032	-0.005284156561583155	-0.007812258047528075	-0.019787180128256334	-0.02749701017442247	-0.08958946689990807	-0.11456190454190891	-0.05513010165147588	-0.057536686561162585	0.018107660589344026	0.01280130236563294	0.005493158779483681	-0.019507550231396987	0.003236834520094773	-0.022944710415514324	0.025206763875562227	0.05669872709625785	0.006043835056060742	-0.007808859937054796	-0.0018853934450334014	-0.000801180556525773	-0.0029429205822718574	0.000869166973062047	-0.0056553177916787815	0.006208765174020707	0.00012902931365905285	0.002333906897574173	0.001489871804648199	-0.005168900786590661	0.004540769405230129	-0.006456312756495289	-0.007407168073312354	-0.018791153839203552	-0.043359223902389235	-0.03155842746192279	-0.021538791581852658	0.00558606726146903	0.00277202412597355	0.008395803669421088	0.006322530479155108	-0.02856046223863084	-0.015705612510072475	0.007002436837471145	0.03628622977958526	0.028222437310801117	0.006788962392246157	0.001047868663010218	-0.005634093114564878	-0.0018455576025571347	0.001705842701691048	0.0009513375234022348	0.00440877207410181	-0.0017811646261387867	-0.004857179041585696	-0.002072369883525254	0.00468724289529673	0.004731592058143632	0.0013805545476928156	-0.0075960753628648335	0.008196309250912897	-0.004920712661668353	0.0029350173592173536	-0.0068677959224342725	-0.005945074803233463	0.007438645150462837	0.008291725457247663	0.004075484217389146	-0.006590302787451241	-0.007296644711323374	-0.004290775127889368	0.00297647978745985	0.023739277396708978	0.011207278876375555	0.0006013265112805762	0.008519226415438532	-0.002191352959104966	-0.006638783357729782	0.0026270195807875964	-0.002556809485794514	-0.003692182579610637	0.008428077803595634	-0.19819992482092363
-0.0004272347479750381	-0.00043395586937167163	0.008554082985917713	-0.007480100752242185	-0.006409477253891749	0.000610046158933536	0.008029738333131309	-0.004125222895111448	0.001593411117877197	-0.0015005871262039707	0.004289488927075556	-0.0013198099061834008	0.005847207045950912	-0.0046846837159334525	0.005417024427320017	-0.0050272219452917365	-0.0003746632453592441	0.005783361441608915	0.00488092248327897	0.0072147360384242284	-0.004505143151608359	-0.007707907360009543	0.0013760747912796925	0.006934773064708386	-0.004760053909943653	0.001065738237200877	-0.005727813363805212	0.006926640795992076	-0.0038248678453753964	0.00022986684041089236	-0.008686677447689146	-0.006275050170540319	0.006276889144741112	-0.006063497847352329	-0.003466854842624878	-0.00029332295228622627	0.006059096164886094	0.009349098528322615	-0.0006933059869577496	-0.0025779090838467947	-0.007320235768844143	0.0045157762510370045	0.0075781668500410695	0.0029432195929002328	-0.0050078183794594515	0.003400124090578221	0.007089409810954985	0.0016307624012659259	-0.007948714869492475	-0.001180734702429507	0.005150781608836811	0.007382033962003161	0.008677761650621407	0.00012685152641854838	-0.0059503651929564555	-0.0020030288553475814	-0.007603381656300791	0.001451260158348124	-0.003119556148292681	0.0008052282111936197	-0.0019567423034762815	0.006209197688293951	-0.00537761130301946	0.0125897773838824	0.006598026468214117	-0.0011441802947118036	0.0026760810497725293	-0.0022920846496432353	-0.004900991204967118	0.004636044121323267	0.0007224471302907225	-0.011335968415454442	-0.004665269177480188	-0.002456947737744478	0.0016292099870235796	0.0025359391424647905	0.014943384940227481	0.02480888811120734	0.009437482231823249	-0.007623982945345774	-0.0067494311412440895	-0.0033093754893619666	0.0010143818246551046	0.004338190469428658	0.005678120395422667	-0.006345894598945836	0.007526724696556349	0.005385020122932335	0.00420331409378752	-0.0030456992502539233	0.006009482814776397	0.002812461097739169	0.0141929132944994	0.007705399851669241	0.013999003554526998	-0.007716739396828677	0.0023852874377210233	0.00849554912339112	-0.0018763324785537416	-0.00011108279228966978	0.005447072654533254	0.016798540266941952	0.008247475605444445	0.0024865022127464596	0.0400843362033728	0.032019433051765224	0.020807304766290707	0.004713336859059236	0.007356554748269144	-0.0013928267440174447	-0.00013214201792396962	-0.003346698409757036	-0.003281619809276071	0.008561164194008451	-0.0038261944973273752	0.005366937549629318	-0.016834279591758972	-0.08604311720071471	-0.08234251476553481	-0.10506717202006306	-0.03539013822594875	-0.056924009964648914	-0.08690070755432296	-0.07522588185917249	-0.05900150537542271	-0.07558086624779782	-0.0657576792657392	-0.030213070935434246	0.05378137861207552	0.027081961060014426	0.038029153725570225	0.0916313589544817	0.14436482813310483	0.10504705070125234	0.02454311431652867	0.01096145246354497	-0.0031506183663370813	-0.02486915252894916	0.005675340379133177	-0.007306318251990747	-0.005862215699572907	0.005513478289186162	0.001521679046919588	-0.0007637952878397488	0.0070155652242497955	-0.09560671251009034	-0.12819528470860936	-0.03440313201386259	0.013968940548841721	0.08506326161244175	-0.010793691988712191	-0.02201319713645673	-0.1030218139465205	-0.12488841767095107	-0.04644194340291219	0.023013456947108265	-0.0011086961848650687	-0.031837599293951205	-0.048043513179079456	-0.0012660077429668946	0.11699762649080919	0.15456853865729603	0.05679390834388165	-0.011769506648275427	-0.015722058654756992	-0.02298151944076863	-0.007299894177640896	0.005889810644572051	0.005245372075879065	0.006368623501198441	0.004972823466549079	0.00950399853301699	-0.0007751715361396673	-0.0362381067519552	-0.04771600824222585	0.046681923698669726	0.08856489214239359	0.04684418677421229	-0.010933719954294426	-0.15528218409522287	-0.11505752760513345	-0.1054129670342693	-0.03643239418874017	0.04521676732569341	0.030452098930334816	-0.024746737168903687	-0.021205545127937996	0.13782031024571476	0.20702905280845665	0.1980340369585201	0.10466996765006666	-0.051468181385798	-0.026287271592065037	-0.0007636949278389185	0.0023351658966522244	-0.0019734355091367865	0.001974218672773394	-0.001639830895640698	0.015575115814540587	0.028504531230650245	0.045936813013204784	0.02050804674760896	-0.06560853800999766	-0.050537765749140234	-0.04766432925377324	-0.11557577298051278	-0.06146551662168617	-0.09674569901561973	0.05464905384572564	-0.06080138142294548	-0.06836325948168447	-0.11183254738817607	-0.042683433289105316	0.1463698926709369	0.21982780023844106	0.14423915912440627	0.09975659877947611	0.09581210345717531	0.07419292438811931	-0.10524199596569075	-0.10473672524147364	-0.01873561232012438	0.007171213216746428	0.008296310839143055	-0.004017272059664788	0.0026218097573190834	0.013244321800975515	0.028791426795811263	0.11714614133791021	0.013278428285921828	-0.08936729147438886	-0.009619741044395152	-0.04119631203575954	-0.10971902947352467	-0.06172026223440881	-0.15593339111238533	0.008768624778716696	-0.049129986018508	-0.14503746408120438	0.014430393136553919	-0.01595529935290231	0.017995215207074332	0.15985616801689675	0.11751494130017431	0.19730513898690868	0.1167617113996132	0.09559893379530986	-0.06773316510719982	-0.1485953034296404	-0.02674224723767677	-0.004691202128072735	0.00412520144231885	-0.00818535138694601	0.00670909098842897	0.016093128626184897	0.05334466787371912	0.2454512570624336	0.08590641520720521	-0.0977024197568161	0.03002565645740754	-0.022895309957416954	0.008951897814489683	0.010575835884893092	-0.1926581887267827	-0.17866780524384332	-0.21269090873521507	-0.03004789988294226	0.1641371487734984	0.1952031316600731	0.09070748791028979	0.18168324066558733	0.15848849817229385	0.15507957311510603	0.2818773600504375	0.10463508021345262	-0.04571727338697778	-0.13023128150713706	-0.06120811873576822	0.0003778999088320243	-0.002098638917752135	-0.005221642207878418	-0.006633546956376346	0.011637678961026326	0.06770188676285581	0.18360388813614817	0.057025446256244575	-0.15356285789917054	-0.1151208913586758	-0.1813797687221878	-0.14559156763999265	-0.17239581181914046	-0.26284355359754497	-0.2569888108117796	-0.29758555502697903	0.07395225403517063	0.09883901108357598	-0.07541395532122686	0.02576730161933986	0.25008933904896613	0.29610283869693527	0.16197325521057432	0.18329834370655987	0.08939795982381343	-0.2061652157102828	-0.20272324125165986	-0.06901845896481992	0.00014577416003553397	0.003740507793961404	0.004677126883151391	0.009550543085366603	0.059741892814300514	0.08374221520143971	0.20464005870996796	0.040623480522423955	-0.02925391192892681	-0.25973942422873636	-0.14860267682422357	-0.06381398712316415	-0.044073274962115626	-0.18461442891279164	-0.19514792566016262	-0.1535150757145149	0.008678560174141411	0.10779924650556852	-0.05729024996579247	0.16375925881758133	0.26686782725177033	0.2564217497067048	0.0026403042111115345	0.009381749159477221	0.06513749319722158	-0.2332191715840207	-0.10028652035433633	-0.03362321679310487	-0.0031330857985343045	0.003494871187839755	0.004575804856372092	0.0006850987861346848	0.05187341783819724	0.12342470840836493	0.05740863635252952	0.03685007568674487	0.0014579559230055575	-0.07126828055291043	-0.14026015974404654	-0.1353264301273305	-0.017550588469092434	-0.050124909829978935	-0.027684853699554902	-0.09182134456949695	0.060478616256202176	0.20042825229344352	0.19066393392536965	0.13277043839865002	0.03359281259144205	0.21447895067938882	0.22138463935342834	0.08401712923311648	0.018221212707794292	-0.2508660052333272	-0.18642859515474372	-0.08551322542676716	-0.011056206666444246	0.004944582233725285	0.004435829280386569	3.751715919551102e-05	0.036087195492995765	0.08937676922391553	0.1300305650340523	-0.002187160380470353	0.023414216651836548	-0.058553680662063526	-0.24340276423597274	-0.17521538010421395	-0.0030925231982316505	-0.09212249034458328	-0.03884129277632207	0.1264949479289172	0.054161213374540496	0.05989168980230415	-0.054849532679736517	-0.08694983766889307	0.2507189502726373	0.33125129650775625	0.3654988241064942	0.03988566831497303	-0.0750128028688017	-0.06246246640736674	-0.15736335327465156	-0.06409363609097388	-0.009668398859036153	-0.003230135738578757	-0.005898231956355912	-0.004807643082057485	0.023032264729228372	0.07592978546220312	0.12560081670393802	0.1193367448884984	-0.017103634170409963	-0.0376744574612285	-0.20948194412829588	-0.17025736141300196	-0.2986013412873118	-0.08000069127647205	-0.046922431961569686	0.03105808037590086	0.04569074029933525	-0.05145654690901439	-0.07613783302866027	0.17170036282131437	0.17334638810388645	0.1991620180045346	0.20814690032955155	0.18033306806446983	-0.10867821869532308	-0.05490625218797967	-0.09836766414035644	-0.08088763973738762	-0.001437923024818914	-0.0005726653095914757	-0.0006381695508212281	0.00468800001436785	0.029995006499748234	0.09902573863782553	0.20314132317968392	0.0623620841415905	-0.12274362464815251	-0.181332577996867	-0.13268450024287828	-0.06970426969942779	-0.08074461071410773	0.03896414610795867	-0.2625553148920293	-0.24478951694019233	-0.17839608019360423	-0.21883682345782257	-0.175633174224044	0.04862141155803051	-0.015138306538187424	0.11951616849138472	0.11869977063713605	0.16359669335554242	-0.206789644537653	-0.22670076361053498	-0.10942081676507236	-0.08783055268944555	0.006338861661248875	-0.0013887176162471681	0.0032759871218135984	0.004951112973109454	0.003940957593300527	0.16887468181191273	0.20147347932757137	0.02519537271659772	-0.1775057478431872	-0.2799534057175437	-0.17754092704459157	-0.20810333653641958	-0.06709791446815692	0.10190154841758943	-0.09407316542303136	-0.14413790821593483	-0.10859294455481903	-0.12262234718571935	-0.036069190439634594	0.22167905147177228	0.2547321162113973	-0.03488267403577085	0.05860939392428427	0.055346564613286436	-0.0021915420957553653	-0.2676319972601506	-0.14306320674415204	-0.052165178550095385	0.01204425941629196	0.0004698573926374241	0.006790739678765234	0.0008427493980660608	0.003856090731976815	0.05231355463645343	0.2661989195449435	0.04543477067990413	-0.2755413634249213	-0.21423850865465172	-0.27340498818598546	-0.29116189756073196	-0.22129578580176942	-0.2531177736669055	-0.20133601340190674	-0.14711012380896613	-0.04823951367776822	-0.007531092937612679	-0.1312414632492067	0.2079453199468248	0.2073789855040518	-0.04025058142867758	-0.03988674232088428	-0.06551648906943931	0.06227254838699289	-0.13778792324795083	-0.01535444220900039	0.025788249163086537	0.0018795712706014122	0.0032111225689372036	-0.002162809299532536	-0.00038131767351291357	0.003065966472119328	0.06110856049955269	0.12460491389781579	0.09865117507464086	0.046538847413602515	-0.30021835654843937	-0.30758403040114507	-0.4331819544825732	-0.4342027093658012	-0.2922758623833666	-0.1364940579633743	-0.04074954984879387	0.0981755556654003	0.0806675313976317	0.16104323714860513	0.0005367298184698751	0.08465746373817866	-0.0990413942489795	-0.06721045045529393	-0.07731034582051416	-0.024667316857901495	-0.10377093897940196	0.004968159071917838	-0.0029742638417906636	0.0066596341854821455	0.007230755318494124	-0.006306441429341665	0.008731224366084454	0.010053350302788703	0.04771717878624899	0.13676008073004145	0.19406903065058467	0.06134267145771268	-0.10876122629116168	-0.19889456573406986	-0.14857558409596325	-0.10104762451179777	-0.1519776756286654	-0.2023243614903295	-0.018333645013408725	-0.04644517427657741	0.02618839100386945	0.16525352470385152	0.12561108170757831	0.016430528607854676	0.03169247077197821	-0.011952840703637814	0.05783569659903245	0.030180507252019192	-0.026214500626648946	-0.10272371615717893	-0.06386457624481719	-3.578118304472956e-05	0.006847796955478682	-0.0060391878916701775	-0.00856330405742203	0.006314034483168546	0.031312095471787246	0.10973492818901637	0.18772553034169387	0.020093423630925426	-0.1493359518953072	-0.13343240973340562	-0.11253241871177222	-0.013164044086400484	-0.08443569918639551	-0.036581320909625736	0.048992452791931214	0.022287215917931046	-0.0069614516237837916	0.19000927942422485	0.27839728898498545	0.26220047265428903	0.06597743000152281	-0.01692636538147005	0.03892927095715185	-0.04252477132699452	-0.02346968851979692	0.007860236548163906	-0.03025665843334965	-0.0012381349958712287	-0.00228360894609353	0.0015295344232764008	0.004738718721081165	0.0032957475884086997	0.03548998333233391	0.07492977897421683	0.1471660479573915	0.020781567456840903	-0.16000624482132067	-0.13156670492674222	-0.1464229027800378	-0.06753377324421134	-0.09574381148760426	-0.0032763997555985617	-0.017849456572911933	-0.04330844296600377	-0.011890091974183442	0.017739773589549947	0.1021210485769843	0.18897484528132663	0.1515111162054864	0.19079342755978107	0.10218163768798767	-0.09459337684391975	-0.034898307723629944	0.002468387274833876	-0.005793411773808463	-0.004522476141159998	0.002014419899807109	0.004118192388812053	-0.0035516418049537377	-0.005321608774234567	0.02088414095241309	0.05837402947507663	0.08583841947157796	0.04128069648817112	-0.05772018892516373	-0.12973254783728227	-0.17928890378314835	-0.14731370129169225	-0.06929015841856986	0.04008068195793052	-0.09202644233512142	-0.16122882254348486	-0.12429656111054929	0.012771017406182474	0.10355920890368156	0.12088327372452622	0.16548120166720542	0.16548474851014913	0.12753575431376454	0.03919693481307647	-0.004700326255388747	-0.009781029561778284	-0.002307776057594008	-0.000285574044482017	0.0030032498585087393	0.00336673908936877	-0.007203870036601027	0.003618402642597801	0.011336618334241528	0.06102405744202545	0.04745891303252648	-0.04953804273450554	-0.10632901672827579	0.00848269034519423	-0.06416802729423088	-0.06569271440100186	0.004875546238960625	0.07515701473032455	0.008484513565529674	-0.05988206446178447	-0.045074089754862164	0.041043049141056345	0.10802778130485859	0.12327180023288645	0.07268233312162413	0.10518419644628292	0.09343605851023018	0.021100379851669456	-0.007946574092272124	-0.004887017444117935	-0.010744810036271127	-0.00811596144417803	0.0001377065537696686	0.007444658700383862	0.004817518903447528	-0.0040385398795959706	-0.001134103556188222	-0.011138442533045021	0.01715921697148583	-0.03472821718063967	-0.08361562872327272	0.03309568152926639	0.09233003438018368	0.04248140204228783	-0.033264968628135015	-0.020033586337676382	-0.009166086246902995	0.022078168024484767	0.03351706391792388	0.13491493793229095	0.11679475904141967	0.03996315692142659	0.005059241372838797	-0.0016823133890008634	0.05333256598213062	0.07648505363918032	0.06921628975238163	-0.001368592031055589	0.0002487289886707585	0.007469383595002134	-0.008199735227926584	-0.00275299434746397	0.0005656339093551427	-0.0011491250693100637	-0.005473640344439644	-0.006633166416262391	-0.011023366879814043	-0.015584073700170436	-0.01506569182405123	0.022736307681778704	0.06488388160947874	0.022762523405011843	-0.0016955539965208557	-0.029238852153905086	-0.03491419804293185	-0.02620481209332374	0.007340524583605965	0.06667033196315279	-0.0347563648706988	-0.03431361341761894	0.015416689919961125	-0.006982483558453742	-0.008716363658239292	0.04071179740065811	0.09572192870909539	-0.001976347769712009	-0.005449514571909704	-0.0034168046491876245	0.00797379782095647	0.0017375295491219508	-0.0009555171756994475	0.004173069350027479	-0.004973323820007314	-0.008114634483715435	-0.006222226928338262	-0.009190434032962847	-0.002478242292144927	0.009056482871057868	0.007452304665803522	0.004903741043226048	0.002463037001392967	0.005482009359072634	-0.004910908676871035	-0.0019170161456611243	-0.020223137905608014	0.0018071719896576965	-0.0005322972738455223	0.03916996918135445	0.03370656435445966	0.006217847372360403	-0.007914806304139498	-0.008017578132013196	-0.0021196488695913564	-0.0059169256934699325	0.004613796566804657	-0.008080409746887507	-0.0029646683515167924	-0.003870003680856166	-0.0007000473384623732	0.005764205887570413	-0.005683953591722444	-0.00726721101973914	-0.007250888446678551	0.001210061473995827	-0.0003573341462899185	-0.0017795696313568123	0.005315763994190378	-0.0013791061182576662	0.006037398115234004	0.0020229709601668113	-0.0035091056815049473	0.007852123404964204	0.002915038372255112	0.0012948417195945833	0.0003358136128947701	0.01485656489014838	0.008121260717643982	0.00304084985429187	0.00267380671049159	-0.00447835427974236	-0.004298587359087865	-0.0001110617876417478	0.0005884237678214655	-0.0010865197014172222	-0.005566256625141721	-0.04660690618768496
-0.006016968696400723	0.0022188422167274437	0.005128581566688901	-0.001093306137129887	-0.007496892391322335	0.005220547254738516	0.003288169407374463	-0.0025249427612200424	0.0023489802583428494	0.004516049722724308	0.003602310791433698	-0.0009820413854784256	0.006820314686337713	0.008109597997534634	-0.002072190062155318	-0.0076937813140856015	-0.0023159446665315785	-0.0001600986268353935	0.006239327365690925	-0.004080337423838142	0.007413562123530677	0.004361451942325394	0.006276613047628865	0.0031155647072623333	0.004593448351351226	-0.005382820929805562	0.0022075653118809723	0.0009933178034970715	-0.005366132928442142	0.005143040618155974	0.0010288916305399229	-0.0063205062036308865	0.00014529686891991134	0.007247903548438187	-0.0036720159051100596	0.005773585207731333	-0.0007450588256047787	0.002783448492843553	-0.0019260847878578128	0.000935051032932069	0.0072293490836328736	0.004622452850408815	0.005084656451721743	0.007518100487411063	-0.005593658783955792	0.005418502523475708	0.001081394282727655	0.00032828822964488594	0.0038549777362002144	-0.0010585588555894468	0.005357329625783221	0.00225007137148143	-0.004343195298142514	-0.0017270006616554832	-0.005231342310567987	0.007631048959677575	-0.006309738804505131	0.006135321393219904	-0.0021110665944903215	-0.003090742151909783	-0.007382926991165553	0.002621391621342532	-0.00181637450160175	0.006726258049807568	-0.00982293115766947	-0.00022892564012890693	-0.003731704596031325	0.0006604952569056135	-0.004722327588672777	0.01602850579730043	0.008936840149753373	-0.004546435593493876	0.006809240768193194	-0.003232136962814597	0.0045661865290331375	0.005539342748195671	-0.0012223154204082883	-0.008118665468619198	-0.0009899102200842248	0.008686537224371762	0.0010774736597905996	0.002332162636879088	0.005983739466706347	-0.001526054918521924	0.006848436017509589	-0.007357654977013618	-0.004655001088250981	0.0036465145866675375	-0.0019803043406882268	0.00040479062936414514	-0.004117483611065812	0.02506255807036927	0.031266621029983434	0.04061301498510326	0.008020754923622536	-0.003716358719886534	-0.017746706367596243	-0.008232236953997626	-0.0138137976880582	-0.012781784370177102	-0.003869399911194524	0.008857993746227307	0.01835470418581877	0.024043953782075453	0.01290466219684602	-0.0006418567730876332	-0.004653395693554348	-0.0075801396475205784	-0.001717825918725896	0.003477858609774816	0.005573126060006808	0.0013223662041853997	0.002482648566501851	0.005855150998837676	0.00018334405507996164	-0.0005793150262336233	0.027816491034910622	0.015645207195840834	-0.04210488773224788	0.033173060927993554	0.06270911027384687	0.09576603967374145	0.09794133058598305	0.04896785220640932	-0.018166374657208766	-0.03479591669029154	0.011816538448202523	0.009780962982617604	0.019817889020517798	0.025923753766281327	0.01719213543415952	0.051640964748060784	0.07801426871171324	0.04406237687780977	0.007780095282066056	0.018731042364868607	0.0034242796305160557	-0.001993080227192072	-0.000714313011434967	-0.008366821931949516	0.008188516105623544	-0.005297341133165296	0.006507599956219528	0.011550586176515833	0.038012835203817	-0.054923559119552524	-0.036214255292195234	0.01898714532563267	0.05632164301671118	0.14674797917412888	0.13965543682050394	0.05472162392357219	-0.014119126444161424	0.013027732504237326	0.020353634983154074	0.035437615745915724	-0.004109300448267596	-0.004396444488779331	-0.039471051686302314	0.04597880234203415	0.11667111627903605	0.12067413468151664	0.07179412383940086	0.015619624330386097	-0.01599313555072026	-0.009649456528435746	0.002100683204661131	-0.007978128091516143	-0.005954074999988467	-0.002620832703297972	-0.00425731925770592	0.040994841620736175	0.044825644026870184	-0.09920357053053348	-0.08891555462409295	-0.018392713174539697	0.10409543495022115	0.14884650557084897	0.14866207797759726	-0.006656373531555714	-0.007044918411582164	-0.01562092883883299	-0.030997347537365005	-0.07705697528591891	-0.22009285445704527	-0.20710882952540458	-0.037169414909886796	-0.00247404472354553	0.13502106245411286	0.20550799066966943	0.14937664409306894	0.047417656916604524	0.007249603894340445	-0.0013134329065282713	-0.00428166116112782	0.00514504478211799	0.003971468413086864	-0.0016782775881066187	0.004216887232984927	0.031178495237378562	0.04955809733099481	-0.03363180007362922	-0.06907656968785685	-0.020569349098292077	0.02616543930890604	0.030328717272315602	0.12224299242594464	0.18707561075679052	0.19451951537164114	-0.07853258416900073	-0.19587892610570706	-0.0293438460014734	-0.0011646262962188838	-0.2276933643816024	-0.0686688580467508	0.12409712213711421	0.13541780625565825	0.18229580280996918	0.0686278203806343	0.00440160634844512	-0.02282918009957657	-0.007681365388437809	0.002041479848303962	-0.0018422977361208393	-0.0002674907458960294	-0.004403269175915577	-0.006326816634797256	-0.00646526386166638	0.032886406285962934	0.1147086372446864	-0.02044332376127775	-0.039081874227517695	0.0845926189040274	0.033707060684658355	0.01277869641536656	-0.17764576399460108	-0.14309222864546697	0.08555988315409067	0.012873926953723384	-0.17064795340266461	-0.08247690630875061	-0.10541438067139555	-0.17768211299064526	0.02199315917944913	0.11052123163589535	0.1969151749882193	0.11293888852286739	0.002624463573472333	-0.10123882865642456	-0.012213143168082943	0.0007939408643352363	0.006889807407218316	0.007477627854817599	0.002692234875488668	0.0066275596161424295	0.026890958728699114	0.020776294183637713	0.11774956032712476	0.05385481620068776	0.0985767701406671	0.0470815665666109	0.17471324255202803	0.14266197331059938	0.12553787935357053	-0.10313748528120115	-0.16858213914595505	-0.04680746954901711	-0.3396824253152133	-0.13836196171367957	0.1122427267394161	-0.21077453743636224	-0.12790130707492053	0.22996849570559247	0.18301312729169986	0.22915571998282278	0.0807938718546893	0.0941779668257335	-0.024115496097648008	-0.014109631644746682	0.0007194703393746373	0.000777563977666899	0.00350357895815759	0.021334406191630094	0.007703019917851181	0.005593667875781423	-0.15445849933382166	0.03545952605462429	0.10512907650517361	0.22584388068343197	0.1070419082696768	0.08637103874505257	0.0982342842295451	-0.04989686238835316	-0.3577244725318309	-0.2825413691354083	-0.10919398816139234	-0.2086091088682045	0.20344174951769242	-0.06898936317622753	-0.21783179523815002	0.10682788308509202	-0.08093885049729847	0.09380845991128418	0.2239280360180952	0.08242961752196389	-0.07702909658994005	0.005856906178013604	-0.009846608815144358	-0.0030250008501933844	-0.010728775037469643	0.009740732447916636	0.0062024169893306	-0.04646444578950259	0.066894175499794	0.39689927159971616	0.26723468925737187	0.060570930227055536	0.18834246478677663	-0.08782638740372341	0.07700973979702118	-0.07048835599101913	-0.4971177665742148	-0.2375657662259944	-0.05390634530536554	-0.33374081812703515	-0.1864392132075235	-0.12664233074505035	-0.12334995158554649	-0.012407497747102581	-0.33263889668460717	0.03710902366021997	0.5590622917265087	0.42953385996871	0.12052228103570621	0.06854470754374417	-0.006396718520305947	0.006421896405586909	-0.001592919235271645	0.02889318587279784	0.025865490180005845	0.19191057081875573	0.6735938209853307	0.5840375878010536	0.20400484175324907	0.10198476901665383	-0.014061740766024686	-0.255473176186394	-0.2165879610748974	-0.06536453915827137	-0.1536579088511943	0.12271920072295456	0.09348742238016519	-0.24803693344289418	-0.07015391892040278	-0.12052656315128242	0.2177778317744261	-0.00638082523020737	-0.15705473792677374	0.09269221335567235	0.2846970834219741	0.2656783199972215	0.18968279765938406	0.15379380934983083	0.006770766461916247	-0.0027138995436267743	0.0061530913797357535	0.02406087540166357	0.16847445696399976	0.12015677198457554	0.7249470731630411	0.4004213310514011	0.45715568250774896	0.5444377953559276	0.30868121111025376	0.13708173237404359	0.2907302609208293	0.24863264167317656	-0.2908232159640735	0.05808343199450834	0.049432365529220375	0.06538600994954716	0.33499180963772035	0.11291804881216101	0.16338837870109124	0.012758262235415943	-0.21122807775034028	-0.17110659166524467	0.18536429964174253	0.1715803975700676	0.3134350802851414	0.33249423604809714	0.00606403413499918	-0.004558002537919488	-0.005741719787373007	0.04638399112878064	0.18163945378802618	0.13866814415813286	0.4434694753642472	0.16733081856963616	0.526028822567333	0.5208273097436369	0.0923138972798361	0.09366100386561091	-0.19555011457064778	-0.24054686539949044	-0.1677709085948434	-0.17797583454330754	0.1925990833640335	-0.13041465676111816	-0.14743936743835465	-0.24425960226933735	-0.17167796799014803	-0.03952943894308388	0.035236298394905455	0.2598863378718513	0.2172519643374397	0.45867123295510315	0.16201416271838479	0.3001172548676478	-0.004583103437111876	0.006845468161619447	0.0037649158101831144	0.04986111116202166	0.11034287511877475	0.1399738536861435	0.14213012844658313	0.4478993958791729	0.5444749983398638	0.3652061614764793	-0.11086343121023175	-0.12734275717229515	-0.4115990801232047	-0.1774627605548326	0.032514963602121146	-0.12851290459444772	-0.1765715913699772	-0.6604666596805113	-0.2789741151745217	-0.17896152980113633	0.03181398699845364	-0.06345519498812616	-0.09769612099832897	0.035005842165230686	0.22364693486020754	0.18963025130199587	0.11828767754212068	0.2645731335890055	-0.0076531532906909715	0.008069175526286599	0.0053341989250636985	0.03795901281812622	-0.06143652469802726	0.18981112452282387	0.09442383896787565	0.33586016679710523	0.589440574455488	0.2565539561653609	0.22294916158663536	0.16558918366386816	-0.23176684482410212	-0.06956456136192975	0.1509320033340198	-0.2799951265790991	-0.09451327720928215	-0.30675093032597395	-0.11185286416402293	0.046219956822251024	0.025777845752104372	0.08314843367939505	0.11958794608442075	-0.11542689144121898	0.1714504319122871	0.13913689547535163	0.27691140646450446	0.20626487404965954	0.0025820813240969346	0.0013991623998377486	-0.007711320776125501	0.023781682137520698	-0.03548830744442806	-0.11527998404647932	0.03723574342050228	0.225363957346015	0.30399735576193576	0.2609571527440562	0.22118494775274714	0.03507274866028597	-0.19278492136314376	-0.14658067540761247	-0.31134127381118437	-0.285763955572658	-0.08849979536631367	0.15477169502255345	0.015411755974630851	0.03438082459952977	-0.10298476405406046	-0.09297015968430687	-0.16909747743387474	-0.16785165496314186	0.044294171716526755	0.3539292466763347	0.3434378659583351	0.12693791631562495	-0.008269382288160739	0.004065790255342714	-0.011231749365944331	0.010495367370401095	-0.03637481838953502	-0.236394883421481	-0.3188779707287075	-0.0024812668832999455	0.4770018546394021	0.1830193085217644	-0.17348525782797788	0.06590832721723523	0.22545798608103798	0.24345638615144324	0.16902554533975161	-0.3022888642531153	-0.2818054257555399	-0.3039946323772291	0.09984311131367557	0.1537924750550428	0.10314727219540563	0.014819344752076998	-0.19942076734806588	-0.0980992652839417	0.0007120641202192154	0.0555162081294313	0.15090300692844202	0.03541078052470479	-0.00611527682736417	0.003264310809692623	0.003970329360240174	-0.01114445374231019	-0.08549463193988577	-0.1417641121651123	-0.07464441708606374	-0.05435773480704143	0.04839741569361197	-0.12351403943320347	-0.034930181967794446	0.1477902980074372	0.059670221828312796	0.24124727801018025	-0.10336291287770616	-0.3688362318924244	-0.17200329299612346	-0.2238545210149594	0.014046218435715475	0.22311786381930954	0.2486264008611157	0.10208813438176696	0.09460459916019462	0.10305529475806453	0.10055398513722372	0.032704011893324475	0.0798926173258774	0.019612093387816262	0.008150213290957848	-0.0016383458918384887	-0.0037788644203264506	0.005319462745490808	-0.09829467081199367	-0.06486704320143218	-0.11147452528754902	-0.06442762145735731	-0.10319238104222171	-0.22546881922251194	0.2510446490525133	0.1444550868370223	-0.020238425553629476	-0.2059445100600614	-0.5319238020846218	-0.2631494791799555	-0.12060915494400613	-0.28355779473005405	-0.30270425274922724	-0.003490613688811302	0.17618472108364552	0.10522004262175445	0.1686120112178109	0.13685533226870222	-0.030786678027995742	0.04701661507993188	0.1075274621249135	0.022949376249735587	0.0005692314104490605	0.002269042275896603	-0.007768679485750773	0.0028796797214196337	-0.09415758103921891	-0.0897212660604994	-0.2095744312320798	0.10878186636746759	0.35171134429634454	0.06104367134851366	0.1774657376568882	-0.056643969235167964	-0.2636663480839576	-0.19343284722144366	-0.324850474893747	-0.23366034926272455	-0.0728968612635597	-0.1263977368996666	-0.05281948334269131	-0.005348807454351817	0.007676002508680966	0.10691070131503429	0.16891210853427902	0.07670560264443936	-0.06299286927264061	-0.08930781437928174	0.0260946739041164	0.02207031591455771	-0.007356259661092698	-0.00783415519121505	-0.005998416770687232	0.000763791730559786	-0.062147008256784125	-0.0917731375151449	-0.20355778006665978	0.17539998051695327	0.31254700637198474	0.3714179273599966	0.32243154090477477	-0.01953687934756869	-0.15874795382477624	-0.17568592134336122	-0.10889946038008833	-0.08428704455497407	0.004128867690545678	-0.051110923512883	-0.0016753211873117434	0.08726119936421801	0.10709591313492413	0.140671199863303	0.10375808212942081	0.03899377833206943	-0.0017457282248092038	-0.041108393599785166	0.01930574382700031	-0.0016268517516273768	-0.0007540023174128427	-0.005064916296316569	-0.00047273255105227674	-0.007885292910758155	-0.013792818773146842	-0.06595208014513151	-0.0869331558415601	-0.06297008063221536	-0.044315642507817374	0.08528761110591028	0.2019639399377118	0.048173486838024686	-0.1035598843755974	-0.11598582571755586	-0.14424450201636346	-0.029687339251266175	0.07448343203044541	0.11143346667585001	0.07804175520551189	0.07027243750879693	0.12591594658213917	0.12603895193086553	0.03289489609897253	-0.0762489929704512	-0.07431833084044619	-0.017270491890680244	0.004255016146061124	-0.0005167819146419325	0.006371219211953941	-0.006841074645913521	-0.004969658251612472	-0.0056534575002542145	0.006053551597551215	0.02115734800754632	0.00799954852248595	-0.013980761323630379	-0.05770977846314762	0.09633428496439254	0.03790075716564139	-0.004832908498289769	0.03477175370805713	-0.04890384481277809	-0.05674165193058111	-0.003179474840110171	0.047919992089356614	0.0874732093107355	0.05231467530243549	0.04471763242664258	0.09711552222791658	0.1285964490395206	0.02389972660207614	-0.0518217686779854	-0.025694616638405107	0.009864840777227895	0.005831418295104623	-0.003570201025483227	-0.004454653362631535	0.002272746161160544	-0.004597053519743168	0.0006118462908184987	-0.0010173652992451262	-0.006187069598566208	0.021984481763022916	0.004439629438552618	0.021922774074996633	0.04154880343345863	0.09089124699596612	0.046763912764173736	0.01825945129504076	-0.0021705241818182302	-0.016319597792767943	-0.024259866576105748	0.03599886122446714	0.038574558116529684	0.034550610155370275	0.02719060068692233	0.029695110982868356	0.013212907203627241	0.005511221088759177	-0.005195054102389093	-0.027781683016103318	0.002100128557022877	-0.004687514200543054	0.00039569508381870865	0.007531527824509058	0.0071808044609663925	0.0010568049364657398	0.0060852272718445975	-0.0020916624339285487	0.014099191213544101	0.004394519086228941	0.003522540910445538	0.01826513372011129	0.01913520269870249	0.017973816345927766	0.019398077450259423	0.004537086872620667	-0.006066568431051634	-0.00040188200755632113	0.007894352159274802	0.0050911690642030825	-4.039315892542113e-05	0.004948512812131564	0.01898639033990371	0.0007493990286612298	0.009103882281262458	-0.008035751720332246	-0.0029870805272341518	0.005664115071149339	0.0002672048707144919	0.0001834264388268711	-0.0008574544547109379	-0.0032142152985658702	-0.006658507072204311	0.0006758506085367596	-0.004738790308785086	0.006958919617149444	0.0009378641559369232	0.00695456359691465	0.005701617205191349	-0.000647237575236017	-0.007226660774217313	0.0024462328387923012	-0.0019522284906358619	0.0017773132301680174	2.9010941581919525e-05	-0.005657640783289516	-0.00412899124492821	-0.006439448483175091	0.003219333130453552	-0.00280468456982148	-0.002640371056535936	-0.003255100426225836	0.006615274871026573	-0.006359682017124099	0.006965907729685927	0.007195387561218795	-0.007685718857220724	-0.007349239216923056	-0.0012117631063581196	-0.008489597248758331	-0.6016268493048763
-0.0015088899506075816	0.0033160610615975486	0.005866133522745058	0.0010221546571673075	-0.003004107170438153	0.0015288963520997123	-0.001210266204399753	0.0007478192684767654	0.008513004669270768	0.007445071084688664	0.008342956885080292	0.006276794413017189	-0.002439436373062147	0.007849059336825788	-0.003520259620022218	0.007392614860676296	0.0072023368370235305	-1.938649671486166e-05	0.004540650950823712	-0.002027036622185692	-0.004639061125246316	-0.003775119073433875	0.008471959025808894	0.0008052116370587843	0.002208669274278383	0.0026548448473698097	-0.0010616060451256104	0.008131561482232645	-0.007095816357674484	0.0036900099502736056	-0.005732103391133961	0.003378186260391854	0.005118063494227285	-0.0001858312602341216	0.000628470837152539	0.007860290228208501	0.004077609631403308	0.010781876249524569	-0.002733184703425782	-0.004934322575653366	-0.003953636362488786	-0.0034830837823562515	0.0037479184514270496	-0.004918360541011822	0.00793200414795004	0.005297912876028226	-0.0025707842702337117	0.00716985823473627	0.0041735634375252365	-0.0016002016131401505	0.00795910742482121	-0.0032976664048772154	0.0020740385452008327	0.003155019157554003	0.00795208116772652	0.004564969189836669	0.005886740599766686	-0.008553452786917106	-0.006596122618544194	0.004060016452074924	-0.006584741075376617	-0.004026577603096209	-0.006885760463616586	0.0029743034897130177	-0.0026136409072644207	0.004069393191265016	-0.011340347436951231	-0.009909772671721525	-5.441073185371917e-05	-0.01815600302941871	-0.008947604899731693	-0.0011536127008065764	0.011263412468498282	0.013504954914386656	0.012778136994533893	0.005025447388228695	0.0014836815999234505	0.015457395748101448	0.0035590586101064605	-0.0008157328291988602	-0.0035307806294020997	0.003083324195165625	-0.0019180729229571385	0.003263752217525428	-0.0017435627323712892	-0.0023015063659809843	0.004631829696797306	0.006353432414864907	-0.0044929188326464945	-0.008271766842666227	-0.0028537378873385484	0.0005092827114989981	-0.011362158333254524	-0.015448424007135074	-0.01507330925434648	-0.028800056706618653	-0.01082245766485117	-0.019889315467971284	-0.014363548052380626	-0.008826106075778703	0.004506429813870539	-0.0128135844332277	-0.016599590161213863	-0.00473068186015024	-0.00967476008750096	0.009913042000815516	0.011687153565341946	-0.007428713572705349	3.1663592680914503e-05	-0.006998791330315763	0.0032828311234150247	0.003190385598644957	-0.000794482357497673	0.0004645418968030335	-0.0013773059402808242	-0.0032386471364234575	0.000867670974825753	-0.016026483309084936	-0.014274428415309388	-0.062491434487269154	-0.053533365490116745	-0.03376171290711551	-0.07893197558819948	-0.07366151049194089	-0.007676709778103021	-0.013217048781980862	-0.026641195905857878	-0.033933773562136706	-0.06927291632920735	-0.010926640855769706	-0.04665225988988068	-0.08488428912080967	-0.056324701492888866	-0.003417360411863071	0.02114194111341276	0.02952328087875429	-0.004151816466240609	-0.004655990009316202	-0.005433189156343001	-0.008349178851293033	-0.005668709487323865	0.0034704315725917895	-0.0067477961114964	-0.005915328741383938	-0.013839997355602113	-0.015625615224696136	-0.06277075268841942	-0.1555894926082711	-0.0951419925628555	-0.06110337277659326	-0.06965748566613052	-0.05018180482646972	0.0018271645364785526	0.04239767724825673	0.053718988078618295	0.030771089719938957	0.011074045106395742	0.010388237548003661	-0.06828866849926886	-0.09922088503509802	-0.08988240322379762	-0.026640499847413183	0.07749639924065976	0.07428542827560013	0.048888375930741385	0.0007894065050397051	-0.006442704104694712	0.001740988902644026	0.006526993035055082	-0.005352087720670452	0.0069261531396564106	-0.001384553512893082	-0.016972565679739194	-0.06365817447183136	-0.18003440885453065	-0.17430881812393834	0.024277091879755932	0.008201947355070781	-0.04332131098832542	-0.09364945252588937	-0.09263563804861175	0.09770840481348045	0.12477406949158361	0.018954638097407654	0.004522234645691188	0.078304167358447	-0.04779892971267437	-0.05528632890907855	-0.014838676775996883	-0.036486432475687204	0.08514374886281216	0.0008644615258853037	-0.0031260507900259123	0.004138860688683484	0.002677629033375938	0.0057642834688399255	0.0018869800095385261	-0.00455144890063807	0.010777348289714248	0.005570038626957123	-0.036538363982526294	-0.13771669679976425	-0.10851968640999397	-0.11890821952048856	-0.07438846271718444	-0.135132871961876	-0.14713073766862667	-0.15468556567426214	0.0004620862844827969	0.09846870896040245	0.04154004782516135	-0.11882622346451485	-0.12226744583937504	-0.05697440031603568	-0.0929239768661123	0.03915807853946585	0.07810993086976491	0.06774503560726577	0.11806939615411227	0.028839834060172667	-0.07620948163187337	-0.08014330864403628	0.005820101992518777	0.004127150415733145	-0.008248657060483314	0.007624460942659013	0.00959353215353785	0.025278279677238343	-0.04011372680897035	-0.07080004141416368	0.04114692565307511	0.11244486602250382	0.029883290843595114	-0.10205136358980459	-0.11203881439478935	-0.03274972349623117	-0.06362846318372187	-0.02678314836175983	0.03285541691398517	-0.1524265521473396	-0.1696955034645216	-0.19225493758512752	-0.1697630303893469	-0.005943400750066594	0.24405089525572235	0.16080741739524	0.1366398045591162	0.07047938456857307	-0.023475905458216907	-0.045389075495562266	0.012437697547554496	-0.00733177995009833	0.0008563837825939068	0.005351393998598867	0.014520402782397739	0.025416622358859248	0.07855892093510838	0.16098396525769057	0.26003764336425433	0.16732449994635273	-0.12997715264574763	-0.1693680513565074	-0.07955225850735488	-0.07812768264052329	-0.09798887068567981	0.06736293793652828	0.14053348110928182	0.05432214438831605	-0.012310201724624856	-0.04639147369677864	-0.06806560906516398	0.12954668953784532	0.2453828913038921	0.28425037032281847	0.18438063410891462	0.2324461445351751	0.033539845229703685	-0.024044137909286247	0.0005135287763305839	-0.001611205759798306	-0.0076340474278380165	-0.0024347139905960442	0.0315552067472205	0.034438983881741256	0.08850912005665566	-0.09422943833969696	0.06184265636518972	-0.02658531616267314	-0.24913236292285637	-0.2520338548636128	-0.0962615217052477	-0.13320284248357409	-0.14490101414193132	-0.17189225351915707	0.03221837342246994	0.08667051976135606	-0.019381055925863328	0.03415481787947043	0.2089852284155325	0.3516272064976993	0.24353359910977074	0.1065734338062542	0.05585997437366726	0.0032099484448236933	-0.04082805744713862	-0.08435330538783656	-0.008283671251855116	-0.017504673287388355	-0.005993131818131018	0.0057618333101357826	0.09208609227128861	0.06054572858767686	0.06395603320491197	-0.08258823513907648	-0.04228374233693115	-0.040694158591412746	-0.12045326879844645	-0.04758246515552638	0.08509939681445047	0.11115997058346318	0.0029205232458933126	0.010111018190500516	0.07758107931592931	0.0964768414320533	0.03391196178343819	-0.03539801985864631	0.1586218830891496	0.4866508220488235	0.16404633909118724	0.10956615081298947	0.0777174673953023	-0.14843323207341605	-0.08853008660929093	0.01761923038906738	0.001338046588290902	-0.016327772063915228	-0.007428952505487504	0.004516613397239604	0.045093150291010305	0.022473224748679053	0.061461263108142185	0.07341653014347303	0.07461402423676758	-0.13939379161266352	-0.14584332547888645	0.09982773018871663	0.1020685486074819	0.10590453296496874	0.018193071808174047	-0.058401489238543845	0.0337068650844619	-0.0299758861424322	-0.016937742699856453	-0.18243023121911092	0.14936975592370247	0.35679511190769764	0.09918654723486328	0.16765358295224372	0.10823874937963306	-0.004164559087529597	-0.06681742437418482	0.043804835033397986	0.008169401922797291	-0.0016626065846273913	-0.001663195530800252	-0.0017223951534570845	0.014619733544397636	0.03435439513527287	0.11656409971847909	0.2835590937453579	0.09404081021712837	-0.19288379409145423	-0.11144774906914763	0.155088757600302	0.1836083229483248	0.24314505806760547	0.11801358227078712	0.06270419887710495	0.08669799773762715	-0.09762254785667214	-0.1623853447683703	-0.32116874938542017	-0.014864077889066917	0.14804354073572135	0.3188426343860837	0.2855997674451767	0.30942342598300987	0.12917826535506433	-0.0059717337241541255	0.002619213005255187	0.03648674387256425	-0.003695120228437035	0.002830670493954914	0.02679767154121377	0.007461942489411794	0.12484614620977255	0.10171634986682895	0.012997424034219038	-0.09874365259849546	-0.2041220578484295	-0.04556490659260349	0.14171980817095933	0.16568098568725995	0.20521764006867432	0.13508689830763568	0.2226951937596973	0.17986879753029508	-0.0769881457538462	-0.13406322204509996	-0.13413986728169633	-0.03720695638221008	0.27167259146356154	0.3307752946355105	0.327745153420749	0.182496215229901	-0.008544010242476035	-0.02512467483052735	-0.027529311497731728	0.025617257202499067	-0.004890461269906332	0.005707765810618874	0.017673422772892633	0.047102002604381486	0.1773402258078533	0.11871850464479707	0.040045769595996504	-0.10530033629382898	-0.17629096632831961	0.019818408591083532	0.12069291898314813	-0.0258041977354285	0.18516888403546444	0.19198743784883457	0.08210948618474065	-0.005488737550745253	-0.2918010436687621	-0.26903033476989974	-0.2458044807059262	-0.18283833895962673	0.11246439274182674	0.18025464707503505	0.18439783528947604	0.22884025894414464	-0.042572275086841145	0.026888402362612078	-0.06410923474286427	0.02391673692527645	-0.00896339584636349	-0.0021771867404584318	0.0033343793646922106	0.012494312558348193	0.16670478603853026	0.16385387446682595	-0.1052039968839987	-0.1798536929975403	-0.18434277469929783	0.02914560442431999	0.00044670304692013147	-0.16085869299799957	-0.1633577724850761	-0.1887818961228265	-0.1925640008523226	-0.17322254463107348	-0.3354834431421558	-0.41433941105934424	-0.27542283536356726	-0.08819105863528079	-0.0405203981900304	0.09320852017987327	0.21622188135839526	0.3589154589017258	0.061461716128439446	-0.059656488151456806	-0.09850809328848963	0.03757236905810552	-0.004341901196777308	-0.005653136964640818	0.005082677854889263	0.009013029422258158	0.06757547653003475	0.13757570971278218	-0.1994473253861617	-0.25239237821579985	0.011745767866344571	0.0681601926187668	0.014780165188842093	-0.21268760283212299	-0.24939633842155598	-0.1982175118097896	-0.13293427956217685	-0.12584302321125124	-0.2785490736703594	-0.2977556810909142	0.0027469228998449197	0.09218080985919336	0.09221393797145548	0.0429363829614585	0.06982758001774084	0.07169595274135189	0.01763787054515143	-0.05429401078867919	-0.0034894788214266804	-0.018226094732386563	-0.012271563779404684	-0.007352357204361389	0.01034292092805145	0.013389119577798526	0.03532981153747987	0.017819350079328458	0.06253701726012476	-0.04308011684948342	-0.025065512243448575	0.12657041881115072	0.1764178833969357	-0.10151194358322363	-0.11380335607885399	0.03572374033416905	-0.03251535869810378	0.00680618479391117	-0.10324385604126103	0.0351490171335276	0.08550117876009664	0.1831974364231464	0.3266519931123728	0.12296381160899979	-0.011163315428783327	-0.09794339246790071	-0.07492735203924937	-0.12145641069429235	-0.03824512573656214	-0.0003213054500302982	-0.005913833226290105	0.007614078454705374	-0.0008493494623165974	0.011026822786551826	0.04738199754060604	0.04151434430857994	0.2841335059876255	0.17797336326506072	-0.01853165635092336	0.008925721107056786	-0.009688090368969471	-0.19144385008481193	-0.24317945739383545	-0.1389384659145683	-0.09311361293063182	0.09422931655741212	0.07749992232463535	0.018794494067268866	0.08689106025501316	0.11625323569459878	0.13516369324532804	0.09019987446874513	0.12424777201955264	0.004678152530669316	-0.09093641115800136	-0.2589950311815286	-0.07845980516688739	0.0048668282401519375	-0.008275248209596443	3.795450513939015e-05	-0.007176811165450006	-0.0027194042762870092	0.0703174487349308	0.12731816462638088	0.15490233040242904	0.07022786832337895	-0.09453877400459984	0.06136931872797291	0.015907243682591787	-0.005051723623158781	-0.12859002729998698	-0.11960777912904964	-0.00672302429500472	0.08920984828279818	-0.005332040283717501	0.07035587708407413	0.16384183696842033	0.053281408313728386	-0.05749324048590848	0.015340301427299217	0.07861524155328131	-0.0738058269691963	-0.13680238870549713	-0.14063691878986756	-0.03164265067698725	-0.00976802146137442	-0.002727612899997444	0.008256070368579296	0.007030900835321107	-0.00748977206557678	0.05210908498004377	0.10836660494474036	0.09251767500998108	0.03129526574407648	0.030773564495691037	0.010777506113397933	0.015149604415367949	-0.11555756618388997	-0.07946951714579858	0.07573361289785013	0.05476355590981076	0.04729941830163279	-0.06188484913588033	0.02004704639192659	-0.03505752754740235	-0.18111960486756018	-0.07504070956220828	-0.004951145243846445	-9.871168251733163e-05	-0.0629920534157356	-0.05699213986928098	-0.024953455916504916	-0.018155740010670978	-0.016839461952848387	0.00756047224464942	-0.001461067460401806	0.00025488284906391087	0.006213267043772848	0.02812756605350685	0.046312638387735486	0.09565532766403083	0.06414287565581109	0.043965221147787024	0.014995550737733395	-0.058043329692788366	-0.049705594789515126	0.032386927384855824	0.15778955313214915	0.16393726268045014	0.12871041018708218	0.05674961885920988	0.11944882538451057	0.01071586571789892	-0.03357219816582165	0.01883872946522026	-0.018806727933217665	-0.056991622882963125	-0.07364697808458082	-0.03366478615267565	-0.00860940091665524	0.0008798228552886144	-0.0035178097151519973	-0.0036619854630389184	0.004850188121218549	-0.0024984063141152736	0.0017353568292321174	0.011172924928838176	0.03346517421473825	0.08886476812832303	-0.05251812448339909	-0.16192778067885952	0.032965239371739764	0.06867328327354669	-0.009592910587107019	0.017992958115426533	0.07152605897670339	0.13740217723618392	0.1877938890381943	0.10771674341984723	0.1243132014421382	0.03238430124443604	0.007237233780215662	-0.00194308982704339	-0.08893985655102817	-0.04028717090067778	-0.04367106120664984	-0.0091073169650198	-0.00016337994970657218	0.0030633103559863663	-0.0054108692130680515	-0.006817209297943741	0.00450362647769432	0.006317719023956111	0.0072911072672692395	0.003313846013977473	0.005727396114978558	0.07371120992374904	-0.04029100111611306	-0.12054431343830686	0.08524278829830911	0.11722346625691031	0.07024183686047973	0.022079381285503605	0.01942449232175967	0.09162791955662997	0.09369804496195232	0.008155570530656131	-0.029364498189355295	-0.05497583222802086	0.002740236341789539	-0.035689963947277616	-0.02356820751522407	-0.0103220290174062	-0.05596804327311945	-0.034061736819585686	-0.00019854293846413478	0.002978785326880147	-0.005081863699394745	0.008075803799465452	-0.0007070233359597472	0.006122706906403708	0.006371335816694029	0.004450325624776468	-0.001209652517031953	-0.007111267267337722	-0.02424380998991497	-0.00759687420956113	0.034419682758492665	0.07083389424146928	0.030010534667594135	0.00868781897495957	-0.013345481919849632	0.006889262731570783	0.012916002268856646	-0.05555730961680733	-0.10838880315024689	-0.057448732519947206	0.0009833039436636356	-0.014804410806249805	0.00033477099656520196	-0.007183414610959251	-0.007139822371444893	-0.03498981846445702	-0.0017492600313732723	0.008300886564426686	-0.00276269129999728	-0.004336847860383051	0.0009617965911542115	0.0035149207812699545	0.004578506250761874	0.005345522580353531	-0.008083993575514035	-0.006381766043257293	-0.012182033760993114	-0.0015733300902058796	0.017370372168684606	0.006314598228903115	0.01366516921586991	0.001499462658688077	0.0019734779241718813	0.007040651124059355	0.004229870597582406	-0.059365102316895166	-0.01128378227460905	-0.012723501554852213	-0.02433582940640325	-0.018197514345256	0.0017235883253465887	-0.004681916197865163	-0.007355685306118373	-0.007190602372329978	-0.00021761355750147746	0.007956862558734672	0.0031516715344042327	0.005998756573372179	0.007505408838980418	0.005903726650620613	-0.004247722225841777	0.0013314707079510046	-0.004530896047930111	-0.005131345015427491	0.007598623905014798	0.002766184875682606	0.0014514145132688491	0.008412755757763226	0.008392504074576033	0.0009674241004590332	0.005931689291356512	0.0034271601885053574	0.00018430367838052387	-0.0017534818006173392	-0.00543552380875475	-0.0009066354076043986	-0.015574841591184297	-0.007780110854604495	-0.0030705010358316074	-0.008217237682168019	-0.00427558816307104	-0.007370045671817307	0.0019636957349303784	0.0004204575136466885	-0.0006498883807707738	-0.005895237773540806	-0.3344885477279046
-0.005306664271007535	-0.004371645531190266	-0.0029097386679059816	-0.0031712956062776385	-0.0055960641750208255	0.008441885330249706	0.00409995576739591	0.00019926188684716607	0.00010000609727703509	0.002429976514350518	-0.0053222873171479635	-0.006499177109250118	0.0027637113782015034	-0.005254978078215469	-0.005484230769786009	0.00128397651208185	0.006367175259312716	0.0005101886533242974	-0.004032634511874012	-0.004096640529923052	-0.008473110449319813	0.0038226591454095567	-0.006099212899998978	-0.007189202511615332	0.005410890557058647	-0.0008717280401723607	0.006092252677565026	-0.008008181091791076	0.0035581928178113793	-0.00031097854651167267	0.00855116048460498	0.0011613137125404596	-0.008276601973882487	-0.0058327190030224955	-0.006196806981105953	-0.005900311378555174	0.00680114489997674	0.00043319163350006955	0.007026058155163536	-0.002719415831467875	0.0014867501489176389	-0.002178122789043152	-0.004084528380689184	-0.007373610131293833	-0.008414429555715372	0.0038745719606699605	-0.0018588970233264727	0.00308364659054044	-0.00430867652181822	0.008086752736689056	-1.807641847960395e-05	0.007695873509266732	0.0046813439213740145	-0.004137085812842015	-0.006236797879362524	-0.0029841981894207685	-0.0077802235448972724	0.006170482338871354	-0.004266224783394684	0.00023751442166972114	0.0075937373400684835	0.0034645679030366073	-0.004512035907701748	-0.00865136813487083	-0.005578511269645629	-0.0048938014201109796	-0.00321305172711917	-0.0048643393458997755	-0.0067776308250974875	-0.013769774988794978	-0.013756518593572568	-0.03262530398606397	-0.041399519422396565	-0.03903239493831361	-0.027430952671935786	-0.005790617444608442	-0.06200234305341716	-0.0662491300923437	-0.029098721575955565	-0.0013929710135269224	-0.00483426721177002	0.007897335738367487	-0.006758932845006397	0.004986290113516293	0.006251592740092085	-0.0016687296550148886	0.008681058689080215	-0.004258110584819669	-0.008383463457578988	-0.0086193474461468	-0.006980659611721995	-0.008851410016166216	0.007172025227663093	0.004771361978344359	0.007413620550359688	0.009874485831847626	0.022355627986767886	0.013716148389113045	0.006010546716063611	0.0026481004585190674	-0.0159900736176717	-0.0002884517283793574	0.003867605895256792	-0.00981348928062518	-0.030092039227595874	-0.06819671374709577	-0.06203044380345055	0.012674277873280307	0.007269277704181146	-0.0069062339370095805	0.008102426532156575	0.0058021844959830725	0.0037488925990628186	-0.0042680991234491285	-0.006315980738761847	0.0018354765139134872	0.0018189236770392704	0.021106038822200142	0.02334185165354326	0.0443510181286718	0.05382277213714942	0.044919572491404755	0.02288856769561331	0.03432977544616263	0.02660328888874628	0.0166183084851434	0.01817939667411514	0.04293712180509263	0.08989153087980319	0.047735021421058114	0.0818697207065934	0.10981744477522301	0.07289076676016755	-0.0018916441297303146	-0.03669674645473392	0.01873214700310703	0.01579223218626836	-0.025860431017991143	0.005005499926634469	0.002054270885950638	0.002422938054823227	0.00444842056560121	-0.0038077201731432087	-0.013805736123596394	-0.015077304332545144	-0.00048379170358499535	0.04504852904532827	0.21111480973901298	0.11120735644023845	0.03322717306248852	-0.03196840918753179	-0.019295017335800174	-0.0569059987520653	-0.07200247829427929	-0.07272836263935693	-0.004190938387336776	-0.011964850175749171	0.015809734717839845	0.08175445738661723	0.14980194615313389	0.12986511776317033	0.03272153739829146	-0.07496524173087876	-0.00023383350074297982	-0.015025032953750527	-0.01604345391499227	0.008523464631786049	0.005137608009850874	-0.008019554269176282	-0.0008653523703277093	-0.0013341562697474342	-0.028042272568315447	-0.046955897432551304	-0.017470414575857848	0.10307505050583153	0.22888125800962902	0.13286239693109442	-0.08897366432923509	-0.13184652188568954	-0.08623726038625733	-0.0457095796636954	-0.07484981513729287	-0.05891158756621996	-0.03729507112381817	-0.09925601305818298	-0.08062699722941444	0.05824221153136968	0.08649112271001645	0.016794427517723576	0.06638941015621196	-0.14839578966493572	-0.13655416474335663	-0.06541213821872816	-0.03102302369593212	0.006883103102757311	-0.004695573951082349	0.0029333517420531106	-0.0049249738094045235	-0.012680626885283288	-0.03892513689287847	-0.01145260569381754	0.008843255386655818	-0.005066118637647487	0.09801476883198115	0.20168429029891094	0.13176781858287745	0.0025920099663844496	-0.07050808921695464	-0.022581948179658147	0.005043597031215441	0.062336237333042596	0.08195183687686712	-0.0032904842072700026	-0.03369524325641553	0.04434722002652731	-0.09768026473483042	-0.056375919514298475	0.06736870364338288	-0.08862995954995184	-0.08382217841606592	-0.06591248376043443	-0.039939817935265166	0.0012425162110368808	-0.000600917252379438	0.0069200628809883875	0.005872062064772192	-0.013628311741783814	-0.014632852494477823	0.015449114442339429	0.009881484022135822	-0.05942288726540351	0.029530105226211103	0.18073558824255137	0.029248608701347687	-0.0768975511938875	-0.12753535591419	-0.13817344469708315	-0.1304568119845849	-0.058283292011464136	0.03568590937222112	-0.10158233866957378	0.023694685712994618	-0.1035808240808751	-0.11911543800979175	-0.1907820327734426	-0.02681278598485752	-0.044206640991453085	-0.07231272016024423	0.037795323732209944	0.02428165094858976	0.01906464099437297	0.006805111134161082	-0.0020351573691094185	0.005875202892299762	-4.65813031742557e-06	-0.006012667152981074	-0.06078958881207683	-0.24370150815793076	-0.04537384225330358	-0.01906521808660351	-0.016479996680270028	-0.17261718214627458	-0.1584625752362864	-0.22570028394959096	-0.1453845548294538	-0.1825115629485592	-0.14784167307268847	-0.12616121756965068	-0.13814334381136126	-0.019645657889645878	-0.023432370021618253	-0.0322066652848199	-0.14547910905469125	-0.08918750069839304	0.08176884306271336	-0.15883460768421756	-0.09480555838906944	0.0535955954865188	0.018730129551380332	0.008677846534997596	-0.005460828038914055	-0.0008897216897324859	-0.005638904339773057	-0.06263444786423171	-0.003293817314526705	0.0997470310331951	0.06560175047296302	0.14975675846753023	0.006961729876956448	0.048460796350536815	-0.1998566853579548	-0.04713239014728837	-0.1019978437752713	-0.2542200869222338	-0.13857190988239684	-0.06432294478492884	-0.11825146387610629	-0.06257918779215384	-0.040517197624359895	-0.21493850544630397	-0.27092882439287225	0.029256133125944526	-0.029982384666784916	-0.04258806708300801	-0.10216840499852037	0.054754846091339245	0.008833370200219607	0.010067343018585185	-0.007728947760315399	-0.009453793295523372	-0.015540259224390602	-0.04399188907548737	0.0653335942073396	0.09536438710459968	0.019823799186302567	-0.04533976221760986	0.003707980551466798	-0.10874354058374042	-0.13700441133392607	-0.09922142050602442	-0.29992767427738787	-0.4913804813537875	-0.34945328760784544	-0.09113626271812822	-0.11491591527935513	-0.021390696648737346	-0.21550959832700237	-0.4420107179903612	-0.16386428398461392	-0.08284718314221962	-0.1095331307256152	0.08387618623264673	0.019621412722840487	0.042041090665074825	0.011874542955693209	0.012670691573942771	-0.0007793009942067154	0.002622456742008196	0.005922899078003613	0.024551747656882675	0.173472265175312	0.18143841481646164	-0.018167999801536397	0.04808876127319471	-0.027612982760740017	-0.24756452344291152	-0.1495283598938906	-0.05360902667560724	-0.24105524958296512	-0.08067743359322505	-0.06731591731618432	-0.0970642835222826	-0.07273510975972382	0.049394257904247556	-0.17752754348727653	-0.2790343383419873	0.07986628502918926	-0.08698851756729369	-0.02356867704482745	0.03738263961538108	-0.11584856486787068	-0.03224808561079819	-0.012160045602760107	-0.005937969875722947	0.0026449835557407694	-0.008847804868066371	0.011202872133639854	0.09657279513635357	0.061177535242710815	-0.01752963308057402	-0.03511283392675469	-0.05781492293309351	0.08702274817110188	0.031686251501312455	0.008752670093144564	-0.16610235702492598	-0.028840078370961305	0.21787644952197424	0.0494574437020414	0.16717486960866407	0.12031460178785618	0.16506778576657175	-0.0164136716198017	-0.18545379186087174	-0.298799690500151	-0.151212343852435	-0.06880568481528344	-0.020896361521900508	-0.04358603105483617	-0.03081584124330576	-0.04588646516767372	-0.018928663353496248	0.008423987517811485	-0.00870949218376639	0.028576425299238536	0.011825143738923433	0.05476889021123477	-0.07799643860023926	-0.016974635400046317	-0.05516590226544339	0.09028421508826044	0.07297064058310544	0.18883746149036285	0.17289232788121475	0.11880134595727754	0.15866474457587063	-0.0001737024191729696	0.21855799902592687	0.08643977087685092	0.18738718363262355	0.27142687370812824	0.15605127945379765	-0.04868473750563042	-0.11351446547038509	-0.07122972966226393	-0.09770758176296108	-0.07123199177404034	-0.00613975383671799	-0.04278161722990928	-0.010827728161781116	0.003205532670620492	0.001649534290476106	0.013514610344000994	-0.022822961747580806	0.03343726165683172	-0.14659660052973844	-0.1564510119660622	0.08876679094335664	0.21097092526834613	0.2843774319184859	0.318316356441407	0.2714071695507878	0.19279575343245783	0.2541334482888393	0.214349295157001	0.14874393543245057	0.4498275397433072	0.39251337098276545	0.14317668924855592	-0.06208240678835128	-0.027876237588267058	-0.023950228204809892	-0.07300390218722022	0.0992144825264166	-0.09084771151598675	0.01794719965535387	-0.006912531613685583	-0.001877440316038609	0.007267895316885636	-0.00794179959428418	0.022618644316334785	0.002361170630465482	-0.07870762449696221	-0.04305348199587211	-0.023155557933895527	0.17425528714442137	0.19613415296786207	0.38664192747709347	0.4733420692076132	0.4102383666316897	0.33202967831504293	0.23525623455221664	0.2588062774090414	0.42427826254560824	0.5945733525335855	0.38235606811809925	0.12890868471230435	-0.1499983786589036	-0.09133247356359392	-0.19590380767138818	-0.1502835771499568	0.0830893873191202	-0.015557874605214942	0.06726862167053928	-0.02723860496727141	-0.006513969609942008	-0.007174026835388036	-0.00851652685603859	0.013307556466752695	0.04386350171430972	-0.018324404899726556	0.09831599367866999	-0.06478339805597014	-0.12177752447323258	0.07049192642586542	0.32411891997902453	0.44787106748361794	0.20943700527291373	0.0938379474414756	0.19877845286597168	0.198602885277295	0.4481202282562072	0.30958755596491694	-0.09404030080231435	-0.24732568775070285	-0.20846773948306896	-0.1893378962671599	-0.18319311981164638	0.03913033181103526	-0.007772924422848356	0.0007682645663053166	0.03854183038974822	0.01865610060466826	0.008558467761374875	-8.035024332363194e-05	-0.0030752016921517713	-0.0013329899596915956	0.06836097772887054	0.012807192091226808	0.16747930020515253	0.002334537705846732	-0.11761816726288235	-0.04410808143019009	0.23263202887235057	0.17674409386926512	0.02830257653746733	-0.013598705532431678	0.097833046656593	0.08494021516074594	-0.008098137135686153	-0.06867336051583477	-0.013281282971190378	-0.21615390012927221	-0.18231451876162208	0.14547764864877621	0.06314849974968588	0.08879297166800645	-0.12063685501731805	-0.02030962680259541	0.07082937632681567	0.04340488028327245	-0.006141400340528308	-0.006555214708998149	-0.0047436445594761616	-0.015223750689823201	-0.021921592841087655	-0.0731227318963445	-0.31361059327972723	-0.10888614733765395	-0.05890836962372604	0.024441216945673677	0.08311678829285478	0.30746389294010273	0.26059745398631395	0.22923675163790092	0.1808440876730794	0.06982159382008703	0.07622498739192657	0.05571975816299456	-0.009233244032088864	-0.024437847647408435	-0.08404627060354082	-0.07763942703947349	-0.10322126634676584	-0.1415376116849003	-0.18160409693252344	0.08172510529784398	0.1013806135580216	0.013480356010539313	0.008632754499473667	0.007722235824532759	-0.006855559524931351	0.0007490651489632191	-0.06298844591389094	-0.2237820569899287	-0.20643819061282329	-0.09509187411109218	-0.06622870871743149	-0.08757817342129808	-0.11651439991841021	0.10887793026221003	0.1996564424439414	0.16414553185200254	0.1311195777653246	-0.08414358605487934	-0.126808137797973	-0.05932189795494798	-0.037710943438444715	0.03389895336385438	0.03583588920109168	-0.0161158671166056	-0.04037285241764456	-0.10610557531195833	0.03291881776828098	0.0942648461908565	0.028889137293740458	0.004697729021572828	-0.004349455512936107	0.008093124217738376	0.0019488585356791394	-0.006999297494335985	-0.06115748976523518	-0.23205382570920963	-0.08118271898533772	0.03974674020150911	-0.05135274114948468	-0.13797186801153777	-0.14837909066758073	0.0023898141070461845	-0.016672824840430877	-0.10519159019814432	-0.14545395010295534	-0.12283841743222239	-0.00806019399107052	0.07215267742584965	0.10978541326221354	0.17522158175169197	0.12379574873752258	0.07074285055426363	0.02118059836498483	0.030931144849454983	0.04803882063420026	0.05438518567707735	0.03205802187728762	0.025435547072261786	-0.004478955252645339	0.0009750435044957352	0.0070784899777615005	-0.007308368383817168	-0.013231021859217805	-0.10033248801998192	-0.07304563247836199	-0.08565443089082558	-0.14581816523517951	-0.22844359771644393	-0.31363366547123744	-0.21754227448990032	-0.19400001690247035	-0.29459490340388333	-0.29999584862549933	-0.2179064491626668	-0.1526494494335031	-0.10755720919954706	-0.06567204459994276	-0.052837775642152286	-0.07851374269468102	-0.03224815147493463	0.01092704896039911	0.01977181842109997	0.020499363934637735	0.0056008248881354245	0.0031609297629630723	0.01348095846669584	-0.0033133608886449246	-0.006005222159666734	0.0033789276910734887	0.007952983275463513	0.004631736726392919	-0.07806174037803726	-0.09360347663222375	-0.15904981370898738	-0.14856210491792973	-0.26151077174296933	-0.27874450190482336	-0.25082014955804843	-0.2152109446378149	-0.22276808798083161	-0.2570880544703967	-0.212362669095874	-0.2326882972678948	-0.08764004927882187	-0.02085296340463016	-0.046047195008336865	-0.01611533136871761	0.011930625909514323	-0.0395027925547765	-0.00013222807754965053	0.011956726643796397	0.0007705976283956104	-0.0017842681651842375	-0.00261779908259927	0.00818850362321549	0.005633554225857771	0.008414250874228042	0.007517909166926455	0.0018062897629796352	-0.01388850186902088	-0.052729065129937434	-0.07159322518867586	-0.013810862741923682	-0.2117290035530344	-0.20289848952823256	-0.1604943806251263	-0.12938239490141043	-0.051734702086210796	-0.09649420195478953	-0.06826044128981322	-0.08630907814310718	0.04332462398258334	0.07859886791642029	0.013433842426778676	-0.02967657169543361	-0.051006073412994665	-0.0344851795043063	0.008682883971340753	0.012466578268989921	-0.00541937021958418	0.007756568433090179	-0.008150457180703676	0.0016447146028600469	0.003907028332994623	0.008370819120638088	0.00818033010529266	0.0005311829262750842	0.004700810263704624	-0.0005219462155799029	0.002562055097225616	-0.023703572767126358	-0.09941610041980578	-0.113286321628054	-0.08114785310469874	-0.060030400019410624	0.020985820282762073	-0.002349051648473349	-0.008152939023665573	0.007007353887918014	0.06215706898288515	-0.01359004998764361	0.00033492305742376685	0.008332554757095692	-0.00433084975507109	0.0009240715559752956	0.010740859751915612	0.010605901209442868	0.006246284144557754	0.00019004771927820692	0.007099446289254716	0.004184552127883679	-0.001247085179599333	-0.006693008432717558	0.0009022135271304927	-0.006723786023627611	-0.0017301609889798207	0.0112581342101565	0.004376459903817862	-0.029417096336047163	-0.047125320588094294	-0.04167817481417626	-0.023771054971600942	-0.007106592106793565	-0.0007084926788908759	-0.00039134618582392124	-0.00022676721296951106	-0.02326730582116089	0.00016181694004169448	0.008723089091788183	0.017352832863877586	0.01358303464172495	-0.004991951554211536	-0.0055425931516743	-0.008019019092095124	0.0011671155861046698	0.007009223126932557	-0.005252295817797384	0.008501512833848354	-0.002372200946074276	0.005875852916229262	-0.004514668461498075	0.005343303471059626	-0.008097678826717651	0.006351167869621106	5.985704376502282e-05	0.0076258011205421715	0.0028562255878653887	0.008467438618426436	-0.009583726473150922	-0.013264675682464462	8.247497152625433e-05	-0.006478830174542621	-0.006377770582401502	-0.0032183261448264985	0.0031424103837391776	-0.0014333780528136084	0.008292855465492242	0.0007948142558644599	0.0035730208142894736	0.004725362218693466	0.0016201466210164477	-0.0006448110935735763	-0.004812275765764318	0.007155606808210365	-0.004059413190183653	-0.006028370355470068	0.0022082113481894823	-0.476463521595612
0.00772048371615873	0.003657529080639951	-0.007247367671324112	-0.007896762050916118	-0.0043684568562328665	-0.004426723178043986	-0.004416154862778124	-0.0017790948028078256	-0.002852333840861849	-0.006128144634371578	-0.0033907683242939313	0.0015713143109170775	-0.005106785632773185	-0.008009480005205094	0.0027924283333517295	-0.0008676229588616066	0.005022448983528424	0.003038622017805635	0.008369183991115192	0.005933720152288831	0.0037068024576521925	0.004298066155986078	0.005006491990199594	-0.008037925918370908	0.005538997868649524	0.006511637736564994	-0.007951734223568043	0.0035470174113970392	0.006278053565616153	0.002615039490658895	0.0005194070795996094	-0.006694230669437453	0.006371627971415727	-0.0077691381579222734	-0.006388188319886124	0.00021177337990650792	0.0022442900313975863	0.006892769953025777	0.003528593087086887	0.0014634363024806079	0.007779454382475406	0.000934415838701106	-0.0018622343862056872	-0.006990946863647766	-0.005088471463336151	0.005731690386185815	0.007851665693492237	0.008726405185696149	0.00826547132446	-0.006537534852495007	-0.003444708343115185	0.00187060624436634	-0.006958381661561467	-0.006954734686281726	0.004388953649384195	0.008212559046003477	-0.005613883391376591	0.007892833994683796	0.005606744256774571	-0.0019109944843807378	0.0006952636676513958	-0.0071233383525339256	-0.003210972652629823	0.002809609785847536	0.001176175838089474	0.009132863506973106	0.013621844379583815	0.0062638109201032235	0.008950075512032547	0.017114738788071224	0.02541790561842725	-0.01820509674864963	-0.02598285330355429	-0.036546839143884347	-0.02924964668333069	-0.011704183113137716	-0.0337565772414686	-0.05209748504237551	-0.012478136790415973	-0.002305875669555031	-0.0018113314883305464	-0.005012520766330752	0.004743646027570504	-0.005330631534301463	0.007294792587005605	-0.003329017608798549	0.007468674606558097	-0.0050607598092096365	-0.0035900382738233002	-0.00367791922604034	0.0004012455118885026	0.030288767362350325	0.061503728990409956	0.06498692087191031	0.021696537374838832	0.021041412260004982	0.00598619802487244	0.037029901485519254	0.018474479558995803	-0.0016563752025161996	0.005131023692713217	0.0012039879357371402	-0.0038977046181078185	-0.02383168218115083	-0.03380608073102695	-0.05729492216679612	-0.058596393755192155	0.01150429280975979	0.0017045352059507739	-0.0005658556907172686	-0.00868179605908593	0.0085675059175527	0.0006987503778540047	-0.00578133791373377	-0.00764224329444832	-0.006322518070584488	0.011252902180853798	0.006783339987179039	0.0007855971953951189	0.08387512591855371	0.12973538229808515	0.13353327965034317	0.12847086781204445	0.09749232589848232	0.016188791037990893	0.0031491567294617785	-0.003463129934470503	0.0045028894105090585	0.05711994111879135	0.05377571457637546	0.06039522934275586	0.03220996850430369	0.018509471954989767	-0.025533049926985095	-0.039992015323091934	-0.017354013403860086	0.0020771763531112915	-0.005350414402896048	-0.0027116035476948876	-0.007987053944418548	0.0010680878685232261	-0.0062377730558946295	-0.007632749462053415	-0.005876826776970833	-0.008940318268640078	-0.009248443783361884	0.04788956995031733	0.22529762529143835	0.21392763781172278	0.23759026749555173	0.17067084390609524	0.05978384814309879	-0.012354227070553508	-0.05167156962041108	-0.05005158403567002	-0.021555538448755795	-0.0352647894917676	0.0077393948023409525	0.014238218774476211	0.06248239807599234	0.0603570938531289	-0.024277287471677695	-0.07231069548559717	-0.027828495393359933	-0.01665310033250171	-0.008874341270416116	0.0037029759506373976	0.005017429802357675	0.002887944064809316	0.004067013622729827	0.004430166929627279	-0.018841448452419588	-0.021192955639976273	-0.06474695245219203	0.05172521671153828	0.2056717385611102	0.18631456273036562	0.07630259464591803	0.0491807767363758	0.025766414580819626	0.0014744922799947936	-0.11230530032478613	-0.11031873245809154	-0.0853328665545596	-0.1847997723611684	-0.14863112555650604	-0.0418265353256567	-0.04261080541139369	-0.032685262293579764	0.03463890785886487	-0.0695058534399727	-0.0417491172799712	-0.022402726298397242	-0.016880128240156958	-0.0036514358901230414	0.004958965381521012	0.0003440914122811445	-0.0020925597295068325	-0.0014283736934820432	-0.034538684252619224	-0.02190980026396724	-0.024333245216277374	-0.06790858345330067	0.038804270896223306	0.15163459646927177	0.06315157829749424	0.06455478162718799	0.10013153401176625	0.09386615358494922	-0.11727569252038265	-0.20035275154592325	-0.19607242143526488	-0.0975939669105205	-0.09174860394514497	-0.06067960207480251	-0.1266434350474466	-0.07229002086912803	0.04743537796366935	-0.06709937355556793	0.013647407963399676	0.059757882795042995	0.03205982840803785	0.009955468932735778	0.0003806279652204328	-0.006288878414441817	0.0038371510749092407	-0.004347375246396321	-0.0066886565878962806	-0.013567663195970291	0.0323923082621571	-0.12974394616735158	-0.060739508844975074	0.16004692660996375	0.12802199958362095	0.04094582430344478	-0.04209868751164083	-0.13929319931099202	-0.07433302866205979	-0.1678922658612075	-0.21758348228374125	-0.1514109186666063	0.055592933622075284	-0.11271457755676563	-0.14394756022413369	-0.19280102383640857	-0.09037704882629509	-0.05997355941576357	0.024040251462931546	0.06507010779486165	0.04885835781025805	0.00038992371797602675	-0.007912085467801852	0.005841379436883738	-0.003384831961372058	0.020074521096977632	0.03170487113835711	-0.014642414418625148	-0.021430811847197802	-0.045104356492200536	0.012095061085576474	0.040660483950518606	0.0626517660814542	-0.013710224821095613	-0.050808261884627136	-0.176111966632606	-0.26594646091640517	-0.2125716124038787	-0.29437010874032665	-0.15654471550523325	0.08377982899338078	-0.05947261070977231	-0.16763577026761348	-0.09305696738302177	-0.09196156736760489	-0.00657690942025338	-0.14837843351952226	-0.0400090497399048	5.5810419992388235e-05	-0.00126439103131418	0.004030950059193892	-0.00831798434936428	0.0023505742605644964	0.01723936986496827	0.040604317530122495	0.07118341582767815	0.07641905419607255	0.024737978195303118	0.0770219951893154	0.05477689444288657	0.028713915421328815	-0.030445676861897968	0.13907866848120895	-0.04305549004731519	-0.23614569249674022	-0.2151441658374972	-0.17655708188016522	-0.16577818935730504	0.08235569695040172	0.10125550234564175	-0.03195966784054635	-0.11458834508990233	-0.007936477814536668	-0.029625811728835532	-0.13677363096667855	-0.16715863685192867	-0.06947295940010824	0.005681138290000898	0.010581542436671185	-0.0026169640882797727	-0.010423697910861444	0.016426298912195193	0.056348690212978454	0.1702185934992927	0.05095300408878203	0.057849189308989746	-0.07598992540213051	-0.12342642424842444	-0.04829950562873362	-0.030999919903138065	-0.07171452166715009	-0.2602448693925513	-0.401699404762208	-0.239792283944928	-0.08339191411164011	-0.18580544931823192	0.024295619014699114	0.09728115675405402	-0.1166956511997448	-0.006389118401855981	-0.1682660490803737	-0.15882207022741684	0.11088197979688452	0.11766649451365659	-0.01898246896568661	0.03850834531662559	0.013176535345771921	0.0042604953928934534	-0.00282764662999718	0.029541602201408532	0.12545266394217153	0.30961042152829177	0.45261422195103623	0.10928665062259148	-0.08940350845328686	-0.10263253048233456	-0.1730775886132764	-0.2507600256885291	-0.20932215084093175	-0.26808870881299735	-0.16785801289221527	0.01259245800963658	0.041268626176114175	-0.13532087063874096	0.06747730064151534	-0.020135072814664576	0.027585895741588894	0.05659482515695302	-0.13442417821882227	-0.06216672677803849	0.07124840944905228	0.11009053141443012	0.02635077976644087	0.06688938022248042	0.006867690412898436	0.0031881207772995815	-0.003441346003849314	0.047564074089087756	0.2276034975559735	0.09723273822171088	0.2565490352521211	-0.02666754408860636	0.019710271288621847	0.1919390194065307	0.11411406732351179	0.07775372580145498	0.08402935477303856	0.09332634794601308	0.015132093686345325	0.028306975469162957	0.1550238973544672	0.1259221860258625	0.21092235745390164	0.07727930030411835	0.01885667124487938	-0.21241730615790996	-0.13179116837542057	-0.1572363624510264	0.03165393343180529	0.16456254729169623	0.12935059877495653	0.13018662307376805	-0.008510392715003744	0.006958522633824835	-0.006356071421458102	0.05844876201898734	0.16803108256030874	0.12586838545426693	0.002757969592893939	-0.012758441006362408	0.15819922248932822	0.17035116495007574	0.07387335874787197	0.21989197286229584	0.15746916224351085	0.03728600396526105	0.012801293828018862	-0.12651061856414214	0.18522686040503283	0.12340336025527902	0.04811871518565092	0.020294589966157416	-0.10656085287732696	-0.17772694613181692	-0.09038199175062848	0.04392806734572015	0.05715043349714588	0.1841135528522226	0.13137667295705407	0.12005752267734032	0.0076097272079069	-0.002823613623474203	-0.008059425804547212	0.048261192239985824	0.08384809651378028	0.08753665476261902	-0.08323438932434468	0.06460785313641922	0.2015869801309882	0.22324523215670414	0.1242796846437774	0.09432216666488233	0.05188602045885271	0.04695307473749608	0.14663094794164136	0.09312357634930327	0.11881566927654867	0.08405320463973581	0.21452809582375956	0.07541121651943873	-0.06391226883132241	-0.1309212037101685	-0.06689835945286016	-0.0737762846114008	0.05986337475812758	-0.08702639531535297	0.03315453042163032	0.12737219822123783	-0.003405083993471991	0.0005256209147290695	-0.0094517510843967	0.04563379358435533	0.060541495519453745	-0.007176447396699773	0.008761833701140339	-0.0005176381015329418	0.13281901366611873	0.19756162442107808	0.34025260569694993	0.270200756965155	0.2023711786667933	0.2073577405984462	0.3058927728774405	0.16299900366326037	0.24072508461822875	0.16116598535792287	0.2122708378395204	0.2091578741244833	-0.038568396850057696	-0.03653040990768152	-0.10320706475265792	-0.22628927688864847	0.06674956205573153	-0.09817975918443236	0.11706380674307167	0.09836630613045629	0.008733317936110412	-0.0033914929532959364	-0.0037648908255962475	0.014040363306719445	0.030383546445459084	-0.07776234431906293	-0.0008173424454565356	0.009217092736609834	0.0467757449144976	0.16268712526410153	0.23638388774491084	0.154071871195808	-0.006123178864780025	-9.355742385634415e-05	0.023285665412007755	0.09040122388828589	0.26644373077607736	0.11893473978030565	0.0033528195318488076	-0.014041203370898338	-0.017845474515610596	-0.035566314021496265	-0.1983348812405947	-0.07309977059331002	-0.0470801845587277	0.07809043363853409	0.16574013978589092	0.0962292019208687	0.0126442160476577	0.0010233267823246892	0.0008176757228581668	0.0042011571208626555	0.010177596328657142	-0.14868680184546823	-0.1373836429421019	-0.02489016792507559	0.2870391517773753	0.2562381828273857	0.03723445871402122	0.07869969512019001	0.11752384538624289	0.16908066098207172	0.18083469369843025	0.020288912343563163	0.00447337549563847	-0.15260295529288334	0.15966175201553806	0.056301170497704556	-0.03449640425258828	0.013465693114766912	-0.2095958628572316	-0.13957001677739864	-0.22745656827169689	-0.09870767230618512	0.10839583793948894	0.03803137738389429	-0.0063180667258657085	0.005939252885685703	-0.008317172620314893	-0.004738315937658996	-0.03942276027328333	-0.1861889014392404	-0.2993803055966992	-0.17581194813255513	0.054242969629555944	-0.020491104591790217	-0.005765240004069119	0.20819762633868044	0.20869843419947137	0.23493651968246776	0.011269575732704705	-0.1897254502405655	0.05291346818820977	0.07081862464571251	0.15773287296019106	0.19694979842624297	0.13819971115846508	-0.008064990426926417	-0.11259389838613311	-0.15016993682301596	-0.10704166821003813	0.09603274081893673	0.12911203717314199	0.03413304479012006	-0.00041242937100900885	0.002126022711296917	0.004053238051904724	-0.008494651033987123	-0.05855811793652216	-0.18215026213877716	-0.23870398177045657	-0.13433612209483645	-0.18188407270230048	-0.3073764220089716	-0.050396114512131274	0.08607085841007235	0.1679052412809139	0.054775582049799244	-0.19485655337927624	-0.25291057704718184	-0.10582465062723699	-0.014638246180246962	0.025458477473013327	0.10566247103711385	0.07307826734122282	-0.0829937384470942	-0.06929535986217795	-0.12386764228966961	0.04511113379714909	0.10572938930234178	0.06443499211492941	0.031447698336598474	-0.0006271514328121447	-0.0022732380528799534	0.00851101451386627	-9.851166676819291e-05	-0.049112979214240855	-0.1821291551934836	-0.2558963933215978	-0.0682323400133554	-0.003288408562153096	-0.16190431443565054	-0.055845163050876	-0.024966146447802835	-0.0350956857226036	-0.09951619369711309	-0.20656920538632093	-0.1256564688477672	0.0038065887588323035	0.01209784658203349	0.0495195864746981	0.11642874111690456	0.08630865104993549	-0.06182728548735203	-0.0750840263222242	-0.006841852403660414	0.0022118170028323537	-0.01196577272499002	0.016001730390308864	0.02755758311559185	0.0017417522768486673	-0.002150260447737324	-0.004757636689002611	0.00849335987677214	-0.004649619025928498	-0.13029099219205717	-0.18603325537527007	-0.04549884316742291	-0.025926942082083276	-0.014549978243309563	-0.12092649757314981	-0.14817850610983935	-0.011822039451210608	-0.06675613629426548	-0.1129415761554813	-0.17911903897084994	-0.09142055613779355	-0.1457263969365199	-0.14222826384773418	-0.1186523020954565	-0.12262994691218511	-0.06512130340542399	-0.018180858002795168	0.02728760429162965	0.018012874550400255	-0.014824893073601771	-0.0023847051565936404	0.006032685711767001	-0.0048485341560349955	0.005994726869315119	-0.003162905530312797	0.006257292099759717	0.004698475171975681	-0.0857046934670453	-0.1339063346620476	-0.1648795234375895	-0.1419780202170505	-0.20096677149508518	-0.15609321838190054	-0.05842637447209646	0.009736093791761416	-0.018191621032244188	-0.07146724262554423	-0.038095958587822575	-0.013875779682075548	0.024447344861508208	-0.011142236879775667	-0.09004482375620397	-0.046868851874777545	0.015268717178930555	-0.05177292586923774	-0.017862393421884122	-0.006344630890857965	0.0010788210570933264	-0.0022863148845064124	-0.0065363711377566785	0.005456132056188053	-0.0024894165397770568	0.005885270825028864	0.00839917149159931	0.0017135917784112937	-0.009304239932783946	-0.061724340494215796	-0.08162741069031573	-0.05505542810423707	-0.14315093613414567	-0.20045497495298484	-0.10377287242066095	0.0009766861992498174	0.008829588710963253	-0.02952422680367384	0.023861131237052077	0.06855823993924488	0.06918587153844069	0.02204856524956484	0.007347367441054151	0.013271937316210862	0.015343867691399463	-0.021909001194408514	0.0037257479071194227	0.009210828688835443	0.0004350362021886663	-0.0013130934560485357	0.0036889702516913776	-0.0013599534169435202	-0.0031067878836261885	-0.005265998333669009	0.003016006395854285	0.0009660201409113622	0.0059128295956517194	0.0025388857027680446	-0.01771173195290998	-0.016859735957904232	-0.09719293367073259	-0.14430791951454588	-0.05395601779928854	-0.024116521910703737	-0.0054454715182462405	-0.0015029107336863876	-0.00036146963981945236	0.04469236944110195	0.05540951429975891	0.03062331304201534	0.023164257773614423	0.04065027855033361	0.02439174786443677	-0.004005057579052024	0.0030605161634152016	0.019915214778456328	-0.006943162613469887	-0.0040316721291538075	0.0054745697971846745	-0.0007540764484110316	-0.0038716186666761165	-0.002849441965932109	-0.00475997883458112	0.007043967737504382	-0.002547439818890834	0.006815333540382924	0.005912796375733443	0.0019385627195224627	-0.03307056655652781	-0.03222763655391157	-0.018488834568157662	-0.009575792227448268	-0.004581269059595195	-0.0034351215551510165	0.0017506121685718669	0.014780574183700232	0.007590873955441549	0.0048649081329054525	0.0395374225250842	0.01992592894606339	-0.000537677148189904	0.008426754780987122	0.0036090443890452305	-0.0005997592114832199	-0.00264215187050353	-0.00481952618300115	0.0056808275151106775	0.0006544627439990774	-0.006102486960694523	0.001355500305619716	0.00031683031618904775	0.000289513673712459	-0.001159854432446295	-0.0036435400964994896	-0.008289226321473981	0.003550869510467609	0.00161773280713896	-0.009409675028309148	-0.00904492514055523	0.001621595803411693	0.007565188911056352	0.007901762820391837	0.0010320960526583895	0.006775843435334116	0.004936278064254503	0.0005758794803243386	0.010142744297761519	0.008324913468772937	-0.008631385069659674	0.000933994877696338	-0.003576343556883425	0.005091905971301406	-0.006743708425098274	0.007588364239583638	-0.00452485193124765	0.00471353928359847	-0.6012139843802401
