0.045638991066711855	0.0016373841674519676	0.017607917592858076	0.011664845306955073	-0.02132810204467378	-0.0569593056481282	0.027141651189162168	-0.03980507328066405	0.030915487829612738	0.031841550898382746	-0.03899106288441973	-0.006931660083279653	-0.017253512433878196	0.02201984212720543	0.029790465831781916	0.03889983560387577	-0.024765823902079008	-0.05788064977950506	0.0018329783881211384	-0.05084142193063505	-0.03658776024744845	-0.05682396502951343	-0.04808793781540795	0.01691601216715858	-0.012841117074233556	0.008799729925094014	0.04908197072298905	0.03184440499941161	0.03310592411160424	-0.051529172439589446	-0.012854729964100364	0.05767379548052206	-0.0485498924173237	0.03720672436518115	0.04079276911417389	-0.023823225734903808	0.024766591614397673	-0.036253011837624576	0.037349465150204916	0.04647218359512983	-0.03748186894161545	-0.006439248167916485	-0.026856462493945125	-0.03577464886836412	0.0038784860497707643	0.020870440688760393	0.056927970797878	-0.051782433084138546	0.03844764757025922	-0.026529004005944427	-0.0346509697630118	0.020399994089881558	-0.05118745534205541	-0.048812362072394144	0.035279728390659564	0.019160942280811118	-0.006929629691883467	0.04312611715116423	0.05104979308662803	0.03982584935498095	0.05256017481905031	0.02745653455933312	-0.04476040770406268	0.04469054050310336	-0.04272487323994918	-0.024882527518983562	0.04728173701174448	0.03889016421819632	-0.06232820735597733	0.05412905897333087	-0.030685468179739116	0.004773869721408301	0.01800744932220221	0.04259515777466374	-0.01812926370692551	-0.01591830387618976	-0.00823704871254173	0.018314469225472495	-0.06112931438740497	-0.050306434757069605	-0.009316027919759842	-0.0454725886990448	-0.050640219006331644	-0.006311970564822918	0.05740710168788763	0.0013055777259746507	-0.061263113589372246	0.026611453157883734	0.009916439597374763	0.055903846432744195	0.009584476017382788	-0.052310384985927126	0.016045222237330327	-0.04951455832275316	0.02614204964304738	0.02778915143800458	-0.03883816331692552	0.010422432826119954	0.008672242595357904	-0.0041372864893830345	-0.013787921357376463	-0.02233928282520844	-0.031543643562746596	0.022499606165482806	-0.004594534429284114	0.06318221182362889	0.019125899712011434	0.015128997345629348	0.023704162151646967	0.04436865590292776	-0.04905732286424032	0.037467200469577584	-0.025988310645050007	-0.030068161183945584	0.026483925718023042	-0.03683775486783365	0.030941583214071814	-0.05416523436184688	0.0028800319928858104	0.08106061845848932	-0.003040012296268157	-0.014009361748149632	0.01141578980623718	-0.0793239869600584	-0.055938351590717805	0.06379906527159684	-0.046469315374960726	-0.026557160206582976	0.02560651513117952	0.056224040777960164	0.0776710287250195	0.006056167850317826	0.036049167219365484	0.05217756549633946	0.028262050908115947	0.02504373994931056	0.019146756091376844	0.04305331653802756	0.003295791448582476	0.035438387222671876	0.05545185163747871	0.010191959842564706	0.01933613057375716	-0.038171457786031295	-0.03313016125068098	-0.014924601207599461	0.09580058671025644	0.06941688506546545	0.08434314064470318	0.008322252846859661	-0.10896823773223352	-0.07418433337894474	-0.15294437956203313	-0.07935222636465063	0.051144828023510065	0.05294681515064583	-0.007153206009081452	0.1259592021126558	0.14840813224208974	0.11609649410110857	0.11927779298964657	0.11217355921365228	0.010838356670316593	-0.0432337116237398	-0.0394806930256405	0.0007846615767729888	-0.04920259085345977	0.03217940822202208	0.05836697260286342	-0.01106246459486352	0.04966574612762647	0.045964965523026216	-0.014871500101746062	-0.0246971216106132	0.1318818339779637	0.10277507834785314	0.0003817256110134398	-0.13117562617943918	-0.11174567741052453	-0.09800817542736517	-0.06556228362170018	0.00018648372638674466	0.08784238620006678	0.13518092928587025	0.05717631128673419	0.034623778267349796	0.10855527392430495	0.03829913588504054	-0.018460498524173013	0.0033203301625794796	-0.0302249649193852	0.02422553087162986	-0.08550638962551325	-0.01728577727947929	-0.02205717906754698	-0.0024454957686787585	0.047098527075627596	-0.017266682718610912	0.010840959737651125	-0.053319817391737696	0.022483651419911183	-0.017832846591298933	-0.004187482240870125	0.08647908307129049	-0.09584123085877189	-0.0894788749503957	-0.012555569208159555	-0.1101571446209343	-0.1763266520854835	-0.14779946108257955	0.1501006571745126	0.1933303225978959	0.1706875521252195	0.11778566440618438	0.16605051070269783	0.041317453745953504	-0.019610434165417887	-0.04508298196604343	0.10968784691817676	-0.0062710303534131	-0.13063727928375382	-0.08095649068011994	-0.029705204604610885	0.030037001708553564	-0.029694270161437643	-0.030629508147048918	0.054557697151757026	0.026364286682128923	-0.049500999600825574	0.08526147248634305	0.08124118503772773	-0.08525661732782479	-0.16500298273546932	-0.13018112815292496	-0.07497882055509028	-0.26798444035733665	-0.2175889305687039	-0.014043644431204842	0.045765764256754715	0.09524521011156414	0.17367488583975157	0.06578643109082473	0.05637300605233172	0.09340093525693847	-0.14721960898492736	-0.07366158699662596	-0.05884597039864442	0.002869312693995849	-0.0947161738110629	-0.044433977477316124	-0.04617334450953019	0.010015755671018041	0.0276348875295511	0.04037559349634438	-0.00632682742924856	-0.016956840196240216	0.026618974944102754	-0.00790862678524568	-0.0509002191887375	-0.12526609296448946	-0.11617452455041494	-0.20483402487943936	-0.16697277719873177	-0.1316280276802418	-0.027545733752388463	0.1007004462819626	0.08636194731831158	0.1221322818248079	0.09530041471058072	0.0418098408247629	0.1448188828970201	0.03755757438657998	-0.12306250377624271	-0.043124423869181534	-0.018163235463662417	0.08357077898313418	-0.06633626765395048	-0.05158502318120727	-0.006067701738303948	0.026903540842738223	-0.028576773050982225	-0.013733093048699942	-0.05927396022937062	-0.03372113229205446	-0.01006074219130419	0.046038348643042994	-0.14677892680074697	-0.08731654939260958	-0.18669385200338678	-0.1001938815034244	-0.03711149747996639	0.09443066564768225	0.08163927114433651	0.20091300851126634	0.19219218404534985	0.12011671005799662	0.12839867086539636	0.009081191349682457	0.002781185053606028	-0.004173360624552076	-0.0570545908311595	-0.13212355557655617	-0.10593862310645522	0.11819378256328313	-0.055231998489554124	-0.03601217082721832	-0.007182152158481099	0.054636203226783114	-0.010469892462055638	-0.04526199463327384	-0.0014361843829201256	-0.12077702978757636	-0.05080356494184923	-0.11297839257418438	-0.04871330001730677	0.001066486710156005	-0.10157221007623297	-0.12188172673991167	-0.07980585283640992	-0.017652443841002282	0.18058015997838547	0.1690121228633259	0.09148089222789044	0.0392267633734576	0.08555763943683649	-0.025519099529840675	0.11223248890573008	-0.07524070852538968	-0.06253831532006518	0.037629841472658375	0.024648277757017417	0.04879209053709491	0.11698186681604635	-0.042289496538399814	-0.030786502691786146	-0.026870576986670187	-0.05439180769928463	-0.029547110185706202	-0.07450618826786588	-0.16256237874571391	-0.12607413698659767	-0.010662223050795172	-0.02960274654999296	-0.19421602044395656	-0.10241140152467255	0.014709433594184059	-0.016985516500617946	0.0945864157151143	0.13179499775821718	0.15766278377011214	-0.06403329651522696	-0.13478454776730694	-0.05384411150247414	0.03476684938290032	0.08980368677821009	-0.12680534599521587	-0.09959269707551158	0.025647929937393732	0.11036672442214021	0.22777759284955948	0.09397983985927638	-0.0568780819988233	-0.18723892393693686	0.014391441009716099	-0.05834277074469076	0.044808648325568905	0.012603114971832054	-0.023963027019190973	-0.0077490336724624	0.14398421156510344	0.06694990860490715	-0.22193560180029165	-0.06060977158796483	-0.06971791436922527	-0.13947102362611055	-0.1378237518510487	-0.10175146866688412	-0.06431750673152813	-0.1884309023123302	-0.0980218153518833	-0.09354366584347953	-0.17718125288912193	-0.06678542489339985	-0.19359227563474585	-0.183681807945139	0.07164208951253681	0.12348548327677332	0.02841051458804907	-0.0697550402026225	-0.15691620262644568	-0.10379105771597454	0.04724591114889705	-0.05849076477342205	-0.05502716670733891	-0.0015652013084859343	-0.027995260338660097	0.06733673843731461	0.30617600988428917	-0.003992773325436946	-0.14321157267930254	-0.178271086053811	-0.30672403293598755	-0.21776589193047294	-0.3495902904981509	-0.3089378808380621	-0.10450839697256763	-0.1676200309538191	-0.09741195493970799	-0.24850583196175924	-0.21551119682821568	0.01125752651978915	-0.17121840816958478	-0.10311431345833948	-0.09718751802474404	-0.07749942187418049	-0.1238056348691483	-0.0885581757295551	-0.12270472570757668	-0.16191935014581751	0.022337055118702306	0.02530752045077011	-0.05249924547501484	-0.035783052791256424	-0.0771437753342076	0.0776178346979965	0.10812602099408787	-0.15108812837282826	-0.15347801616609535	-0.08593936627538576	-0.2592964094074635	-0.3631644784299983	-0.3682598708976695	-0.16118080754419406	-0.25691624132061985	-0.2784467223899631	-0.10175355200786712	0.026315386215798143	-0.11404695916453399	-0.05369149071137528	-0.1356328499951213	-0.13420278647407816	-0.1740283529272016	-0.2451866996180148	-0.10600791241987524	-0.041563830286090404	-0.08740628276877647	-0.16440409066452658	-0.008294268750202794	-0.033098832754209405	-0.002480045781763203	-0.02638660450476647	-0.020068166029155635	0.20557649998168606	0.3074795011302269	-0.006901019077151446	-0.01578060437354143	-0.1130111648302606	-0.3280873768943002	-0.2483394308707876	-0.1579970679221298	-0.088723982403199	-0.06631533749450498	-0.002512013109965631	0.06756325337693064	0.10222175675789742	-0.018054587798808436	0.08013611692611165	-0.10045832421656149	-0.24887100572971058	-0.04250538889745057	-0.09728833353019414	0.10157441771359192	-0.03802674871461973	-0.12178457536467965	-0.07451322380745673	0.02954061597636274	0.036817358553434466	0.017095721639265468	0.03950442421894757	0.013271173179275612	0.1861126194968417	0.11684412583283851	-0.13367231603568616	-0.15025608905654528	-0.08647327255721633	0.08046939448563112	0.09814040233978663	0.18679003606352093	0.10135600583221456	0.13171260728736162	0.17297434352313268	0.052817642635013526	0.1600016682301384	0.154419852712135	0.19812098548105603	-0.08282638426427986	-0.07515394593956629	-0.10184685248453355	-0.056799173629652595	0.09162028999568374	-0.06319948445685511	-0.17772597677361138	-0.09124650653066953	-0.04482993847479347	0.05530120909893591	-0.041428316589436985	0.03038324649178801	-0.07568157806378013	0.008936496042717172	0.10611495873894249	-0.03873889119906727	0.03024405915560903	0.06396518581547007	0.21248284250452518	0.38771847673093957	0.17627293145655862	0.05088529018655881	0.12036184102501508	-0.01856491328970289	0.03854165125610938	0.09455015945905483	0.09679539945967275	0.026044483899643884	-0.13866278045605332	-0.0904286717132866	-0.042972198294409535	-0.021366866085255683	0.06191708601337224	0.0028928731991063293	-0.09277840804915786	-0.03441405333917004	-0.00695112323258551	-0.021410258145693285	-0.008039797323119942	0.007772229176994035	-0.11523921252898786	-0.024845038135126625	0.0063896849032251376	0.1563975508644244	0.3019676058472958	0.16078142703995002	0.11391541631355677	0.08339233773235012	-0.03493177021301841	-0.03646598387182056	0.24367538577290893	0.10845302232726264	0.0014747787573143004	0.16330317601584196	0.12183909546480003	0.15987788676874212	-0.07702413537580635	-0.013562809701556319	0.08107949766914625	0.12334581336343689	0.060842074539799056	-0.019274882285936115	-0.15949288013850374	-0.06387967694190164	0.03228871909721176	-0.010461685152076218	-0.028396042617396672	0.05335740857924378	-0.08955464652871228	-0.1705372502390657	0.032093365966124	0.2299931675446893	0.18211730358212835	0.07336498317147816	-0.0008249593206984505	0.09683761491669039	0.14324780462379272	0.09995542513879005	-0.049269370671942474	-0.1485324042232492	-0.0085138370837592	0.1512988328341471	0.07702857636724987	-0.0026127375765134997	0.004694120600274128	-0.0035970836423958193	-0.11456909741622506	0.0785609077363478	0.05260893732997179	-0.11554427489124877	-0.13278182135312452	-0.09836943681599421	0.010634584202551943	0.008928208103566891	-0.03498106009628068	0.05804010524338391	-0.061817712594017235	-0.17241181716522366	-0.00436718174646996	0.09288092632022585	0.12530210901235223	-0.009047527767786057	0.04706174512685373	-0.0039594890148537485	-0.041212962207940795	-0.07642689908848928	-0.12420285511525428	-0.13816276733353594	-0.012518202044267401	0.07687816245709159	0.08566180634443117	-0.0538732745156526	-0.026311812614300024	-0.06745444830758016	0.013218330297858454	0.012266944246457063	-0.008431680274212774	-0.05133270613545821	-0.055731627303010046	-0.04320527057597591	0.01114287486182864	-0.029230495837288144	0.008853754640794888	0.03706937524866798	0.0025598480212107267	-0.0938463516227469	0.048282899631806854	0.08076110106687842	0.06144328222510248	0.008498798971622494	0.043506056793164286	0.15285554196303586	0.09576137762563304	-0.09290741814729608	-0.03318688374153753	-0.030940769961175497	0.045409801844081756	0.1276800404722128	0.014497986823589675	0.02467918315473189	0.04659391204690977	0.04084849801640719	0.10679631452076356	0.1355422085611669	0.11016235155740847	0.05247093436419832	-0.05577296676107013	-0.008063204958434593	-0.0380655948801404	0.026746706463531382	0.014674845024764856	-0.026902362856370297	-0.018086740917594265	0.016896743879691214	0.07447637948459036	0.015894858940278284	0.11324215348472137	0.06238021672958791	0.10867513104577341	-0.01157994517457347	-0.0765457209188166	-0.10839919841412911	-0.08306029754720823	-0.07412123348713447	-0.15453584640874918	-0.09957303745263996	0.013829962623114837	-0.007795296471242358	0.01721531790734323	0.07579600383233286	0.07954960603868647	0.091167152627935	-0.03578888541474684	0.06190975448862951	0.03748144797259453	-0.05041435495419097	0.021786620680798847	-0.059005897701885926	0.03458855733351474	0.057616875354384624	-0.06056859106800373	0.04476517614325273	0.028263720410162414	0.09342092215336831	-0.010567457777743127	-0.10196303229426189	-0.08578398029703607	-0.034489516765250805	-0.08310011414665978	-0.011194378535675023	-0.1291537349068747	-0.08811590280670335	0.008944173480988762	0.01924807189503932	-0.03460063694346314	-0.048899735814837336	0.06219409714075372	-0.024231391869575618	0.0873210043229455	0.03137743437005336	0.08949639338928603	0.009549128405293253	0.0023821119513168024	0.05616908875765434	-0.0012740853614767317	-0.01669101810260102	-0.04047602986052556	0.02865416566525609	0.02328741817575393	0.05162412133325161	0.01654177995855599	-0.011449515838538302	-0.023901625260122267	-0.026534373845112532	-0.06688111909919325	0.022399329676249562	-0.041995390566266395	0.05619035351779101	-0.0027231665041574163	-0.05722122129112394	0.011373049597839125	0.058220550995015524	-0.022643950748988763	0.022475991957211134	0.07189495656436672	-0.02952924541005109	-0.013684819567346044	0.008326948109508243	-0.011629469613688142	0.019443488416189533	-0.035593939958145845	0.013556908927431228	0.043313078970097625	0.04130365250123832	0.0581284696110466	0.055577279839520675	0.009283627696266415	0.023262272352677024	0.004741185487985767	-0.011658232212783635	0.012140153321452577	-0.03707904771509517	0.04378931121119043	-0.033691537631391676	-0.04508285722543259	0.05166440640101568	-0.0009446435403638112	-0.02703795117074051	-0.0029407431042707518	0.039014814713772064	-0.04316217874593117	0.026624348479210608	-0.04596859958920315	-0.03901209359624496	-0.04666716247097337	-0.039250591687992165	-0.03793650369244595	0.042901157974415495	-0.05988874493807177	-0.0012919351038617466	-0.05105240291169312	-0.03202697410351875	0.043303601713338864	0.014827795391075503	0.023236659049000526	-0.014221244396589075	0.000734346210712146	0.016080793510497397	-0.057897808522796704	-0.013220008047949705	0.0262048302116254	0.0022759247158965277	0.03650336154040298	-0.026590878511563817	0.028401522870535455	-0.05384399065048822	0.03396373260681925	0.003874186280378766	0.028823427600361783	0.04731110645852852	0.05252761114503802	-2.218209532756782e-05	0.05064436947033727	0.04806357211017461	-0.030039065216544543	-0.004378022984303551	0.06109420243496557	0.04514779196358535	-0.05404684432134446	-0.14153137383673814
0.011971642821576416	-0.020952760195436786	-0.05076605083228529	-0.028626832930523254	-0.020530693475134573	0.002862467513231763	0.021825860387364733	-0.01195484599679389	-0.014360686845537055	0.020837004566237285	0.0018909036566593484	0.04755025667482136	-0.032946151888575956	-0.014933737711687878	0.015118722665336919	-0.058128148209548355	0.04430987863417516	0.03207954965624716	-0.014888569446701652	-0.022713045513808393	-0.021935519117930784	-0.026397921464999946	0.01763169458573905	0.025557105153343966	0.05961733356572304	0.04209857473522551	0.042227643351389114	0.02321841332022049	0.05399923383907929	0.006263923692684074	-0.01648980611308909	0.052385408409064534	0.02705347927437069	-0.0116907241491375	0.0490268616083453	0.0013558424731145227	0.03048051930706772	0.06532846665186184	0.004227117560415312	0.005955390602126308	-0.008361144772654826	0.002467513970209601	0.001793301046912714	0.011241268706686396	0.005994452003753613	0.0350266734776502	-0.003744785985017353	0.028353374160271304	0.037043916086195235	-0.0044502869298754105	0.05968297261401829	0.0030638185897736217	-0.040256310009591886	0.00977258010873542	-0.04519607977612235	-0.005018821685505916	-0.05939716031267074	-0.0021939007208066907	-0.033623364688495014	-0.0034630824079707537	0.0546723279743161	-0.032069679038396415	0.04477600503618579	-0.06033916895328247	0.04622642465707295	0.04623781700365483	0.038525291606809266	-0.031803704643872895	-0.018793533072421074	0.02360718433901841	-0.030562559349519708	0.05261410279484146	-0.003670119132238525	-0.009271417209588177	-0.0443144502301022	0.014785734990345363	0.02275698064639662	-0.011671929862302685	0.03599234683055758	0.02658349121545129	0.0478097657100311	0.014472940312534995	-0.03677551359600174	-0.006308183465997402	-0.04619532585678543	-0.04015336619650111	-0.022763384715565188	-0.0013831913217890665	-0.015676629624509022	0.02207218837171264	-0.05904626038767337	-0.023647232440979	-0.07539051674961354	-0.1333227315690528	-0.041672395032403865	0.049008666900800954	-0.03741932755326238	0.052148898873494616	0.02381234039496408	-0.002762406909015377	-0.03780950771576857	0.022615462539673732	0.013019458415052516	-0.04125824165085331	0.012460699835973473	-0.056167096662911586	0.024212840403187413	0.038514779951366845	-0.05480606722567444	0.03272655652541152	-0.046960992040480515	-0.020922011061038276	-0.057874496409038516	0.01631105042151202	-0.0318583132827325	0.05735061574578728	-0.049623665267770206	-0.06159643842873342	-0.12390466147293483	-0.0874123570753109	-0.12969595840024947	-0.045680426923656606	-0.11952565605910012	-0.06592256800199309	-0.07994858194854827	0.0060765910372146134	-0.04284178101011875	-0.07187927856884944	-0.06405095509698129	0.022149038337597158	0.014929593132834235	0.04120703903282099	0.050964261799024344	0.01949785884762594	0.029189384524463242	-0.0013145385098490717	-0.03961431776275467	0.03943011224698186	0.0031906131081974667	0.025736426932321636	0.009298160240345306	-0.0543177366130357	0.018322912101096787	0.016719636505982443	0.11671700737974756	0.022951733501472196	-0.0791040042209085	-0.07689647003608494	-0.03126254531427381	-0.0006607434122756312	-0.04913583694261842	-0.055083845890142535	-0.09866591435882771	-0.01362235827113589	-0.05120170315726691	-0.012961098280510092	-0.050837430232246204	-0.03945842618205145	0.045187112172446836	0.0987325912697733	0.12410814330966434	0.060989373932380325	-0.02393408554324764	-0.049312555711815934	-0.006985460202447701	0.047898907579250756	0.05940284956912361	-0.030711472842609094	-0.007072029861300962	-0.025172334423042314	0.05755015303257961	0.12382296404055848	0.04462440521775272	-0.04109976121313877	0.01585972971545893	-0.03347642012036992	0.1097337878254866	0.047099992003910136	-0.11127058312363745	-0.1164586557837502	-0.0403035088201949	-0.17532514963226517	-0.1080237890103353	-0.024906650695957443	-0.00553433391584119	-0.0605056281611427	-0.01647167250025008	0.06627643309180477	0.0194108831026409	0.06658963413774832	0.10719626478846955	-0.011572895556694482	-0.014038001187274546	0.038368674808275355	-0.018963544159150775	-0.004447550654318171	0.02754326111130486	-0.04596432336072746	-0.01785060386658631	-0.0046931747239709574	0.10674212838068003	-0.08048065675787096	0.004474565779879908	0.11553001291722444	0.07569756866017367	0.11369912018326496	0.029635893459238127	-0.10025953572702377	-0.22281101461343733	-0.16515896988845538	0.009228981253184387	0.09970993088365251	0.04818711934506301	0.020808464707322304	-0.02061505463253681	-0.12336185430312117	-0.07578771556285158	0.012051166690926192	0.058419307032932556	0.03144369938753675	-0.0454256410423874	0.005945048967714227	0.055699991230720024	-0.04087734814967102	0.033489709131381544	0.016798651070809252	-0.07074645603421002	-0.03950518907151027	-0.008041955873599212	0.029203127439078956	0.03583216533616764	0.10412579346029015	0.11849175693903136	0.04531536406439698	-0.13911104812993091	-0.4976905649691132	-0.40453533169523953	-0.13173958049441087	-0.022328954626261985	-0.06283917419262015	0.08835817356173674	0.05130220976207512	-0.027211587398048756	0.15768960580856248	-0.031364725485111614	0.029054778232962906	0.058526298599166623	0.17980962113640636	0.014787654768185306	0.0334368627231803	-0.05180731311656892	-0.033354674380669164	-0.057364710148683044	-0.02997907923171752	-0.006569442899817199	0.0570045141425774	0.003354408598382269	-0.00484464435070984	-0.03494339533510183	-0.05505804347693421	0.16942096647338448	0.13640412507789165	-0.08909292388104142	-0.21405421819323153	-0.17058296367998602	-0.02385969931019214	0.1334605869291289	-0.03826583360708108	0.0710364333661169	-0.12956064001556378	0.010042454413760157	0.03344454596213406	-0.0012645392230034656	0.06909986770556438	0.1148296857030722	0.05991619341663888	0.10413841178997836	0.058389437851067226	0.015273498337719947	0.009419448573211956	0.0372536891880244	-0.024061417623471255	-0.05928619509443496	0.06642068928532956	-0.07145735301967474	-0.10712514310718205	0.08947665692131011	0.26989375353895767	0.3673507021745048	0.1656167973713257	0.06321553744358369	-0.06065427155063175	0.007957664352477122	0.020598123844584797	-0.07987567420675645	-0.03166632947610987	0.0809507927741311	0.053551430372962984	-0.23851597696187207	-0.14471929704847591	-0.136935223886217	0.05559356778696941	0.15006936865986203	0.15204414001735017	0.04748506721262878	-0.0027523139044649445	-0.07567465736065673	0.041604346433938996	0.04232015281635231	-0.014860118793774683	-0.08853054587981923	-0.018208981897744825	-0.05892608906433649	0.02962852527577613	0.26431870501804006	0.227748355496847	0.009838618838812718	-0.08976928398857512	-0.13518700505169265	-0.09126765037429589	-0.04891486169807068	-0.14474945609235704	0.044069831254115795	-0.13837953506018552	0.12630553472387254	0.14790142207960108	-0.09755092667289064	-0.2444935729760865	-0.23239531713367617	-0.17932225836338997	0.151628651528559	0.21924092513976184	0.2348109241605105	0.0419893448080057	-0.034321844475240275	-0.06594382271020624	0.041713255120800645	-0.038215891432339874	-0.1388816551948325	-0.012462933579828342	-0.09742259973594186	-0.036156429668562695	-0.0017836201699116146	0.12578791053667024	-0.013941300259910349	-0.15045718495535101	-0.024400640124310733	-0.20824797284164723	0.016621337744957734	0.10074704129829917	0.19151005799590945	0.07159122902094005	0.13844193103767205	0.29624747920277295	0.197487338650959	-0.16937940200163595	-0.23013840618043752	-0.1643194131896026	0.08924622665940303	0.05299428339330089	0.12024329621611833	0.09896554344943168	-0.047549442142909314	0.03992003002397713	-0.058001310082687746	0.01513735249257885	-0.011262818327063205	0.006261443173626941	0.10944530253682178	0.07388784957915229	0.11067265205449542	0.15049532516814126	-0.10277353776207472	-0.27123155371498564	-0.1856411225998934	-0.04772200023649187	0.11498017508240675	0.2799961321976128	0.1108861926608529	0.3240245846770981	0.23668377187808373	0.09583261351070063	0.23803617403580474	-0.010455279830501481	-0.25003522512249776	-0.1817806812653519	0.058310364469082034	-0.0702348134816608	-0.13057699509385784	-0.07997841559443362	-0.05118070173165459	-0.03538791712639143	-0.03382744534738588	-0.06313922302844223	-0.1377427687142086	-0.15505539433452484	0.05837626509719549	0.29089108799574553	0.16027702563843108	0.19356787818564652	-0.07114141603506527	-0.3022705978493317	-0.09803134849784026	0.14832120122196615	0.05277366697003635	0.2753012292736872	0.1392174255003313	0.19249910930243455	0.060519597347328515	0.038474311839203426	0.0999807586053918	-0.045294834172661655	-0.00925290482395165	-0.2561922987295243	-0.09416587343235933	-0.2917655361216184	-0.186219057718295	-0.06177502201858028	-0.04909356249081446	0.03177600322438933	-0.030812869404882457	-0.04943771381296131	-0.1025600423826123	-0.19827699256266512	0.2164675432968121	0.21512458000426396	0.06117770690151955	0.03864920166705016	-0.0995861361768789	-0.10261448047989132	0.034836805741674866	0.06476371745425111	0.2082382487425748	0.13744579777941257	0.05313316766195589	0.09824871067053502	0.13046265016052308	0.10253581283482022	0.08203636127611176	-0.06316195257528115	0.05878970705705987	-0.24945702051092192	-0.2130061907511611	-0.06981943261603393	0.05326255850654293	-0.037762176844363136	0.009104143637882398	0.034730354732474926	0.007824403720878066	-0.002722323443567781	-0.06504859600036088	-0.046199475565157314	0.18152753632457674	0.19674585357410565	0.23758165925673236	0.13337491377889013	-0.010577777184166422	-0.04902465587678869	0.0011743064709185832	0.17307913140480963	0.31134807578834195	0.18175982912177063	0.019990884884404387	0.09863691319405743	0.22741149031903363	0.22423206466354606	0.0350270151469893	0.014728072403819596	-0.1295051490704561	-0.08279662458917507	-0.21557151823502077	-0.04008470056301169	0.0951088077396972	-0.10284250291372986	-0.0743775787507474	0.021631408754344023	-0.04650608595713528	0.029748042453174726	-0.019366603282679973	-0.1747194044287415	0.06715359904576479	0.1460333172828284	0.21231490113137694	0.03906838909370769	0.029416482122925865	-0.026170452743646176	0.37898836967525645	0.3782015883935769	0.16614059348001786	0.28699881411794154	0.14554632441370124	-0.05961211823278535	0.20339979617192092	0.019148738628667197	0.03731202771539644	-0.13119456583532196	-0.19422849327190117	-0.2373154328224169	0.006413918772135473	0.06284725713695269	0.057631898553192756	-0.016089870576516663	-0.03568897823614239	0.036633096589800754	0.056240001998813204	0.03724482335428274	-0.07154782757269673	-0.18567637253838487	-0.19988436282935845	-0.02255733715577696	0.12025796045414651	0.20551252088873959	-0.016534286362720297	-0.05953443204209636	0.3319814218276606	0.1831303791850686	-0.14092332674935995	-0.008467845849291455	-0.04132155831560976	-0.11299549156254445	0.019185352552108334	0.001717096791403459	-0.13223491661784165	-0.09353418859801493	-0.18545282200038507	-0.15312139545336587	0.22298550802703251	0.15705863486812602	0.12092711180153314	-0.02585494877239037	-0.04403303322520932	-0.023138464358549316	0.06138194475405174	-0.009758434867017704	0.04471456514275995	-0.14205650565934919	-0.20682339387218593	-0.06070575954120466	0.282897628789464	0.27571203395459687	-0.03141442825017246	-0.060926892787680015	0.2140540075769953	0.1224091161612205	0.12366343514708214	0.020287014959879678	-0.10856923322102041	-0.21476584132807522	0.028105320926620218	-0.09498582927586724	0.03294167563494136	-0.044214530779053456	0.06362514451452206	0.051831497953002126	0.16700365301311343	0.1052126481412636	0.06412352026347995	0.015379007913299539	-0.0716863105401905	-0.011956404264051394	-0.03362422470059964	-0.05554830653434171	-0.042690324894054575	-0.04653383883878735	-0.1718854310237319	-0.07267251922700674	0.12861871636308173	0.3593302043516489	0.045543703195727155	0.06727942294483501	0.01205398162843674	0.09595275569087305	0.006760685657150929	-0.11218927565227499	-0.24759613521584725	-0.11775812310141158	-0.050592974145874575	-0.14520076319263028	0.08509701942886794	0.1950040562769316	0.023193921365114965	0.07117545156427241	0.11661514339831376	0.11117102566259365	0.03016972763831863	0.004865853991940333	-0.06611707203672229	0.05443405205798584	-0.05111440702010017	0.027403159861698508	-0.00028748729590795293	-0.05748961936317348	-0.17822780764406151	-0.038248060667689966	0.12862162813082295	0.2285104351101044	0.05800592245470607	0.08575023215837822	0.0131831332904253	-0.12854436558583757	-0.2089215884997201	-0.18784779419095507	-0.22459966876743317	-0.17533349818944466	-0.07843450486581366	0.05538719850729141	0.06482349566659398	0.06713127052638078	0.08774304221613599	0.12154562571768884	0.05544216296962068	0.05079728556038962	0.051946029604513395	0.018314723087590728	-0.05818468436919516	-0.05973987526175631	-0.049568765438134876	0.005917282493794938	-0.06209919658486348	-0.10810635272333102	-0.1130874766836256	-0.06083318599470863	0.13443222395072182	0.11705036717850124	0.019088832098991235	0.11131330779591231	-0.02697723422542982	-0.16415706888543283	-0.25447397165958685	-0.21549386164538337	-0.1174873071912393	-0.20863525383307324	-0.03491783385568386	0.05168713922049078	0.09466245689488516	0.031590047117191225	0.22368846265320794	0.13066883836555082	0.08237361104827941	0.012048179942734927	0.0398315718773333	-0.061671181660311006	-0.0019823723081896874	-0.006589036613758946	-0.020718702988638704	-0.04319014864611173	0.02538953630226598	-0.026392546099891792	-0.0623026000746038	0.04390436505514673	0.057276056284121926	0.18847847423909433	0.19457067795419503	0.22425965828155342	0.10000028809437891	-0.12686710409150037	-0.13719832470678156	-0.1659182127311404	-0.2712746013661582	-0.2563744724424766	-0.12097262278514231	0.0863882533891387	0.07668925565161404	0.09456909979697348	0.11013367422893577	0.03755797430118875	0.05465845953876254	0.03946876018043091	-0.0028860350864156896	0.019724654007824312	-0.05567527062568099	-0.06117292860068156	-0.03791871881365837	0.00876802041886577	-0.008028143719810516	-0.057654045960021216	0.060508736576017186	0.04319894174265767	0.18933476355790402	0.2404057888319426	0.14570853645560253	0.06050628812761041	0.07395539663131939	-0.09810435811795055	-0.1614440863778772	-0.17834539163004598	-0.15759376644457657	-0.11378729059558162	0.027579861862067834	0.15493634769563763	0.04220570659312121	0.1724578038514837	0.10353096038585737	0.03424661753750558	0.05108695148996388	-0.018280960477195324	-0.004033959889570654	0.0024684204696372655	-0.06002081888350034	0.0507015922426999	0.045884219031297115	-0.02926659516712047	0.0455730605226576	0.01054150758109126	0.035961200335997666	0.07077480994046892	0.046734044944388424	0.04380972566705249	0.0869405277957354	0.1095736386904789	0.12143663606556537	0.051275970287850914	-0.06917311777064772	-0.04098298790384711	-0.0636754858118174	0.07720651888119356	0.06680663894095543	0.020218231773796648	0.005304631724537556	0.12290061298480275	0.10779172458012429	0.06553364979919968	0.02593058167294828	0.05213693515653085	-0.02615953178585719	0.04095015715086359	-0.03771947290688529	-0.0420867332203808	-0.01579284840746039	-0.04660116485989528	0.005178315486930589	-0.051871957687066095	-0.013197347307109393	0.028140164077206337	0.03635278256011632	-0.013246865771122197	0.06283707550379664	0.031542572344285834	0.07656236136088385	-0.03153290941825783	-0.05795127192785568	-0.06034728581056432	0.0037081965243388262	0.06221399469638565	0.00027561541616637507	0.01431859405106939	0.10907158218623222	0.09304298856157572	0.005015537171955214	-0.019252301193816858	0.018575984947320205	0.008063944209321584	0.0048245274510740135	0.0005290263090013472	0.05984125962484376	0.03884025804217096	-0.06054808499925379	-0.036352031837930315	-0.005602108345615378	-0.055291882409372446	-0.037634384426851526	0.0537345840992181	0.05126739651611372	0.04745375312627181	0.04265068313904565	0.011382699469983272	-0.019370245334735955	0.0019083649680209022	-0.025102782095605625	0.04811774421021483	0.060111442462733526	0.05122292107160432	-0.018364228907120427	0.004949504514330472	-0.020661750198692853	-0.03666430617488758	0.017132744480977284	0.027774784546768523	0.04338593564972778	0.005870768770733496	0.03567071133448859	0.01080782196746382	0.028207058991604146	0.05934483645605041	-0.08449030191390887
0.0068929741471629655	-0.022577480022002674	-0.03499383966478613	-0.007772619796292131	-0.032516084526433474	-0.01364316804445017	-0.03110156837718093	-0.06114949381813083	0.02262081217058013	0.0004655682951735784	-0.00406914510515666	0.05058909468407175	-0.019634638437418493	8.277612936308937e-05	0.01444615566725304	-0.028161172195787218	0.05568493842939581	-0.05646884297160933	0.02352286608149639	-0.00974788028750112	0.055813089491493766	-0.01635131959622641	-0.02435865178248388	-0.0007658737957883036	-0.003425571980209853	0.02631696719197755	0.02558049795313074	-0.04181986066907246	0.0261702499814448	-0.02857935047744664	0.034441669176893515	0.016732232311101984	-0.042415226115104385	0.005461073938769871	-0.029325497152394242	-0.041213696912500576	0.03605109671555179	0.053289764201451414	-0.006048210913895281	0.0068004025082697	0.05805682051139714	0.036800571536731344	0.04738652569308444	0.044637724438264866	-0.042175119268334976	0.04984176776525729	0.03914257560469723	-0.025586969536779032	-0.059274506509283724	-0.036674869648870484	-0.013270611074199322	-0.04206799528173677	-0.04128002813013981	-0.017986871913257492	-0.019248206139209696	-0.049072454009946545	-0.03297385527767289	0.038855619060248835	0.013652142430772625	-0.022351056534131934	0.010564392470404325	0.05891950522317243	-0.060734954648175916	0.02012678304856789	0.02043610347743503	0.06324356460739529	-0.0034498769714104063	0.01426992496915844	-0.028578729198141712	0.05342567440826447	0.00039520204336669206	0.03636557604619076	-0.02812611141875241	-0.03599734117972115	0.02398992247416728	0.05571241878017049	0.060473207353559356	0.007318967951156961	0.002938192230233845	-0.01902895786214029	0.04580512448555061	0.03256162179578915	0.010519263167094027	-0.004290751404701934	0.04535575937631305	0.022910491532840326	0.033579509100513334	0.005080658775190726	-0.022642424430796976	0.005911657010896739	0.05189102704303484	0.023549110180970174	0.0007162463173945174	0.06817724652626249	-0.01754003800016947	-0.044152275610585115	-0.009931208220184479	-0.0017820434744285508	0.004464216623142975	-0.0357535165673347	0.049750595014764476	0.05626063364347114	0.01028485196361252	-0.033016206178777305	-0.07140199924554924	-0.007423495686108683	0.040983650320173357	-0.04316507244217831	0.013369499777351544	-0.031401893232437125	-0.02315795872587409	-0.026316118768324792	0.035364880848244	0.05980469991102932	0.044026864514453166	0.03514297350849029	0.011672545514827458	-0.00140545465215416	-0.02907083385723054	0.048175870455611405	0.0726152757140668	0.06487923511350972	0.07135054286186349	0.050668044127175786	-0.0362393595310898	-0.02418166779139892	-0.03448884431111161	0.01951845356230334	-0.04707227922704717	0.0658365686804168	-0.02926801823194284	0.0062233123189622515	-0.008288800954635177	0.010307223320320816	-0.0877959502408247	-0.00874653937835607	-0.011844585663398988	-0.013233156351262605	0.01666673928003671	0.001110472708357492	-0.060771087089955954	-0.0043277124610554	0.0015787565661812253	-0.03202567502882713	-0.0744890926190644	-0.01919140659075949	0.01956212666510971	0.04359927689237082	-0.00548509740751463	-0.058809712631429666	-0.039782096098710765	-0.026759264289447804	-0.007082449642493373	-0.020160281888334883	-0.01389569232663364	-0.03631344262309824	0.03832298876151595	0.02480085731107878	-0.05402406765794787	-0.06079888113844742	-0.04250510235937261	-0.08479139161836936	-0.05059329536196865	-0.02167357111939526	-0.0546975720411347	0.06221689803251041	-0.05809862443513241	0.06171125409445224	-0.05710374303661932	-0.04401848189423428	-0.003825893902726485	-0.09192466545307786	-0.05518978007130913	-0.02873570299087609	0.1383998835979333	0.11198803651273158	-0.06237908032986822	-0.06755053345532797	-0.08561907065054522	-0.006097225176323195	-0.05968379910550371	-0.04319701362722591	-0.0679460451745617	-0.07678618216923964	0.04068023699030477	-0.03560090368827676	-0.05895692615358642	-0.1160688715165729	-0.14792692569923283	-0.02512382766709592	-0.07532255827761361	-0.059008798965092674	0.005795633752741414	-0.05066846858673545	0.03800790402155688	-0.0325462749222662	0.010689017756361725	0.04130289386925117	0.04022932304755712	-0.04133823063215519	-0.021185646781975043	0.04425690903466973	0.17968179390875932	0.15266523819785066	0.06616530630172068	-0.05736426761252332	-0.020885876395202677	-0.001045871019051295	-0.2616689691530761	-0.17338450233982583	-0.13882744027570607	-0.12408228378701325	0.02048829289076989	-0.060783616398494236	-0.10968328039675354	-0.11901098352111555	-0.0258621307501326	-0.029604514080119756	-0.1306103505304928	-0.033815086325146515	-0.071318490545502	0.028698631043488784	-0.003450353631540321	0.05152831375370403	0.006997414299939546	-0.04957499298568459	-0.010879196583570368	-0.004352422084701496	-0.09810278343363166	0.007764373330689578	0.04709780636102546	0.10034381862466737	-0.020239758429615635	-0.05776054362626815	0.013260686776679818	-0.17439691638608562	-0.12925685148176022	-0.002239950135893272	-0.16304006554672	-0.12446897019843585	-0.0430126949766288	-0.030608795439881264	-0.05775988449494079	-0.1434471207518798	-0.13307458096595806	-0.00534842522992112	-0.10944502443644252	-0.05725530126092795	-0.08509884238645211	-0.07583880010372751	-0.0027105970410643315	0.0035383022977865317	0.037589203696725214	0.03222768921143857	-0.06176769591523204	-0.048165908687403586	-0.1401952595659487	0.01193264170466452	-0.02765888605679624	0.12010141588512835	0.06451298706634663	-0.11684918939852244	0.023110006128165043	0.09060653700754416	0.028263423993856972	-0.056240152270767	-0.13112004616053458	-0.05721461863783827	0.045264308515988	-0.061444174622151904	0.012732253775585291	-0.07540739418879769	-0.0928863048232007	-0.11056988972316203	-0.03999199264181341	-0.02519220877748974	-0.06248191696206749	0.013077894836190844	0.0629614808460171	0.03738332807190161	-0.03142443939702101	0.056399529440123976	0.00045229581477712827	-0.11027708179784053	-0.07742776490297767	0.07669371945862738	0.025520432067622986	0.18218882301052797	0.06119487024788474	-0.01008945292768217	-0.11777544620873943	-0.0934075002895557	-0.14984533244344916	0.048836618656912585	-0.16110349431650775	0.06314639629508374	-0.027410689734996007	-0.1839841452112792	0.09871654396546056	-0.11099350780122771	-0.14563073859711434	-0.04666315389051626	-0.060050915983015284	-0.039264289192877735	0.0463836476999674	-0.06712349197598125	0.005797490028457267	0.017749636838883774	0.004005756108340662	-0.036186483464843246	-0.10809930802560061	-0.0854412588446285	-0.10705741524362346	-0.04141490063759527	0.023068002281003662	0.00013229161602049848	-0.016072816234691246	-0.10491500845029356	-0.09136024366058719	-0.2307249001028023	-0.09629154487006776	0.016160236111413952	-0.07379198767142325	-0.11978249272888233	-0.08949340626527638	-0.14584911710597986	0.009580945625842259	0.0353153348921814	-0.017599736383612796	0.09366711419126347	-0.13842222895672796	-0.12637657858789172	-0.03793342687899994	-0.10151528209430906	-0.14750976032853844	-0.017968117206572848	-0.04798389244420988	-0.02299392197201078	-0.012572781776152156	-0.050787356358794625	-0.04934122190966194	-0.05139246277405508	-0.06762864383797552	0.0031299064309463897	-0.0359293823343058	-0.16503322133759396	-0.14702332329943063	0.006530663239667977	-0.06170102004104884	0.015873271199936267	-0.014026362579705933	-0.04866115265394172	-0.02490155821422305	-0.08734456616351442	0.228122237661284	0.07331820364707234	-0.05894073626136676	-0.171571849819353	-0.11088445675733571	-0.04929269142006588	0.058900024575176214	-0.1108364731441387	-0.13578111359024145	0.005979080939777724	-0.006897890986386525	0.030459905805476122	0.03521790909836593	-0.0817394447080904	-0.10186995750587967	-0.05027772524570412	-0.016169666658969576	-0.15962606756552208	-0.14562981417333462	-0.1907727017347017	-0.21499961543361074	-0.17930922396870647	-0.018592775776685506	0.11800772729771668	0.3406548666093913	0.0451410998394367	0.028037039211977616	0.11702888775044015	0.27984447522662736	-0.03036233430997669	-0.20098929554697814	-0.14645403975605956	0.08318909552565451	0.09996798914981539	0.06518213411255527	-0.1255173196108048	-0.12579887686363286	-0.04360407733625511	0.02997924519269963	-0.012380149136063215	-0.06285718236004718	-0.09654268445683932	-0.06839394412338931	-0.0640191336501302	-0.025572918181951072	-0.21842998128452668	-0.20060089308564855	-0.2004469364582778	0.11079219940081426	0.19903449459640568	0.30215110333032963	0.1333758954551442	0.35147965620004057	0.1570496178075528	0.013038683686307104	0.19995921847617198	0.28187067977658825	-0.07212406855035462	-0.18268546503986052	-0.012506783361482057	0.04622482835952829	0.05122810228897208	-0.06977257979961805	-0.12993451209808554	-0.11956914155151839	0.05033170283987917	0.04541245532254217	-0.026049002158154498	0.0379681274513005	-0.15004735950122514	-0.10952242612381767	0.19065773455409113	-0.0957513798405232	-0.18506862117338302	-0.23621390758817173	-0.06538178931871717	0.11332206403483638	0.2230419683389173	0.3845437735026493	0.1580572880641889	0.21748205064284953	0.26543354492778415	0.2637158453500452	0.07051825575295559	0.00418253799932549	-0.0727954459249153	-0.05499387663893024	-0.00536987642280277	0.009148871532978485	0.14694574158106283	-0.02041972548724482	-0.06675477984490515	-0.1442409574830858	-0.0004691764699192673	-0.017478563345988483	0.018441571355419326	0.02464682284155053	-0.12894545092466245	-0.006699052109748563	0.07130057736257842	0.07412792062381413	-0.022674294525672316	-0.03910655717346714	-0.12627969701995417	0.015425731998501106	-0.033809480353421774	0.052429623200935166	0.022352145419494304	0.1753560926801793	0.16204042006499608	0.23486899761989027	-0.07758593543732833	-0.052294026436444596	-0.003160126888806834	-0.1266036596385996	-0.020270455222641526	0.1209848291938272	0.3723433886056551	-0.0033839858770970278	-0.12196901128137286	-0.08431860163950489	0.04298865383936553	-0.008541383923247978	0.018904176705518267	-0.0641423014351446	-0.074941995827753	-0.05095537424352348	0.029514176761687223	-0.027211996274123483	-0.06801055072990969	0.009974854182417565	0.09903082941541808	-0.04011974078408671	0.05506163700596354	0.015264341467327226	-0.12921277614679505	-0.06272851985281555	-0.07436471145085526	0.03983662604978079	0.04278370458702865	0.10848997756609492	0.07513723553061413	-0.014055718545796334	-0.07189916409874063	0.05872072114586202	0.191306845979013	-0.14546289806586987	-0.18625849430515756	-0.05230902097730568	0.055956156222125825	-0.03475322348457817	0.05788786723851121	0.0040509810185466255	-0.022375713407481772	-0.10129288476822146	-0.010361660458423084	0.02943754978972615	0.11417147866730457	-0.05373134841073465	-0.08373693592508799	0.018573301798138868	0.07497194339194953	-0.0739462034857615	0.06151952429443513	-0.01311616177444297	0.009172248220813169	-0.21315175697817398	-0.07372218769506571	0.10967448789956846	0.05856612663965834	-0.03577280269354747	0.038371760127312374	0.2238607552614906	0.06925159485448597	-0.15137006736377273	-0.059771892168013305	-0.0644309607907637	0.0354924851022263	-0.018980222249985364	-0.02569477137196137	0.02449859989065645	0.03141816225182672	-0.025516577089843052	-0.06035321819554346	0.06273259091454256	0.17536084580330355	0.056528459577857196	0.07058783921660797	0.17694288245900625	0.13252676388163875	-0.02514819069503435	0.10794176361222271	0.06485332732487098	0.027310514983403415	-0.0026694443642376322	-0.11608113068678708	0.00285851608042375	0.050035070008292146	0.04490538828332734	0.14056255149151944	0.2139315273536996	0.06812135935442529	-0.05515909694860939	-0.01571156928284202	-0.02501238887023238	0.03643542170277833	-0.044330632813111795	-0.03177186563199445	0.03605672712318943	-0.08706936676837826	-0.13223408143895765	-0.10183894320863764	0.026093483684744092	0.10272514007120137	0.01471306068661955	-0.07176911474112842	-0.010225578276307542	-0.012076672080759049	0.017864034706478047	-0.009095788778894776	-0.0731996338883256	-0.008347413750527968	-0.009272764821982707	-0.030820405507858157	-0.09087970429151432	0.034697741303079586	0.049708650107951294	0.02893210310618804	0.10086820820950206	0.11062242448992012	-0.0654732512862147	-0.026311134785939633	-0.0050958435053505705	-0.0009239840123808074	0.02388358687089289	-0.047947644538488016	0.011616450736779846	-0.10889662532879067	-0.06430496846047246	-0.05283209922956869	-0.01364056015338529	0.010751518139116659	-0.10757362132046323	-0.12379531792712557	-0.13486816589382383	-0.0834494526483622	-0.09124862177133518	-0.03347935511307659	-0.057757321391751604	-0.14874826997369875	-0.05378428005956802	-0.09360556918711314	-0.14046326020908867	-0.1598211913416223	-0.08863965017854566	-0.06505829178908087	-0.062474548039051704	0.04071587289131134	-0.03892029297678895	0.007545823464666952	0.05481628833121745	0.02624175218065295	-0.006318515059287322	-0.0059829979986692275	0.032403794533902325	0.025291568523383004	0.0554237863887502	0.05445562832060783	-0.019310511089063332	-0.06891521312373823	-0.03408110025893925	-0.1819150035684708	-0.10672049581711372	-0.03607218600839948	-0.1749420442108842	-0.04390777692967197	-0.09057051179611882	-0.10055478257828106	-0.14012682679552077	-0.10040213890500946	-0.11744716146706592	-0.08832354183777091	-0.12781641005315025	-0.09626730312981994	0.0030076332561471204	-0.045541538666227364	-0.04041930094845285	0.059891828045436635	0.026045876863568865	-0.01107828190767042	0.002670742998172222	0.0029892693145694635	-0.041202032830019095	-0.0457851320122729	0.017771263839204965	-0.029567564024767463	-0.1265239127992128	0.09309504669423867	-0.016662792448881195	-0.06245862042259062	-0.10897196738856216	-0.04443264360318727	-0.004759781557633824	-0.0647990897943311	-0.11638428631197043	-0.24413743821758904	-0.23217389907229236	-0.14379287013693562	-0.11071253344371101	-0.04068435250916952	-0.10338748606013554	-0.022730220367619212	0.019576779564660942	-0.06460736282121704	0.022081290424813674	-0.03697023179211227	-0.031160418224746366	-0.05659556387074077	-0.0007901017974223656	0.037566544170944245	0.04560404053564435	0.014028049243818074	-0.058344072804392175	0.05736090451728058	-0.0380634078643681	0.0047254876792475345	-0.015540555928401405	-0.05595152367128689	-0.13610855646561604	-0.027036352077917537	0.023052211706424495	-0.04393587126086481	-0.16536417145770518	-0.039903979713425	-0.11398941800257045	-0.09744149012657903	-0.0860937642357579	-0.06599784737434587	-0.07857064385820257	-0.014702385271122798	0.0555796833778353	-0.033123401679284466	0.053282981922284214	-0.037832927549452285	-0.04994817569728143	0.0027681741446537247	0.061069485485660484	0.011095966099658273	0.0469849956492838	-0.04753245840438988	-0.03881489179058669	0.04918565757963421	-0.04056302317390754	0.003916572877240166	-0.0124573792284666	-0.12646468265229477	-0.10085678072452477	-0.06425360189682812	0.03485778477775461	0.0013617098160320427	0.025011110129155103	0.018181122009659566	-0.01667233856849625	0.033781941827227144	0.014085144776038833	-0.03175008486335917	0.012278157083920924	0.014696769183234652	-0.049447258261597696	-0.0004475962104832361	-0.03570028232298101	0.024471296166855276	-0.013225465274211486	0.05059855336862439	0.007468899577572845	-0.06136941589673077	-0.00633740433198339	0.00112062610966316	-0.020627167470417186	0.06393888287090857	-0.034884301569672725	0.045568085861325706	-0.031912259994632736	0.012931374953357905	-0.03779771610120902	0.04727381519269954	-0.05195724619779684	-0.0198593923750279	0.018859817145729936	-0.06305615737386877	-0.056851966324963775	0.021817006603583187	-0.020891946293824598	-0.012809334641237817	0.03578176582658521	0.01172024801443864	-0.05486706886336129	0.010369409895451646	-0.03205882945923905	-0.057844592395128125	-0.05521658027442333	0.034991441742232225	-0.007593962380029906	-0.0061800490584011936	0.039404494154190554	-0.03433124266785654	-0.04794062524935282	-0.02275643700997635	0.013165883277912231	-0.023919429998706887	-0.06042049616271603	-0.007301465765622697	-0.012435114364812816	0.044008593421925805	-0.03209387474428165	0.0607479834263065	0.05400882088846171	-0.012398541901530225	-0.03601397086942179	-0.013846856204428238	0.053637771842883084	-0.050651322789857234	-0.02805501372515072	0.03214891465169998	-0.04295805115562597	0.05213447799332783	-0.0016936374858368478	0.03770752462501705	-0.05591262237649998	-0.013915475391079755	-0.23049132734214012
0.02526367747937764	0.04048420009814251	0.026442117246128848	0.04334975714502811	0.004277536551117546	0.024054013620406774	-0.008317535396869816	-0.04677168644769774	-0.009253006962045451	0.05987278348732963	-0.006592913222899148	0.03038713210950888	-0.0531320625716344	-0.00991822655783503	0.05032360842945501	0.040113969990459346	-0.028140254545415654	-0.015199964037344992	-0.03313826411677925	-0.0009033093323808083	0.043059928373064195	-0.032494756110987205	-0.005913810048616609	0.0327832652556365	-0.02863240484367223	0.0252503985804236	-0.009416515787740679	0.0545173925324624	0.0044582193958265445	0.06160196207991272	0.012294333142840834	0.010243296123990504	-0.029668593615802603	0.03214254941408589	-0.013067172566257106	0.017448349965793315	0.00988875825546538	0.08336558250758634	0.040443437339713936	0.057549987292939385	0.022246100244036265	0.026868271197631306	-0.0210700566865134	0.06164372232877096	-0.00807005243809026	0.01455944231311946	-0.015862248379032655	0.02071715963400316	0.002414931989628187	-0.053425907212684184	-0.04232881460294105	0.04019009678574383	-0.04568607552673375	-0.048969420478753474	-0.04795315469450621	0.0450798342091095	-0.061514381774969956	-0.0013533484936921678	0.04661647376176969	-0.04246356331346854	-0.029124276234623978	-0.00892345371501195	0.035698440925120964	0.0381066178149965	0.047672142233692046	0.08471307759957983	0.04460687203661309	-0.021851530254869894	0.003911954581023529	0.025458314262519405	-0.01611450023616174	-0.027582030731678267	0.04318086085149512	-0.05563781101515994	0.04376828315810596	-0.015566512538044933	0.025695758732432246	-0.032380492035006994	-0.04794211188453562	-0.03682671278635377	0.021847602919572183	0.04826064987266774	-0.035241567822888425	-0.04913114145255201	0.037680332870466425	0.04558386726713585	0.0030028410508368894	-0.037487913779153274	-0.012730099130258079	0.05070217875589801	-0.010299287711018538	0.0034182108372063863	0.014349011355046263	0.014428614112859312	0.023299111470570663	-0.04844378178249502	-0.024895638437733743	0.021321750719153796	0.056106713836730535	0.056753892568196955	0.013396690387755317	0.021903956400350543	-0.008693210968051136	-0.05239592787508956	0.01917465174844521	-0.03194136798402941	-0.03683095299303411	0.025578036083590733	0.021074273444924692	-0.006682483372784757	-0.027781238649739165	-0.005188160527799489	0.03487500922203573	-0.009197392753600306	-0.028102965510603588	-0.03684116332909782	-0.05540159190929747	-0.058752019677894875	-0.020498958777017753	0.04167936654537171	0.09511075543104675	-0.02369766707802608	-0.046919297338303585	0.04327341171682566	-0.023043842097641362	-0.01740402186370829	0.07957870493707773	-0.013423717561850885	0.054968181979519644	0.007236274971269199	-0.03987564743805352	0.033430934462492505	0.09562135842776369	-0.04194391340879843	-0.07104945929488582	-0.02910136077572184	0.029746121327268792	-0.04371770048925512	0.04099719593132053	-0.05637789954478046	-0.025395946147830854	-0.002828020409542248	0.041534027504196595	-0.01895528056480094	-0.008600524851846064	-0.04431667269316799	-0.061716033941872465	0.06328585888477234	0.1406378697598365	0.14612127812113213	0.006247515114476419	-0.045144131659525334	-0.028258651714991822	0.016882452604408918	0.05796466063324657	-0.02602113521850327	0.051579707897652226	0.00430428709119531	0.022659619097693283	0.026112075430609977	0.12300830790069701	0.04625239477606317	0.009133287073633522	-0.06107820479357508	-0.057247867262003455	-0.002837581712346657	-0.0015657156827034585	0.035227467742487494	-0.03134558843633463	0.010466490271709823	-0.03318855900723024	0.08700807645454552	0.009240596677392073	-0.08727163338237674	-0.04630084482102494	0.1504073202339093	0.20837999041006958	0.06652043937919444	-0.03382658248603938	-0.15654690797439133	-0.13365206992006995	-0.06728274459851609	0.07065772108493872	0.08904401780552036	0.1238578190098449	0.2245096429559918	0.0742145161077246	0.05695474219238627	-0.012680790287584082	0.07225092978052854	0.1300674527455366	-0.0705978048947279	-0.0767350768275003	-0.1312324857750898	0.02131321946657484	-0.015253473741987371	-0.03486888056849348	-0.046568690557547844	0.007886196781605148	0.042464986819031776	0.06106589405771707	-0.005017118785464084	0.010891435482596475	0.2157631926843532	0.15895472036079303	0.1372756177810255	0.01488489533891738	-0.11893347418055684	-0.20526868949492386	-0.12204021179847581	0.13365456845985493	0.22283960407600858	0.10530021997345045	0.22810325402007023	0.14196739561942748	0.0518126096975379	0.0008322463894496816	-0.04522948585381281	0.07795150908591407	-0.042509728168359906	-0.11695483928505776	-0.18149841435874364	0.028925411895316337	-0.05671501572693005	0.014233447208647977	-0.06032977090568271	-0.030577599540822925	0.0029014996266617022	0.051022823910224474	0.08681884455959318	0.1176166130096483	0.11742903922947592	0.11226609806623522	0.03526137254564299	0.0023405564305186448	-0.21677230072329504	-0.1504538932382281	0.05861743102413016	-0.034168994192179405	0.0003714923228513263	0.040011418584440066	0.032512928513033786	0.06836260947074617	0.10956841404844747	0.011072528364890267	-0.0779966626184873	-0.017060576064906022	0.08220122568102277	-0.1778544903051162	-0.1481543347310017	-0.04554967033533252	-0.06171439886654273	-0.023217287523456573	-0.03244853967971942	0.020879494015315168	0.031011088195153108	0.042430095592592705	-0.10315170555115957	-0.18957951148817836	-0.20865467142726107	-0.07192027027171004	-0.034695620869410644	-0.0510167675140641	-0.0015083289079793774	0.013020124496345235	-0.05202263332635809	-0.151732333670006	0.02091419733988309	0.045344087040015975	-0.05154146148842982	0.02688332180987703	0.16392053313855134	0.01881739205997077	0.07271789896805	-0.01842650737948654	0.12345501841053641	-0.17504186987901793	-0.11303426394201821	0.043352764527075593	-0.056949205175092124	-0.006714860670830228	0.035112902535786104	0.03822478182239675	-0.02881510006258453	-0.05535740589541376	-0.20605399771706506	-0.4039963656811211	-0.1243220805611181	-0.1823585967518303	0.0947832194815628	0.193084026825361	-0.032822464603018145	-0.04005458581231775	-0.08918772830307402	-0.0708476011214736	-0.012989436466098889	0.017336419179078088	-0.08395205500154701	0.20001929583413375	0.28855331803768003	0.08037161048040335	0.013613577725013416	-0.043734911428132066	0.060780667016328276	0.021754568255319177	0.06218053322476864	-0.03387683602359346	-0.019814508054516348	-0.037584152599859616	-0.020110793808489374	-0.04837521633651649	-0.1426502829581481	-0.03774239485918643	-0.24537273149038877	0.14091550352618157	-0.02517164135844223	-0.11097406946095428	0.10251347637900485	0.20128842916728087	-0.0007932450903421608	-0.02867511741046721	-0.1067653266648984	-0.09071557289475851	-0.007992582567246142	0.0042542933334336385	0.07471184616994682	0.12216926820426906	0.2569074788628365	-0.025650916117372007	-0.00613773741778557	0.050951655869881554	0.02836446728014227	0.17595956090479697	0.015261765289435104	0.044581083688785716	0.049815424538850454	-0.05280600771905761	-0.018680887939482888	0.015587543240313494	-0.1871829040434038	-0.1381655492270718	-0.18306790654836552	0.026540512438589414	-0.06489698067201335	0.08149042786629213	0.32870664370881747	0.06836271432207867	0.0020343872703825565	-0.06658371736277434	-0.14693924436800807	-0.2636265634308303	-0.22739301953631597	-0.10895917404001931	0.12723016204281323	0.15590515498708057	0.09190830473855459	0.07158222409083527	-0.004872245855726784	0.00888459929982089	0.15483482012558328	0.0023419023739387453	-0.01824614970661383	-0.0457424334479171	0.03705885020355904	0.061052623613635275	0.041203901003578056	-0.06204921685230559	-0.02556469015304382	0.034002675562989575	0.026289209550093343	0.09437773341857644	-0.09843709631617086	0.12793806245052694	0.09810350668713114	-0.010171169727366985	-0.17250653123548979	-0.048884054377205506	-0.15471863331125274	-0.13434985061634558	-0.03801218178206382	-0.001906903536295677	-0.2287623032678332	0.11803282462667307	0.031074755648829392	0.03484702705313843	0.06873730591498939	0.0921939995920449	-0.012363214057570336	0.014868600574932202	-0.021576951393377276	-0.10887783853416674	0.03917716713392516	-0.04500936359197016	-0.002596336849996727	-0.07923080820156389	0.01856519862246894	0.0353399343221224	0.152984792570174	0.04364945365644977	0.04454505547082542	-0.029510266516507132	0.04924938312459415	0.009326472553386386	-0.2550420104357401	-0.1698879898647892	-0.20053277815139145	-0.016838832580627384	-0.024736929718184912	-0.005525982938721612	0.09776667199474974	0.2747136356266478	-0.027246040674270798	0.03753233218524833	0.10110228437592908	0.12464621250882016	0.002913809611020995	0.095857342723646	-0.07462117164574278	-0.18997808680995149	0.033283895701276635	0.020876134243154022	0.05601257458885501	-0.016617236649242542	0.06003903855040249	0.15878513096805658	0.24921473815002518	-0.1806422206093245	0.08774254062788465	0.27745378572781715	0.20034627625371165	-0.034928671473614246	-0.20296501106649673	-0.1857083928207708	-0.217485318728	-0.08563669229425575	0.031330784232791606	0.21662327198125633	0.19129182144214602	0.11236218911725662	-0.022254485775126114	0.16582296118833523	0.05404722754956319	-0.012398265132745601	0.07350974585256827	0.14701747807565635	-0.04157118226562769	-0.12201671227303612	-0.04014950466028538	0.024171026560983862	-0.011924193332440436	0.037322440386961024	0.03768491428636785	-0.02512543588671035	0.1745520606147196	-0.058244364499692704	-0.007614174549644056	0.3246948392655115	-0.009468233658920603	-0.04827620521821153	-0.144897013404889	0.020755671742088797	-0.05328955982918059	-0.11829809287296908	0.010686356485516316	0.1090829921148736	0.039022273906437914	-0.03570925552897004	-0.02942310450193542	0.03224024052963653	0.12116350633143584	-0.10624926133061484	0.14715403080591513	0.10639609801465615	-0.08248192524695896	0.015752750739467043	-0.06563094466776248	-0.00024407980581130778	-0.05802863167216434	0.04147831768975604	0.056208422137400293	0.09361718871239083	0.1104284595372683	-0.12295128630890056	-0.07633357280914534	0.15064348048867177	0.15086024241499432	-0.03401934917292177	-0.050485959163053595	-0.16892125417909284	-0.02641589573848396	-0.0280049480169505	-0.11781868940672117	0.11997098436280977	0.1372268513508178	0.04103863810231375	-0.14938147227468357	0.06672973325776779	-0.011076145085163849	0.015115461034368791	0.07702377354202444	-0.030917435649181972	-0.19577694596045647	-0.03997835512714966	-0.04613826958115963	0.05413002574044921	-0.025275649016009018	-0.023679139096852927	0.00419621295119042	0.017458428378347025	0.0038929462985878888	-0.18508061585722918	-0.186440775997519	-0.09499750373790013	-0.012048785611039385	0.18528550998528764	-0.04756926147349186	-0.19908245632892455	0.04888150660164694	-0.04987531757074596	-0.11567871467930964	0.08582272865748061	0.08476046967450213	0.010849149054596285	0.046405256795939195	0.21803299952594365	-0.040264817188920186	-0.07493187503279715	-0.015308342625134655	-0.12014746442806663	-0.10739947984831609	-0.05963611278592485	-0.0013718690955693829	-0.005980557533541819	-0.0337493968768045	-0.0318175673005574	0.025868607210433624	-0.0773309377666673	0.1289951511087156	0.19033784552384328	0.08443955988330291	-0.15031599753981592	-0.18361508562992945	-0.05148597440207157	-0.19896891894267218	-0.2192262333389663	0.008697642893781938	-0.05438241883059825	-0.23023051054162075	0.0016981304753591142	-0.008656884158649956	0.12841028938845908	0.05192105436129109	0.06667490740540467	0.07433964310226462	0.08832747860844065	-0.012037247729387421	-0.06876371575687074	-0.1083082130427348	-0.011486292087390932	-0.01884420256700631	0.02305056070680237	0.04411737742792727	0.04307977892721204	0.04960382563128284	-0.037984806850470176	0.14107110927756816	0.03482466459017508	-0.003162502889105738	-0.11608350810813418	-0.2414315576525976	-0.14309814190935988	-0.13101253943481597	0.0014745050948837821	0.017284753495123848	-0.11962879752694981	-0.0745436394273162	0.038400459730691304	0.09260788665784248	0.06856321256609671	0.04779323060988552	0.05153163192431261	-0.017629681657822353	-0.014555896742078597	0.04814078024938285	-0.02615544754806731	-0.11637169876412394	-0.037983359602011726	-0.02421555362973679	-0.059697320854529695	0.05487139718994372	0.05590636027476592	-0.03748610812099835	-0.09874428677578712	0.028390735617816992	0.13430064821379153	0.04733533686528385	-0.037811348230211095	-0.12084402853342464	-0.06087047800164977	0.03533156315665602	0.006892666466283293	0.01868772648311705	-0.20999462876822167	-0.07149702938831294	-0.05837558224283849	0.031471894114214444	-0.019581155699624844	-0.11484054479985678	0.059850081748380274	0.09097207028361869	0.02092000405984121	0.025643869770427347	0.02610892058986329	0.029676667528469224	-0.03385257397677125	-0.02755410723302005	-0.027648272754311004	0.05065554830468604	-0.005409881286817629	0.04377726685237647	-0.03616636635360079	0.031228138613500073	0.005831568166422167	0.10253243229998286	0.015291818579294479	0.10453322657650564	0.04853263197919744	0.04499086627036596	-0.007511457039353512	-0.11099252356836609	-0.040100392238097714	-0.02438315080141419	-0.05745285907708195	0.1201353011346049	0.015101113502884903	0.1099614209513267	0.12572916504933637	0.13486634358847233	0.06822629531165694	0.0737545157028574	-5.9396174164161234e-05	0.014232269379636566	-0.062294111441465135	-0.003039379814243112	-0.025023763425766087	-0.026724985748147197	0.04568210202171817	-0.03480848976550648	-0.021035886336467403	0.02451737528065053	0.1044387814892296	0.07859261471219871	0.1176215031769555	0.05101667858145072	-0.06447630288943072	-0.06683867524278252	0.00031857692057656235	-0.0703227443732389	-0.06901110191297262	-0.12360921343476715	-0.0038824878212996364	0.04418848846446858	0.09164110920326266	0.023319703418481073	0.08147831178811776	0.14862220183330946	0.0888855262093803	0.0010136711109365122	0.02091774907657314	-0.008660562570035078	-0.058869329817324095	0.04682469223678789	-0.05117602491581066	-0.04372228868612686	0.038711849286554766	0.04515549794617375	-0.022754483322276253	-0.010042921204328132	0.08878087323915856	-0.006095074163430183	-0.03605878626392821	-0.06934905687292044	0.02179927312837073	-0.06866955515715446	-0.0046769050486976495	-0.021274531131011812	0.07533892328635977	0.1276721438868255	0.09591703664123395	0.17877327444194116	0.04568128756680862	0.04214538386322933	0.05214367752985001	0.03395337270602269	0.05077302472511436	0.03584892904595341	0.0056951413411792905	0.03668824281645169	0.06005208138229396	-0.013668534218524708	0.03874733548905159	0.04709972641411838	0.022735016750469177	-0.025805312120149235	-0.0013982196711331267	-0.05270976869117238	0.0646255122099523	-0.07565839356113345	-0.07633766140264567	-0.04405400697715123	-0.008036109848214276	0.02803125811669724	-0.029787750025188558	0.05415952289045032	-0.007815306107581424	0.06979462169141748	0.06316670417300979	0.040338236708519874	0.021928926931644433	0.05436062975390388	0.039829106859233625	0.010633871937386415	-0.013455810215733098	0.010541742256292754	-0.02429952784945784	0.01748017758359683	-0.0008504686635499095	-0.035756852583913645	0.038262025947433075	-0.015324484136381093	-0.04634366528779245	-0.044545516721102824	-0.05445352070942647	-0.010274663133380138	0.02907567302192351	-0.0648811513716943	0.027686743738643327	-0.03650115197365404	-0.009262199346568736	0.04741962531861712	0.03868083583265713	0.022520096139451197	0.01574685605845618	0.013580250723558946	0.03515375071371454	0.040862078248561806	0.07228461888129235	-0.0472657786131646	0.061013820864906775	-0.03187216870291603	-0.019422373189543568	0.01836516461293345	0.027821572949525857	0.06085978206342187	0.057961342599500205	0.031027514145848013	-0.034529474143854016	0.040983365498020334	-0.050267589793507914	0.02956768960631497	0.0059483752839038576	-0.037595955693101354	0.052066562147676694	0.051819984905579215	-0.021287661016373145	0.03973766181991741	0.03197403042384501	0.05817171054960372	-0.008049211957579017	0.046703309613476636	-0.01813179703736783	0.003316410019258635	-0.051203447982371565	-0.04075942067919689	0.030812148564416282	-0.04490112455457188	0.03624690264824625	0.015216530796334025	-0.0201041110231803	-0.012596818989598677	0.02932811906945889	0.04234415441477172	0.04144417110737999	0.040031656395149974	-0.32208656642287326
-0.015439523587579933	0.0553002670485452	0.01715785443746088	-0.016513605319886236	-0.00705813987762146	0.012988060403639513	-0.029094367584817177	0.02409733392682096	0.021034133362740896	-0.01494900557344723	0.00720608504325465	-0.021431282287924167	-0.05917410565772128	-0.050053434116245465	-0.04731005032628382	0.038589316561465144	0.01686826590722109	0.012280993017003548	-0.028579997440372408	-0.02891530553606461	-0.04533384966220372	0.02926818627148097	-0.012024401914406374	-0.007250184145751071	0.05047557206892526	0.018466300681631763	0.052021721611721784	-0.03882167673576237	0.047038212356980295	-0.017546063540546504	0.020539600532799386	-0.018629158476748738	0.05997315446030536	-0.026099306033090637	-0.026086618937245523	0.010804528302614518	0.03906586680488261	0.06225014236188168	0.004270980298117873	0.040438573752478356	-0.05037179475310104	-0.039776651324754546	0.05490406950943661	-0.030686675687412998	-0.05330981238990491	-0.018772579455497665	0.028475617721474493	-0.03519518947936437	0.020230070599760515	-0.035263859694837224	0.029379877485110624	0.059613540176368794	0.04118973976724944	0.03064264017322333	-0.029925344092139997	0.009958896262407528	-0.03545268734606101	-0.04568873847434124	-0.04834625786048482	0.04846906676764521	0.035376643376631926	-0.023788277574739114	0.0026465502588993903	0.060349730538532896	-0.033075541110687126	-0.024019577333905816	0.05991467739030274	0.01439987232113433	0.011819926459898574	0.032142861878340735	-0.03643393863943099	-0.055186122278803984	0.032603237530609126	0.05665698017512876	0.0014707835032051544	-0.049439567082143906	0.01321767277263746	-0.026477177471383923	0.018934619457473552	-0.021762140079556937	0.03823884638233257	-0.05380962702303885	0.05577460981963656	0.05925860938939196	0.009943299128443363	0.05763468008245622	0.03494319669202659	-0.014259393513710014	-0.014568684554575205	0.05851011163601362	0.08958110596353216	0.0571475116482494	0.0770527399958524	0.08436170178243577	-0.033769128355793585	-0.011028205222001538	0.052244208325975386	0.002675648482552554	0.055497601880125945	-0.005529632190635139	-0.00458778655453899	-0.005391780651912665	0.004792806712895817	-0.06599635164253675	0.010302000568676207	-0.009347421703393286	0.02849643050316751	0.03700463252929816	0.05486405988641863	0.00020678390214038528	-0.05801413437754947	0.032079622740524345	0.05572948303017846	-0.0555611656248024	-0.010779215859082286	0.020283185159153956	0.03040261241833073	-0.030476823211682755	0.09036585028903761	0.02433938094826536	0.0847222461179698	0.06177096070677467	0.10516398240818108	-0.01958874636718324	0.05764835904002716	-0.0001895132001801212	-0.014146415071603956	-0.014885888414168703	0.01762057210997983	-0.00685587796818702	-0.03604500618883691	-0.0045047641998584576	-0.04680651142054655	0.00421370630079082	-0.01634301059833181	0.02107612249551921	-0.048439141625455734	-0.02977638059603216	0.047147442952018066	-0.03570491477372557	-0.03150229225137591	-0.03617086518891636	0.03169822761997578	-0.019857518831871226	0.014990100997690612	-0.0035687358872192655	-0.02563674806173045	-0.060603249359963876	-0.02642296773696559	-0.013442013751415799	0.023418303489556806	-0.07660695539742113	0.09398759742912147	0.10716190342844678	0.06486117323078405	0.07749737116194677	-0.006889566368137156	0.08199274800327803	0.08473668568493845	0.08364164585347304	-0.016248488699690297	0.03881080655564486	-0.010389766606172631	0.038527452910344234	-0.03830152494868018	-0.052109951036692255	0.0037776474536103735	0.007941635921100303	0.012558195652790254	0.022740027942080597	-0.0356614641103719	0.060414589998866994	-0.027649442646363764	-0.028472422846231592	0.02604155030387055	-0.10421942914904996	-0.0998531809996825	-0.07875311001255775	-0.022594548809660976	0.046324392723001574	0.10345185188469197	0.1695542733183137	0.16503161092445318	0.19334134317438884	0.09551770010383089	0.01685055596242514	0.04466180410479502	-0.043056639199610766	-0.0713395560058605	0.037715293353922326	0.010282755126782893	-0.10560157670362293	-0.034138961172562314	0.016062898254866145	0.04299981239029497	0.04408980750600713	-0.019963483412300254	-0.005392283162332333	-0.057571248496944866	-0.02266520130818853	-0.004359974368869562	-0.017408093880907888	-0.17954900141759653	-0.0005344619600438609	-0.140057245641253	-0.18050812909826164	0.07755431987310524	0.06369973606272979	-0.01142255866016965	0.15255466202962412	0.1602674147091198	0.12289981192690459	0.17919098900241398	0.02652398287878897	0.04575146276320247	-0.10222976396040837	-0.26172348531326856	-0.14168936824898176	-0.10814125897927197	-0.0781135218094341	-0.06572998000948035	0.014103051313413655	0.013107638633691607	0.03315225437823854	0.02199317423035873	0.00271570719374669	0.038436551269928926	0.028266358671824678	0.09374441194571781	0.014142360252513524	-0.09488095702797061	0.09182607590994525	-0.09047945454249523	-0.1951897518689609	0.022063193579237864	0.09997865708376619	-0.1481521919884398	-0.049963294150367946	0.03463777852413061	0.16027307509453528	0.24501067472082627	0.13416356679600946	-0.03189431969647304	-0.11438859173431269	-0.19903162630784677	-0.19444182520588676	-0.228872901646641	-0.2179015155366419	-0.14246020671739723	-0.054175169473322266	-0.016403894527868185	-0.048401643536164	-0.002209680593749111	-0.042356365678324306	-0.006805245527864937	-0.05123896883997986	0.08837694870779196	-0.06136552648097878	-0.026373372971904306	0.04693806737406525	0.1571393958975329	-0.07305091720054008	0.04362082284995097	0.09943288018075723	-0.01560047227038297	0.00857579813661914	0.021908029921651265	0.24570950323732416	0.21944893570016577	0.08895017589064029	-0.0030256670438897084	-0.1612726964072342	-0.19734325209685152	-0.15899334149463942	-0.011227353822773166	-0.031266818030519006	-0.0016700551393149146	0.045944995999778415	0.13771950969996785	-0.02154990794623736	-0.048650681222018446	0.04000650757648266	-0.015678477427639625	0.030115468746770263	0.03467157364261297	0.07089227636177461	0.13717047103812238	-0.010589857620836831	0.10105095146952932	0.12451470782854644	0.1271767782212687	0.10873483683927958	-0.10444988761834552	-0.06928772808723443	0.13505946768066676	0.22671622010209572	0.2275292907489424	0.029830144044162277	-0.0791008774706123	-0.05899958794650469	-0.16511099852496924	-0.09290428286724935	-0.1775197265234653	-0.10419687616304912	0.10843255424861678	0.31484025196691945	0.07325966863643174	0.019539682419259633	0.03721002857557396	0.026930836284452014	-0.048893938041090844	0.021831688199941326	0.01645151426445115	0.0246709666945516	-0.0896858043085473	-0.014878339282561272	0.14623054441133074	0.042088476590490864	-0.01567929194936159	-0.030106577511867794	-0.009325239780247319	-0.07732345922943662	-0.03028835256998908	-0.016572375175529463	0.1321438595577058	-0.07835562076155285	-0.11542966656567887	-0.2669366381603485	-0.13597567271461988	0.01740704635148708	-0.36912827697350725	-0.3491576694971669	-0.02946023330086793	0.08942809563097323	0.08554973267970867	0.06746814505650683	0.041205443771947216	-0.023251259224582006	0.012281382812041709	-0.07571699576266196	-0.048779620224407946	-0.20830809373044099	-0.14431856150059472	0.021113862221275877	0.17318264298503838	0.07611448991969147	0.1840984706737413	0.10520198133802473	-0.06473147613841228	-0.08921312343008464	-0.05356943304800951	-0.14152583428100815	0.06225786807573314	0.0300011493961247	0.07333900376993154	-0.06845248234537474	-0.16131849586332397	-0.19740831084621638	-0.35743889616021907	-0.309571592808599	-0.052486179430943775	-0.004130879071164451	0.0744458272051302	0.03327445002844428	-0.051463326196901735	-0.05288234595569124	-0.045739109273023756	-0.1162078682217075	-0.14307436706487767	-0.28368768147212325	-0.08720550446932869	0.015029630718779212	0.11040128505037132	-0.02413893977565738	0.14461827790869924	-0.050508752793272695	-0.2622621842987073	-0.23606440478108454	-0.1147090613878251	-0.23150729956486166	-0.2124212202286085	0.17119041019159514	0.2491315428620508	-0.02127504975680749	-0.1285629882245353	-0.13888889174810284	-0.0651929280750389	-0.16843863549376978	-0.04459057878094369	-0.08717014589337602	0.06222417349954959	0.040939477265037834	0.05266388758654208	-0.006377188521307458	-0.03191762260668847	-0.06750362252580903	-0.16195279496809833	-0.1487124589922507	-0.2539785564652778	-0.16529313084025285	-0.058433190945314635	0.14039122699578993	-0.16992112409798465	-0.25844391191703386	-0.17759162673188528	0.06499876287871514	0.053833000108029584	-0.17486862466419165	0.11328298175313214	0.2637783183425095	-0.028189902984775812	-0.11238401737058588	-0.13269674711860438	-0.0658731368395334	-0.10411735583445321	-0.29573264059848464	-0.10812160432960245	-0.1782311591862059	0.001130908577359724	0.05172492171101043	-0.010108587790055697	0.04456047170497432	-0.011446190609739993	-0.05171709434117117	-0.1281716425029859	-0.09870973537915752	-0.11509270364434115	-0.18563848508976133	-0.0016364737161264306	0.11633181587861166	0.08269632499338837	-0.011694642692793083	0.07167131001258822	0.05203135353965642	0.2459703001087042	0.23755764100748825	0.36405365463698297	0.2972060576390401	-0.08487156604921012	-0.19749572242338786	-0.14734725523788325	-0.10239907368811986	-0.23138136214963864	-0.11336319655591613	-0.17680951860637936	-0.02094189918618464	-0.09736216318511039	-0.021938810408051578	0.02465776082342646	-0.0168649656923758	-0.06389331721101905	-0.06886224213968992	-0.08716833699710116	-0.30637554046983906	-0.11238134963985137	0.14456884914358029	-0.058926900997024155	-0.04310127625141778	0.11114958647039451	0.4256225203510001	0.32613734522000043	0.16052497840974977	0.3375056948887899	0.30120054281924924	0.30021499730153045	0.21517332454954352	0.0014621027136990084	-0.08989912854562321	-0.1959111062576309	-0.28424568471817063	-0.4075940006291967	-0.216182612428023	-0.01665795597867954	0.16195259923091967	-0.007718887240052002	0.01967249481882839	0.014544467525663955	0.0017441853597814267	0.03757895763192926	0.028768402788027655	-0.10816877765935896	-0.3175094837476055	-0.22591860040354314	-0.05911666881510666	-0.005617633732454326	0.042413318084202664	0.14185195740185838	0.3388106518780446	0.37210488816442644	0.09467591374010227	-0.00920490381690679	0.2603392098685948	0.10793602048856145	-0.02227550830444375	0.045679395770543266	-0.1166891980387849	-0.2544804300665818	-0.2757626966969933	-0.09445958205708262	-0.17639218061832873	-0.03381849487698278	0.12323196443839249	-0.016724504762726175	-0.031574914095809495	0.036076782002969966	-0.04789751949820751	-0.0073257278121633355	-0.03492853444382449	-0.12563838785088832	-0.14716779559663395	-0.13254221358657575	-0.2309153589694394	-0.2683590561469929	-0.12771647974554864	-0.002920448730092503	0.16256365413187585	0.17180712389066702	0.12363181388206373	0.17861046033459016	0.20787054465701887	0.2601376860855812	0.06234584021180417	-0.14633264101438853	-0.17797631969692226	-0.29647134561454563	-0.18680935561860956	-0.23694763190225168	-0.18815668875544	0.0132571266428398	0.12967196801588587	0.04137651628694835	0.007786704660048473	0.05901543865946791	0.0399597630259397	0.06259361083577313	0.03433531227502248	-0.07433865387539548	-0.23560147319526828	-0.08717069108162599	-0.06918550014402244	-0.22283647952463712	-0.07037032816082169	0.10915601546382388	0.21364142613725842	0.04919529944128008	0.17544210851267075	0.22841296740271563	0.24503136602236958	0.3448077058933366	0.11620281077752337	-0.0435199644412244	-0.26448091247642747	-0.40129456955172277	-0.35265125950734305	-0.3693146952298332	-0.16401172930387894	0.051777610265348335	0.12559001217042082	0.01717337559284857	0.007144215501846712	-0.015958269276805506	0.03777337665303395	0.030528664942916964	0.01805144640900503	-0.149634247588259	-0.3135297235064868	-0.11654979457415295	0.038566316842345	0.10321052909900874	0.05558051089616078	0.13995828099190827	0.012219031016023143	0.14845054387509762	0.20430186972737865	0.2106688045680597	0.19561583818224024	0.23584139273409455	0.181027065017439	-0.08266433289379775	-0.2719224158590633	-0.2796630884543559	-0.2843794107546025	-0.15639247790057756	0.004214412812032288	0.07881010627739382	-0.004483468988775626	0.024122067574401444	-0.04445085757004656	0.05725528070762367	0.014898485249096434	0.053930038844436916	0.07359132012202099	-0.023116259371176322	-0.13340303323969302	-0.011050222332998915	-0.18099659072190022	-0.013514157313363489	-0.04761794155296133	0.07490939681684997	0.07175438727414622	0.054962707286875474	0.10064178330436714	0.06814601550306286	0.16224518364798046	0.08435880825477891	0.08042750115646077	-0.07906791830028014	-0.14145983882296684	-0.22819457654924685	-0.15975532928110603	-0.029976166083917753	-0.03218781512246867	-0.10087064805713505	-0.00942385548414743	0.014360149936014336	-0.005816268845257974	-0.05601723454401518	0.0549822173761206	0.053922123410317206	0.028915229198573714	0.0011905487085102572	0.04174565939762394	-0.07506675385844319	-0.05808636425670941	-0.028705744002087686	-0.03620851952876979	0.06207612918431987	0.12385018195505887	0.006660181374799967	0.00460394811129367	0.10070954335346384	0.13705671158419924	0.07462628001350734	-0.04846387695374908	-0.020937960888846002	-0.11964714964023818	-0.04538504626841303	-0.08901925522262769	-0.10193800787884587	-0.030206161721114875	-0.04717022304799432	0.024199859554867597	0.07832672328313937	-0.03038346502366756	-0.03384818837342224	-0.005236884379486183	-0.0007007655648792281	-0.03868740819301863	0.026274750317608956	0.053065607578795276	0.007672610207525509	-0.010158660539316645	0.0316068747788588	0.022492148365146375	0.009974782063281866	-0.015452282661181517	-0.032156777401869834	-0.030528587981678797	-0.06756246561233922	-0.021151651033204336	-0.03021398163188108	-0.08933119272396325	-0.019228796531391614	-0.0033419384840650103	-0.03702810628152403	0.008568900492659405	0.015814962046565618	0.008741499559730448	0.04216511129579201	0.005154148854184561	0.04686675538647626	-0.04203170961647014	0.052656623299366746	0.0008403422331666813	-0.05998296640187836	0.01560202701517959	-0.004309650229628247	0.050364181851842146	0.04153010665360831	-0.05121898127888744	-0.041642091408176	-0.0657387575368884	-0.03323909148757226	-0.14038498430208163	0.00018629760015025082	-0.03332604696916711	-0.0607158492974415	0.017700659812099145	9.068063005516283e-05	-0.030099402589198375	-0.08527503720131534	-0.013901930812800877	-0.06997489852368455	-0.023835072225217694	-0.05210700150266339	-0.010488544179199555	0.04987496479279046	-0.020150823157803067	-0.0163965204321923	0.0031690946671466616	-0.01266880445696772	0.036345086612474646	0.024260603958654085	0.04091441849063933	-0.03108300833391899	-0.043956720325497016	0.014221385341972113	-0.08481936048111388	-0.0506869678328899	-0.08353338271037049	-0.02423784400655364	0.020132233228091042	0.010468493253203407	-0.03340167357794635	-0.024032803314489787	0.0031950259120259402	-0.021241376955495023	-0.05506821339781292	0.022514777131006195	0.021081709369921344	-0.05410978167232649	0.05390803856520159	-0.022100298266496055	-0.05521831651506298	-0.0363518701898876	-0.0038991644705351214	0.03822260210387798	0.05662534749839735	-0.03225065868025217	-0.04657908937374839	0.031031980079302753	0.05533081081876522	0.0489749997195294	0.047645018521516015	-0.010532082436677642	-0.08565170271214846	0.04611235662546475	-0.02789160540081451	-0.012768072919307672	0.016969954981372715	0.06162735637125121	0.032143563909031565	0.011081866306993045	-0.0039000415482053474	-0.042244274865640793	0.04337694362236671	0.011957954434766169	-0.035979794717610564	0.005144376681969346	-0.032965403434892	0.02754650303590863	0.013322410730410898	0.004426885912900573	-0.030243679291336242	-0.0074056386836862595	0.04567156652487387	0.038972511580221574	0.054291982006330876	-0.0249404739780828	-0.04471075503136342	0.038167076774490515	0.014061274892984206	0.029381980010175827	-0.043129569985098995	0.01841491147600565	0.04087160926232176	-0.05211025426270483	0.010174458629962545	0.03750928734139356	0.0032030703267310542	-0.00170656754298959	-0.044559090175175106	0.030357224815804884	0.00963163887168404	0.004230520032859742	-0.010158280180954667	-0.05413256441976524	-0.061649797675860984	0.04046129394694357	0.05931808129257916	0.006530757250527187	-0.038110802367435734	0.03456743876430118	-0.0065343373935692756	0.09031332547896613
-0.04819548289487297	-0.04069058416178028	-0.006400969918033662	-0.04570475259773095	-0.029736529198226044	-0.05280135707064165	-0.058720287338924405	0.04409837574865017	-0.03551914415648136	-0.03903370432036253	-0.027600854187627206	-0.023167182385260172	0.03433458708253966	-0.009054076525824073	-0.031266180355493334	0.036370547762959275	-0.03244089841189539	0.035752198075756796	-0.03028725049358994	-0.01700169133678829	0.03306311506838295	0.02579253687322041	-0.037542109329995084	-0.05538289537597024	0.004873033400095407	0.042425113661569515	0.03881336387632008	-0.0007504801181259027	-0.054322199029910784	-0.045843632475202165	0.04758345801137783	-0.04999435546117954	0.06055994107207872	-0.05663577676350655	0.024295166518235038	0.02991344964513052	0.04755601080314119	-0.06071426250643486	0.00844344321808691	0.03588988669394056	0.05480261443571215	-0.043867734751194536	0.026361025595674874	0.03889130632729954	-0.02694326776785981	-0.03722472689455996	-0.009381233936514376	0.0007399494971111129	0.0355360779988464	0.04411679969739191	-0.04440463128105257	3.148690982876512e-06	0.04670644579008023	0.011340263314396769	0.028873676250543802	-0.05608703933036382	-0.01624705009893774	-0.014792315421593448	-0.014150292651018172	-0.0006004513773026215	-0.02232309294410178	0.0066539726047648365	-0.029849746016159206	0.029067254493397445	-0.026798331265691394	-0.04469383627845274	0.05411716133756487	0.02843143168310921	-0.01432838349608283	-0.054500271182908316	0.02411082620671988	-0.056373239797313554	0.01906498831141446	0.021557698961438214	0.02680085195992416	-0.011728863076400295	0.052601048287510825	-0.05211556578451538	0.049033311537375425	0.025823996393096342	-0.04668678494888752	-0.029253515256077042	0.029409838984179447	0.03935473719348231	0.0165726851477355	-0.034510434564973345	0.06086662687032105	0.017494244664891058	-0.02244737233860594	-0.05403227969936974	0.04708705580686493	0.037651578811167215	-0.035488711422827154	0.014964397813569012	-0.06564652651866977	0.02877657926794673	-0.008414479908970405	-0.04493910494760387	0.019876041364944256	-0.06662056004309258	0.010191936891838319	-0.020517005134819362	0.05757634132028216	-0.04297136005117599	-0.012397196498612352	0.03783601755762163	-0.008997520836141642	0.05005477943417772	-0.041645562227219976	0.02741991449016213	-0.060671606944860866	0.026036679907026163	0.03278090815128842	-0.058436732486362705	-0.01054098378433016	0.022912492997888355	0.015187518021753627	0.04764085739014439	0.05249596224039565	0.03700854635046591	0.05990712011744221	-0.019703370808825782	-0.045726546227477634	0.07345798568506713	0.08115599058737173	-0.06070372191000374	-0.04712183962850001	0.05205371030693912	-0.03704416433044995	0.02752661023641734	-0.018932516973119987	0.0269075289332164	0.027497649791147265	0.013069293031169977	0.00993829199967232	-0.0006143013233617483	0.027841367424534937	-0.016943646195982074	-0.048256984458969754	-0.014040273855849106	0.037985411275246274	0.02357899406713907	-0.03755661253281694	-0.03477784746148506	-0.0682088326727053	0.034380189701395274	-0.012627036025317416	0.0536218355912108	-0.008940882776295777	0.017416433035692885	0.05895142299930039	0.043413163795328356	0.07265330698922833	-0.004197471886846646	0.0112446871621989	0.016238671940781657	0.05416513321717891	-0.01918074578305151	-0.0839773455998845	-0.014289224816640555	-0.07768328140172183	0.013507990176249448	0.004020881690657592	0.05258433629932992	0.038974382525374565	-0.00959190648470368	-0.003916238351432053	-0.057460854163517545	-0.01113664172898813	0.05495692509838989	0.0504312327536275	-0.04687968333458038	0.017934630953207426	-0.01533715143617805	-0.06451439794238946	0.045506944296266304	0.05774019709823283	0.15013056876910155	0.0566008169055955	0.11828118078567466	0.08526900483063711	0.06588778830545712	-0.1803426847125868	-0.12171894725519153	-0.07759039242351412	0.011052561966544193	-0.06753834330095265	-0.05177505777157549	-0.06074123924211739	0.012187545146720054	0.09243900284876758	0.0872721596888287	-0.009257761290251834	-0.04805129487860497	-0.022808375057996357	0.012239405358617124	-0.054669810016977814	0.004527813082783404	0.03877866399444977	0.01622714876614402	0.008326127074098839	-0.059267404270017005	0.01454943698190494	-0.018923004038367556	0.1746677040870733	0.1235796330348422	0.100493556547273	0.1669721259132922	0.2588312664808018	0.11008099810621388	-0.10071539276694917	-0.18590709707886358	-0.07140770529782864	-0.06975098817387815	0.009605029343328042	0.08878639433532186	-0.005219176279067068	0.14940092180628767	0.07804964794002943	0.12234915969592927	0.013874222665758369	-0.011880000172651714	-0.061894648246093927	0.05963053054418025	-0.014539211585524528	-0.0520089490549935	-0.007308501902664805	0.04545503883224041	-0.026300995389497636	-0.07868440076716396	0.02081171416912141	-0.00470695983790471	0.09391680079484749	0.07169654862235135	0.1291792645377518	0.22994329452501083	0.12803729842409667	-0.1428874834197254	0.11246479222399862	0.0037260520095699803	-0.08525843264425541	0.0028330331179002017	0.1181606737107566	0.06425536030171643	0.06867762974987271	0.1067607556841856	0.07006675332859406	0.09224876648815258	0.06997867679524424	0.01121091657804923	0.0038012948661522465	-0.03496046514878892	-0.04505941752638619	-0.0016815466941535878	0.06337131473773017	0.028183597179549276	-0.09278878967463254	-0.10280826095835909	-0.04220867042683398	0.02183569688969333	-0.07536620639919489	0.012828181682891794	0.10473568281780958	-0.0324519176312126	0.04573202663072223	0.10014158144521604	0.051404155439667434	-0.169672211579619	-0.16068460861954756	0.053892238224263575	0.007145250627511297	0.1512513716342127	0.1738665440872673	0.10410763560027253	0.028238351536167473	-0.0903966879864836	0.1060205291411869	-0.0495292801186084	-0.05565536816231935	-0.04118707284739526	-0.01085517422277743	-0.020938241982704678	0.02182097198930099	-0.05973399040411229	-0.05324409145626279	-0.14546384964981093	0.059590116498842834	-0.05027109700995491	-0.19603627548969824	-0.2202822154604786	-0.11418278799833688	0.0152980341481592	0.17250147530194126	0.030675494562322728	-0.13329526874059452	-0.30542894965182316	-0.19193648773371538	0.06192807403987408	0.013236633712869521	0.06975463910154935	0.18552159326848217	0.2174972709196856	0.13660741344428576	0.016650506767456257	-0.018581852944905528	-0.05556238372191154	0.05342105952681776	0.0076835456974011776	-0.04264901296084521	0.018538231515025948	-0.026315781366341464	-0.04769158603584479	0.03646530854679654	0.14285573226900286	0.07076123415782064	0.00911968066376277	0.1326897917942045	-0.024002409575947434	0.14433583375825076	0.16371149988154704	-0.106248205044345	-0.08480190124400916	-0.17543093407175417	-0.1588367983647821	-0.019076152677979557	0.01933150017441863	-0.040806368157682134	0.07082286067931658	0.199832947762539	0.1547431248433572	0.10657444146424991	0.16140488998225966	0.040015905511924375	0.10021869316887105	0.03125782724408899	0.028046069258407177	0.015313880809568824	0.044246273667774116	-0.008576125648908828	-0.060516766444404214	0.08404126811281756	0.19965556727108155	0.18854801383902892	0.23095424222504193	0.13390805469211017	-0.06608109918873832	-0.12088459930869898	-0.0032072199173775566	0.017843382766894626	-0.1336447242522305	-0.04436147422136697	-0.1469682557636337	-0.014083309917429622	-0.043405429657855134	-0.18811346373912682	0.08301101451057184	0.15022941228410977	0.15193507102171938	0.03269534679259099	0.048241544500484325	0.0015533245200840483	0.15959402470936726	0.15951281316344854	0.024584656443974874	0.04082382874162046	0.023275264789310596	-0.016025768714658276	0.0340179777820129	0.10443387990492399	0.07781869907626195	0.3329857163987814	0.36295901730341196	0.09751707076957208	0.023367903817222802	0.09157987102922054	0.27283325390257707	0.27656454990433077	-0.009109298059437294	-0.1691844515317286	-0.1494417055676577	0.052198166824626795	0.07730188610605034	-0.17132841093719808	0.05176041528208461	0.0697538760094101	-0.1455841461569107	-0.14316023833795008	0.08515431439879159	0.12881588494250754	0.08857419086631421	0.15030536733325361	-0.0029567735364631354	0.02128875856158676	0.04407112601138141	0.06315262966250765	0.006367963738065697	0.05942653840755536	-0.00926130988483971	0.277058337292574	0.36317038060195417	0.2809933328430084	0.1466788880217979	-0.011064627175339136	0.1616245760647711	0.15521454286086364	0.10660578947051674	-0.18093852387283638	-0.08455588707737775	-0.0617350644574202	-0.14268296062120353	-0.11398846524870092	0.06524640508572736	0.0554004577609104	0.00362175673268751	-0.04548451950715571	0.04949315541193241	0.03312492684526934	0.17354560178374245	0.18021806997249235	-0.055706096759565726	0.04438343583850398	-0.03851270602636941	-0.00013699173999023862	0.008164376901002785	-0.07769064107839478	-0.028243645115719244	0.2940589102164792	0.35448416957388246	0.15834200584508398	-0.05468444770692086	-0.17564179207602942	-0.2001736346535985	0.10332598506891734	0.1905412873429765	0.05574078426555819	-0.17781145802047593	-0.4447179510501541	-0.27495469928041116	-0.022294185887232563	-0.1506268684896258	0.04941215732226482	0.09675001852490334	-0.09964256310899625	0.011245605505695115	-0.05447949837188683	0.10741631847607894	0.16027238767563592	0.06473903746295283	0.023042577093853676	-0.00809668971700966	0.07668796194682623	0.04434520315497638	-0.11025799616066233	0.11728614338672334	0.137511490481961	0.1399957546397116	0.044450411432497894	0.09411016333241191	-0.04427265660846446	-0.04583153310315502	0.18606150504389862	0.07022070740297456	-0.051296118888823836	-0.26747014355430787	-0.3554638232396475	-0.11522399874547126	-0.05176402949437286	-0.00504042710179455	0.09407768511854075	-0.04500276928729521	-0.08953103983900429	-0.0365625263654359	0.13268654313211498	0.24172967985701138	0.06616374165318488	0.0659566892590274	0.003290548220128288	-0.012352468322411513	-0.03328871665456573	0.014827773812504146	0.014484184995335781	0.12223410993971805	0.22654864805290278	0.11417661658480645	0.038763868159080644	0.02683318570425084	0.01675005010851215	-0.014916199192718466	0.2166618242442923	0.03969584566303485	-0.00722696045154187	0.003631534217281068	-0.0965791222841824	-0.17928834485442824	-0.19496324646839858	0.08500853217858051	0.024444624182705186	-0.052823711813600065	-0.05277239318747419	0.05168110519143331	0.05135317432979409	0.31311655711636416	0.024656862348191796	-0.04869784760835575	0.008184468089092685	-0.019152983713685415	-0.057163555589629995	0.04584959154874596	0.0681891135179006	0.08570716961796875	0.14054170953726913	0.03888790663781255	0.02070182231180361	0.073124914190262	0.08036868564524405	0.16340818394007764	0.3987599627366333	0.16507234013890223	0.01983854965329904	-0.04406185040395121	-0.12329216394584734	-0.026323415044951216	0.006147463976212968	-0.0005724233970417932	-0.076368418579486	-0.15398815629855098	-0.10623214128120505	-0.09726929348373022	0.009236000560413883	0.1519136551017601	0.09868533076394101	0.016787827826579796	0.01627177141917254	0.03589813866860087	-0.03073474001190565	-0.0019223426356145936	-0.04233123121129904	0.07723526378423602	0.01042165971007823	-0.12223615045027744	0.005318115866730466	0.02940986630534057	0.08438283485164191	0.2108401464754347	0.23089696150683645	0.04135053110136282	0.04520214258637877	0.1452522529597863	-0.028711424983142098	0.029231047691315674	0.10266081045514001	0.06713661539559898	-0.027933474341703065	-0.14432371947240902	-0.11407825067322062	-0.0627171061419619	0.014587916057479236	0.10349794536954249	0.1425275212582141	0.05082626592677676	0.015229317796778906	0.05475298031271008	-0.036539664337198643	-0.029728388699416842	0.054994601250265285	-0.014546263591308917	-0.07958254169111471	-0.14296916601840806	-0.09581361507725716	0.023887493057321237	-0.027770123135902325	0.08300512084835483	0.07771625158687633	-0.001927025891955532	0.03656746515464536	-0.01142384763368199	0.01839947765764044	-0.010430475880655458	-0.10749237257229169	0.02984712834315066	0.009486674560887328	-0.08696825450305198	0.02150915275503368	0.03449091893599258	0.09468279406772981	0.08057815220161711	0.03792036982033988	-0.0543956992171206	0.031610801339907034	-0.05918416502812368	-0.030361749555076308	-0.027167755838306593	0.0004988519154718454	-0.11805639980921229	-0.1085467456549824	-0.048424959263940096	-0.03962906227231197	0.040460624963996696	-0.06481374997467997	0.07956987285240225	0.05611432372175022	-0.15891696810100486	-0.14856975193551525	-0.14026787723788028	0.012440404089977049	0.04205951408220545	-0.06411682480090271	-0.05811230062593205	-0.06568166345730533	-0.10194592229160582	-0.0034813054099109217	0.017978325382160446	-0.04211480196669539	0.060693255339150154	-0.041179859486182246	-0.04047400983494065	-0.045959336281484464	0.004716504748953888	-0.017211968099908992	-0.009863121780029882	-0.051574490175941616	0.01765798183998842	-0.11355792782592308	-0.1430446251792965	-0.01895554069802511	-0.06288870200764969	-0.03429121381875168	0.1552277843194572	0.0553147575021493	-0.0064127997372468975	0.0004950689153222334	-0.0029043486884690684	0.0013982948808151006	0.02050830085374686	0.020005271559547483	-0.07518670481716405	-0.020353477593936173	-0.11123393892942529	-0.054509164013119595	-0.04139266243249378	-0.05503484856006047	0.012403457204868034	-0.021718137579375997	0.04445219443311555	-0.0008759943193346192	-0.013846917741421313	-0.01035603556094351	0.048921576489135546	-0.012435580242509946	-0.07640273957029987	-0.05157447864361439	-0.07180755820024715	-0.22603545957623272	-0.10320448952316512	-0.08906481068138324	0.0016661756258675188	0.07099300297089409	0.025594308179798943	0.1617908424812368	-0.020785662364090077	-0.03172972225936604	-0.014412802262831837	-0.006709246758996988	-0.004651384084087409	-0.03653890737922774	0.014281216370342483	-0.0027181563398856554	0.039341062482368835	-0.03318679986737159	-0.0061625870060668456	-0.023396219056355534	0.04926061418789609	0.04831326623284395	0.00549603737310226	-0.020409487753908592	0.038530710492313464	0.04671194133132188	0.02262135399698648	-0.04913443921382072	-0.01528107236934881	-0.056760877009003716	-0.05307762277238292	-0.03869836035704588	0.041422588470174736	0.0005490249517829048	0.00615351218536861	0.005341844307128193	-0.0082724125995443	0.07540959783069098	0.057965269678001405	0.006354182935692946	0.027481813599657078	0.02635222235177958	0.04625194179341227	-0.0009044236696107403	-0.019237627764387883	-0.005657667033650909	-0.06040852281505181	-0.00922889810041494	0.0070327821513873	-0.035523363033404684	-0.027823402202347136	0.04807566617501268	-0.0009839904691506295	0.05457546746238918	0.0134284719191715	0.03181286773119606	0.015830970897226536	-0.08898668894213412	0.026033537399888156	-0.014472456791782959	0.02542088537353511	-0.04461410671515083	-0.02762397399345579	0.024277593126701347	-0.029799237215379457	-0.0365916975253938	0.07003059569481083	0.008473609439729881	0.023638272663273407	-0.018281492342543254	-0.04349501323535054	0.04221003935357988	-0.04629268712251391	-0.009789046081582705	-0.01770276122973473	-0.022794634714075807	-0.05401892042032121	-0.04827867962798663	0.0477857671103153	0.03266770619826923	-0.04519881901416795	0.03190756001069969	-0.04066217216890774	-0.015653353616562133	-0.024242213385898034	-0.06191081951134969	0.0013683902444685133	-0.011844191834504705	-0.007635360197289348	0.03237839858082369	-0.05610582916253942	0.04762080033680292	0.0395759474007362	-0.019578129522238863	0.0012222974196944305	0.0232605009725805	-0.020854377534855726	-0.05519518347896838	0.027360743150261217	-0.021792918505084233	-0.04131012729805581	-0.0336140165656349	-0.05197914680192679	-0.0003166448034037303	0.015600698753467167	-0.06132253728872201	0.03865629878060219	0.05985282317340667	-0.04734348385445954	-0.007801971520967288	-0.04686561634009927	0.005888399459890288	0.05415168227108801	0.05499280757637417	-0.01589116643772101	0.005534784941276628	0.012590530251137454	0.009551037737398842	0.012569993738354122	-0.054100730048988306	0.0005296986545174909	0.003860540162782351	0.05315814200982062	0.03367901008028428	-0.01078386988999921	0.009543910071767907	-0.02700144241177746	-0.008390449917367718	-0.026337253872946748	0.0023283087107145786	0.0017373604199226525	0.03725857970908573	0.030199822701029326	-0.376221243134044
